#pragma once
#include <cstdarg>
namespace Eloquent {
    namespace ML {
        namespace Port {
            class DecisionTree {
                public:
                    /**
                    * Predict class for features vector
                    */
                    int predict(float *x) {
                        if (x[1] <= -0.006500000134110451) {
                            if (x[0] <= 0.08700000122189522) {
                                if (x[1] <= -0.018000000156462193) {
                                    return 7;
                                }

                                else {
                                    return 2;
                                }
                            }

                            else {
                                if (x[0] <= 0.14250000566244125) {
                                    if (x[5] <= 0.009999999776482582) {
                                        return 7;
                                    }

                                    else {
                                        if (x[7] <= -0.007500000298023224) {
                                            return 3;
                                        }

                                        else {
                                            if (x[0] <= 0.12049999833106995) {
                                                return 1;
                                            }

                                            else {
                                                return 8;
                                            }
                                        }
                                    }
                                }

                                else {
                                    if (x[0] <= 0.1785000041127205) {
                                        if (x[5] <= 0.012500000186264515) {
                                            return 1;
                                        }

                                        else {
                                            if (x[0] <= 0.15299999713897705) {
                                                return 9;
                                            }

                                            else {
                                                return 0;
                                            }
                                        }
                                    }

                                    else {
                                        if (x[7] <= -0.004500000039115548) {
                                            if (x[0] <= 0.21049999445676804) {
                                                if (x[7] <= -0.006500000134110451) {
                                                    if (x[1] <= -0.019499999471008778) {
                                                        if (x[5] <= 0.012500000186264515) {
                                                            if (x[1] <= -0.020999999716877937) {
                                                                return 7;
                                                            }

                                                            else {
                                                                return 3;
                                                            }
                                                        }

                                                        else {
                                                            return 9;
                                                        }
                                                    }

                                                    else {
                                                        if (x[8] <= 0.018499999307096004) {
                                                            if (x[2] <= 0.21949999779462814) {
                                                                return 3;
                                                            }

                                                            else {
                                                                return 3;
                                                            }
                                                        }

                                                        else {
                                                            if (x[3] <= 0.010499999858438969) {
                                                                return 3;
                                                            }

                                                            else {
                                                                return 8;
                                                            }
                                                        }
                                                    }
                                                }

                                                else {
                                                    if (x[8] <= 0.0010000000474974513) {
                                                        if (x[7] <= -0.005499999970197678) {
                                                            return 3;
                                                        }

                                                        else {
                                                            return 8;
                                                        }
                                                    }

                                                    else {
                                                        if (x[5] <= 0.012500000186264515) {
                                                            if (x[8] <= 0.003000000142492354) {
                                                                return 8;
                                                            }

                                                            else {
                                                                return 8;
                                                            }
                                                        }

                                                        else {
                                                            return 0;
                                                        }
                                                    }
                                                }
                                            }

                                            else {
                                                if (x[3] <= 0.016500000841915607) {
                                                    if (x[7] <= -0.005499999970197678) {
                                                        if (x[3] <= 0.014500000048428774) {
                                                            return 9;
                                                        }

                                                        else {
                                                            if (x[1] <= -0.019499999471008778) {
                                                                return 9;
                                                            }

                                                            else {
                                                                return 3;
                                                            }
                                                        }
                                                    }

                                                    else {
                                                        return 0;
                                                    }
                                                }

                                                else {
                                                    if (x[1] <= -0.016500000841915607) {
                                                        if (x[5] <= 0.03349999897181988) {
                                                            if (x[1] <= -0.019499999471008778) {
                                                                return 7;
                                                            }

                                                            else {
                                                                return 3;
                                                            }
                                                        }

                                                        else {
                                                            if (x[8] <= 0.1444999985396862) {
                                                                return 8;
                                                            }

                                                            else {
                                                                return 3;
                                                            }
                                                        }
                                                    }

                                                    else {
                                                        if (x[7] <= -0.018000000156462193) {
                                                            if (x[0] <= 28.061500549316406) {
                                                                return 3;
                                                            }

                                                            else {
                                                                return 0;
                                                            }
                                                        }

                                                        else {
                                                            if (x[5] <= 0.010999999940395355) {
                                                                return 9;
                                                            }

                                                            else {
                                                                return 2;
                                                            }
                                                        }
                                                    }
                                                }
                                            }
                                        }

                                        else {
                                            return 0;
                                        }
                                    }
                                }
                            }
                        }

                        else {
                            if (x[1] <= -0.004500000039115548) {
                                if (x[8] <= 0.004500000039115548) {
                                    if (x[1] <= -0.005499999970197678) {
                                        if (x[7] <= -0.005499999970197678) {
                                            if (x[2] <= 0.16600000113248825) {
                                                return 5;
                                            }

                                            else {
                                                if (x[0] <= 0.17650000005960464) {
                                                    return 6;
                                                }

                                                else {
                                                    return 5;
                                                }
                                            }
                                        }

                                        else {
                                            if (x[0] <= 0.18650000542402267) {
                                                if (x[3] <= 0.016500000841915607) {
                                                    if (x[3] <= 0.015500000212341547) {
                                                        return 6;
                                                    }

                                                    else {
                                                        if (x[0] <= 0.17650000005960464) {
                                                            return 6;
                                                        }

                                                        else {
                                                            if (x[2] <= 0.14299999922513962) {
                                                                return 6;
                                                            }

                                                            else {
                                                                return 5;
                                                            }
                                                        }
                                                    }
                                                }

                                                else {
                                                    return 6;
                                                }
                                            }

                                            else {
                                                if (x[2] <= 0.16750000417232513) {
                                                    return 5;
                                                }

                                                else {
                                                    if (x[0] <= 0.19099999964237213) {
                                                        return 6;
                                                    }

                                                    else {
                                                        return 5;
                                                    }
                                                }
                                            }
                                        }
                                    }

                                    else {
                                        if (x[5] <= 0.011500000022351742) {
                                            if (x[8] <= 0.003000000142492354) {
                                                if (x[3] <= 0.017500000074505806) {
                                                    if (x[8] <= 0.0010000000474974513) {
                                                        if (x[2] <= 0.15149999409914017) {
                                                            if (x[2] <= 0.1339999958872795) {
                                                                return 5;
                                                            }

                                                            else {
                                                                return 6;
                                                            }
                                                        }

                                                        else {
                                                            return 5;
                                                        }
                                                    }

                                                    else {
                                                        return 6;
                                                    }
                                                }

                                                else {
                                                    if (x[2] <= 0.17750000208616257) {
                                                        if (x[2] <= 0.15599999576807022) {
                                                            if (x[2] <= 0.1524999961256981) {
                                                                return 5;
                                                            }

                                                            else {
                                                                return 6;
                                                            }
                                                        }

                                                        else {
                                                            return 5;
                                                        }
                                                    }

                                                    else {
                                                        return 6;
                                                    }
                                                }
                                            }

                                            else {
                                                if (x[7] <= -0.005499999970197678) {
                                                    return 5;
                                                }

                                                else {
                                                    if (x[2] <= 0.16950000077486038) {
                                                        if (x[2] <= 0.15149999409914017) {
                                                            if (x[2] <= 0.15049999952316284) {
                                                                return 6;
                                                            }

                                                            else {
                                                                return 5;
                                                            }
                                                        }

                                                        else {
                                                            return 6;
                                                        }
                                                    }

                                                    else {
                                                        if (x[9] <= 0.010499999858438969) {
                                                            return 6;
                                                        }

                                                        else {
                                                            return 5;
                                                        }
                                                    }
                                                }
                                            }
                                        }

                                        else {
                                            if (x[3] <= 0.017500000074505806) {
                                                if (x[3] <= 0.015500000212341547) {
                                                    if (x[2] <= 0.1524999961256981) {
                                                        if (x[9] <= 0.011500000022351742) {
                                                            if (x[3] <= 0.014500000048428774) {
                                                                return 5;
                                                            }

                                                            else {
                                                                return 5;
                                                            }
                                                        }

                                                        else {
                                                            if (x[3] <= 0.012500000186264515) {
                                                                return 5;
                                                            }

                                                            else {
                                                                return 5;
                                                            }
                                                        }
                                                    }

                                                    else {
                                                        return 5;
                                                    }
                                                }

                                                else {
                                                    if (x[8] <= 0.003000000142492354) {
                                                        if (x[2] <= 0.15850000083446503) {
                                                            return 5;
                                                        }

                                                        else {
                                                            if (x[2] <= 0.15949999541044235) {
                                                                return 6;
                                                            }

                                                            else {
                                                                return 5;
                                                            }
                                                        }
                                                    }

                                                    else {
                                                        if (x[9] <= 0.011500000022351742) {
                                                            if (x[2] <= 0.15149999409914017) {
                                                                return 5;
                                                            }

                                                            else {
                                                                return 5;
                                                            }
                                                        }

                                                        else {
                                                            if (x[9] <= 0.012500000186264515) {
                                                                return 6;
                                                            }

                                                            else {
                                                                return 5;
                                                            }
                                                        }
                                                    }
                                                }
                                            }

                                            else {
                                                if (x[2] <= 0.18400000035762787) {
                                                    if (x[2] <= 0.15049999952316284) {
                                                        if (x[9] <= 0.010499999858438969) {
                                                            if (x[2] <= 0.13499999791383743) {
                                                                return 5;
                                                            }

                                                            else {
                                                                return 5;
                                                            }
                                                        }

                                                        else {
                                                            if (x[0] <= 0.1834999993443489) {
                                                                return 6;
                                                            }

                                                            else {
                                                                return 5;
                                                            }
                                                        }
                                                    }

                                                    else {
                                                        if (x[2] <= 0.164000004529953) {
                                                            if (x[0] <= 0.17249999940395355) {
                                                                return 5;
                                                            }

                                                            else {
                                                                return 5;
                                                            }
                                                        }

                                                        else {
                                                            if (x[2] <= 0.17000000178813934) {
                                                                return 5;
                                                            }

                                                            else {
                                                                return 5;
                                                            }
                                                        }
                                                    }
                                                }

                                                else {
                                                    return 6;
                                                }
                                            }
                                        }
                                    }
                                }

                                else {
                                    if (x[1] <= -0.005499999970197678) {
                                        if (x[0] <= 2.1350000724196434) {
                                            return 6;
                                        }

                                        else {
                                            return 2;
                                        }
                                    }

                                    else {
                                        if (x[5] <= 0.011500000022351742) {
                                            if (x[3] <= 0.03150000050663948) {
                                                if (x[8] <= 0.011500000022351742) {
                                                    if (x[0] <= 0.13749999925494194) {
                                                        return 5;
                                                    }

                                                    else {
                                                        if (x[3] <= 0.017500000074505806) {
                                                            if (x[3] <= 0.011500000022351742) {
                                                                return 6;
                                                            }

                                                            else {
                                                                return 6;
                                                            }
                                                        }

                                                        else {
                                                            if (x[9] <= 0.006000000052154064) {
                                                                return 5;
                                                            }

                                                            else {
                                                                return 6;
                                                            }
                                                        }
                                                    }
                                                }

                                                else {
                                                    if (x[2] <= 0.15049999952316284) {
                                                        if (x[2] <= 0.13749999552965164) {
                                                            if (x[2] <= 0.10949999839067459) {
                                                                return 5;
                                                            }

                                                            else {
                                                                return 6;
                                                            }
                                                        }

                                                        else {
                                                            if (x[9] <= 0.013999999966472387) {
                                                                return 6;
                                                            }

                                                            else {
                                                                return 5;
                                                            }
                                                        }
                                                    }

                                                    else {
                                                        if (x[0] <= 0.18149999529123306) {
                                                            if (x[6] <= 0.0005000000237487257) {
                                                                return 6;
                                                            }

                                                            else {
                                                                return 6;
                                                            }
                                                        }

                                                        else {
                                                            return 5;
                                                        }
                                                    }
                                                }
                                            }

                                            else {
                                                if (x[9] <= 0.17800000309944153) {
                                                    if (x[2] <= 0.31049999594688416) {
                                                        if (x[7] <= -0.007000000216066837) {
                                                            return 6;
                                                        }

                                                        else {
                                                            return 5;
                                                        }
                                                    }

                                                    else {
                                                        if (x[0] <= 36.75800036638975) {
                                                            if (x[9] <= 0.07750000059604645) {
                                                                return 5;
                                                            }

                                                            else {
                                                                return 6;
                                                            }
                                                        }

                                                        else {
                                                            return 0;
                                                        }
                                                    }
                                                }

                                                else {
                                                    return 6;
                                                }
                                            }
                                        }

                                        else {
                                            if (x[3] <= 0.015500000212341547) {
                                                if (x[8] <= 0.011500000022351742) {
                                                    if (x[3] <= 0.013500000350177288) {
                                                        return 5;
                                                    }

                                                    else {
                                                        if (x[2] <= 0.18150000274181366) {
                                                            if (x[2] <= 0.14549999684095383) {
                                                                return 5;
                                                            }

                                                            else {
                                                                return 5;
                                                            }
                                                        }

                                                        else {
                                                            return 6;
                                                        }
                                                    }
                                                }

                                                else {
                                                    if (x[0] <= 0.1899999976158142) {
                                                        if (x[9] <= 0.014500000048428774) {
                                                            return 6;
                                                        }

                                                        else {
                                                            if (x[8] <= 0.013000000268220901) {
                                                                return 6;
                                                            }

                                                            else {
                                                                return 5;
                                                            }
                                                        }
                                                    }

                                                    else {
                                                        return 5;
                                                    }
                                                }
                                            }

                                            else {
                                                if (x[7] <= -0.005499999970197678) {
                                                    if (x[0] <= 1.8499999716877937) {
                                                        return 5;
                                                    }

                                                    else {
                                                        return 2;
                                                    }
                                                }

                                                else {
                                                    if (x[2] <= 0.1444999948143959) {
                                                        if (x[2] <= 0.10649999976158142) {
                                                            return 5;
                                                        }

                                                        else {
                                                            if (x[8] <= 0.009499999694526196) {
                                                                return 6;
                                                            }

                                                            else {
                                                                return 6;
                                                            }
                                                        }
                                                    }

                                                    else {
                                                        if (x[8] <= 0.013500000350177288) {
                                                            if (x[2] <= 0.18849999457597733) {
                                                                return 6;
                                                            }

                                                            else {
                                                                return 6;
                                                            }
                                                        }

                                                        else {
                                                            if (x[8] <= 0.014500000048428774) {
                                                                return 5;
                                                            }

                                                            else {
                                                                return 6;
                                                            }
                                                        }
                                                    }
                                                }
                                            }
                                        }
                                    }
                                }
                            }

                            else {
                                if (x[1] <= 0.0035000001080334187) {
                                    if (x[3] <= 0.5450000166893005) {
                                        if (x[7] <= -0.005499999970197678) {
                                            if (x[1] <= -0.0005000000237487257) {
                                                return 4;
                                            }

                                            else {
                                                if (x[8] <= 1.1179999709129333) {
                                                    return 7;
                                                }

                                                else {
                                                    return 4;
                                                }
                                            }
                                        }

                                        else {
                                            if (x[0] <= 0.14649999886751175) {
                                                return 4;
                                            }

                                            else {
                                                return 5;
                                            }
                                        }
                                    }

                                    else {
                                        if (x[0] <= 29.505000114440918) {
                                            return 2;
                                        }

                                        else {
                                            if (x[5] <= -0.05050000175833702) {
                                                return 0;
                                            }

                                            else {
                                                return 3;
                                            }
                                        }
                                    }
                                }

                                else {
                                    if (x[0] <= 0.06350000202655792) {
                                        if (x[7] <= -0.006500000134110451) {
                                            if (x[1] <= 0.005499999970197678) {
                                                if (x[2] <= 0.2135000005364418) {
                                                    if (x[3] <= 0.003000000142492354) {
                                                        if (x[8] <= 0.010499999858438969) {
                                                            if (x[2] <= 0.15450000017881393) {
                                                                return 10;
                                                            }

                                                            else {
                                                                return 10;
                                                            }
                                                        }

                                                        else {
                                                            if (x[2] <= 0.1394999995827675) {
                                                                return 10;
                                                            }

                                                            else {
                                                                return 10;
                                                            }
                                                        }
                                                    }

                                                    else {
                                                        return 10;
                                                    }
                                                }

                                                else {
                                                    if (x[2] <= 0.21549999713897705) {
                                                        return 11;
                                                    }

                                                    else {
                                                        return 10;
                                                    }
                                                }
                                            }

                                            else {
                                                if (x[8] <= 0.00849999999627471) {
                                                    if (x[1] <= 0.007499999832361937) {
                                                        return 11;
                                                    }

                                                    else {
                                                        return 10;
                                                    }
                                                }

                                                else {
                                                    if (x[1] <= 0.006500000134110451) {
                                                        if (x[0] <= 0.0625) {
                                                            return 10;
                                                        }

                                                        else {
                                                            if (x[9] <= 0.00849999999627471) {
                                                                return 10;
                                                            }

                                                            else {
                                                                return 10;
                                                            }
                                                        }
                                                    }

                                                    else {
                                                        return 10;
                                                    }
                                                }
                                            }
                                        }

                                        else {
                                            if (x[3] <= 0.00949999992735684) {
                                                return 11;
                                            }

                                            else {
                                                return 10;
                                            }
                                        }
                                    }

                                    else {
                                        if (x[6] <= 0.0005000000237487257) {
                                            if (x[1] <= 0.006500000134110451) {
                                                if (x[1] <= 0.005499999970197678) {
                                                    if (x[8] <= 0.005000000121071935) {
                                                        if (x[2] <= 0.17499999701976776) {
                                                            return 11;
                                                        }

                                                        else {
                                                            if (x[8] <= 0.0020000000949949026) {
                                                                return 10;
                                                            }

                                                            else {
                                                                return 11;
                                                            }
                                                        }
                                                    }

                                                    else {
                                                        if (x[0] <= 0.06750000268220901) {
                                                            if (x[2] <= 0.1705000028014183) {
                                                                return 10;
                                                            }

                                                            else {
                                                                return 11;
                                                            }
                                                        }

                                                        else {
                                                            if (x[2] <= 1.0349999964237213) {
                                                                return 11;
                                                            }

                                                            else {
                                                                return 4;
                                                            }
                                                        }
                                                    }
                                                }

                                                else {
                                                    if (x[8] <= 0.19049999490380287) {
                                                        if (x[2] <= 0.17750000208616257) {
                                                            return 11;
                                                        }

                                                        else {
                                                            if (x[0] <= 0.06650000065565109) {
                                                                return 11;
                                                            }

                                                            else {
                                                                return 11;
                                                            }
                                                        }
                                                    }

                                                    else {
                                                        if (x[0] <= 122.19800072908401) {
                                                            return 4;
                                                        }

                                                        else {
                                                            return 3;
                                                        }
                                                    }
                                                }
                                            }

                                            else {
                                                if (x[0] <= 0.08249999955296516) {
                                                    if (x[2] <= 0.21549999713897705) {
                                                        if (x[1] <= 0.007500000298023224) {
                                                            if (x[8] <= 0.013000000268220901) {
                                                                return 11;
                                                            }

                                                            else {
                                                                return 10;
                                                            }
                                                        }

                                                        else {
                                                            return 10;
                                                        }
                                                    }

                                                    else {
                                                        if (x[2] <= 0.23499999940395355) {
                                                            return 11;
                                                        }

                                                        else {
                                                            return 10;
                                                        }
                                                    }
                                                }

                                                else {
                                                    if (x[7] <= -0.25599999725818634) {
                                                        return 7;
                                                    }

                                                    else {
                                                        if (x[5] <= 0.007000000216066837) {
                                                            if (x[5] <= 0.003000000142492354) {
                                                                return 8;
                                                            }

                                                            else {
                                                                return 4;
                                                            }
                                                        }

                                                        else {
                                                            if (x[2] <= 0.8004999756813049) {
                                                                return 11;
                                                            }

                                                            else {
                                                                return 10;
                                                            }
                                                        }
                                                    }
                                                }
                                            }
                                        }

                                        else {
                                            if (x[0] <= 0.06750000268220901) {
                                                if (x[1] <= 0.005499999970197678) {
                                                    if (x[0] <= 0.06549999862909317) {
                                                        if (x[3] <= 0.006500000134110451) {
                                                            if (x[0] <= 0.06450000032782555) {
                                                                return 10;
                                                            }

                                                            else {
                                                                return 11;
                                                            }
                                                        }

                                                        else {
                                                            return 10;
                                                        }
                                                    }

                                                    else {
                                                        if (x[8] <= 0.014500000048428774) {
                                                            return 11;
                                                        }

                                                        else {
                                                            if (x[3] <= 0.0010000000474974513) {
                                                                return 10;
                                                            }

                                                            else {
                                                                return 10;
                                                            }
                                                        }
                                                    }
                                                }

                                                else {
                                                    if (x[1] <= 0.006500000134110451) {
                                                        if (x[8] <= 0.016500000841915607) {
                                                            if (x[0] <= 0.06650000065565109) {
                                                                return 11;
                                                            }

                                                            else {
                                                                return 11;
                                                            }
                                                        }

                                                        else {
                                                            if (x[0] <= 0.06549999862909317) {
                                                                return 11;
                                                            }

                                                            else {
                                                                return 10;
                                                            }
                                                        }
                                                    }

                                                    else {
                                                        if (x[7] <= -0.00849999999627471) {
                                                            return 11;
                                                        }

                                                        else {
                                                            return 10;
                                                        }
                                                    }
                                                }
                                            }

                                            else {
                                                if (x[8] <= 0.04600000008940697) {
                                                    if (x[1] <= 0.006500000134110451) {
                                                        if (x[3] <= 0.003000000142492354) {
                                                            if (x[9] <= 0.010999999940395355) {
                                                                return 11;
                                                            }

                                                            else {
                                                                return 10;
                                                            }
                                                        }

                                                        else {
                                                            if (x[8] <= 0.017500000074505806) {
                                                                return 11;
                                                            }

                                                            else {
                                                                return 11;
                                                            }
                                                        }
                                                    }

                                                    else {
                                                        if (x[2] <= 1.746999979019165) {
                                                            if (x[0] <= 0.8019999861717224) {
                                                                return 10;
                                                            }

                                                            else {
                                                                return 11;
                                                            }
                                                        }

                                                        else {
                                                            if (x[1] <= 0.03999999910593033) {
                                                                return 10;
                                                            }

                                                            else {
                                                                return 8;
                                                            }
                                                        }
                                                    }
                                                }

                                                else {
                                                    if (x[8] <= 0.9744999818503857) {
                                                        return 8;
                                                    }

                                                    else {
                                                        if (x[1] <= 0.025500000454485416) {
                                                            if (x[7] <= -0.7854999750852585) {
                                                                return 4;
                                                            }

                                                            else {
                                                                return 7;
                                                            }
                                                        }

                                                        else {
                                                            return 7;
                                                        }
                                                    }
                                                }
                                            }
                                        }
                                    }
                                }
                            }
                        }
                    }

                protected:
                };
            }
        }
    }