accl_x,ag_x_max,ag_x_mean,RMS_ag_x,ag_x_min,FFT_g_x,FFT_ag_y,FFT_g_z,E_ag_x,E_ag_z,th_x,SVM_a,FFT_ag_x,IQR_g_z,accl_z,th_z,FFT_g_y,accl_y,th_y,RMS_ag_y,ag_y_mean,ag_y_max,ag_y_min,CM_a,SMA_a,STD_g_y,VAR_g_y,ag_z_min,RMS_ag_z,g_x_max,ag_z_max,ag_z_mean,CM_g,MAD_g_y,VAR_g_x,VAR_ag_y,IQR_g_x,IQR_ag_x,IQR_g_y,g_z_max,MAD_g_z,VAR_ag_x,MAD_ag_y,g_y_max,g_z_mean,STD_ag_y,g_x_min,STD_g_z,STD_g_x,IQR_ag_y,VAR_g_z,g_x_mean,MAD_g_x,MAD_ag_x,E_ag_y,E_g_x,STD_ag_x,RMS_g_x,SVM_g,RMS_g_z,g_z_min,g_y_min,E_g_z,FFT_ag_z,RMS_g_y,SMA_g,IQR_ag_z,g_y_mean,STD_ag_z,MAD_ag_z,E_g_y,jerk_z,VAR_ag_z,jerk_x,jerk_y
0.001,-0.838,-0.863,0.863,-0.882,-0.288,-0.012,-0.053,7.455,1.876,2.617,1.0,0.027,0.049,0.0,2.016,0.303,-0.0,1.31,0.254,0.254,0.274,0.213,0.458,1.55,0.067,0.004,-0.456,0.433,0.117,-0.419,-0.433,0.03,0.046,0.006,0.0,0.042,0.004,0.037,0.038,0.025,0.0,0.013,0.172,0.006,0.017,-0.176,0.027,0.08,0.017,0.001,-0.016,0.055,0.01,0.646,0.066,0.013,0.081,0.055,0.027,-0.035,-0.083,0.007,-0.041,0.07,0.136,0.006,0.021,0.011,0.008,0.049,-0.0,0.0,0.0,0.001
-0.0,-0.859,-0.864,0.865,-0.869,0.014,-0.005,-0.018,7.474,1.862,2.617,1.0,0.002,0.004,-0.0,2.017,0.035,0.0,1.312,0.256,0.256,0.259,0.253,0.457,1.552,0.008,0.0,-0.438,0.432,-0.008,-0.425,-0.431,0.016,0.006,0.0,0.0,0.005,0.001,0.007,-0.011,0.003,0.0,0.002,0.038,-0.016,0.002,-0.02,0.004,0.004,0.003,0.0,-0.015,0.003,0.002,0.656,0.002,0.002,0.015,0.028,0.017,-0.026,0.008,0.003,-0.008,0.019,0.049,0.003,0.018,0.004,0.003,0.004,-0.0,0.0,0.0,-0.0
-0.0,-0.86,-0.862,0.862,-0.864,0.004,0.006,-0.016,7.43,1.907,2.611,1.0,0.008,0.004,-0.0,2.023,-0.007,-0.0,1.312,0.255,0.255,0.257,0.253,0.458,1.554,0.006,0.0,-0.441,0.437,-0.01,-0.435,-0.437,0.015,0.005,0.0,0.0,0.002,0.002,0.008,-0.008,0.003,0.0,0.001,0.034,-0.015,0.001,-0.015,0.004,0.002,0.003,0.0,-0.012,0.001,0.001,0.652,0.002,0.001,0.012,0.028,0.016,-0.023,0.011,0.003,-0.004,0.02,0.047,0.002,0.019,0.002,0.001,0.004,-0.0,0.0,0.0,-0.0
0.0,-0.854,-0.858,0.858,-0.861,-0.008,0.002,-0.013,7.365,1.958,2.604,0.999,-0.001,0.005,0.0,2.029,-0.057,-0.0,1.312,0.257,0.257,0.258,0.255,0.46,1.557,0.016,0.0,-0.449,0.443,-0.01,-0.437,-0.442,0.013,0.012,0.0,0.0,0.004,0.004,0.011,-0.007,0.003,0.0,0.001,0.031,-0.016,0.001,-0.026,0.004,0.005,0.002,0.0,-0.016,0.004,0.002,0.659,0.003,0.002,0.017,0.027,0.016,-0.021,-0.031,0.003,0.002,0.018,0.047,0.003,0.007,0.003,0.002,0.003,-0.0,0.0,0.0,0.0
0.0,-0.854,-0.863,0.863,-0.866,-0.018,-0.003,-0.009,7.453,1.858,2.617,1.0,-0.012,0.007,0.0,2.015,-0.036,0.0,1.309,0.259,0.259,0.26,0.256,0.458,1.553,0.013,0.0,-0.44,0.431,-0.006,-0.428,-0.431,0.012,0.011,0.0,0.0,0.005,0.001,0.017,-0.011,0.004,0.0,0.001,0.023,-0.018,0.001,-0.026,0.005,0.005,0.002,0.0,-0.017,0.004,0.003,0.669,0.003,0.003,0.018,0.026,0.019,-0.027,-0.021,0.004,0.009,0.013,0.046,0.002,0.003,0.003,0.002,0.002,0.0,0.0,-0.0,-0.0
0.0,-0.866,-0.869,0.869,-0.873,-0.014,-0.001,-0.018,7.548,1.783,2.624,1.0,-0.001,0.005,0.0,2.008,-0.01,0.0,1.312,0.257,0.257,0.258,0.255,0.455,1.548,0.008,0.0,-0.427,0.422,-0.009,-0.418,-0.422,0.012,0.006,0.0,0.0,0.003,0.003,0.006,-0.01,0.004,0.0,0.001,0.025,-0.015,0.001,-0.024,0.004,0.004,0.002,0.0,-0.014,0.004,0.002,0.659,0.002,0.002,0.014,0.022,0.016,-0.024,-0.005,0.003,-0.009,0.012,0.04,0.004,0.01,0.003,0.002,0.002,0.0,0.0,-0.0,0.0
-0.0,-0.863,-0.868,0.868,-0.871,0.003,0.0,-0.011,7.533,1.792,2.624,0.999,0.005,0.002,-0.0,2.008,-0.002,-0.0,1.311,0.256,0.256,0.258,0.255,0.455,1.548,0.005,0.0,-0.425,0.423,-0.011,-0.421,-0.423,0.012,0.003,0.0,0.0,0.002,0.003,0.003,-0.01,0.002,0.0,0.001,0.024,-0.016,0.001,-0.014,0.003,0.001,0.001,0.0,-0.012,0.001,0.002,0.657,0.001,0.002,0.012,0.023,0.017,-0.021,0.007,0.003,0.0,0.012,0.039,0.002,0.011,0.001,0.001,0.001,-0.0,0.0,0.0,-0.0
0.0,-0.865,-0.868,0.868,-0.871,0.001,-0.001,0.005,7.541,1.794,2.625,1.0,-0.003,0.003,0.0,2.008,-0.012,0.0,1.312,0.256,0.256,0.257,0.255,0.454,1.548,0.003,0.0,-0.428,0.424,-0.011,-0.419,-0.424,0.014,0.002,0.0,0.0,0.001,0.002,0.003,-0.013,0.002,0.0,0.001,0.019,-0.016,0.001,-0.015,0.002,0.001,0.001,0.0,-0.013,0.001,0.001,0.654,0.002,0.002,0.013,0.024,0.016,-0.019,0.009,0.003,0.002,0.014,0.042,0.002,0.014,0.002,0.002,0.002,-0.0,0.0,-0.0,0.0
-0.0,-0.865,-0.867,0.867,-0.87,-0.002,-0.001,0.002,7.524,1.811,2.622,0.999,0.003,0.002,-0.0,2.01,0.017,0.0,1.312,0.256,0.256,0.257,0.254,0.455,1.549,0.006,0.0,-0.429,0.426,-0.008,-0.422,-0.426,0.013,0.004,0.0,0.0,0.003,0.003,0.006,-0.011,0.002,0.0,0.001,0.027,-0.015,0.001,-0.017,0.002,0.003,0.002,0.0,-0.011,0.002,0.001,0.655,0.001,0.002,0.012,0.025,0.015,-0.02,0.007,0.002,-0.0,0.017,0.042,0.003,0.016,0.002,0.002,0.003,-0.0,0.0,0.0,-0.0
-0.0,-0.862,-0.866,0.866,-0.868,-0.004,-0.007,0.001,7.496,1.832,2.619,1.0,0.006,0.002,-0.0,2.013,-0.005,-0.0,1.31,0.257,0.257,0.259,0.254,0.457,1.551,0.004,0.0,-0.431,0.428,-0.011,-0.427,-0.428,0.013,0.003,0.0,0.0,0.002,0.002,0.003,-0.01,0.002,0.0,0.001,0.026,-0.014,0.002,-0.014,0.002,0.001,0.002,0.0,-0.012,0.001,0.001,0.661,0.001,0.002,0.012,0.022,0.014,-0.017,0.01,0.002,-0.003,0.014,0.04,0.001,0.014,0.001,0.001,0.002,-0.0,0.0,0.0,-0.0
0.0,-0.855,-0.865,0.865,-0.87,-0.014,-0.002,0.023,7.489,1.827,2.619,0.999,-0.017,0.008,0.0,2.013,-0.0,0.0,1.312,0.256,0.256,0.26,0.253,0.456,1.549,0.009,0.0,-0.439,0.427,-0.003,-0.421,-0.427,0.012,0.008,0.0,0.0,0.008,0.004,0.016,-0.01,0.004,0.0,0.002,0.019,-0.015,0.002,-0.022,0.004,0.006,0.003,0.0,-0.014,0.005,0.003,0.657,0.002,0.004,0.016,0.024,0.016,-0.022,-0.006,0.003,0.019,0.011,0.04,0.003,0.007,0.005,0.004,0.001,0.0,0.0,0.0,0.0
0.0,-0.863,-0.868,0.868,-0.869,-0.009,0.004,0.011,7.526,1.784,2.622,0.999,-0.002,0.007,0.0,2.008,-0.001,0.0,1.308,0.259,0.259,0.261,0.257,0.456,1.549,0.003,0.0,-0.427,0.422,-0.007,-0.418,-0.422,0.013,0.002,0.0,0.0,0.003,0.002,0.001,-0.009,0.003,0.0,0.001,0.022,-0.014,0.001,-0.019,0.004,0.004,0.003,0.0,-0.012,0.003,0.001,0.672,0.002,0.002,0.012,0.024,0.014,-0.02,0.011,0.002,0.007,0.015,0.041,0.004,0.015,0.003,0.002,0.002,0.0,0.0,0.0,0.0
-0.0,-0.861,-0.866,0.866,-0.87,0.01,0.001,-0.017,7.507,1.816,2.62,1.0,0.008,0.005,-0.0,2.011,0.005,-0.0,1.31,0.257,0.257,0.26,0.254,0.456,1.55,0.005,0.0,-0.431,0.426,-0.003,-0.421,-0.426,0.014,0.004,0.0,0.0,0.002,0.003,0.004,-0.013,0.003,0.0,0.001,0.028,-0.017,0.002,-0.015,0.003,0.003,0.001,0.0,-0.011,0.002,0.002,0.662,0.001,0.003,0.011,0.026,0.017,-0.023,0.011,0.003,-0.004,0.017,0.044,0.002,0.016,0.003,0.002,0.003,-0.0,0.0,0.0,-0.0
0.0,-0.86,-0.865,0.865,-0.87,0.001,0.001,-0.01,7.489,1.835,2.619,1.0,-0.001,0.005,0.0,2.014,-0.016,-0.0,1.311,0.257,0.257,0.26,0.255,0.456,1.55,0.005,0.0,-0.434,0.428,-0.01,-0.422,-0.428,0.012,0.005,0.0,0.0,0.004,0.001,0.007,-0.009,0.003,0.0,0.001,0.023,-0.014,0.002,-0.017,0.003,0.003,0.003,0.0,-0.014,0.002,0.002,0.659,0.002,0.002,0.014,0.024,0.015,-0.018,0.006,0.002,0.001,0.013,0.04,0.002,0.012,0.003,0.002,0.002,-0.0,0.0,-0.0,0.0
0.0,-0.86,-0.865,0.865,-0.868,0.03,0.003,-0.009,7.477,1.839,2.616,1.0,-0.01,0.004,0.0,2.013,-0.001,0.0,1.308,0.26,0.26,0.265,0.256,0.459,1.554,0.007,0.0,-0.436,0.429,0.001,-0.424,-0.429,0.012,0.005,0.0,0.0,0.011,0.002,0.008,-0.007,0.003,0.0,0.002,0.031,-0.012,0.002,-0.025,0.003,0.008,0.003,0.0,-0.014,0.007,0.002,0.678,0.002,0.002,0.016,0.024,0.013,-0.017,0.006,0.002,0.013,0.017,0.041,0.004,0.015,0.004,0.003,0.003,0.0,0.0,-0.0,0.0
0.0,-0.856,-0.861,0.861,-0.865,-0.002,-0.01,-0.016,7.412,1.901,2.609,0.999,0.002,0.011,-0.0,2.021,0.039,0.0,1.307,0.26,0.26,0.263,0.255,0.46,1.557,0.011,0.0,-0.444,0.436,0.012,-0.427,-0.436,0.012,0.01,0.0,0.0,0.012,0.004,0.017,0.007,0.009,0.0,0.002,0.035,-0.014,0.002,-0.008,0.011,0.007,0.003,0.0,0.002,0.006,0.002,0.675,0.001,0.003,0.007,0.026,0.018,-0.031,0.002,0.003,-0.002,0.022,0.04,0.004,0.019,0.004,0.003,0.005,-0.0,0.0,0.0,-0.0
-0.0,-0.857,-0.86,0.861,-0.865,-0.034,-0.008,-0.002,7.405,1.944,2.608,1.0,-0.005,0.008,-0.0,2.029,0.023,0.0,1.315,0.255,0.254,0.267,0.249,0.458,1.556,0.006,0.0,-0.445,0.441,0.009,-0.435,-0.441,0.014,0.005,0.0,0.0,0.02,0.003,0.008,-0.009,0.005,0.0,0.003,0.019,-0.016,0.005,-0.035,0.005,0.013,0.003,0.0,-0.017,0.011,0.002,0.648,0.004,0.002,0.021,0.03,0.017,-0.024,0.0,0.003,-0.004,0.014,0.048,0.003,0.013,0.003,0.002,0.002,-0.0,0.0,0.0,-0.0
-0.0,-0.857,-0.86,0.86,-0.868,-0.035,0.001,-0.0,7.396,1.948,2.606,0.999,0.003,0.01,-0.0,2.03,0.059,0.0,1.314,0.254,0.254,0.26,0.249,0.459,1.555,0.013,0.0,-0.445,0.441,0.01,-0.437,-0.441,0.014,0.01,0.0,0.0,0.009,0.004,0.01,-0.012,0.005,0.0,0.002,0.041,-0.021,0.003,-0.023,0.006,0.009,0.004,0.0,-0.008,0.007,0.003,0.644,0.001,0.004,0.012,0.03,0.022,-0.029,-0.006,0.005,0.002,0.02,0.048,0.005,0.015,0.003,0.003,0.004,-0.0,0.0,0.0,-0.0
0.0,-0.857,-0.86,0.86,-0.863,-0.004,0.003,-0.007,7.389,1.971,2.608,0.998,-0.002,0.004,0.0,2.032,-0.023,-0.0,1.32,0.247,0.247,0.25,0.245,0.455,1.551,0.004,0.0,-0.447,0.444,0.001,-0.44,-0.444,0.014,0.004,0.0,0.0,0.006,0.003,0.006,-0.012,0.003,0.0,0.001,0.024,-0.017,0.001,-0.019,0.003,0.005,0.002,0.0,-0.011,0.004,0.001,0.611,0.001,0.002,0.012,0.027,0.018,-0.024,0.01,0.003,0.003,0.016,0.044,0.002,0.015,0.002,0.002,0.003,0.0,0.0,-0.0,0.0
0.0,-0.854,-0.86,0.86,-0.863,-0.012,0.014,-0.015,7.4,1.98,2.608,0.999,-0.003,0.007,0.0,2.032,0.021,0.0,1.324,0.245,0.245,0.253,0.237,0.454,1.55,0.009,0.0,-0.452,0.445,0.009,-0.441,-0.445,0.012,0.007,0.0,0.0,0.013,0.003,0.005,-0.003,0.005,0.0,0.003,0.023,-0.015,0.005,-0.032,0.006,0.012,0.003,0.0,-0.008,0.01,0.002,0.602,0.002,0.003,0.014,0.026,0.017,-0.024,-0.009,0.003,0.014,0.014,0.039,0.003,0.011,0.003,0.002,0.002,0.0,0.0,-0.0,-0.0
-0.0,-0.857,-0.86,0.86,-0.862,0.011,-0.003,-0.02,7.398,1.994,2.608,0.999,0.002,0.007,-0.0,2.034,0.012,0.0,1.324,0.244,0.244,0.247,0.241,0.454,1.551,0.005,0.0,-0.452,0.447,-0.005,-0.443,-0.446,0.012,0.003,0.0,0.0,0.009,0.002,0.004,-0.006,0.004,0.0,0.002,0.025,-0.015,0.002,-0.02,0.005,0.005,0.004,0.0,-0.012,0.005,0.001,0.595,0.002,0.001,0.013,0.022,0.016,-0.023,0.008,0.002,-0.006,0.015,0.04,0.002,0.014,0.002,0.002,0.002,-0.0,0.0,0.0,-0.0
-0.0,-0.857,-0.86,0.86,-0.862,0.008,-0.0,0.002,7.389,2.011,2.606,1.0,0.001,0.003,-0.0,2.035,0.024,0.0,1.324,0.244,0.244,0.248,0.241,0.455,1.552,0.005,0.0,-0.451,0.448,-0.005,-0.447,-0.448,0.012,0.004,0.0,0.0,0.004,0.002,0.004,-0.01,0.003,0.0,0.001,0.025,-0.016,0.002,-0.018,0.004,0.004,0.002,0.0,-0.011,0.003,0.001,0.595,0.001,0.001,0.012,0.022,0.016,-0.023,0.006,0.003,-0.004,0.014,0.039,0.001,0.013,0.001,0.001,0.002,-0.0,0.0,0.0,-0.0
-0.0,-0.857,-0.859,0.859,-0.862,-0.009,-0.005,-0.002,7.379,2.013,2.606,0.999,-0.002,0.003,0.0,2.037,-0.011,0.0,1.325,0.243,0.243,0.245,0.239,0.454,1.55,0.004,0.0,-0.453,0.449,-0.002,-0.445,-0.449,0.013,0.003,0.0,0.0,0.01,0.002,0.003,-0.008,0.003,0.0,0.001,0.021,-0.015,0.002,-0.022,0.004,0.006,0.002,0.0,-0.013,0.006,0.001,0.59,0.002,0.001,0.014,0.025,0.016,-0.021,0.008,0.002,0.004,0.015,0.043,0.001,0.015,0.002,0.002,0.002,0.0,0.0,-0.0,-0.0
0.0,-0.853,-0.857,0.857,-0.859,0.021,0.001,0.007,7.35,2.025,2.603,0.999,-0.002,0.003,0.0,2.038,0.005,0.0,1.322,0.246,0.246,0.248,0.241,0.456,1.553,0.004,0.0,-0.454,0.45,-0.002,-0.447,-0.45,0.013,0.003,0.0,0.0,0.008,0.002,0.006,-0.008,0.002,0.0,0.002,0.018,-0.013,0.002,-0.019,0.003,0.005,0.003,0.0,-0.013,0.004,0.001,0.603,0.002,0.002,0.014,0.024,0.013,-0.018,0.006,0.002,0.005,0.015,0.04,0.002,0.014,0.002,0.001,0.002,0.0,0.0,0.0,0.0
-0.0,-0.854,-0.858,0.858,-0.861,-0.01,0.0,-0.024,7.357,2.026,2.602,0.999,-0.002,0.006,-0.0,2.037,0.031,-0.0,1.32,0.247,0.247,0.25,0.242,0.457,1.555,0.005,0.0,-0.456,0.45,-0.007,-0.446,-0.45,0.009,0.005,0.0,0.0,0.004,0.003,0.01,-0.005,0.004,0.0,0.002,0.016,-0.012,0.002,-0.018,0.004,0.003,0.002,0.0,-0.012,0.003,0.002,0.611,0.002,0.002,0.013,0.019,0.012,-0.016,0.001,0.002,0.003,0.01,0.032,0.005,0.008,0.003,0.003,0.001,0.0,0.0,-0.0,0.0
0.0,-0.851,-0.857,0.857,-0.86,-0.032,-0.018,0.016,7.341,2.021,2.601,1.0,0.007,0.016,0.0,2.035,-0.063,-0.0,1.316,0.252,0.252,0.257,0.246,0.46,1.558,0.014,0.0,-0.458,0.45,0.001,-0.444,-0.45,0.01,0.012,0.0,0.0,0.008,0.004,0.02,0.0,0.01,0.0,0.003,0.049,-0.016,0.004,-0.03,0.012,0.008,0.005,0.0,-0.011,0.006,0.002,0.633,0.002,0.003,0.014,0.033,0.02,-0.036,0.002,0.004,-0.016,0.022,0.044,0.009,0.017,0.005,0.005,0.005,-0.0,0.0,0.0,0.0
-0.0,-0.854,-0.857,0.857,-0.861,-0.047,-0.012,-0.005,7.35,2.034,2.601,1.0,-0.007,0.003,-0.0,2.038,-0.039,0.0,1.322,0.246,0.246,0.252,0.242,0.456,1.554,0.01,0.0,-0.456,0.451,0.003,-0.447,-0.451,0.011,0.008,0.0,0.0,0.011,0.004,0.012,-0.009,0.003,0.0,0.002,0.025,-0.016,0.003,-0.022,0.004,0.008,0.002,0.0,-0.009,0.007,0.002,0.605,0.001,0.002,0.012,0.024,0.017,-0.026,-0.008,0.003,0.012,0.014,0.038,0.005,0.009,0.003,0.003,0.002,0.0,0.0,-0.0,-0.0
-0.0,-0.85,-0.857,0.857,-0.861,-0.053,0.022,-0.003,7.351,2.042,2.603,0.999,-0.004,0.018,-0.0,2.041,0.006,0.0,1.328,0.241,0.241,0.249,0.234,0.453,1.55,0.007,0.0,-0.458,0.452,-0.01,-0.447,-0.452,0.018,0.006,0.0,0.0,0.008,0.003,0.01,-0.013,0.009,0.0,0.004,0.03,-0.026,0.005,-0.039,0.009,0.01,0.008,0.0,-0.02,0.008,0.002,0.582,0.005,0.003,0.022,0.037,0.028,-0.039,0.006,0.008,0.015,0.019,0.063,0.006,0.017,0.003,0.003,0.003,-0.0,0.0,0.0,0.0
0.0,-0.854,-0.858,0.858,-0.861,0.001,0.011,0.012,7.362,2.055,2.604,0.999,0.013,0.004,-0.0,2.041,-0.01,-0.0,1.332,0.238,0.238,0.243,0.234,0.452,1.549,0.006,0.0,-0.456,0.453,-0.007,-0.451,-0.453,0.016,0.005,0.0,0.0,0.003,0.002,0.008,-0.013,0.003,0.0,0.002,0.03,-0.021,0.003,-0.018,0.004,0.003,0.004,0.0,-0.013,0.002,0.002,0.564,0.002,0.002,0.013,0.03,0.021,-0.026,0.008,0.004,-0.004,0.018,0.05,0.003,0.016,0.002,0.002,0.003,-0.0,0.0,0.0,0.0
0.0,-0.848,-0.857,0.857,-0.86,-0.021,0.008,-0.011,7.339,2.098,2.602,0.998,-0.003,0.003,-0.0,2.046,0.08,0.0,1.339,0.23,0.23,0.237,0.226,0.448,1.545,0.015,0.0,-0.466,0.458,-0.004,-0.454,-0.458,0.01,0.014,0.0,0.0,0.005,0.003,0.029,-0.018,0.002,0.0,0.002,0.032,-0.022,0.003,-0.015,0.002,0.004,0.001,0.0,-0.009,0.003,0.002,0.529,0.001,0.003,0.01,0.026,0.022,-0.025,-0.011,0.005,0.002,0.017,0.044,0.005,0.007,0.004,0.003,0.003,-0.0,0.0,-0.0,-0.0
-0.0,-0.862,-0.864,0.864,-0.867,-0.012,0.004,-0.013,7.47,1.999,2.615,0.999,-0.005,0.007,0.0,2.036,-0.01,0.0,1.342,0.227,0.227,0.23,0.224,0.444,1.538,0.007,0.0,-0.451,0.447,-0.01,-0.441,-0.447,0.01,0.006,0.0,0.0,0.004,0.003,0.009,-0.008,0.004,0.0,0.001,0.012,-0.014,0.002,-0.02,0.004,0.003,0.002,0.0,-0.016,0.003,0.001,0.516,0.003,0.002,0.016,0.024,0.015,-0.022,-0.013,0.002,0.008,0.007,0.036,0.003,0.0,0.003,0.002,0.001,0.0,0.0,-0.0,0.0
-0.0,-0.863,-0.867,0.867,-0.87,-0.029,-0.014,-0.001,7.51,1.942,2.62,1.0,-0.008,0.011,0.0,2.027,0.047,0.0,1.336,0.233,0.233,0.238,0.23,0.446,1.54,0.012,0.0,-0.443,0.441,0.0,-0.439,-0.441,0.012,0.009,0.0,0.0,0.014,0.003,0.011,0.001,0.007,0.0,0.002,0.044,-0.013,0.003,-0.027,0.008,0.009,0.003,0.0,-0.01,0.008,0.002,0.543,0.002,0.002,0.014,0.027,0.015,-0.026,-0.001,0.002,-0.003,0.021,0.041,0.003,0.017,0.002,0.001,0.004,-0.0,0.0,0.0,0.0
-0.0,-0.858,-0.862,0.862,-0.864,0.044,-0.002,0.003,7.425,2.02,2.612,0.999,0.004,0.005,0.0,2.038,0.005,-0.0,1.34,0.229,0.229,0.231,0.228,0.446,1.54,0.004,0.0,-0.453,0.449,0.006,-0.445,-0.449,0.015,0.003,0.0,0.0,0.004,0.002,0.005,-0.011,0.003,0.0,0.001,0.027,-0.015,0.001,-0.023,0.003,0.008,0.002,0.0,-0.011,0.006,0.001,0.525,0.002,0.002,0.014,0.027,0.016,-0.02,0.013,0.002,-0.001,0.019,0.046,0.002,0.018,0.002,0.002,0.004,-0.0,0.0,0.0,-0.0
0.0,-0.855,-0.86,0.861,-0.864,-0.009,0.008,0.01,7.405,2.061,2.609,0.999,0.002,0.006,-0.0,2.042,-0.01,0.0,1.342,0.227,0.227,0.23,0.221,0.446,1.541,0.003,0.0,-0.462,0.454,-0.002,-0.449,-0.454,0.016,0.002,0.0,0.0,0.001,0.002,0.002,-0.01,0.003,0.0,0.002,0.022,-0.018,0.003,-0.014,0.004,0.003,0.004,0.0,-0.012,0.002,0.002,0.515,0.001,0.003,0.012,0.028,0.019,-0.023,0.011,0.003,-0.002,0.018,0.047,0.003,0.017,0.004,0.003,0.003,0.0,0.0,-0.0,0.0
0.0,-0.856,-0.859,0.859,-0.863,-0.01,0.006,0.002,7.386,2.076,2.608,1.0,0.0,0.005,-0.0,2.045,0.002,0.0,1.342,0.227,0.226,0.229,0.222,0.446,1.542,0.003,0.0,-0.459,0.456,0.008,-0.452,-0.456,0.013,0.003,0.0,0.0,0.004,0.003,0.004,-0.006,0.003,0.0,0.002,0.018,-0.013,0.002,-0.017,0.004,0.007,0.003,0.0,-0.01,0.005,0.002,0.513,0.002,0.002,0.012,0.023,0.014,-0.018,0.008,0.002,0.006,0.013,0.038,0.002,0.013,0.002,0.002,0.002,-0.0,0.0,0.0,0.0
0.0,-0.854,-0.858,0.858,-0.862,0.014,-0.022,-0.001,7.36,2.088,2.604,0.999,-0.003,0.013,0.0,2.045,0.016,-0.0,1.338,0.23,0.23,0.236,0.223,0.448,1.545,0.004,0.0,-0.461,0.457,-0.004,-0.454,-0.457,0.012,0.003,0.0,0.0,0.002,0.002,0.006,0.013,0.008,0.0,0.003,0.017,-0.009,0.004,-0.014,0.01,0.003,0.006,0.0,-0.01,0.002,0.001,0.528,0.001,0.002,0.011,0.022,0.014,-0.022,0.005,0.002,-0.005,0.013,0.034,0.003,0.012,0.002,0.002,0.002,-0.0,0.0,0.0,-0.0
-0.0,-0.855,-0.857,0.857,-0.859,-0.003,-0.008,-0.002,7.348,2.107,2.602,0.999,0.002,0.005,0.0,2.048,0.023,0.0,1.34,0.229,0.229,0.232,0.227,0.448,1.546,0.007,0.0,-0.462,0.459,-0.008,-0.456,-0.459,0.014,0.005,0.0,0.0,0.003,0.001,0.006,-0.014,0.002,0.0,0.001,0.028,-0.017,0.002,-0.016,0.003,0.003,0.002,0.0,-0.012,0.002,0.001,0.526,0.002,0.001,0.012,0.026,0.018,-0.022,0.005,0.003,-0.009,0.017,0.045,0.003,0.016,0.002,0.002,0.003,-0.0,0.0,0.0,-0.0
-0.0,-0.851,-0.856,0.856,-0.858,0.0,-0.007,0.004,7.326,2.123,2.602,0.998,0.001,0.002,0.0,2.05,-0.026,-0.0,1.342,0.227,0.227,0.23,0.225,0.447,1.544,0.005,0.0,-0.467,0.461,-0.005,-0.457,-0.461,0.014,0.004,0.0,0.0,0.002,0.001,0.005,-0.012,0.002,0.0,0.001,0.025,-0.017,0.002,-0.017,0.003,0.003,0.003,0.0,-0.013,0.002,0.001,0.516,0.002,0.002,0.013,0.026,0.017,-0.022,0.006,0.003,-0.005,0.016,0.045,0.003,0.015,0.003,0.002,0.002,0.0,0.0,0.0,-0.0
0.0,-0.853,-0.855,0.855,-0.857,0.002,0.002,0.007,7.312,2.15,2.598,0.999,0.005,0.001,0.0,2.053,-0.009,-0.0,1.342,0.227,0.227,0.228,0.225,0.448,1.546,0.004,0.0,-0.468,0.464,-0.01,-0.46,-0.464,0.012,0.004,0.0,0.0,0.002,0.002,0.005,-0.01,0.002,0.0,0.001,0.023,-0.013,0.001,-0.014,0.002,0.001,0.002,0.0,-0.012,0.001,0.001,0.515,0.001,0.001,0.012,0.023,0.013,-0.018,0.008,0.002,-0.0,0.015,0.039,0.002,0.014,0.002,0.002,0.002,-0.0,0.0,0.0,0.0
0.0,-0.85,-0.854,0.854,-0.859,-0.067,0.01,-0.031,7.3,2.144,2.598,0.998,-0.003,0.013,0.0,2.053,-0.011,-0.0,1.339,0.231,0.231,0.242,0.221,0.45,1.548,0.007,0.0,-0.471,0.463,0.051,-0.456,-0.463,0.011,0.006,0.001,0.0,0.028,0.004,0.009,0.015,0.008,0.0,0.004,0.018,-0.006,0.006,-0.039,0.01,0.024,0.003,0.0,-0.007,0.018,0.002,0.533,0.006,0.003,0.025,0.024,0.011,-0.016,-0.002,0.001,0.003,0.013,0.043,0.005,0.011,0.004,0.003,0.002,0.0,0.0,-0.0,-0.0
-0.0,-0.847,-0.851,0.851,-0.856,0.029,-0.004,-0.032,7.247,2.19,2.593,0.998,0.015,0.005,-0.0,2.059,0.013,-0.0,1.34,0.228,0.228,0.233,0.22,0.45,1.547,0.01,0.0,-0.474,0.468,0.008,-0.461,-0.468,0.015,0.008,0.0,0.0,0.016,0.004,0.008,-0.012,0.006,0.0,0.003,0.04,-0.02,0.004,-0.028,0.007,0.011,0.004,0.0,-0.013,0.009,0.003,0.52,0.003,0.003,0.017,0.033,0.022,-0.038,0.005,0.005,-0.017,0.02,0.052,0.002,0.017,0.004,0.003,0.004,-0.0,0.0,0.0,-0.0
0.0,-0.847,-0.852,0.852,-0.855,0.002,0.001,0.011,7.257,2.199,2.593,0.999,-0.003,0.005,0.0,2.059,-0.011,-0.0,1.34,0.229,0.229,0.232,0.227,0.45,1.55,0.004,0.0,-0.474,0.469,0.001,-0.465,-0.469,0.012,0.003,0.0,0.0,0.003,0.003,0.004,-0.009,0.004,0.0,0.001,0.02,-0.014,0.002,-0.013,0.004,0.005,0.003,0.0,-0.01,0.003,0.002,0.524,0.001,0.002,0.011,0.022,0.015,-0.021,0.009,0.002,0.003,0.013,0.037,0.002,0.012,0.002,0.002,0.002,0.0,0.0,-0.0,-0.0
-0.0,-0.845,-0.852,0.852,-0.856,0.02,-0.003,0.013,7.251,2.204,2.593,0.998,-0.005,0.009,-0.0,2.06,-0.044,-0.0,1.34,0.226,0.226,0.23,0.218,0.45,1.547,0.012,0.0,-0.478,0.47,0.033,-0.464,-0.47,0.01,0.009,0.0,0.0,0.016,0.004,0.01,0.008,0.008,0.0,0.003,0.039,-0.012,0.004,-0.027,0.01,0.016,0.006,0.0,-0.007,0.012,0.003,0.512,0.003,0.003,0.018,0.025,0.016,-0.031,-0.003,0.003,0.009,0.016,0.04,0.004,0.011,0.004,0.003,0.003,-0.0,0.0,0.0,-0.0
0.0,-0.844,-0.85,0.851,-0.854,0.006,-0.001,0.006,7.234,2.224,2.591,0.999,-0.01,0.006,0.0,2.062,-0.011,0.0,1.342,0.227,0.227,0.232,0.223,0.45,1.549,0.005,0.0,-0.477,0.472,0.002,-0.468,-0.472,0.012,0.004,0.0,0.0,0.008,0.002,0.004,-0.001,0.005,0.0,0.002,0.028,-0.015,0.003,-0.022,0.006,0.007,0.003,0.0,-0.009,0.006,0.002,0.515,0.001,0.003,0.012,0.026,0.016,-0.021,0.008,0.002,0.015,0.016,0.039,0.005,0.015,0.003,0.003,0.002,-0.0,0.0,-0.0,-0.0
-0.0,-0.849,-0.851,0.851,-0.854,0.015,0.009,-0.01,7.24,2.223,2.59,0.998,-0.004,0.004,-0.0,2.062,0.004,0.0,1.343,0.225,0.225,0.23,0.221,0.449,1.547,0.004,0.0,-0.476,0.472,-0.004,-0.468,-0.472,0.012,0.003,0.0,0.0,0.01,0.002,0.003,-0.013,0.002,0.0,0.003,0.023,-0.018,0.003,-0.026,0.003,0.006,0.005,0.0,-0.013,0.005,0.001,0.507,0.002,0.001,0.015,0.024,0.018,-0.023,0.007,0.003,0.012,0.013,0.043,0.003,0.012,0.002,0.002,0.002,-0.0,0.0,0.0,0.0
0.0,-0.847,-0.851,0.851,-0.853,-0.026,-0.004,-0.022,7.235,2.241,2.591,0.999,0.005,0.003,0.0,2.064,0.023,-0.0,1.344,0.224,0.224,0.231,0.22,0.449,1.548,0.006,0.0,-0.478,0.473,0.017,-0.468,-0.473,0.014,0.005,0.0,0.0,0.011,0.003,0.008,-0.01,0.003,0.0,0.002,0.024,-0.015,0.003,-0.018,0.004,0.011,0.002,0.0,-0.009,0.009,0.002,0.504,0.002,0.002,0.014,0.024,0.016,-0.026,0.006,0.003,-0.01,0.016,0.043,0.004,0.015,0.003,0.002,0.002,-0.0,0.0,0.0,-0.0
0.0,-0.848,-0.85,0.85,-0.852,0.014,-0.011,-0.009,7.222,2.236,2.59,0.998,-0.005,0.01,0.0,2.064,-0.004,-0.0,1.344,0.225,0.224,0.227,0.22,0.448,1.547,0.004,0.0,-0.474,0.473,-0.006,-0.471,-0.473,0.012,0.003,0.0,0.0,0.006,0.001,0.005,0.0,0.006,0.0,0.002,0.015,-0.013,0.002,-0.02,0.007,0.005,0.003,0.0,-0.013,0.004,0.001,0.504,0.002,0.001,0.014,0.022,0.015,-0.024,0.002,0.002,0.003,0.011,0.036,0.002,0.01,0.001,0.001,0.001,0.0,0.0,-0.0,-0.0
-0.0,-0.845,-0.851,0.851,-0.857,-0.029,-0.005,-0.009,7.244,2.223,2.59,0.999,0.004,0.005,0.0,2.063,0.003,-0.0,1.343,0.226,0.226,0.23,0.223,0.45,1.549,0.007,0.0,-0.476,0.472,-0.009,-0.467,-0.472,0.012,0.006,0.0,0.0,0.007,0.002,0.011,-0.007,0.004,0.0,0.002,0.021,-0.014,0.002,-0.024,0.005,0.005,0.003,0.0,-0.017,0.004,0.002,0.511,0.003,0.003,0.017,0.025,0.015,-0.026,0.002,0.002,-0.006,0.011,0.041,0.004,0.009,0.002,0.002,0.001,0.0,0.0,0.0,0.0
0.0,-0.847,-0.851,0.851,-0.853,0.017,-0.0,0.003,7.24,2.21,2.591,0.999,0.002,0.007,0.0,2.061,-0.025,0.0,1.338,0.229,0.229,0.231,0.224,0.451,1.55,0.005,0.0,-0.476,0.47,-0.001,-0.466,-0.47,0.01,0.004,0.0,0.0,0.006,0.002,0.008,-0.009,0.004,0.0,0.002,0.022,-0.015,0.002,-0.02,0.006,0.005,0.003,0.0,-0.01,0.004,0.001,0.523,0.001,0.002,0.011,0.024,0.016,-0.03,0.007,0.003,-0.008,0.015,0.039,0.003,0.014,0.003,0.002,0.002,0.0,0.0,-0.0,-0.0
-0.0,-0.849,-0.851,0.851,-0.853,0.008,-0.003,0.016,7.235,2.23,2.59,0.998,-0.003,0.008,0.0,2.064,-0.007,-0.0,1.343,0.224,0.224,0.228,0.218,0.449,1.547,0.005,0.0,-0.476,0.472,-0.004,-0.469,-0.472,0.012,0.004,0.0,0.0,0.007,0.001,0.003,-0.01,0.004,0.0,0.003,0.021,-0.017,0.003,-0.024,0.005,0.006,0.004,0.0,-0.015,0.005,0.001,0.503,0.002,0.001,0.016,0.026,0.018,-0.025,0.006,0.003,0.009,0.012,0.043,0.002,0.011,0.002,0.002,0.001,0.0,0.0,0.0,-0.0
0.0,-0.849,-0.851,0.851,-0.853,0.014,0.006,-0.007,7.245,2.223,2.592,0.999,-0.007,0.005,-0.0,2.061,0.019,-0.0,1.343,0.226,0.226,0.227,0.223,0.449,1.548,0.006,0.0,-0.477,0.472,0.004,-0.467,-0.472,0.01,0.005,0.0,0.0,0.005,0.003,0.007,-0.01,0.002,0.0,0.001,0.027,-0.014,0.001,-0.013,0.003,0.005,0.002,0.0,-0.007,0.004,0.001,0.509,0.001,0.002,0.009,0.022,0.014,-0.018,0.003,0.002,0.012,0.015,0.036,0.004,0.014,0.003,0.003,0.002,0.0,0.0,-0.0,0.0
-0.0,-0.84,-0.847,0.847,-0.851,-0.002,-0.005,-0.036,7.176,2.308,2.586,0.999,0.011,0.01,-0.0,2.07,0.032,-0.0,1.348,0.221,0.221,0.225,0.216,0.447,1.548,0.013,0.0,-0.493,0.48,0.026,-0.476,-0.48,0.016,0.011,0.0,0.0,0.015,0.004,0.019,-0.008,0.007,0.0,0.002,0.05,-0.019,0.002,-0.029,0.008,0.014,0.002,0.0,-0.002,0.011,0.003,0.487,0.002,0.003,0.014,0.04,0.02,-0.034,0.005,0.004,-0.015,0.029,0.055,0.007,0.025,0.005,0.004,0.008,-0.0,0.0,0.0,-0.0
-0.0,-0.841,-0.847,0.847,-0.857,0.084,-0.035,-0.016,7.173,2.301,2.584,0.998,0.02,0.005,0.0,2.071,0.066,-0.0,1.346,0.221,0.221,0.232,0.21,0.448,1.547,0.015,0.0,-0.493,0.48,0.001,-0.463,-0.48,0.019,0.013,0.001,0.0,0.037,0.006,0.027,-0.006,0.004,0.0,0.007,0.021,-0.018,0.008,-0.082,0.005,0.026,0.013,0.0,-0.036,0.023,0.004,0.488,0.02,0.005,0.045,0.035,0.018,-0.025,-0.022,0.003,-0.044,0.015,0.067,0.016,-0.001,0.01,0.009,0.002,0.0,0.0,-0.0,-0.0
0.0,-0.85,-0.852,0.852,-0.855,-0.022,0.001,-0.006,7.266,2.202,2.593,0.999,0.002,0.003,-0.0,2.06,-0.037,0.0,1.342,0.226,0.226,0.228,0.224,0.449,1.548,0.009,0.0,-0.471,0.469,-0.004,-0.466,-0.469,0.011,0.006,0.0,0.0,0.005,0.002,0.007,-0.011,0.002,0.0,0.001,0.03,-0.016,0.001,-0.024,0.002,0.006,0.002,0.0,-0.013,0.004,0.001,0.511,0.002,0.001,0.014,0.022,0.016,-0.019,-0.002,0.002,0.002,0.012,0.037,0.001,0.008,0.001,0.001,0.001,0.0,0.0,-0.0,0.0
-0.0,-0.85,-0.853,0.853,-0.856,-0.001,-0.007,-0.033,7.281,2.184,2.596,1.0,0.002,0.008,0.0,2.057,-0.007,0.0,1.342,0.227,0.227,0.23,0.223,0.449,1.547,0.008,0.0,-0.472,0.467,-0.011,-0.464,-0.467,0.01,0.007,0.0,0.0,0.003,0.002,0.01,-0.006,0.005,0.0,0.003,0.025,-0.012,0.003,-0.018,0.005,0.002,0.006,0.0,-0.015,0.002,0.001,0.514,0.002,0.002,0.015,0.022,0.014,-0.022,-0.001,0.002,-0.007,0.014,0.04,0.003,0.012,0.003,0.002,0.002,-0.0,0.0,-0.0,-0.0
-0.0,-0.852,-0.855,0.855,-0.857,-0.01,0.001,0.004,7.307,2.133,2.597,0.999,-0.006,0.003,0.0,2.052,-0.017,-0.0,1.337,0.231,0.231,0.233,0.229,0.45,1.548,0.007,0.0,-0.466,0.462,-0.013,-0.455,-0.462,0.011,0.006,0.0,0.0,0.006,0.003,0.011,-0.008,0.002,0.0,0.001,0.013,-0.012,0.001,-0.022,0.002,0.003,0.002,0.0,-0.018,0.003,0.002,0.534,0.003,0.002,0.018,0.024,0.012,-0.015,-0.009,0.001,0.008,0.007,0.036,0.005,0.001,0.003,0.003,0.001,0.0,0.0,-0.0,0.0
-0.0,-0.853,-0.858,0.858,-0.861,0.008,-0.012,-0.014,7.357,2.036,2.604,0.998,-0.003,0.007,0.0,2.039,0.019,0.0,1.326,0.242,0.242,0.247,0.235,0.454,1.55,0.006,0.0,-0.457,0.451,-0.017,-0.445,-0.451,0.007,0.004,0.0,0.0,0.002,0.002,0.007,0.003,0.004,0.0,0.005,0.018,-0.005,0.005,-0.024,0.005,0.002,0.01,0.0,-0.02,0.002,0.001,0.584,0.004,0.002,0.02,0.022,0.007,-0.011,-0.005,0.0,-0.003,0.007,0.031,0.007,0.004,0.004,0.004,0.0,0.0,0.0,-0.0,0.0
-0.0,-0.854,-0.859,0.859,-0.863,0.027,-0.002,-0.006,7.381,1.977,2.606,1.0,0.001,0.005,-0.0,2.031,0.013,-0.0,1.317,0.252,0.252,0.257,0.247,0.458,1.555,0.006,0.0,-0.448,0.445,-0.01,-0.44,-0.445,0.012,0.005,0.0,0.0,0.006,0.004,0.005,-0.003,0.003,0.0,0.003,0.024,-0.009,0.003,-0.027,0.003,0.005,0.007,0.0,-0.019,0.004,0.002,0.634,0.004,0.003,0.019,0.024,0.01,-0.013,0.0,0.001,-0.005,0.013,0.039,0.005,0.011,0.003,0.002,0.002,-0.0,0.0,0.0,0.0
0.0,-0.856,-0.858,0.858,-0.861,0.005,-0.004,-0.008,7.369,1.948,2.604,0.999,0.003,0.006,0.0,2.029,0.009,-0.0,1.309,0.259,0.259,0.261,0.255,0.461,1.558,0.006,0.0,-0.445,0.441,-0.011,-0.435,-0.441,0.012,0.005,0.0,0.0,0.004,0.001,0.006,-0.008,0.003,0.0,0.002,0.026,-0.012,0.002,-0.019,0.004,0.003,0.004,0.0,-0.015,0.002,0.001,0.669,0.002,0.001,0.015,0.022,0.013,-0.022,0.004,0.002,-0.011,0.012,0.038,0.003,0.01,0.003,0.002,0.001,0.0,0.0,-0.0,0.0
-0.0,-0.858,-0.866,0.866,-0.881,-0.011,-0.008,0.053,7.497,2.176,2.617,0.998,-0.02,0.011,-0.0,2.06,0.049,-0.0,1.397,0.173,0.173,0.176,0.168,0.412,1.505,0.015,0.0,-0.479,0.467,-0.01,-0.445,-0.466,0.019,0.012,0.0,0.0,0.006,0.008,0.024,0.005,0.007,0.0,0.002,0.081,-0.009,0.003,-0.02,0.008,0.003,0.003,0.0,-0.015,0.003,0.005,0.298,0.002,0.006,0.015,0.056,0.012,-0.022,0.034,0.002,0.029,0.053,0.077,0.011,0.051,0.01,0.008,0.029,-0.0,0.0,0.0,0.0
-0.0,-0.854,-0.858,0.858,-0.86,-0.021,-0.002,0.043,7.358,2.291,2.605,0.998,0.007,0.006,-0.0,2.07,0.013,-0.0,1.39,0.181,0.18,0.184,0.178,0.42,1.517,0.008,0.0,-0.485,0.479,-0.008,-0.472,-0.479,0.012,0.006,0.0,0.0,0.003,0.004,0.005,0.002,0.006,0.0,0.002,0.03,-0.015,0.002,-0.02,0.008,0.004,0.005,0.0,-0.014,0.003,0.002,0.326,0.002,0.002,0.014,0.025,0.017,-0.023,-0.004,0.003,-0.013,0.015,0.042,0.004,0.012,0.004,0.003,0.002,-0.0,0.0,0.0,0.0
-0.0,-0.849,-0.858,0.858,-0.866,-0.152,0.002,-0.091,7.357,2.3,2.604,0.998,-0.014,0.004,-0.0,2.072,-0.095,-0.0,1.392,0.176,0.176,0.183,0.166,0.418,1.514,0.038,0.001,-0.489,0.48,0.055,-0.469,-0.48,0.014,0.03,0.001,0.0,0.01,0.001,0.028,0.003,0.016,0.0,0.004,0.024,-0.022,0.005,-0.094,0.027,0.036,0.005,0.001,-0.009,0.022,0.003,0.311,0.014,0.004,0.037,0.031,0.035,-0.101,-0.084,0.012,0.014,0.038,0.076,0.004,-0.008,0.005,0.004,0.015,-0.0,0.0,0.0,0.0
-0.0,-0.871,-0.884,0.884,-0.898,-0.232,-0.008,-0.167,7.81,1.87,2.654,1.0,-0.002,0.04,0.0,2.019,-0.194,0.001,1.39,0.177,0.177,0.185,0.165,0.408,1.493,0.049,0.002,-0.446,0.432,0.003,-0.416,-0.432,0.017,0.034,0.003,0.0,0.068,0.01,0.042,0.007,0.025,0.0,0.005,0.064,-0.03,0.006,-0.16,0.031,0.051,0.008,0.001,-0.048,0.044,0.006,0.313,0.048,0.008,0.07,0.051,0.043,-0.101,-0.133,0.019,0.012,0.051,0.115,0.013,-0.017,0.009,0.008,0.026,0.0,0.0,-0.0,-0.0
0.0,-0.887,-0.89,0.89,-0.893,0.033,-0.012,-0.068,7.926,1.743,2.67,1.0,0.004,0.016,0.0,2.001,0.005,-0.0,1.39,0.178,0.178,0.185,0.169,0.404,1.486,0.019,0.0,-0.425,0.418,-0.002,-0.412,-0.418,0.013,0.017,0.0,0.0,0.01,0.003,0.032,0.001,0.009,0.0,0.004,0.035,-0.017,0.005,-0.023,0.012,0.006,0.007,0.0,-0.014,0.006,0.002,0.317,0.002,0.002,0.015,0.028,0.021,-0.041,-0.016,0.004,-0.013,0.019,0.047,0.005,0.006,0.004,0.003,0.004,0.0,0.0,-0.0,-0.0
-0.0,-0.885,-0.889,0.889,-0.892,0.011,0.01,-0.053,7.909,1.758,2.668,0.999,-0.001,0.019,0.0,2.003,0.059,-0.0,1.393,0.178,0.178,0.188,0.174,0.404,1.487,0.012,0.0,-0.43,0.419,-0.009,-0.412,-0.419,0.012,0.01,0.0,0.0,0.007,0.003,0.013,0.002,0.009,0.0,0.004,0.03,-0.016,0.004,-0.025,0.01,0.005,0.006,0.0,-0.017,0.004,0.002,0.318,0.003,0.002,0.018,0.026,0.019,-0.031,-0.013,0.004,0.001,0.015,0.045,0.004,0.008,0.005,0.004,0.002,-0.0,0.0,-0.0,-0.0
-0.0,-0.881,-0.888,0.888,-0.893,-0.015,-0.002,-0.038,7.891,1.765,2.666,1.0,-0.006,0.011,-0.0,2.004,-0.069,0.0,1.388,0.181,0.181,0.185,0.176,0.408,1.49,0.013,0.0,-0.431,0.42,-0.003,-0.41,-0.42,0.014,0.011,0.0,0.0,0.007,0.007,0.023,0.0,0.006,0.0,0.003,0.041,-0.018,0.003,-0.019,0.008,0.005,0.004,0.0,-0.01,0.004,0.004,0.328,0.001,0.004,0.011,0.033,0.02,-0.027,0.005,0.004,0.011,0.026,0.05,0.013,0.022,0.007,0.007,0.007,0.0,0.0,-0.0,-0.0
-0.0,-0.869,-0.88,0.88,-0.888,-0.083,-0.008,0.051,7.744,1.92,2.646,1.0,-0.01,0.014,0.0,2.025,-0.169,0.0,1.392,0.178,0.178,0.19,0.17,0.409,1.496,0.032,0.001,-0.458,0.438,0.052,-0.423,-0.438,0.018,0.024,0.001,0.0,0.03,0.011,0.024,0.074,0.018,0.0,0.004,0.12,-0.007,0.006,-0.042,0.029,0.029,0.007,0.001,-0.002,0.023,0.006,0.319,0.008,0.006,0.029,0.046,0.03,-0.036,0.01,0.009,0.021,0.051,0.085,0.023,0.04,0.012,0.011,0.026,0.0,0.0,-0.0,0.0
-0.0,-0.862,-0.869,0.869,-0.877,-0.114,0.02,-0.085,7.554,2.057,2.625,0.999,0.007,0.025,-0.0,2.044,-0.031,-0.0,1.379,0.192,0.192,0.205,0.183,0.422,1.515,0.011,0.0,-0.466,0.454,0.004,-0.444,-0.454,0.016,0.009,0.0,0.0,0.015,0.008,0.013,0.018,0.016,0.0,0.005,0.037,-0.004,0.007,-0.062,0.019,0.021,0.006,0.0,-0.019,0.017,0.005,0.37,0.008,0.005,0.029,0.033,0.02,-0.041,-0.003,0.004,-0.007,0.024,0.058,0.007,0.021,0.006,0.005,0.006,0.0,0.0,-0.0,0.0
0.0,-0.858,-0.863,0.863,-0.87,-0.028,0.034,0.003,7.453,2.148,2.615,0.999,-0.006,0.014,-0.0,2.052,0.011,0.0,1.376,0.193,0.193,0.203,0.183,0.425,1.52,0.016,0.0,-0.475,0.463,0.023,-0.454,-0.463,0.016,0.012,0.0,0.0,0.014,0.002,0.016,-0.01,0.007,0.0,0.004,0.054,-0.02,0.006,-0.021,0.008,0.015,0.007,0.0,-0.006,0.012,0.002,0.372,0.003,0.003,0.016,0.032,0.022,-0.03,0.001,0.005,0.024,0.027,0.057,0.008,0.022,0.006,0.005,0.007,-0.0,0.0,0.0,-0.0
-0.0,-0.857,-0.861,0.861,-0.865,-0.019,-0.002,-0.024,7.406,2.202,2.609,0.999,-0.007,0.008,-0.0,2.06,0.035,-0.0,1.375,0.194,0.194,0.2,0.188,0.428,1.524,0.008,0.0,-0.473,0.469,-0.007,-0.463,-0.469,0.018,0.007,0.0,0.0,0.006,0.002,0.012,-0.01,0.006,0.0,0.003,0.031,-0.021,0.004,-0.023,0.009,0.005,0.005,0.0,-0.016,0.004,0.002,0.376,0.003,0.002,0.017,0.034,0.022,-0.043,0.004,0.005,0.009,0.02,0.055,0.003,0.018,0.003,0.002,0.004,-0.0,0.0,-0.0,-0.0
-0.0,-0.853,-0.856,0.856,-0.86,-0.01,-0.009,-0.022,7.326,2.278,2.599,0.998,-0.011,0.007,0.0,2.07,0.017,0.0,1.378,0.191,0.191,0.193,0.184,0.428,1.524,0.01,0.0,-0.482,0.477,0.003,-0.47,-0.477,0.014,0.01,0.0,0.0,0.004,0.004,0.019,-0.009,0.004,0.0,0.002,0.038,-0.015,0.003,-0.032,0.005,0.009,0.003,0.0,-0.014,0.006,0.002,0.363,0.003,0.003,0.016,0.028,0.016,-0.025,0.009,0.003,0.016,0.024,0.052,0.006,0.022,0.004,0.003,0.006,-0.0,0.0,0.0,-0.0
0.0,-0.852,-0.854,0.855,-0.856,-0.003,0.0,0.008,7.302,2.305,2.598,0.999,-0.005,0.005,0.0,2.072,0.023,0.0,1.376,0.192,0.192,0.195,0.19,0.429,1.527,0.005,0.0,-0.483,0.48,-0.008,-0.477,-0.48,0.014,0.003,0.0,0.0,0.002,0.003,0.003,-0.012,0.003,0.0,0.001,0.027,-0.017,0.002,-0.018,0.003,0.002,0.002,0.0,-0.013,0.002,0.001,0.37,0.002,0.001,0.013,0.025,0.017,-0.022,0.007,0.003,0.001,0.013,0.041,0.002,0.012,0.002,0.002,0.002,0.0,0.0,-0.0,0.0
-0.0,-0.845,-0.854,0.854,-0.859,-0.026,0.018,-0.083,7.288,2.292,2.598,0.999,-0.001,0.009,-0.0,2.072,0.024,0.0,1.376,0.194,0.194,0.207,0.177,0.429,1.526,0.009,0.0,-0.483,0.479,0.059,-0.47,-0.479,0.015,0.007,0.001,0.0,0.006,0.004,0.01,0.071,0.021,0.0,0.006,0.026,-0.015,0.008,-0.031,0.038,0.024,0.005,0.001,-0.01,0.014,0.003,0.377,0.007,0.004,0.026,0.03,0.041,-0.095,-0.007,0.017,0.004,0.012,0.061,0.004,0.008,0.004,0.003,0.001,-0.0,0.0,0.0,0.0
-0.0,-0.851,-0.858,0.858,-0.868,-0.062,-0.002,-0.175,7.357,2.288,2.602,0.999,-0.014,0.013,0.001,2.072,0.029,0.0,1.386,0.182,0.182,0.187,0.176,0.422,1.518,0.016,0.0,-0.49,0.478,0.029,-0.464,-0.478,0.018,0.012,0.0,0.0,0.012,0.005,0.013,0.022,0.028,0.0,0.003,0.053,-0.027,0.003,-0.039,0.038,0.018,0.003,0.001,-0.016,0.012,0.004,0.333,0.006,0.005,0.024,0.038,0.047,-0.119,-0.006,0.022,0.027,0.027,0.076,0.005,0.022,0.007,0.005,0.008,0.0,0.0,-0.0,-0.0
-0.0,-0.84,-0.848,0.848,-0.86,-0.068,-0.027,0.035,7.195,2.4,2.586,0.999,-0.019,0.024,0.0,2.084,0.147,-0.0,1.374,0.195,0.195,0.207,0.185,0.433,1.533,0.026,0.001,-0.503,0.49,0.019,-0.478,-0.49,0.014,0.02,0.001,0.0,0.024,0.005,0.027,0.019,0.017,0.0,0.004,0.066,-0.012,0.005,-0.084,0.021,0.028,0.004,0.0,-0.019,0.022,0.004,0.381,0.011,0.006,0.034,0.034,0.024,-0.058,-0.029,0.006,0.019,0.033,0.069,0.009,0.02,0.008,0.006,0.011,-0.0,0.0,0.0,0.0
-0.0,-0.843,-0.846,0.846,-0.85,0.0,0.002,0.011,7.164,2.414,2.583,0.998,0.0,0.004,0.0,2.086,-0.004,-0.0,1.374,0.195,0.195,0.198,0.193,0.433,1.533,0.004,0.0,-0.494,0.491,-0.006,-0.488,-0.491,0.012,0.003,0.0,0.0,0.002,0.001,0.006,-0.005,0.003,0.0,0.001,0.019,-0.012,0.001,-0.015,0.004,0.002,0.002,0.0,-0.009,0.002,0.001,0.381,0.001,0.002,0.01,0.022,0.013,-0.021,0.007,0.002,-0.0,0.015,0.036,0.004,0.014,0.002,0.002,0.002,-0.0,0.0,0.0,0.0
0.0,-0.84,-0.844,0.844,-0.848,-0.003,0.003,-0.01,7.128,2.442,2.58,0.999,-0.002,0.004,-0.0,2.086,-0.043,0.0,1.369,0.201,0.2,0.208,0.195,0.437,1.539,0.008,0.0,-0.503,0.494,-0.003,-0.488,-0.494,0.011,0.006,0.0,0.0,0.005,0.005,0.008,-0.004,0.003,0.0,0.003,0.033,-0.01,0.004,-0.028,0.003,0.006,0.003,0.0,-0.012,0.004,0.002,0.402,0.002,0.003,0.014,0.022,0.01,-0.017,-0.001,0.001,0.003,0.017,0.036,0.003,0.014,0.004,0.003,0.003,0.0,0.0,-0.0,0.0
-0.0,-0.841,-0.844,0.844,-0.846,0.0,-0.006,0.003,7.123,2.42,2.579,0.998,-0.003,0.007,0.0,2.086,-0.017,0.0,1.365,0.204,0.204,0.207,0.201,0.439,1.54,0.007,0.0,-0.495,0.492,-0.005,-0.49,-0.492,0.012,0.005,0.0,0.0,0.006,0.002,0.005,-0.014,0.004,0.0,0.002,0.03,-0.018,0.002,-0.022,0.004,0.005,0.002,0.0,-0.015,0.004,0.001,0.417,0.002,0.001,0.015,0.026,0.018,-0.024,0.007,0.003,0.008,0.014,0.045,0.003,0.012,0.002,0.001,0.002,0.0,0.0,-0.0,-0.0
-0.0,-0.838,-0.842,0.842,-0.845,0.001,0.002,-0.009,7.096,2.465,2.576,0.998,-0.006,0.007,0.0,2.09,0.022,0.0,1.367,0.202,0.202,0.207,0.198,0.439,1.541,0.007,0.0,-0.501,0.497,-0.005,-0.491,-0.496,0.016,0.006,0.0,0.0,0.006,0.004,0.009,-0.008,0.004,0.0,0.002,0.034,-0.016,0.002,-0.022,0.005,0.005,0.002,0.0,-0.013,0.004,0.002,0.408,0.002,0.002,0.014,0.03,0.017,-0.023,0.009,0.003,0.008,0.02,0.048,0.004,0.019,0.003,0.002,0.004,-0.0,0.0,0.0,-0.0
0.0,-0.838,-0.84,0.84,-0.842,0.005,0.02,-0.013,7.054,2.503,2.57,0.998,0.001,0.009,-0.0,2.096,0.018,0.0,1.37,0.201,0.201,0.21,0.198,0.438,1.541,0.005,0.0,-0.503,0.5,-0.005,-0.496,-0.5,0.015,0.003,0.0,0.0,0.003,0.002,0.002,-0.01,0.006,0.0,0.003,0.03,-0.019,0.004,-0.017,0.006,0.003,0.005,0.0,-0.011,0.003,0.001,0.405,0.001,0.001,0.012,0.028,0.02,-0.031,0.012,0.004,0.007,0.018,0.047,0.003,0.017,0.002,0.002,0.003,0.0,0.0,-0.0,-0.0
-0.0,-0.834,-0.845,0.845,-0.856,0.026,-0.001,-0.019,7.137,2.401,2.578,0.998,0.006,0.006,0.0,2.087,0.13,-0.0,1.364,0.206,0.206,0.214,0.199,0.439,1.54,0.02,0.0,-0.506,0.49,-0.012,-0.472,-0.49,0.016,0.018,0.0,0.0,0.006,0.007,0.033,-0.004,0.004,0.0,0.004,0.009,-0.013,0.005,-0.027,0.005,0.005,0.008,0.0,-0.02,0.004,0.005,0.423,0.004,0.006,0.02,0.036,0.014,-0.022,-0.048,0.002,-0.01,0.028,0.057,0.021,-0.02,0.012,0.011,0.008,-0.0,0.0,0.0,-0.0
-0.0,-0.854,-0.863,0.863,-0.877,0.014,-0.004,0.0,7.446,2.113,2.612,0.999,0.002,0.007,-0.0,2.05,0.016,-0.0,1.364,0.206,0.206,0.21,0.201,0.435,1.528,0.021,0.0,-0.475,0.46,-0.002,-0.439,-0.459,0.018,0.02,0.0,0.0,0.008,0.01,0.039,-0.01,0.005,0.0,0.002,-0.005,-0.021,0.003,-0.02,0.006,0.006,0.004,0.0,-0.013,0.005,0.006,0.424,0.002,0.007,0.014,0.035,0.022,-0.029,-0.06,0.005,-0.005,0.036,0.063,0.016,-0.029,0.011,0.009,0.013,-0.0,0.0,0.0,-0.0
0.0,-0.875,-0.88,0.88,-0.883,-0.008,0.001,0.028,7.749,1.817,2.65,0.999,0.004,0.008,-0.0,2.011,0.003,0.0,1.364,0.204,0.204,0.209,0.197,0.424,1.51,0.009,0.0,-0.434,0.426,-0.001,-0.421,-0.426,0.011,0.007,0.0,0.0,0.008,0.003,0.011,-0.008,0.006,0.0,0.004,0.017,-0.025,0.004,-0.022,0.008,0.006,0.007,0.0,-0.009,0.005,0.002,0.415,0.001,0.002,0.011,0.03,0.026,-0.034,-0.019,0.007,-0.007,0.01,0.042,0.004,-0.002,0.004,0.003,0.001,0.0,0.0,-0.0,0.0
-0.0,-0.88,-0.887,0.887,-0.894,-0.009,-0.013,-0.005,7.864,1.727,2.661,0.999,-0.007,0.005,0.0,2.001,0.043,-0.0,1.368,0.2,0.2,0.205,0.192,0.42,1.502,0.008,0.0,-0.427,0.416,-0.013,-0.405,-0.416,0.01,0.006,0.0,0.0,0.004,0.003,0.009,-0.007,0.003,0.0,0.003,0.017,-0.014,0.004,-0.037,0.004,0.006,0.003,0.0,-0.02,0.004,0.002,0.401,0.004,0.003,0.021,0.024,0.014,-0.021,-0.012,0.002,0.001,0.008,0.04,0.01,0.0,0.007,0.006,0.001,0.0,0.0,-0.0,-0.0
0.0,-0.888,-0.891,0.891,-0.896,-0.02,0.001,0.036,7.942,1.632,2.673,0.999,0.003,0.008,0.0,1.985,0.032,-0.0,1.366,0.204,0.204,0.207,0.202,0.42,1.499,0.007,0.0,-0.413,0.404,-0.01,-0.397,-0.404,0.01,0.005,0.0,0.0,0.004,0.004,0.008,-0.012,0.005,0.0,0.002,0.016,-0.019,0.002,-0.022,0.005,0.003,0.003,0.0,-0.015,0.003,0.002,0.417,0.002,0.002,0.015,0.026,0.02,-0.028,-0.01,0.004,-0.014,0.007,0.039,0.006,-0.0,0.005,0.004,0.0,-0.0,0.0,0.0,-0.0
0.0,-0.892,-0.896,0.896,-0.899,-0.002,0.012,0.001,8.03,1.55,2.682,1.0,0.007,0.009,-0.0,1.976,0.065,0.0,1.364,0.205,0.205,0.208,0.2,0.417,1.495,0.014,0.0,-0.399,0.394,-0.009,-0.387,-0.394,0.012,0.011,0.0,0.0,0.003,0.003,0.018,-0.005,0.005,0.0,0.002,0.04,-0.015,0.002,-0.016,0.005,0.002,0.004,0.0,-0.012,0.002,0.002,0.42,0.002,0.002,0.012,0.024,0.016,-0.022,-0.008,0.002,-0.01,0.016,0.04,0.005,0.009,0.004,0.003,0.003,0.0,0.0,0.0,0.0
0.0,-0.891,-0.895,0.895,-0.899,-0.007,-0.003,-0.018,8.01,1.566,2.681,1.0,0.005,0.002,-0.0,1.977,0.005,-0.0,1.365,0.204,0.204,0.206,0.202,0.416,1.494,0.005,0.0,-0.402,0.396,-0.004,-0.392,-0.396,0.014,0.004,0.0,0.0,0.003,0.002,0.005,-0.014,0.003,0.0,0.001,0.032,-0.017,0.001,-0.014,0.003,0.003,0.001,0.0,-0.011,0.002,0.002,0.415,0.001,0.002,0.011,0.026,0.018,-0.025,0.013,0.003,-0.009,0.018,0.046,0.002,0.017,0.003,0.002,0.003,-0.0,0.0,0.0,-0.0
0.0,-0.89,-0.894,0.894,-0.897,-0.01,-0.001,-0.002,7.991,1.593,2.676,1.0,-0.003,0.011,0.0,1.982,-0.014,-0.0,1.364,0.205,0.205,0.207,0.202,0.418,1.498,0.007,0.0,-0.403,0.399,-0.007,-0.392,-0.399,0.012,0.006,0.0,0.0,0.005,0.002,0.011,-0.013,0.005,0.0,0.002,0.021,-0.019,0.002,-0.015,0.006,0.003,0.003,0.0,-0.011,0.002,0.002,0.419,0.001,0.002,0.011,0.025,0.02,-0.029,0.0,0.004,0.007,0.013,0.041,0.006,0.011,0.003,0.003,0.002,0.0,0.0,-0.0,0.0
0.0,-0.894,-0.896,0.896,-0.899,0.007,-0.002,-0.005,8.032,1.563,2.682,1.0,-0.001,0.005,0.0,1.978,-0.024,0.0,1.368,0.202,0.202,0.205,0.199,0.415,1.493,0.007,0.0,-0.399,0.395,-0.009,-0.393,-0.395,0.012,0.006,0.0,0.0,0.003,0.004,0.01,0.002,0.006,0.0,0.001,0.028,-0.019,0.002,-0.017,0.009,0.002,0.003,0.0,-0.013,0.002,0.002,0.407,0.002,0.002,0.013,0.028,0.021,-0.034,0.002,0.004,-0.005,0.013,0.043,0.004,0.011,0.002,0.002,0.002,-0.0,0.0,0.0,0.0
-0.0,-0.894,-0.896,0.896,-0.898,0.009,-0.007,0.004,8.035,1.553,2.684,1.0,-0.0,0.003,0.0,1.976,0.02,0.0,1.368,0.201,0.201,0.202,0.198,0.414,1.491,0.006,0.0,-0.397,0.394,-0.01,-0.391,-0.394,0.013,0.005,0.0,0.0,0.005,0.001,0.008,-0.015,0.002,0.0,0.001,0.024,-0.018,0.001,-0.022,0.002,0.004,0.002,0.0,-0.016,0.003,0.001,0.403,0.003,0.001,0.017,0.028,0.019,-0.022,0.003,0.003,-0.003,0.012,0.045,0.004,0.01,0.002,0.002,0.001,-0.0,0.0,0.0,0.0
-0.0,-0.893,-0.896,0.896,-0.902,0.002,-0.002,-0.008,8.03,1.56,2.682,1.0,-0.008,0.001,0.0,1.978,0.012,0.0,1.369,0.2,0.2,0.201,0.198,0.414,1.491,0.005,0.0,-0.4,0.395,-0.011,-0.386,-0.395,0.016,0.004,0.0,0.0,0.002,0.002,0.002,-0.013,0.001,0.0,0.001,0.033,-0.018,0.001,-0.023,0.002,0.003,0.002,0.0,-0.014,0.002,0.002,0.4,0.002,0.002,0.014,0.029,0.018,-0.024,0.016,0.003,0.011,0.021,0.053,0.004,0.02,0.004,0.003,0.004,0.0,0.0,-0.0,0.0
-0.0,-0.891,-0.894,0.894,-0.897,-0.002,0.0,-0.012,7.985,1.61,2.677,1.0,-0.001,0.003,-0.0,1.983,0.036,0.0,1.37,0.199,0.199,0.202,0.197,0.415,1.494,0.006,0.0,-0.406,0.401,-0.006,-0.395,-0.401,0.016,0.005,0.0,0.0,0.005,0.003,0.011,-0.013,0.002,0.0,0.001,0.03,-0.017,0.002,-0.016,0.003,0.003,0.003,0.0,-0.012,0.003,0.001,0.397,0.002,0.002,0.012,0.028,0.017,-0.023,0.011,0.003,-0.001,0.02,0.048,0.005,0.019,0.003,0.003,0.004,0.0,0.0,-0.0,0.0
-0.0,-0.89,-0.891,0.891,-0.893,0.0,0.0,0.018,7.946,1.64,2.673,1.0,0.001,0.006,0.0,1.988,0.01,-0.0,1.368,0.2,0.2,0.202,0.198,0.416,1.497,0.006,0.0,-0.408,0.405,-0.003,-0.403,-0.405,0.014,0.005,0.0,0.0,0.001,0.002,0.008,-0.011,0.003,0.0,0.001,0.025,-0.016,0.001,-0.015,0.003,0.003,0.003,0.0,-0.012,0.002,0.001,0.401,0.002,0.001,0.013,0.026,0.016,-0.02,0.005,0.003,0.001,0.015,0.042,0.001,0.014,0.001,0.001,0.002,-0.0,0.0,0.0,0.0
-0.0,-0.887,-0.891,0.891,-0.893,-0.002,0.004,-0.002,7.941,1.648,2.671,1.0,-0.008,0.003,-0.0,1.989,0.019,0.0,1.368,0.201,0.201,0.202,0.198,0.417,1.498,0.005,0.0,-0.411,0.406,-0.01,-0.401,-0.406,0.015,0.004,0.0,0.0,0.003,0.003,0.007,-0.013,0.002,0.0,0.001,0.023,-0.017,0.001,-0.016,0.003,0.002,0.002,0.0,-0.013,0.002,0.002,0.403,0.002,0.002,0.013,0.026,0.017,-0.022,0.006,0.003,0.012,0.014,0.043,0.003,0.013,0.003,0.002,0.002,-0.0,0.0,0.0,-0.0
0.0,-0.887,-0.89,0.89,-0.895,-0.01,-0.012,-0.019,7.925,1.664,2.67,0.999,0.001,0.013,-0.0,1.991,0.032,0.0,1.369,0.2,0.2,0.204,0.191,0.417,1.498,0.008,0.0,-0.412,0.408,0.009,-0.401,-0.408,0.014,0.006,0.0,0.0,0.004,0.003,0.006,-0.013,0.008,0.0,0.003,0.025,-0.025,0.004,-0.021,0.009,0.008,0.003,0.0,-0.01,0.005,0.002,0.398,0.002,0.002,0.013,0.03,0.027,-0.042,-0.005,0.007,-0.001,0.016,0.052,0.003,0.014,0.003,0.002,0.003,-0.0,0.0,0.0,-0.0
0.0,-0.884,-0.89,0.89,-0.897,0.017,0.001,-0.038,7.916,1.687,2.67,0.998,-0.006,0.011,0.0,1.995,-0.012,0.0,1.378,0.194,0.194,0.202,0.187,0.413,1.494,0.005,0.0,-0.416,0.411,-0.005,-0.402,-0.411,0.014,0.004,0.0,0.0,0.005,0.005,0.004,0.004,0.007,0.0,0.004,0.034,-0.01,0.005,-0.023,0.009,0.005,0.006,0.0,-0.015,0.004,0.003,0.375,0.002,0.004,0.016,0.028,0.013,-0.025,0.016,0.002,0.006,0.022,0.047,0.005,0.021,0.004,0.003,0.005,-0.0,0.0,0.0,-0.0
0.0,-0.881,-0.885,0.885,-0.889,-0.005,-0.002,-0.016,7.832,1.746,2.657,1.0,-0.006,0.007,-0.0,2.002,-0.007,0.0,1.366,0.203,0.203,0.207,0.197,0.42,1.506,0.004,0.0,-0.424,0.418,-0.007,-0.411,-0.418,0.016,0.003,0.0,0.0,0.004,0.004,0.005,-0.01,0.005,0.0,0.002,0.031,-0.015,0.003,-0.019,0.006,0.003,0.004,0.0,-0.014,0.003,0.002,0.412,0.002,0.002,0.015,0.031,0.016,-0.029,0.015,0.003,0.013,0.024,0.053,0.008,0.023,0.004,0.004,0.006,-0.0,0.0,0.0,0.0
0.0,-0.876,-0.881,0.881,-0.886,0.005,-0.005,-0.011,7.769,1.817,2.651,1.0,-0.005,0.004,0.0,2.01,0.032,0.0,1.368,0.201,0.201,0.204,0.196,0.423,1.509,0.007,0.0,-0.432,0.426,-0.007,-0.424,-0.426,0.014,0.006,0.0,0.0,0.002,0.003,0.011,-0.008,0.004,0.0,0.002,0.034,-0.017,0.002,-0.015,0.006,0.002,0.003,0.0,-0.011,0.002,0.002,0.404,0.001,0.003,0.012,0.026,0.018,-0.031,0.009,0.003,0.002,0.02,0.047,0.002,0.019,0.002,0.002,0.004,-0.0,0.0,-0.0,-0.0
-0.0,-0.875,-0.879,0.879,-0.88,-0.002,-0.015,0.021,7.721,1.843,2.645,1.0,0.008,0.01,0.0,2.014,-0.007,-0.0,1.363,0.206,0.206,0.209,0.199,0.428,1.514,0.007,0.0,-0.433,0.429,-0.008,-0.426,-0.429,0.014,0.005,0.0,0.0,0.006,0.002,0.008,0.001,0.006,0.0,0.003,0.031,-0.012,0.003,-0.019,0.006,0.004,0.005,0.0,-0.014,0.003,0.001,0.424,0.002,0.002,0.015,0.024,0.013,-0.019,0.008,0.002,-0.012,0.018,0.042,0.004,0.016,0.002,0.002,0.003,-0.0,0.0,0.0,0.0
0.0,-0.872,-0.877,0.877,-0.88,-0.011,-0.013,0.013,7.684,1.867,2.641,0.999,-0.0,0.006,0.0,2.016,-0.009,0.0,1.36,0.209,0.209,0.213,0.205,0.429,1.517,0.005,0.0,-0.44,0.432,-0.006,-0.428,-0.432,0.015,0.004,0.0,0.0,0.005,0.001,0.002,-0.009,0.003,0.0,0.002,0.027,-0.015,0.002,-0.019,0.004,0.004,0.004,0.0,-0.014,0.003,0.001,0.436,0.002,0.002,0.015,0.027,0.015,-0.02,0.009,0.002,-0.009,0.019,0.047,0.004,0.018,0.004,0.003,0.003,0.0,0.0,-0.0,0.0
-0.0,-0.869,-0.872,0.873,-0.878,-0.019,-0.019,0.036,7.613,1.905,2.632,0.999,-0.01,0.011,0.0,2.022,-0.02,-0.0,1.354,0.216,0.216,0.22,0.21,0.435,1.525,0.004,0.0,-0.441,0.436,-0.002,-0.433,-0.436,0.014,0.003,0.0,0.0,0.004,0.002,0.004,0.003,0.007,0.0,0.003,0.027,-0.012,0.003,-0.021,0.009,0.005,0.005,0.0,-0.015,0.003,0.002,0.465,0.002,0.002,0.015,0.028,0.015,-0.027,0.012,0.002,-0.001,0.018,0.045,0.003,0.017,0.003,0.002,0.003,0.0,0.0,0.0,0.0
0.0,-0.867,-0.871,0.871,-0.873,-0.013,-0.001,0.044,7.583,1.935,2.629,1.0,-0.003,0.011,0.0,2.026,0.0,0.0,1.352,0.217,0.217,0.221,0.213,0.436,1.527,0.005,0.0,-0.447,0.44,-0.007,-0.437,-0.44,0.012,0.004,0.0,0.0,0.003,0.002,0.008,-0.008,0.006,0.0,0.003,0.02,-0.017,0.003,-0.015,0.006,0.003,0.005,0.0,-0.012,0.002,0.001,0.469,0.001,0.002,0.012,0.025,0.018,-0.027,0.004,0.003,0.008,0.013,0.041,0.002,0.012,0.003,0.002,0.002,-0.0,0.0,0.0,0.0
0.0,-0.866,-0.87,0.87,-0.873,0.002,-0.006,0.004,7.569,1.941,2.626,0.999,-0.006,0.006,0.0,2.027,-0.021,0.0,1.35,0.218,0.218,0.222,0.213,0.438,1.529,0.005,0.0,-0.445,0.441,-0.008,-0.435,-0.441,0.013,0.003,0.0,0.0,0.003,0.004,0.001,-0.002,0.004,0.0,0.002,0.033,-0.011,0.003,-0.018,0.005,0.003,0.003,0.0,-0.012,0.002,0.002,0.477,0.002,0.002,0.012,0.025,0.012,-0.017,0.012,0.001,0.008,0.019,0.042,0.005,0.018,0.003,0.003,0.004,0.0,0.0,0.0,-0.0
-0.0,-0.863,-0.867,0.867,-0.87,-0.002,0.003,-0.008,7.513,1.99,2.62,0.999,-0.003,0.004,-0.0,2.034,0.012,0.0,1.35,0.22,0.22,0.222,0.219,0.44,1.533,0.004,0.0,-0.451,0.446,-0.009,-0.442,-0.446,0.016,0.003,0.0,0.0,0.001,0.002,0.005,-0.012,0.002,0.0,0.001,0.023,-0.016,0.001,-0.015,0.002,0.002,0.001,0.0,-0.014,0.001,0.002,0.483,0.002,0.002,0.014,0.027,0.016,-0.019,0.012,0.003,0.007,0.018,0.047,0.003,0.017,0.003,0.002,0.003,0.0,0.0,0.0,-0.0
0.0,-0.864,-0.865,0.865,-0.866,0.001,0.002,-0.005,7.486,2.005,2.617,0.999,-0.0,0.001,-0.0,2.036,0.005,0.0,1.347,0.222,0.222,0.224,0.22,0.441,1.535,0.003,0.0,-0.449,0.448,-0.011,-0.446,-0.448,0.014,0.002,0.0,0.0,0.001,0.001,0.003,-0.015,0.001,0.0,0.001,0.022,-0.017,0.001,-0.014,0.001,0.001,0.001,0.0,-0.012,0.001,0.0,0.491,0.001,0.001,0.012,0.024,0.017,-0.019,0.009,0.003,0.004,0.014,0.042,0.001,0.013,0.001,0.001,0.002,-0.0,0.0,-0.0,0.0
-0.0,-0.864,-0.866,0.866,-0.867,0.001,-0.001,-0.004,7.498,2.003,2.618,1.0,-0.001,0.002,0.0,2.035,0.029,0.0,1.347,0.222,0.221,0.224,0.219,0.441,1.535,0.007,0.0,-0.452,0.448,-0.012,-0.445,-0.448,0.014,0.005,0.0,0.0,0.001,0.002,0.005,-0.014,0.002,0.0,0.001,0.03,-0.018,0.002,-0.018,0.002,0.002,0.003,0.0,-0.014,0.001,0.001,0.491,0.002,0.001,0.014,0.027,0.019,-0.023,0.004,0.003,-0.008,0.015,0.046,0.002,0.013,0.002,0.002,0.002,-0.0,0.0,0.0,-0.0
0.0,-0.855,-0.864,0.864,-0.87,0.094,0.01,-0.004,7.458,2.024,2.617,0.999,0.006,0.001,0.0,2.037,-0.04,-0.0,1.348,0.222,0.222,0.232,0.216,0.442,1.536,0.014,0.0,-0.461,0.45,0.034,-0.442,-0.45,0.017,0.008,0.001,0.0,0.01,0.004,0.002,0.008,0.007,0.0,0.003,0.04,-0.019,0.004,-0.067,0.012,0.024,0.004,0.0,-0.014,0.016,0.003,0.493,0.008,0.004,0.028,0.03,0.023,-0.044,-0.021,0.005,-0.008,0.019,0.061,0.003,0.014,0.005,0.003,0.004,0.0,0.0,-0.0,-0.0
0.001,-0.856,-0.87,0.87,-0.88,0.228,-0.001,-0.173,7.564,1.961,2.631,1.0,0.009,0.09,0.001,2.027,-0.187,-0.0,1.357,0.215,0.215,0.235,0.195,0.432,1.527,0.039,0.002,-0.457,0.443,0.054,-0.43,-0.443,0.03,0.032,0.003,0.0,0.028,0.014,0.06,0.081,0.049,0.0,0.011,0.095,-0.01,0.013,-0.152,0.054,0.059,0.02,0.003,-0.018,0.043,0.007,0.463,0.038,0.008,0.061,0.073,0.055,-0.078,-0.035,0.03,-0.022,0.044,0.127,0.014,0.019,0.009,0.008,0.019,0.0,0.0,-0.0,-0.0
-0.0,-0.859,-0.862,0.862,-0.863,-0.023,-0.017,0.02,7.425,2.024,2.611,0.999,-0.0,0.017,0.0,2.038,-0.023,-0.0,1.338,0.231,0.231,0.238,0.223,0.447,1.542,0.011,0.0,-0.453,0.45,-0.002,-0.446,-0.45,0.017,0.008,0.0,0.0,0.008,0.003,0.01,0.007,0.011,0.0,0.003,0.031,-0.017,0.004,-0.041,0.014,0.011,0.004,0.0,-0.018,0.009,0.001,0.533,0.004,0.001,0.021,0.034,0.022,-0.037,-0.01,0.005,-0.006,0.014,0.049,0.004,0.01,0.002,0.002,0.002,0.0,0.0,-0.0,0.0
-0.0,-0.858,-0.862,0.862,-0.863,-0.012,-0.004,0.038,7.424,2.021,2.612,1.0,-0.001,0.006,0.0,2.038,-0.02,-0.0,1.335,0.232,0.232,0.236,0.227,0.448,1.543,0.005,0.0,-0.453,0.45,-0.007,-0.446,-0.45,0.014,0.004,0.0,0.0,0.005,0.003,0.006,-0.009,0.005,0.0,0.003,0.023,-0.019,0.003,-0.02,0.007,0.004,0.006,0.0,-0.012,0.003,0.001,0.538,0.002,0.002,0.013,0.027,0.02,-0.031,0.004,0.004,0.003,0.016,0.046,0.002,0.015,0.002,0.002,0.003,0.0,0.0,0.0,0.0
0.0,-0.859,-0.862,0.863,-0.865,-0.008,0.007,-0.016,7.439,2.019,2.612,0.999,-0.002,0.004,0.0,2.037,-0.01,-0.0,1.34,0.229,0.229,0.235,0.226,0.446,1.541,0.012,0.0,-0.454,0.449,-0.01,-0.446,-0.449,0.014,0.009,0.0,0.0,0.008,0.001,0.015,-0.011,0.003,0.0,0.001,0.015,-0.018,0.002,-0.026,0.005,0.005,0.0,0.0,-0.017,0.005,0.001,0.526,0.003,0.002,0.018,0.028,0.019,-0.029,-0.024,0.004,0.004,0.012,0.046,0.003,0.004,0.002,0.002,0.002,0.0,0.0,0.0,0.0
0.0,-0.863,-0.867,0.867,-0.869,-0.026,-0.003,-0.017,7.519,1.926,2.624,0.998,0.001,0.007,0.0,2.025,-0.055,0.0,1.34,0.229,0.229,0.232,0.226,0.444,1.535,0.017,0.0,-0.448,0.439,-0.001,-0.434,-0.439,0.016,0.01,0.0,0.0,0.01,0.002,0.006,-0.009,0.005,0.0,0.002,0.028,-0.02,0.002,-0.023,0.006,0.007,0.005,0.0,-0.013,0.006,0.001,0.524,0.002,0.002,0.015,0.031,0.021,-0.03,-0.037,0.004,-0.001,0.022,0.054,0.003,0.014,0.003,0.002,0.005,0.0,0.0,-0.0,-0.0
-0.0,-0.861,-0.865,0.865,-0.867,-0.005,-0.01,0.02,7.479,1.979,2.617,0.999,-0.006,0.005,0.0,2.032,-0.009,-0.0,1.34,0.23,0.23,0.235,0.225,0.445,1.539,0.004,0.0,-0.449,0.445,-0.002,-0.441,-0.445,0.014,0.003,0.0,0.0,0.009,0.002,0.006,-0.006,0.004,0.0,0.003,0.022,-0.018,0.003,-0.019,0.006,0.005,0.005,0.0,-0.011,0.005,0.001,0.527,0.002,0.002,0.012,0.028,0.019,-0.032,0.009,0.004,0.005,0.018,0.046,0.004,0.017,0.003,0.002,0.003,0.0,0.0,-0.0,0.0
0.0,-0.863,-0.865,0.865,-0.868,-0.012,-0.01,0.01,7.479,1.988,2.616,1.0,0.0,0.004,-0.0,2.033,-0.005,-0.0,1.34,0.229,0.229,0.234,0.226,0.445,1.54,0.005,0.0,-0.45,0.446,-0.003,-0.443,-0.446,0.015,0.004,0.0,0.0,0.011,0.001,0.002,-0.006,0.004,0.0,0.002,0.023,-0.017,0.003,-0.03,0.005,0.008,0.003,0.0,-0.015,0.006,0.001,0.526,0.003,0.002,0.017,0.028,0.018,-0.028,0.008,0.003,-0.002,0.013,0.044,0.002,0.012,0.002,0.002,0.002,0.0,0.0,0.0,0.0
-0.0,-0.86,-0.864,0.864,-0.866,-0.003,-0.002,0.004,7.47,1.995,2.616,1.0,-0.006,0.006,-0.0,2.034,0.002,-0.0,1.342,0.229,0.228,0.233,0.226,0.444,1.539,0.005,0.0,-0.449,0.447,0.001,-0.445,-0.447,0.014,0.004,0.0,0.0,0.008,0.002,0.005,-0.009,0.004,0.0,0.002,0.027,-0.019,0.003,-0.025,0.005,0.007,0.003,0.0,-0.012,0.006,0.001,0.522,0.002,0.002,0.014,0.027,0.019,-0.027,0.008,0.004,0.005,0.014,0.044,0.002,0.013,0.001,0.001,0.002,0.0,0.0,-0.0,0.0
-0.0,-0.861,-0.864,0.864,-0.866,-0.003,-0.004,0.017,7.468,1.989,2.617,0.998,0.003,0.004,0.0,2.034,0.025,0.0,1.342,0.227,0.227,0.234,0.223,0.444,1.538,0.005,0.0,-0.451,0.446,-0.004,-0.44,-0.446,0.015,0.005,0.0,0.0,0.009,0.002,0.008,-0.015,0.003,0.0,0.003,0.023,-0.02,0.003,-0.025,0.003,0.006,0.003,0.0,-0.015,0.005,0.001,0.517,0.003,0.002,0.016,0.03,0.02,-0.027,0.005,0.004,0.001,0.013,0.047,0.004,0.012,0.003,0.003,0.002,0.0,0.0,-0.0,0.0
-0.0,-0.863,-0.866,0.866,-0.87,0.003,0.006,0.025,7.494,1.987,2.618,0.999,0.004,0.016,-0.0,2.034,-0.005,-0.0,1.344,0.225,0.225,0.229,0.22,0.442,1.536,0.004,0.0,-0.449,0.446,-0.003,-0.443,-0.446,0.014,0.003,0.0,0.0,0.008,0.001,0.004,-0.006,0.007,0.0,0.002,0.022,-0.018,0.003,-0.021,0.008,0.005,0.004,0.0,-0.012,0.004,0.001,0.505,0.002,0.002,0.014,0.029,0.02,-0.028,0.007,0.004,-0.003,0.014,0.044,0.003,0.014,0.002,0.002,0.002,0.0,0.0,-0.0,0.0
0.0,-0.861,-0.865,0.865,-0.867,-0.012,-0.002,0.058,7.475,1.99,2.617,0.999,0.002,0.009,0.0,2.032,-0.028,-0.0,1.342,0.226,0.226,0.233,0.222,0.444,1.537,0.005,0.0,-0.451,0.446,-0.007,-0.441,-0.446,0.014,0.005,0.0,0.0,0.005,0.001,0.01,0.001,0.007,0.0,0.003,0.022,-0.016,0.004,-0.015,0.009,0.003,0.007,0.0,-0.012,0.003,0.001,0.513,0.001,0.002,0.012,0.024,0.018,-0.029,0.008,0.003,-0.003,0.015,0.042,0.003,0.014,0.003,0.002,0.002,0.0,0.0,0.0,0.0
-0.0,-0.859,-0.866,0.867,-0.87,-0.011,0.011,0.019,7.508,2.105,2.62,0.999,0.006,0.013,-0.0,2.049,-0.115,0.0,1.379,0.191,0.191,0.195,0.186,0.423,1.516,0.021,0.0,-0.468,0.459,-0.01,-0.452,-0.459,0.014,0.016,0.0,0.0,0.004,0.004,0.024,-0.001,0.008,0.0,0.002,0.028,-0.018,0.002,-0.029,0.01,0.005,0.002,0.0,-0.015,0.004,0.003,0.363,0.003,0.003,0.016,0.033,0.021,-0.032,-0.044,0.004,0.0,0.023,0.053,0.008,0.009,0.005,0.004,0.005,0.0,0.0,-0.0,0.0
0.0,-0.851,-0.866,0.866,-0.879,0.021,0.013,0.007,7.5,2.112,2.617,0.999,0.012,0.005,-0.0,2.052,0.035,0.0,1.376,0.192,0.192,0.195,0.187,0.424,1.518,0.019,0.0,-0.478,0.46,-0.012,-0.443,-0.459,0.016,0.018,0.0,0.0,0.005,0.009,0.032,-0.004,0.005,0.0,0.002,0.029,-0.018,0.003,-0.023,0.007,0.003,0.003,0.0,-0.017,0.003,0.006,0.37,0.003,0.008,0.017,0.03,0.019,-0.029,-0.031,0.004,-0.012,0.019,0.053,0.013,0.001,0.01,0.008,0.004,0.0,0.0,-0.0,0.0
0.0,-0.867,-0.872,0.873,-0.876,-0.023,-0.008,0.016,7.613,2.009,2.633,1.0,-0.018,0.013,0.0,2.034,0.002,0.0,1.375,0.193,0.193,0.197,0.187,0.424,1.514,0.007,0.0,-0.455,0.448,-0.003,-0.444,-0.448,0.01,0.006,0.0,0.0,0.008,0.005,0.01,-0.01,0.009,0.0,0.003,0.02,-0.024,0.003,-0.018,0.011,0.005,0.005,0.0,-0.011,0.005,0.003,0.374,0.001,0.003,0.012,0.026,0.026,-0.047,-0.002,0.007,0.016,0.011,0.044,0.004,0.009,0.003,0.002,0.001,0.0,0.0,-0.0,0.0
-0.0,-0.859,-0.869,0.869,-0.873,0.026,0.038,-0.009,7.552,2.07,2.628,0.999,0.011,0.016,0.0,2.044,0.008,0.0,1.385,0.187,0.187,0.204,0.178,0.418,1.511,0.011,0.0,-0.461,0.455,0.002,-0.448,-0.455,0.022,0.009,0.001,0.0,0.022,0.002,0.013,-0.001,0.01,0.0,0.007,0.049,-0.02,0.008,-0.084,0.011,0.028,0.009,0.0,-0.03,0.023,0.004,0.352,0.017,0.005,0.041,0.046,0.023,-0.038,0.013,0.005,0.011,0.03,0.079,0.004,0.028,0.004,0.003,0.009,-0.0,0.0,0.0,0.0
0.0,-0.873,-0.897,0.897,-0.922,-0.224,0.056,-0.097,8.045,1.676,2.69,1.0,0.03,0.016,-0.0,1.988,0.275,0.001,1.41,0.166,0.165,0.196,0.148,0.388,1.47,0.051,0.003,-0.452,0.409,0.077,-0.363,-0.408,0.048,0.044,0.002,0.0,0.072,0.027,0.076,-0.004,0.017,0.0,0.013,-0.048,-0.049,0.015,-0.044,0.023,0.042,0.019,0.001,0.024,0.037,0.014,0.274,0.023,0.016,0.048,0.103,0.054,-0.084,-0.205,0.029,-0.053,0.113,0.191,0.051,-0.101,0.032,0.028,0.128,0.0,0.001,-0.0,-0.0
0.0,-0.927,-0.938,0.938,-0.947,0.028,0.074,-0.123,8.806,1.05,2.798,1.001,0.035,0.053,0.0,1.888,-0.091,0.001,1.445,0.127,0.126,0.144,0.108,0.334,1.388,0.057,0.003,-0.358,0.324,0.075,-0.307,-0.323,0.034,0.054,0.001,0.0,0.061,0.01,0.109,0.024,0.03,0.0,0.011,0.03,-0.027,0.012,-0.05,0.035,0.037,0.019,0.001,0.01,0.032,0.006,0.16,0.015,0.007,0.039,0.074,0.044,-0.086,-0.113,0.02,-0.095,0.07,0.13,0.028,-0.04,0.019,0.017,0.049,0.0,0.0,-0.0,-0.0
-0.0,-0.919,-0.931,0.931,-0.941,0.065,-0.044,-0.019,8.676,1.1,2.772,1.0,-0.002,0.032,0.0,1.904,-0.054,0.0,1.416,0.154,0.153,0.177,0.128,0.361,1.416,0.018,0.0,-0.35,0.332,-0.038,-0.314,-0.331,0.044,0.015,0.0,0.0,0.011,0.012,0.022,0.052,0.019,0.0,0.015,0.107,0.008,0.017,-0.091,0.022,0.014,0.032,0.0,-0.072,0.01,0.007,0.236,0.054,0.007,0.074,0.106,0.023,-0.021,0.046,0.005,0.014,0.073,0.162,0.025,0.071,0.013,0.012,0.053,-0.0,0.0,-0.0,0.0
0.0,-0.869,-0.889,0.889,-0.918,0.09,-0.085,-0.059,7.91,1.632,2.657,1.0,-0.046,0.015,0.001,1.994,-0.034,0.001,1.35,0.21,0.209,0.238,0.156,0.43,1.501,0.049,0.002,-0.431,0.404,-0.022,-0.364,-0.403,0.052,0.043,0.002,0.001,0.072,0.032,0.076,0.121,0.027,0.0,0.023,0.21,0.03,0.027,-0.137,0.04,0.041,0.034,0.002,-0.073,0.036,0.015,0.443,0.069,0.017,0.083,0.122,0.05,-0.04,0.053,0.025,0.083,0.124,0.225,0.036,0.114,0.024,0.021,0.154,-0.0,0.001,0.0,-0.0
0.001,-0.835,-0.852,0.852,-0.866,-0.124,-0.105,0.094,7.255,2.014,2.587,0.999,-0.046,0.061,0.0,2.03,-0.077,-0.0,1.3,0.268,0.268,0.298,0.24,0.468,1.568,0.025,0.001,-0.469,0.449,0.043,-0.437,-0.449,0.037,0.02,0.002,0.0,0.032,0.011,0.034,0.076,0.036,0.0,0.014,0.082,0.002,0.016,-0.092,0.043,0.042,0.02,0.002,-0.034,0.031,0.007,0.72,0.029,0.009,0.054,0.077,0.043,-0.064,0.002,0.018,0.014,0.049,0.129,0.014,0.043,0.01,0.009,0.024,-0.0,0.0,0.0,0.0
0.0,-0.832,-0.84,0.84,-0.849,-0.06,0.009,0.075,7.063,2.166,2.571,0.999,-0.01,0.018,0.0,2.056,0.011,0.0,1.292,0.274,0.274,0.284,0.262,0.476,1.58,0.008,0.0,-0.481,0.465,0.027,-0.449,-0.465,0.016,0.007,0.0,0.0,0.014,0.007,0.011,0.027,0.014,0.0,0.007,0.049,-0.014,0.008,-0.038,0.017,0.017,0.015,0.0,-0.004,0.012,0.004,0.751,0.003,0.005,0.017,0.044,0.023,-0.03,0.023,0.005,0.018,0.036,0.069,0.015,0.035,0.01,0.009,0.013,0.0,0.0,0.0,0.0
0.001,-0.817,-0.827,0.827,-0.834,0.247,0.057,0.006,6.846,2.445,2.545,0.999,-0.033,0.034,-0.0,2.094,-0.011,0.0,1.305,0.264,0.264,0.28,0.244,0.477,1.585,0.044,0.002,-0.508,0.494,0.119,-0.475,-0.494,0.035,0.036,0.006,0.0,0.09,0.008,0.053,0.048,0.023,0.0,0.008,0.083,-0.01,0.011,-0.113,0.028,0.078,0.01,0.001,-0.023,0.064,0.005,0.696,0.066,0.005,0.081,0.107,0.03,-0.043,-0.059,0.009,0.073,0.048,0.133,0.02,0.019,0.012,0.011,0.023,0.0,0.0,-0.0,0.0
0.001,-0.823,-0.838,0.838,-0.855,0.024,-0.078,0.022,7.022,1.938,2.568,0.999,0.015,0.014,-0.0,2.021,0.097,0.0,1.24,0.321,0.321,0.346,0.289,0.49,1.598,0.02,0.0,-0.481,0.44,-0.049,-0.405,-0.439,0.037,0.017,0.003,0.0,0.056,0.014,0.03,0.011,0.011,0.0,0.016,-0.01,-0.012,0.019,-0.237,0.014,0.052,0.025,0.0,-0.128,0.042,0.008,1.032,0.192,0.01,0.139,0.127,0.018,-0.033,-0.076,0.003,-0.075,0.046,0.185,0.051,-0.041,0.028,0.025,0.021,-0.0,0.001,0.0,0.0
-0.0,-0.851,-0.859,0.859,-0.868,-0.05,-0.017,0.018,7.381,1.338,2.601,1.002,-0.004,0.009,0.0,1.948,-0.034,-0.0,1.199,0.363,0.363,0.374,0.347,0.484,1.587,0.018,0.0,-0.395,0.366,0.001,-0.344,-0.366,0.024,0.015,0.001,0.0,0.067,0.008,0.02,0.006,0.006,0.0,0.006,0.005,-0.007,0.008,-0.101,0.007,0.036,0.009,0.0,-0.056,0.033,0.005,1.316,0.044,0.006,0.066,0.07,0.01,-0.019,-0.06,0.001,-0.012,0.035,0.095,0.02,-0.03,0.015,0.012,0.012,0.0,0.0,-0.0,0.0
0.001,-0.855,-0.861,0.861,-0.867,-0.225,-0.011,0.014,7.41,1.29,2.607,1.001,0.007,0.022,-0.0,1.924,-0.114,-0.0,1.19,0.363,0.362,0.378,0.336,0.481,1.582,0.036,0.001,-0.393,0.359,0.18,-0.338,-0.358,0.053,0.033,0.007,0.0,0.162,0.004,0.066,-0.011,0.015,0.0,0.014,0.1,-0.035,0.015,-0.034,0.017,0.084,0.024,0.0,0.074,0.08,0.002,1.316,0.126,0.003,0.112,0.113,0.039,-0.062,-0.008,0.015,-0.031,0.058,0.172,0.036,0.045,0.022,0.02,0.034,0.0,0.0,0.0,0.0
-0.0,-0.845,-0.85,0.85,-0.856,0.077,0.025,0.055,7.225,1.993,2.586,1.0,-0.015,0.017,0.0,2.035,0.019,-0.0,1.284,0.278,0.277,0.31,0.24,0.474,1.573,0.01,0.0,-0.477,0.446,0.168,-0.417,-0.446,0.065,0.009,0.001,0.001,0.025,0.004,0.015,-0.03,0.011,0.0,0.021,0.068,-0.051,0.024,0.074,0.013,0.025,0.044,0.0,0.104,0.018,0.003,0.774,0.114,0.004,0.107,0.126,0.053,-0.071,0.034,0.028,0.04,0.054,0.208,0.029,0.053,0.018,0.015,0.029,-0.0,0.0,0.0,-0.0
0.001,-0.839,-0.846,0.846,-0.85,0.248,0.056,0.104,7.149,2.401,2.58,1.0,-0.012,0.062,-0.0,2.08,-0.052,0.001,1.364,0.208,0.207,0.229,0.188,0.438,1.542,0.033,0.001,-0.509,0.49,0.101,-0.479,-0.49,0.04,0.024,0.002,0.0,0.07,0.005,0.028,0.054,0.044,0.0,0.011,0.071,-0.038,0.013,-0.067,0.05,0.049,0.013,0.003,0.021,0.04,0.003,0.431,0.028,0.004,0.053,0.094,0.063,-0.083,-0.058,0.04,0.035,0.043,0.142,0.011,0.027,0.009,0.007,0.018,-0.0,0.0,0.0,-0.0
0.0,-0.823,-0.835,0.835,-0.842,-0.038,-0.003,-0.042,6.971,2.615,2.562,0.998,-0.008,0.04,-0.0,2.107,0.054,0.0,1.374,0.195,0.195,0.204,0.183,0.434,1.541,0.02,0.0,-0.529,0.511,0.027,-0.497,-0.511,0.018,0.016,0.001,0.0,0.04,0.005,0.02,0.022,0.022,0.0,0.004,0.074,-0.015,0.006,-0.041,0.026,0.022,0.005,0.001,-0.014,0.019,0.004,0.38,0.007,0.005,0.026,0.046,0.03,-0.063,0.015,0.009,0.01,0.042,0.083,0.004,0.037,0.008,0.005,0.018,-0.0,0.0,0.0,-0.0
0.0,-0.821,-0.828,0.828,-0.833,-0.041,0.025,0.105,6.849,2.737,2.55,0.998,-0.021,0.031,0.0,2.124,0.001,0.0,1.376,0.192,0.192,0.206,0.179,0.438,1.543,0.016,0.0,-0.533,0.523,0.002,-0.514,-0.523,0.014,0.014,0.0,0.0,0.007,0.005,0.025,0.003,0.016,0.0,0.009,0.044,-0.026,0.009,-0.026,0.017,0.008,0.015,0.0,-0.007,0.006,0.003,0.37,0.001,0.004,0.011,0.038,0.031,-0.048,-0.006,0.01,0.033,0.025,0.055,0.01,0.019,0.006,0.005,0.006,0.0,0.0,-0.0,0.0
-0.0,-0.813,-0.832,0.832,-0.843,-0.018,-0.03,0.026,6.928,2.642,2.558,0.997,0.023,0.038,0.0,2.11,-0.074,-0.0,1.368,0.199,0.199,0.206,0.185,0.44,1.545,0.029,0.001,-0.535,0.514,-0.004,-0.501,-0.514,0.015,0.022,0.001,0.0,0.031,0.003,0.036,0.007,0.021,0.0,0.005,0.076,-0.019,0.006,-0.074,0.023,0.022,0.006,0.001,-0.038,0.019,0.005,0.395,0.019,0.007,0.044,0.038,0.03,-0.056,-0.023,0.009,-0.038,0.029,0.081,0.007,0.006,0.009,0.006,0.008,0.0,0.0,-0.0,0.0
-0.0,-0.826,-0.869,0.869,-0.907,0.019,-0.018,-0.117,7.549,2.033,2.626,0.998,0.041,0.031,-0.0,2.037,0.02,0.0,1.37,0.2,0.2,0.208,0.194,0.43,1.518,0.03,0.001,-0.524,0.451,-0.005,-0.378,-0.449,0.047,0.026,0.0,0.0,0.029,0.02,0.049,-0.01,0.016,0.0,0.003,-0.093,-0.032,0.004,-0.054,0.019,0.016,0.004,0.0,-0.035,0.015,0.017,0.4,0.015,0.022,0.038,0.132,0.038,-0.069,-0.185,0.014,-0.056,0.132,0.196,0.047,-0.129,0.041,0.034,0.175,0.0,0.002,-0.0,-0.0
-0.0,-0.909,-0.942,0.942,-0.964,-0.01,0.002,0.04,8.87,0.771,2.805,1.003,0.061,0.018,0.0,1.836,-0.057,-0.0,1.366,0.203,0.203,0.208,0.198,0.368,1.415,0.026,0.001,-0.376,0.278,-0.043,-0.167,-0.27,0.074,0.022,0.001,0.0,0.037,0.034,0.029,-0.014,0.01,0.0,0.002,-0.163,-0.033,0.003,-0.124,0.012,0.026,0.003,0.0,-0.077,0.023,0.017,0.414,0.066,0.019,0.081,0.202,0.035,-0.05,-0.241,0.012,-0.136,0.195,0.302,0.084,-0.193,0.065,0.054,0.379,0.0,0.004,-0.0,0.0
0.001,-0.968,-0.981,0.981,-0.99,0.162,0.026,-0.043,9.63,0.1,2.932,1.005,0.022,0.011,-0.0,1.659,-0.06,0.0,1.382,0.192,0.192,0.217,0.182,0.254,1.264,0.031,0.001,-0.155,0.1,0.058,-0.037,-0.091,0.053,0.027,0.001,0.0,0.032,0.007,0.047,-0.013,0.013,0.0,0.007,-0.074,-0.042,0.01,-0.067,0.019,0.034,0.007,0.0,-0.026,0.026,0.005,0.368,0.018,0.006,0.043,0.127,0.046,-0.091,-0.176,0.021,-0.109,0.122,0.197,0.066,-0.118,0.041,0.036,0.149,0.0,0.002,-0.0,-0.0
-0.0,-0.987,-0.991,0.991,-0.995,-0.114,0.001,0.03,9.815,0.002,2.956,1.008,-0.002,0.005,-0.0,1.577,-0.154,-0.0,1.386,0.185,0.185,0.194,0.178,0.106,1.186,0.047,0.002,-0.038,0.014,0.043,0.009,-0.007,0.024,0.04,0.001,0.0,0.032,0.004,0.066,-0.006,0.004,0.0,0.003,0.047,-0.022,0.004,-0.073,0.006,0.037,0.003,0.0,-0.012,0.029,0.002,0.344,0.015,0.003,0.039,0.051,0.022,-0.028,-0.087,0.005,-0.066,0.047,0.09,0.01,-0.005,0.012,0.008,0.022,0.0,0.0,-0.0,0.0
0.0,-0.984,-0.989,0.989,-0.992,-0.043,0.02,-0.005,9.773,0.032,2.957,1.007,0.011,0.005,-0.0,1.62,-0.03,0.0,1.394,0.178,0.178,0.188,0.174,0.205,1.217,0.021,0.0,-0.091,0.057,0.058,-0.013,-0.051,0.034,0.018,0.001,0.0,0.044,0.004,0.028,-0.011,0.004,0.0,0.003,0.124,-0.021,0.004,-0.023,0.005,0.028,0.003,0.0,0.015,0.025,0.002,0.316,0.01,0.003,0.032,0.1,0.021,-0.029,0.051,0.005,0.041,0.09,0.133,0.036,0.087,0.025,0.021,0.081,-0.0,0.001,0.0,0.0
0.0,-0.946,-0.969,0.969,-0.986,0.0,-0.019,-0.074,9.396,0.326,2.897,1.003,-0.001,0.029,0.0,1.731,-0.188,0.0,1.388,0.182,0.182,0.196,0.17,0.306,1.323,0.055,0.003,-0.268,0.181,0.019,-0.101,-0.172,0.03,0.049,0.001,0.0,0.033,0.026,0.092,0.026,0.019,0.0,0.006,0.254,0.001,0.007,-0.067,0.024,0.027,0.01,0.001,-0.008,0.022,0.013,0.333,0.008,0.015,0.028,0.21,0.024,-0.056,0.103,0.006,0.037,0.201,0.232,0.099,0.193,0.057,0.05,0.402,-0.0,0.003,-0.0,-0.0
0.001,-0.865,-0.901,0.901,-0.933,0.103,0.029,0.034,8.114,1.504,2.696,1.0,-0.04,0.02,-0.0,1.968,0.108,0.0,1.376,0.195,0.195,0.204,0.186,0.406,1.479,0.046,0.002,-0.453,0.388,0.083,-0.282,-0.384,0.049,0.04,0.001,0.0,0.029,0.037,0.075,0.032,0.017,0.001,0.005,0.291,-0.007,0.006,-0.038,0.023,0.035,0.008,0.001,0.025,0.028,0.02,0.38,0.019,0.023,0.043,0.2,0.024,-0.059,0.138,0.006,0.147,0.216,0.267,0.075,0.211,0.055,0.046,0.466,-0.0,0.003,0.0,0.0
0.0,-0.824,-0.836,0.836,-0.857,0.077,-0.027,0.04,6.985,2.603,2.55,0.998,-0.054,0.034,0.0,2.119,0.117,-0.0,1.379,0.191,0.191,0.203,0.183,0.432,1.536,0.047,0.002,-0.529,0.51,0.074,-0.476,-0.51,0.036,0.043,0.001,0.0,0.031,0.019,0.07,0.035,0.02,0.0,0.004,0.162,0.003,0.006,-0.017,0.022,0.027,0.006,0.001,0.039,0.022,0.011,0.364,0.022,0.012,0.047,0.094,0.023,-0.034,0.013,0.005,0.071,0.096,0.146,0.029,0.083,0.018,0.016,0.092,-0.0,0.0,0.0,-0.0
-0.0,-0.816,-0.821,0.821,-0.825,0.032,-0.019,-0.011,6.742,2.888,2.537,0.998,0.001,0.008,-0.0,2.137,0.04,-0.0,1.385,0.183,0.183,0.192,0.171,0.432,1.541,0.013,0.0,-0.549,0.537,0.018,-0.532,-0.537,0.012,0.009,0.0,0.0,0.008,0.003,0.012,0.009,0.006,0.0,0.006,0.043,-0.009,0.007,-0.042,0.008,0.014,0.01,0.0,-0.019,0.009,0.002,0.334,0.006,0.003,0.024,0.027,0.012,-0.021,-0.005,0.001,-0.012,0.017,0.045,0.007,0.012,0.005,0.004,0.003,-0.0,0.0,0.0,-0.0
-0.0,-0.818,-0.824,0.824,-0.829,-0.006,-0.003,-0.013,6.787,2.814,2.542,0.998,0.0,0.003,-0.0,2.13,0.024,0.0,1.378,0.191,0.191,0.194,0.188,0.437,1.545,0.006,0.0,-0.538,0.531,-0.009,-0.525,-0.531,0.012,0.005,0.0,0.0,0.004,0.002,0.007,-0.006,0.003,0.0,0.002,0.016,-0.016,0.002,-0.019,0.004,0.003,0.003,0.0,-0.013,0.002,0.002,0.365,0.002,0.003,0.014,0.023,0.016,-0.023,-0.006,0.003,-0.002,0.009,0.037,0.006,0.006,0.004,0.004,0.001,0.0,0.0,-0.0,-0.0
-0.0,-0.815,-0.822,0.822,-0.826,-0.023,-0.007,-0.018,6.754,2.843,2.539,0.998,-0.007,0.006,-0.0,2.135,-0.034,0.0,1.379,0.188,0.188,0.192,0.179,0.436,1.543,0.008,0.0,-0.542,0.533,0.01,-0.524,-0.533,0.018,0.006,0.0,0.0,0.015,0.005,0.007,-0.02,0.007,0.0,0.004,0.034,-0.031,0.004,-0.014,0.009,0.009,0.005,0.0,-0.003,0.008,0.003,0.353,0.001,0.004,0.009,0.041,0.033,-0.051,0.005,0.011,0.008,0.024,0.062,0.008,0.022,0.005,0.004,0.006,-0.0,0.0,-0.0,-0.0
0.0,-0.821,-0.86,0.86,-0.896,-0.022,0.044,0.017,7.404,2.415,2.61,1.0,0.053,0.028,-0.0,2.084,0.227,-0.0,1.44,0.134,0.132,0.174,0.099,0.38,1.482,0.041,0.002,-0.542,0.491,0.098,-0.434,-0.49,0.07,0.03,0.001,0.001,0.047,0.039,0.021,-0.005,0.023,0.001,0.018,-0.033,-0.056,0.023,0.01,0.029,0.029,0.021,0.001,0.054,0.025,0.022,0.179,0.037,0.025,0.061,0.161,0.063,-0.107,-0.187,0.04,-0.067,0.138,0.242,0.066,-0.132,0.038,0.034,0.19,0.0,0.001,-0.0,-0.0
0.0,-0.907,-0.92,0.921,-0.928,0.098,0.042,-0.007,8.474,1.432,2.75,0.999,0.027,0.041,-0.0,1.952,-0.129,0.0,1.488,0.085,0.084,0.1,0.072,0.304,1.383,0.064,0.004,-0.404,0.378,0.061,-0.363,-0.378,0.03,0.059,0.002,0.0,0.091,0.007,0.112,0.008,0.022,0.0,0.007,0.061,-0.027,0.008,-0.062,0.023,0.048,0.008,0.001,-0.005,0.046,0.005,0.072,0.024,0.006,0.049,0.079,0.036,-0.054,-0.141,0.013,-0.069,0.072,0.136,0.017,-0.032,0.013,0.011,0.052,0.0,0.0,-0.0,-0.0
-0.0,-0.887,-0.904,0.904,-0.919,0.026,-0.037,-0.02,8.17,1.657,2.7,1.0,-0.018,0.017,0.0,1.991,-0.027,0.0,1.449,0.124,0.123,0.154,0.089,0.354,1.433,0.015,0.0,-0.436,0.407,-0.054,-0.37,-0.406,0.045,0.01,0.0,0.0,0.024,0.019,0.01,0.035,0.01,0.0,0.019,0.123,0.013,0.021,-0.106,0.011,0.018,0.03,0.0,-0.086,0.015,0.01,0.155,0.078,0.011,0.088,0.124,0.017,-0.004,0.059,0.003,0.038,0.092,0.191,0.034,0.091,0.021,0.017,0.085,-0.0,0.0,0.0,0.0
-0.0,-0.827,-0.856,0.856,-0.883,-0.172,-0.03,-0.035,7.324,2.337,2.6,0.998,-0.034,0.034,0.0,2.077,-0.017,0.0,1.398,0.175,0.174,0.202,0.151,0.414,1.512,0.017,0.0,-0.526,0.483,0.005,-0.439,-0.483,0.045,0.014,0.001,0.0,0.052,0.027,0.022,0.048,0.016,0.0,0.013,0.136,0.023,0.016,-0.082,0.017,0.031,0.018,0.0,-0.054,0.029,0.016,0.306,0.039,0.018,0.062,0.139,0.029,0.001,0.086,0.008,0.045,0.118,0.194,0.039,0.117,0.026,0.023,0.139,-0.0,0.001,0.0,-0.0
0.0,-0.812,-0.821,0.821,-0.827,0.013,-0.005,-0.008,6.742,2.794,2.537,0.997,0.003,0.016,-0.0,2.13,0.095,-0.0,1.364,0.203,0.203,0.212,0.193,0.446,1.553,0.026,0.001,-0.539,0.529,0.009,-0.518,-0.529,0.016,0.023,0.001,0.0,0.035,0.005,0.044,0.0,0.01,0.0,0.004,0.063,-0.022,0.005,-0.066,0.013,0.023,0.006,0.0,-0.025,0.02,0.003,0.414,0.011,0.004,0.033,0.044,0.026,-0.044,-0.011,0.007,-0.008,0.032,0.074,0.005,0.019,0.005,0.004,0.01,-0.0,0.0,0.0,0.0
0.001,-0.812,-0.819,0.819,-0.83,-0.126,0.008,-0.073,6.713,2.83,2.534,0.998,-0.008,0.048,0.0,2.134,0.122,0.0,1.364,0.205,0.205,0.215,0.187,0.448,1.556,0.027,0.001,-0.541,0.532,0.137,-0.521,-0.532,0.02,0.023,0.003,0.0,0.025,0.009,0.039,0.055,0.026,0.0,0.006,0.049,-0.006,0.008,-0.048,0.031,0.051,0.008,0.001,-0.004,0.034,0.005,0.422,0.026,0.005,0.051,0.058,0.032,-0.045,-0.033,0.01,0.023,0.033,0.091,0.008,0.02,0.006,0.005,0.011,0.0,0.0,0.0,0.0
0.0,-0.811,-0.815,0.815,-0.821,-0.02,-0.009,-0.019,6.646,2.872,2.527,0.998,0.008,0.015,0.0,2.138,-0.026,-0.0,1.358,0.21,0.21,0.215,0.202,0.452,1.562,0.01,0.0,-0.541,0.536,0.003,-0.527,-0.536,0.015,0.009,0.0,0.0,0.022,0.004,0.014,-0.002,0.009,0.0,0.003,0.031,-0.018,0.004,-0.046,0.011,0.015,0.005,0.0,-0.023,0.012,0.002,0.443,0.007,0.003,0.027,0.039,0.021,-0.041,-0.003,0.005,-0.017,0.018,0.057,0.003,0.014,0.004,0.003,0.003,-0.0,0.0,-0.0,-0.0
-0.0,-0.804,-0.814,0.814,-0.821,-0.012,0.001,-0.081,6.63,2.861,2.528,0.999,0.001,0.015,0.0,2.134,-0.019,0.0,1.354,0.219,0.218,0.23,0.211,0.454,1.568,0.017,0.0,-0.546,0.535,-0.001,-0.529,-0.535,0.008,0.014,0.0,0.0,0.009,0.007,0.019,0.022,0.015,0.0,0.006,0.059,-0.008,0.007,-0.055,0.023,0.014,0.01,0.001,-0.017,0.009,0.005,0.477,0.005,0.006,0.023,0.024,0.024,-0.063,0.003,0.006,-0.005,0.026,0.054,0.003,0.019,0.004,0.003,0.007,0.0,0.0,-0.0,-0.0
-0.0,-0.8,-0.808,0.808,-0.815,0.026,-0.025,-0.057,6.535,2.915,2.518,0.998,0.019,0.034,-0.0,2.141,-0.019,0.0,1.342,0.225,0.225,0.233,0.217,0.461,1.573,0.027,0.001,-0.554,0.54,0.023,-0.528,-0.54,0.02,0.024,0.0,0.0,0.012,0.009,0.052,0.014,0.018,0.0,0.004,0.068,-0.018,0.005,-0.018,0.02,0.012,0.007,0.0,-0.007,0.009,0.005,0.506,0.002,0.005,0.013,0.037,0.026,-0.043,-0.005,0.007,-0.034,0.039,0.064,0.014,0.028,0.008,0.007,0.015,-0.0,0.0,0.0,-0.0
-0.0,-0.794,-0.8,0.8,-0.803,-0.002,-0.01,-0.032,6.397,3.086,2.502,0.998,0.014,0.012,0.0,2.162,0.024,-0.0,1.35,0.219,0.218,0.223,0.212,0.46,1.574,0.011,0.0,-0.56,0.556,0.005,-0.55,-0.556,0.01,0.01,0.0,0.0,0.009,0.004,0.019,-0.002,0.007,0.0,0.003,0.032,-0.015,0.004,-0.032,0.008,0.011,0.005,0.0,-0.012,0.008,0.003,0.478,0.003,0.003,0.016,0.03,0.017,-0.025,0.0,0.003,-0.017,0.019,0.042,0.005,0.015,0.003,0.003,0.004,-0.0,0.0,0.0,0.0
0.001,-0.793,-0.801,0.801,-0.81,0.078,0.041,-0.086,6.415,3.015,2.5,0.998,-0.02,0.062,0.001,2.158,0.127,0.0,1.344,0.229,0.229,0.26,0.206,0.464,1.579,0.038,0.001,-0.569,0.549,0.02,-0.524,-0.549,0.027,0.035,0.001,0.0,0.048,0.011,0.064,0.082,0.035,0.0,0.013,0.025,0.016,0.016,-0.1,0.04,0.035,0.018,0.002,-0.026,0.028,0.005,0.526,0.019,0.006,0.044,0.062,0.043,-0.044,-0.081,0.019,0.046,0.042,0.102,0.017,-0.017,0.015,0.012,0.018,0.0,0.0,0.0,-0.0
-0.0,-0.808,-0.829,0.829,-0.856,0.467,-0.093,0.036,6.876,2.156,2.548,1.0,0.022,0.073,0.0,2.053,0.051,-0.0,1.253,0.312,0.31,0.347,0.258,0.492,1.602,0.026,0.001,-0.53,0.464,-0.039,-0.388,-0.462,0.082,0.018,0.005,0.001,0.097,0.024,0.019,0.077,0.038,0.0,0.028,-0.023,-0.01,0.031,-0.26,0.045,0.073,0.053,0.002,-0.181,0.064,0.013,0.973,0.382,0.015,0.195,0.246,0.046,-0.071,-0.117,0.022,-0.07,0.097,0.313,0.073,-0.094,0.046,0.04,0.095,-0.0,0.002,0.0,-0.0
0.001,-0.868,-0.881,0.881,-0.894,0.102,-0.04,0.054,7.768,0.986,2.649,1.003,0.032,0.028,0.0,1.877,-0.151,-0.0,1.203,0.357,0.357,0.373,0.34,0.46,1.551,0.062,0.004,-0.371,0.314,0.107,-0.284,-0.313,0.054,0.053,0.007,0.0,0.105,0.02,0.092,0.017,0.021,0.0,0.01,0.043,-0.032,0.011,-0.157,0.025,0.083,0.018,0.001,-0.062,0.069,0.009,1.276,0.106,0.01,0.103,0.133,0.041,-0.07,-0.181,0.017,-0.119,0.094,0.209,0.04,-0.071,0.029,0.025,0.089,0.0,0.001,-0.0,0.0
-0.0,-0.881,-0.888,0.888,-0.895,-0.089,-0.025,0.005,7.893,0.908,2.664,1.001,0.003,0.023,0.0,1.866,-0.109,0.0,1.212,0.351,0.351,0.36,0.334,0.453,1.54,0.037,0.001,-0.334,0.301,0.122,-0.281,-0.301,0.034,0.035,0.003,0.0,0.091,0.009,0.073,0.005,0.014,0.0,0.005,0.098,-0.02,0.007,-0.052,0.017,0.058,0.004,0.0,0.035,0.051,0.005,1.232,0.046,0.005,0.068,0.08,0.026,-0.053,-0.003,0.007,-0.032,0.065,0.132,0.029,0.053,0.018,0.016,0.043,-0.0,0.0,0.0,0.0
0.001,-0.832,-0.86,0.86,-0.881,-0.342,-0.025,-0.008,7.402,1.754,2.608,1.0,-0.018,0.049,-0.0,1.991,-0.149,0.0,1.26,0.291,0.289,0.325,0.225,0.466,1.565,0.032,0.001,-0.512,0.419,0.279,-0.352,-0.416,0.105,0.029,0.005,0.001,0.119,0.019,0.061,-0.018,0.023,0.0,0.028,0.183,-0.048,0.033,0.091,0.026,0.071,0.044,0.001,0.178,0.067,0.013,0.845,0.369,0.015,0.192,0.244,0.055,-0.087,0.092,0.03,0.026,0.137,0.36,0.079,0.133,0.051,0.044,0.187,-0.0,0.003,0.0,-0.0
0.001,-0.803,-0.82,0.82,-0.839,0.205,0.123,-0.359,6.719,2.988,2.532,0.999,-0.01,0.111,0.001,2.152,0.099,-0.0,1.402,0.17,0.168,0.216,0.129,0.422,1.534,0.045,0.002,-0.567,0.547,0.192,-0.521,-0.546,0.046,0.037,0.008,0.001,0.115,0.013,0.061,0.078,0.061,0.0,0.019,0.13,-0.035,0.024,-0.094,0.07,0.089,0.028,0.005,0.058,0.078,0.009,0.289,0.113,0.011,0.106,0.112,0.078,-0.149,-0.033,0.061,0.045,0.073,0.213,0.023,0.058,0.015,0.012,0.054,-0.0,0.0,-0.0,-0.0
-0.0,-0.811,-0.822,0.822,-0.834,0.055,-0.003,-0.107,6.759,2.892,2.533,0.998,0.0,0.032,-0.0,2.15,0.009,0.0,1.404,0.173,0.173,0.19,0.161,0.422,1.532,0.034,0.001,-0.556,0.538,-0.029,-0.509,-0.538,0.026,0.032,0.0,0.0,0.028,0.013,0.054,0.006,0.017,0.0,0.011,-0.002,-0.02,0.012,-0.091,0.019,0.02,0.023,0.0,-0.056,0.018,0.007,0.299,0.035,0.008,0.059,0.076,0.028,-0.053,-0.1,0.008,0.015,0.054,0.12,0.024,-0.042,0.017,0.015,0.029,0.0,0.0,-0.0,0.0
0.0,-0.84,-0.854,0.854,-0.86,0.022,-0.022,-0.049,7.285,2.339,2.598,0.998,0.022,0.018,0.0,2.074,-0.097,0.0,1.384,0.187,0.187,0.193,0.181,0.426,1.524,0.038,0.001,-0.506,0.484,0.005,-0.474,-0.484,0.019,0.032,0.0,0.0,0.005,0.005,0.05,-0.004,0.012,0.0,0.004,0.048,-0.023,0.004,-0.028,0.015,0.009,0.006,0.0,-0.017,0.006,0.004,0.348,0.004,0.006,0.019,0.042,0.027,-0.054,-0.075,0.007,-0.039,0.039,0.072,0.007,-0.004,0.008,0.006,0.015,0.0,0.0,-0.0,-0.0
-0.0,-0.84,-0.845,0.845,-0.854,0.023,0.014,0.009,7.135,2.498,2.578,0.998,-0.004,0.007,0.0,2.099,0.051,0.0,1.391,0.18,0.18,0.185,0.176,0.424,1.524,0.009,0.0,-0.51,0.5,0.005,-0.483,-0.5,0.016,0.007,0.0,0.0,0.01,0.006,0.009,-0.003,0.008,0.0,0.002,0.055,-0.015,0.003,-0.019,0.011,0.008,0.002,0.0,-0.009,0.006,0.004,0.323,0.001,0.004,0.012,0.044,0.019,-0.04,0.022,0.004,0.014,0.04,0.065,0.009,0.039,0.009,0.007,0.016,-0.0,0.0,0.0,-0.0
-0.0,-0.835,-0.842,0.842,-0.848,0.121,-0.008,-0.038,7.09,2.494,2.57,0.998,0.012,0.031,0.0,2.101,0.249,0.001,1.378,0.193,0.193,0.208,0.181,0.432,1.534,0.047,0.002,-0.515,0.499,0.018,-0.467,-0.499,0.016,0.039,0.001,0.0,0.014,0.008,0.059,0.032,0.017,0.0,0.008,0.069,-0.008,0.009,-0.082,0.021,0.025,0.015,0.0,-0.033,0.018,0.004,0.372,0.017,0.005,0.042,0.042,0.022,-0.037,-0.097,0.005,-0.012,0.049,0.092,0.024,-0.011,0.016,0.014,0.024,-0.0,0.0,0.0,0.0
-0.0,-0.837,-0.846,0.846,-0.859,0.107,-0.037,0.071,7.156,2.428,2.577,0.999,-0.013,0.022,0.0,2.087,0.205,0.0,1.37,0.201,0.201,0.211,0.19,0.438,1.54,0.047,0.002,-0.507,0.493,0.045,-0.479,-0.493,0.021,0.039,0.001,0.0,0.029,0.009,0.054,0.009,0.015,0.0,0.005,0.095,-0.02,0.006,-0.084,0.017,0.033,0.009,0.0,-0.015,0.025,0.006,0.406,0.013,0.007,0.036,0.057,0.026,-0.046,-0.063,0.007,0.019,0.047,0.087,0.015,0.004,0.01,0.009,0.023,-0.0,0.0,0.0,-0.0
0.001,-0.847,-0.858,0.858,-0.879,-0.018,-0.029,0.052,7.359,2.189,2.602,0.998,-0.041,0.046,0.0,2.063,-0.133,0.001,1.362,0.206,0.206,0.217,0.196,0.436,1.531,0.064,0.004,-0.491,0.468,0.009,-0.425,-0.467,0.018,0.05,0.001,0.0,0.021,0.011,0.055,0.013,0.025,0.0,0.006,0.07,-0.022,0.007,-0.11,0.029,0.037,0.01,0.001,-0.03,0.028,0.008,0.424,0.023,0.01,0.048,0.045,0.036,-0.067,-0.129,0.013,0.09,0.065,0.108,0.028,-0.012,0.021,0.017,0.043,0.0,0.0,-0.0,0.0
0.0,-0.839,-0.87,0.871,-0.928,0.099,-0.005,-0.054,7.583,2.033,2.606,1.0,-0.104,0.036,0.0,2.058,0.19,0.001,1.372,0.197,0.197,0.207,0.187,0.429,1.515,0.242,0.059,-0.51,0.451,0.027,-0.354,-0.448,0.048,0.224,0.004,0.0,0.111,0.03,0.446,0.005,0.024,0.001,0.005,0.123,-0.039,0.006,-0.159,0.027,0.064,0.01,0.001,-0.05,0.059,0.022,0.388,0.066,0.026,0.081,0.141,0.048,-0.082,-0.533,0.023,0.184,0.279,0.327,0.062,-0.138,0.05,0.042,0.776,0.001,0.002,0.0,0.0
0.001,-0.953,-0.979,0.979,-0.999,-0.12,0.004,0.04,9.592,0.148,2.938,1.005,0.049,0.026,0.0,1.616,-0.15,0.001,1.378,0.19,0.19,0.202,0.173,0.235,1.269,0.209,0.043,-0.243,0.122,-0.002,0.064,-0.055,0.105,0.182,0.003,0.0,0.068,0.019,0.36,-0.012,0.017,0.0,0.009,0.01,-0.046,0.01,-0.217,0.022,0.058,0.017,0.0,-0.071,0.044,0.012,0.361,0.084,0.014,0.092,0.41,0.051,-0.091,-0.604,0.026,-0.328,0.398,0.457,0.189,-0.339,0.109,0.097,1.581,0.001,0.012,-0.0,0.0
0.001,-0.958,-0.988,0.988,-1.001,0.073,0.024,0.151,9.753,0.062,2.95,1.007,0.033,0.059,0.001,1.558,-0.015,0.001,1.393,0.184,0.183,0.209,0.168,0.214,1.232,0.208,0.043,-0.191,0.079,0.139,0.058,-0.016,0.038,0.182,0.003,0.0,0.047,0.008,0.281,0.125,0.041,0.0,0.011,0.662,0.013,0.013,-0.06,0.05,0.051,0.02,0.003,0.01,0.038,0.007,0.338,0.027,0.011,0.052,0.211,0.052,-0.043,0.034,0.027,-0.054,0.348,0.351,0.102,0.279,0.077,0.064,1.211,-0.0,0.006,0.0,0.0
-0.0,-0.86,-0.892,0.893,-0.951,-0.099,0.062,0.167,7.967,1.697,2.648,0.999,-0.129,0.025,-0.0,2.026,0.481,-0.0,1.394,0.186,0.186,0.212,0.166,0.408,1.483,0.169,0.029,-0.48,0.412,0.193,-0.268,-0.405,0.071,0.152,0.005,0.0,0.123,0.043,0.299,0.052,0.023,0.001,0.016,0.586,-0.006,0.018,-0.027,0.029,0.072,0.034,0.001,0.092,0.063,0.027,0.348,0.136,0.032,0.117,0.294,0.03,-0.053,0.086,0.009,0.294,0.334,0.41,0.123,0.288,0.075,0.067,1.112,-0.0,0.006,0.0,0.0
-0.0,-0.814,-0.834,0.834,-0.852,0.035,-0.008,-0.089,6.962,2.618,2.56,0.997,-0.041,0.059,-0.0,2.112,0.054,-0.0,1.381,0.187,0.187,0.197,0.171,0.43,1.532,0.03,0.001,-0.533,0.512,0.009,-0.49,-0.512,0.028,0.026,0.0,0.0,0.033,0.015,0.042,0.061,0.033,0.0,0.007,0.085,-0.005,0.008,-0.046,0.038,0.019,0.011,0.001,-0.022,0.017,0.009,0.349,0.008,0.01,0.029,0.079,0.038,-0.055,-0.014,0.014,0.061,0.059,0.11,0.016,0.05,0.012,0.01,0.035,-0.0,0.0,0.0,0.0
-0.0,-0.813,-0.832,0.832,-0.844,-0.087,-0.017,-0.055,6.928,2.671,2.552,0.998,-0.01,0.03,0.0,2.117,-0.103,-0.0,1.378,0.19,0.189,0.206,0.174,0.435,1.538,0.029,0.001,-0.533,0.517,-0.003,-0.504,-0.517,0.019,0.02,0.0,0.0,0.026,0.011,0.025,0.006,0.017,0.0,0.006,0.047,-0.021,0.008,-0.067,0.02,0.019,0.009,0.0,-0.023,0.016,0.007,0.359,0.009,0.009,0.03,0.042,0.029,-0.06,-0.055,0.008,-0.023,0.033,0.074,0.014,0.017,0.009,0.008,0.011,0.0,0.0,-0.0,-0.0
0.0,-0.816,-0.828,0.828,-0.842,-0.004,0.047,0.139,6.86,2.771,2.548,1.0,-0.015,0.033,0.0,2.124,0.021,0.0,1.385,0.19,0.19,0.215,0.179,0.432,1.544,0.019,0.0,-0.546,0.526,0.014,-0.514,-0.526,0.017,0.015,0.0,0.0,0.019,0.006,0.02,0.022,0.021,0.0,0.009,0.054,-0.02,0.011,-0.023,0.025,0.012,0.011,0.001,-0.008,0.011,0.005,0.361,0.002,0.007,0.015,0.034,0.032,-0.06,-0.011,0.01,0.027,0.024,0.059,0.012,0.015,0.009,0.008,0.006,0.0,0.0,-0.0,0.0
0.0,-0.71,-0.719,0.719,-0.74,0.295,0.04,-0.142,5.175,4.435,2.372,0.998,0.005,0.07,0.001,2.302,-0.159,0.001,1.38,0.186,0.186,0.209,0.154,0.448,1.571,0.037,0.001,-0.677,0.666,0.081,-0.653,-0.666,0.022,0.028,0.004,0.0,0.068,0.011,0.028,0.027,0.037,0.0,0.013,0.082,-0.019,0.016,-0.12,0.041,0.059,0.021,0.002,-0.009,0.046,0.007,0.347,0.036,0.009,0.06,0.047,0.045,-0.087,-0.051,0.021,0.01,0.038,0.113,0.007,0.01,0.007,0.006,0.015,0.0,0.0,0.0,-0.0
-0.0,-0.718,-0.719,0.719,-0.721,-0.043,-0.002,-0.065,5.174,4.428,2.376,0.998,-0.001,0.006,-0.0,2.3,0.016,0.0,1.381,0.188,0.188,0.194,0.181,0.448,1.572,0.005,0.0,-0.671,0.665,-0.005,-0.663,-0.665,0.016,0.004,0.0,0.0,0.009,0.001,0.006,-0.005,0.01,0.0,0.003,0.027,-0.024,0.004,-0.029,0.014,0.007,0.003,0.0,-0.014,0.006,0.001,0.352,0.003,0.001,0.016,0.028,0.028,-0.056,0.008,0.008,0.0,0.014,0.052,0.002,0.013,0.002,0.002,0.002,-0.0,0.0,-0.0,-0.0
0.0,-0.708,-0.714,0.714,-0.718,0.029,0.021,-0.0,5.095,4.508,2.368,0.998,0.014,0.02,-0.0,2.31,0.024,-0.0,1.382,0.187,0.187,0.194,0.182,0.447,1.572,0.007,0.0,-0.673,0.671,0.0,-0.669,-0.671,0.017,0.005,0.0,0.0,0.003,0.004,0.008,0.01,0.012,0.0,0.003,0.039,-0.011,0.004,-0.03,0.013,0.007,0.006,0.0,-0.015,0.004,0.003,0.351,0.003,0.003,0.017,0.034,0.017,-0.03,0.014,0.003,-0.004,0.027,0.056,0.002,0.026,0.001,0.001,0.007,-0.0,0.0,0.0,0.0
0.0,-0.692,-0.702,0.702,-0.706,-0.004,0.017,0.02,4.928,4.654,2.353,0.998,0.006,0.009,-0.0,2.322,0.029,-0.0,1.376,0.194,0.194,0.201,0.19,0.452,1.578,0.009,0.0,-0.692,0.682,-0.006,-0.68,-0.682,0.016,0.007,0.0,0.0,0.002,0.002,0.011,-0.005,0.005,0.0,0.002,0.047,-0.014,0.003,-0.017,0.006,0.003,0.003,0.0,-0.013,0.002,0.002,0.375,0.002,0.004,0.014,0.035,0.016,-0.023,0.016,0.002,-0.006,0.029,0.055,0.002,0.027,0.003,0.002,0.008,-0.0,0.0,0.0,0.0
0.0,-0.695,-0.7,0.7,-0.703,-0.011,0.004,0.01,4.901,4.68,2.348,0.998,0.005,0.003,-0.0,2.327,0.009,-0.0,1.376,0.193,0.193,0.196,0.19,0.452,1.577,0.005,0.0,-0.688,0.684,-0.011,-0.682,-0.684,0.014,0.004,0.0,0.0,0.005,0.004,0.005,-0.011,0.003,0.0,0.001,0.021,-0.019,0.002,-0.023,0.004,0.004,0.002,0.0,-0.016,0.003,0.002,0.373,0.003,0.003,0.016,0.026,0.019,-0.023,0.003,0.004,-0.001,0.011,0.044,0.002,0.01,0.002,0.001,0.001,0.0,0.0,-0.0,0.0
-0.0,-0.693,-0.698,0.698,-0.703,-0.005,-0.004,-0.002,4.874,4.698,2.346,0.997,-0.003,0.004,0.0,2.327,-0.006,0.0,1.374,0.195,0.195,0.198,0.191,0.454,1.579,0.005,0.0,-0.692,0.685,-0.012,-0.683,-0.685,0.015,0.004,0.0,0.0,0.002,0.002,0.003,-0.005,0.005,0.0,0.001,0.031,-0.014,0.002,-0.023,0.008,0.003,0.001,0.0,-0.015,0.002,0.002,0.382,0.002,0.003,0.016,0.028,0.016,-0.035,0.009,0.003,0.004,0.021,0.05,0.003,0.02,0.003,0.002,0.004,-0.0,0.0,0.0,0.0
0.0,-0.691,-0.694,0.694,-0.698,0.037,-0.008,0.021,4.822,4.747,2.34,0.999,-0.008,0.012,0.0,2.333,-0.025,-0.0,1.37,0.199,0.199,0.202,0.192,0.456,1.582,0.006,0.0,-0.691,0.689,0.003,-0.687,-0.689,0.012,0.005,0.0,0.0,0.009,0.003,0.005,0.01,0.009,0.0,0.002,0.029,-0.012,0.003,-0.022,0.011,0.007,0.002,0.0,-0.01,0.006,0.001,0.394,0.001,0.002,0.012,0.025,0.016,-0.023,0.01,0.003,0.002,0.018,0.042,0.002,0.017,0.001,0.001,0.003,-0.0,0.0,0.0,0.0
-0.0,-0.687,-0.69,0.69,-0.693,0.01,0.001,-0.003,4.767,4.804,2.335,0.998,-0.009,0.004,0.0,2.339,-0.007,0.0,1.374,0.195,0.195,0.198,0.194,0.454,1.579,0.005,0.0,-0.696,0.693,-0.007,-0.691,-0.693,0.016,0.004,0.0,0.0,0.005,0.003,0.008,-0.014,0.003,0.0,0.001,0.024,-0.018,0.001,-0.019,0.004,0.004,0.002,0.0,-0.012,0.003,0.001,0.381,0.002,0.002,0.013,0.028,0.018,-0.025,0.01,0.003,0.007,0.017,0.047,0.002,0.017,0.002,0.001,0.003,-0.0,0.0,0.0,0.0
0.0,-0.682,-0.687,0.687,-0.691,0.026,-0.016,-0.02,4.721,4.843,2.33,0.998,-0.013,0.008,0.0,2.343,-0.008,0.0,1.371,0.197,0.197,0.204,0.191,0.456,1.58,0.005,0.0,-0.699,0.696,-0.005,-0.693,-0.696,0.012,0.003,0.0,0.0,0.007,0.003,0.004,0.002,0.006,0.0,0.003,0.024,-0.01,0.004,-0.036,0.007,0.009,0.006,0.0,-0.014,0.006,0.002,0.389,0.003,0.003,0.016,0.025,0.012,-0.022,0.007,0.002,0.006,0.019,0.043,0.001,0.019,0.001,0.001,0.004,0.0,0.0,0.0,-0.0
-0.0,-0.679,-0.684,0.684,-0.687,-0.008,-0.009,0.003,4.68,4.869,2.327,0.998,-0.005,0.003,-0.0,2.345,-0.0,0.0,1.369,0.2,0.2,0.202,0.192,0.457,1.582,0.004,0.0,-0.701,0.698,-0.01,-0.695,-0.698,0.016,0.003,0.0,0.0,0.002,0.002,0.006,-0.01,0.002,0.0,0.002,0.023,-0.014,0.003,-0.023,0.002,0.003,0.001,0.0,-0.015,0.002,0.002,0.398,0.002,0.002,0.016,0.028,0.015,-0.018,0.013,0.002,0.005,0.018,0.047,0.002,0.017,0.002,0.002,0.003,-0.0,0.0,0.0,0.0
0.0,-0.678,-0.681,0.681,-0.682,0.003,0.003,0.022,4.631,4.924,2.322,0.998,-0.002,0.004,-0.0,2.35,0.02,-0.0,1.368,0.201,0.201,0.202,0.198,0.458,1.583,0.007,0.0,-0.705,0.702,-0.009,-0.699,-0.702,0.014,0.006,0.0,0.0,0.003,0.003,0.01,-0.01,0.003,0.0,0.001,0.025,-0.016,0.001,-0.017,0.003,0.002,0.002,0.0,-0.013,0.002,0.001,0.403,0.002,0.001,0.013,0.026,0.017,-0.02,0.003,0.003,0.004,0.014,0.041,0.004,0.012,0.002,0.002,0.002,-0.0,0.0,0.0,0.0
-0.0,-0.68,-0.682,0.683,-0.684,0.001,0.001,0.005,4.658,4.89,2.324,0.998,-0.002,0.002,0.0,2.347,0.004,0.0,1.369,0.2,0.2,0.202,0.197,0.457,1.582,0.003,0.0,-0.704,0.699,-0.011,-0.697,-0.699,0.013,0.002,0.0,0.0,0.001,0.001,0.003,-0.014,0.002,0.0,0.001,0.017,-0.017,0.001,-0.016,0.002,0.001,0.001,0.0,-0.013,0.001,0.001,0.4,0.002,0.001,0.013,0.024,0.017,-0.02,0.007,0.003,0.001,0.012,0.042,0.002,0.012,0.002,0.001,0.001,0.0,0.0,-0.0,-0.0
-0.0,-0.682,-0.683,0.683,-0.686,-0.0,0.01,-0.008,4.668,4.893,2.325,0.998,0.002,0.003,0.0,2.347,0.0,-0.0,1.369,0.2,0.2,0.205,0.197,0.458,1.583,0.004,0.0,-0.701,0.7,-0.01,-0.698,-0.699,0.014,0.003,0.0,0.0,0.003,0.002,0.003,-0.013,0.003,0.0,0.002,0.023,-0.017,0.002,-0.019,0.004,0.002,0.004,0.0,-0.014,0.002,0.001,0.402,0.002,0.001,0.014,0.026,0.017,-0.026,0.01,0.003,-0.001,0.013,0.043,0.001,0.012,0.001,0.001,0.002,0.0,0.0,0.0,0.0
0.0,-0.683,-0.686,0.686,-0.688,-0.04,0.022,-0.023,4.699,4.897,2.328,0.998,0.003,0.016,-0.0,2.348,-0.001,0.0,1.381,0.19,0.19,0.2,0.184,0.448,1.575,0.007,0.0,-0.703,0.7,0.005,-0.698,-0.7,0.01,0.005,0.0,0.0,0.01,0.001,0.003,-0.005,0.009,0.0,0.005,0.023,-0.023,0.005,-0.022,0.011,0.008,0.007,0.0,-0.004,0.007,0.001,0.362,0.001,0.001,0.009,0.029,0.025,-0.042,-0.004,0.006,0.001,0.011,0.039,0.003,0.008,0.002,0.002,0.001,0.0,0.0,0.0,-0.0
0.0,-0.685,-0.693,0.693,-0.698,-0.004,0.003,0.001,4.8,4.801,2.339,0.998,0.002,0.003,0.0,2.338,0.015,-0.0,1.381,0.188,0.188,0.191,0.185,0.448,1.574,0.005,0.0,-0.703,0.693,-0.005,-0.687,-0.693,0.01,0.005,0.0,0.0,0.004,0.004,0.01,-0.009,0.002,0.0,0.001,0.008,-0.016,0.002,-0.016,0.003,0.003,0.002,0.0,-0.012,0.003,0.002,0.353,0.002,0.003,0.012,0.021,0.016,-0.021,-0.007,0.003,-0.002,0.006,0.033,0.002,0.002,0.004,0.002,0.0,0.0,0.0,-0.0,0.0
-0.0,-0.696,-0.699,0.699,-0.702,0.002,-0.003,0.005,4.886,4.718,2.348,0.998,0.004,0.003,-0.0,2.329,0.008,-0.0,1.382,0.188,0.188,0.189,0.186,0.448,1.574,0.012,0.0,-0.691,0.687,-0.011,-0.684,-0.687,0.014,0.008,0.0,0.0,0.002,0.002,0.005,-0.008,0.003,0.0,0.001,0.025,-0.015,0.001,-0.016,0.004,0.002,0.001,0.0,-0.014,0.001,0.001,0.352,0.002,0.002,0.014,0.025,0.015,-0.021,-0.021,0.002,-0.01,0.014,0.041,0.004,0.007,0.002,0.002,0.002,-0.0,0.0,0.0,0.0
0.0,-0.698,-0.7,0.7,-0.702,0.009,0.004,-0.003,4.897,4.707,2.348,0.998,0.002,0.003,-0.0,2.329,-0.02,0.0,1.382,0.188,0.188,0.19,0.186,0.448,1.574,0.005,0.0,-0.687,0.686,-0.008,-0.685,-0.686,0.014,0.003,0.0,0.0,0.004,0.002,0.003,-0.01,0.002,0.0,0.001,0.028,-0.016,0.001,-0.018,0.002,0.003,0.002,0.0,-0.013,0.003,0.001,0.353,0.002,0.001,0.013,0.026,0.016,-0.019,0.006,0.002,0.001,0.015,0.043,0.001,0.014,0.001,0.001,0.002,-0.0,0.0,-0.0,0.0
-0.0,-0.693,-0.697,0.697,-0.699,-0.012,0.001,0.003,4.858,4.732,2.344,0.997,-0.004,0.003,-0.0,2.332,-0.002,0.0,1.38,0.189,0.188,0.19,0.187,0.449,1.573,0.003,0.0,-0.692,0.688,-0.01,-0.686,-0.688,0.015,0.003,0.0,0.0,0.003,0.003,0.004,-0.013,0.002,0.0,0.001,0.024,-0.015,0.001,-0.02,0.002,0.003,0.001,0.0,-0.014,0.002,0.001,0.355,0.002,0.002,0.015,0.026,0.015,-0.018,0.013,0.002,0.003,0.018,0.047,0.002,0.017,0.002,0.001,0.003,-0.0,0.0,0.0,0.0
0.0,-0.689,-0.693,0.693,-0.697,-0.006,-0.001,0.002,4.805,4.783,2.339,0.998,-0.001,0.001,0.0,2.338,-0.003,-0.0,1.379,0.19,0.19,0.191,0.189,0.45,1.575,0.004,0.0,-0.693,0.692,-0.011,-0.687,-0.692,0.016,0.003,0.0,0.0,0.003,0.002,0.004,-0.014,0.001,0.0,0.001,0.025,-0.016,0.001,-0.016,0.001,0.002,0.002,0.0,-0.013,0.002,0.002,0.361,0.002,0.002,0.014,0.028,0.016,-0.018,0.014,0.002,-0.004,0.02,0.048,0.002,0.019,0.002,0.001,0.004,-0.0,0.0,0.0,0.0
0.0,-0.685,-0.688,0.688,-0.692,0.001,-0.001,-0.01,4.735,4.864,2.332,0.998,-0.01,0.003,0.0,2.345,0.013,-0.0,1.379,0.19,0.19,0.192,0.189,0.45,1.576,0.006,0.0,-0.701,0.697,-0.007,-0.694,-0.697,0.016,0.006,0.0,0.0,0.002,0.003,0.01,-0.013,0.002,0.0,0.001,0.027,-0.016,0.001,-0.015,0.003,0.002,0.001,0.0,-0.013,0.001,0.002,0.362,0.002,0.002,0.013,0.029,0.016,-0.022,0.01,0.003,0.01,0.02,0.047,0.001,0.019,0.002,0.001,0.004,-0.0,0.0,0.0,0.0
0.0,-0.684,-0.688,0.688,-0.691,-0.003,-0.004,-0.002,4.728,4.872,2.332,0.998,-0.004,0.004,0.0,2.346,0.019,0.0,1.381,0.187,0.187,0.19,0.183,0.448,1.573,0.004,0.0,-0.701,0.698,-0.01,-0.694,-0.698,0.015,0.003,0.0,0.0,0.002,0.001,0.005,-0.017,0.003,0.0,0.001,0.017,-0.021,0.002,-0.022,0.004,0.004,0.001,0.0,-0.014,0.003,0.001,0.351,0.002,0.002,0.015,0.026,0.021,-0.029,0.005,0.005,-0.003,0.011,0.046,0.004,0.011,0.002,0.002,0.001,0.0,0.0,-0.0,-0.0
-0.0,-0.689,-0.695,0.695,-0.698,-0.044,0.002,-0.006,4.828,4.779,2.343,0.997,0.016,0.005,-0.0,2.335,-0.027,-0.0,1.385,0.184,0.184,0.187,0.181,0.446,1.57,0.009,0.0,-0.697,0.691,0.009,-0.686,-0.691,0.011,0.008,0.0,0.0,0.003,0.006,0.014,-0.011,0.004,0.0,0.002,0.017,-0.018,0.002,-0.028,0.005,0.01,0.004,0.0,-0.009,0.007,0.003,0.339,0.002,0.004,0.013,0.023,0.019,-0.027,-0.01,0.004,-0.02,0.009,0.038,0.005,0.003,0.003,0.003,0.001,0.0,0.0,0.0,0.0
-0.0,-0.697,-0.699,0.699,-0.702,0.002,0.003,0.001,4.886,4.731,2.346,0.998,0.007,0.003,-0.0,2.332,0.018,0.0,1.387,0.182,0.182,0.185,0.181,0.444,1.569,0.011,0.0,-0.693,0.688,-0.009,-0.679,-0.688,0.014,0.008,0.0,0.0,0.004,0.004,0.008,-0.011,0.002,0.0,0.001,0.025,-0.016,0.001,-0.027,0.002,0.005,0.002,0.0,-0.014,0.004,0.002,0.333,0.002,0.002,0.015,0.024,0.016,-0.019,-0.016,0.003,-0.013,0.014,0.044,0.002,0.009,0.004,0.002,0.002,0.0,0.0,0.0,0.0
0.0,-0.699,-0.7,0.7,-0.701,-0.001,0.001,0.015,4.896,4.731,2.348,0.998,-0.003,0.004,0.0,2.332,0.004,-0.0,1.386,0.183,0.183,0.185,0.18,0.445,1.57,0.006,0.0,-0.691,0.688,-0.01,-0.686,-0.688,0.014,0.004,0.0,0.0,0.002,0.001,0.003,-0.01,0.002,0.0,0.001,0.032,-0.015,0.001,-0.015,0.003,0.002,0.002,0.0,-0.012,0.001,0.001,0.335,0.002,0.001,0.013,0.026,0.015,-0.019,0.012,0.002,-0.0,0.019,0.045,0.003,0.018,0.002,0.002,0.003,0.0,0.0,-0.0,0.0
0.0,-0.688,-0.696,0.696,-0.7,-0.032,0.003,0.014,4.846,4.772,2.343,0.998,-0.009,0.003,-0.0,2.335,0.058,-0.0,1.388,0.181,0.181,0.187,0.178,0.444,1.568,0.011,0.0,-0.7,0.691,0.007,-0.686,-0.691,0.012,0.009,0.0,0.0,0.012,0.005,0.02,-0.01,0.003,0.0,0.002,0.028,-0.017,0.003,-0.015,0.004,0.008,0.002,0.0,-0.008,0.007,0.003,0.329,0.001,0.003,0.011,0.026,0.018,-0.023,-0.005,0.003,0.009,0.015,0.04,0.005,0.011,0.004,0.003,0.002,-0.0,0.0,0.0,-0.0
0.0,-0.696,-0.699,0.699,-0.703,-0.003,0.003,-0.015,4.88,4.762,2.346,0.998,0.005,0.003,0.0,2.335,-0.011,-0.0,1.391,0.178,0.178,0.181,0.176,0.441,1.567,0.005,0.0,-0.693,0.69,-0.005,-0.686,-0.69,0.014,0.004,0.0,0.0,0.003,0.003,0.004,-0.011,0.003,0.0,0.001,0.027,-0.018,0.002,-0.02,0.004,0.004,0.002,0.0,-0.014,0.003,0.002,0.317,0.002,0.002,0.014,0.028,0.018,-0.024,0.008,0.003,-0.008,0.014,0.044,0.004,0.013,0.002,0.002,0.002,-0.0,0.0,0.0,0.0
-0.0,-0.696,-0.699,0.699,-0.701,-0.006,-0.006,-0.009,4.886,4.749,2.348,0.998,-0.008,0.003,0.0,2.333,0.002,0.0,1.392,0.177,0.177,0.179,0.174,0.44,1.565,0.004,0.0,-0.693,0.689,-0.012,-0.687,-0.689,0.015,0.004,0.0,0.0,0.003,0.003,0.007,-0.014,0.002,0.0,0.001,0.023,-0.017,0.001,-0.018,0.003,0.002,0.003,0.0,-0.016,0.001,0.001,0.312,0.002,0.002,0.016,0.027,0.018,-0.024,0.01,0.003,0.003,0.016,0.049,0.001,0.016,0.002,0.001,0.003,0.0,0.0,-0.0,-0.0
-0.0,-0.694,-0.695,0.696,-0.697,-0.016,-0.0,0.002,4.837,4.809,2.342,0.998,-0.003,0.003,0.0,2.338,0.018,0.0,1.391,0.179,0.179,0.181,0.177,0.442,1.568,0.005,0.0,-0.697,0.694,-0.013,-0.691,-0.694,0.016,0.004,0.0,0.0,0.004,0.003,0.007,-0.015,0.002,0.0,0.001,0.026,-0.016,0.001,-0.021,0.002,0.003,0.002,0.0,-0.016,0.003,0.001,0.32,0.003,0.001,0.016,0.028,0.016,-0.019,0.011,0.003,0.001,0.017,0.048,0.003,0.016,0.002,0.001,0.003,-0.0,0.0,0.0,0.0
0.0,-0.691,-0.694,0.694,-0.697,-0.002,-0.001,0.0,4.822,4.814,2.341,0.997,0.004,0.002,-0.0,2.34,-0.007,-0.0,1.391,0.179,0.179,0.181,0.178,0.441,1.567,0.002,0.0,-0.696,0.694,-0.011,-0.692,-0.694,0.015,0.002,0.0,0.0,0.001,0.001,0.002,-0.013,0.001,0.0,0.001,0.021,-0.016,0.001,-0.018,0.002,0.002,0.001,0.0,-0.014,0.001,0.001,0.319,0.002,0.002,0.014,0.027,0.016,-0.019,0.011,0.003,-0.002,0.015,0.045,0.002,0.015,0.001,0.001,0.002,-0.0,0.0,0.0,-0.0
-0.0,-0.689,-0.693,0.693,-0.695,0.014,0.002,0.007,4.8,4.837,2.339,0.998,0.003,0.002,0.0,2.341,-0.026,-0.0,1.39,0.18,0.18,0.182,0.178,0.442,1.568,0.006,0.0,-0.699,0.696,-0.011,-0.693,-0.695,0.017,0.005,0.0,0.0,0.004,0.002,0.008,-0.014,0.001,0.0,0.001,0.031,-0.018,0.001,-0.021,0.002,0.003,0.002,0.0,-0.016,0.002,0.002,0.322,0.003,0.002,0.016,0.029,0.018,-0.021,0.01,0.003,-0.002,0.019,0.052,0.003,0.018,0.002,0.002,0.004,0.0,0.0,-0.0,0.0
-0.0,-0.688,-0.69,0.69,-0.692,0.004,-0.002,0.004,4.762,4.872,2.335,0.998,-0.006,0.002,0.0,2.346,0.001,-0.0,1.391,0.179,0.179,0.18,0.177,0.442,1.567,0.004,0.0,-0.702,0.698,-0.01,-0.695,-0.698,0.014,0.003,0.0,0.0,0.002,0.003,0.003,-0.015,0.001,0.0,0.001,0.02,-0.016,0.001,-0.015,0.001,0.001,0.001,0.0,-0.013,0.001,0.001,0.319,0.002,0.002,0.013,0.024,0.016,-0.019,0.007,0.003,0.006,0.014,0.043,0.002,0.013,0.002,0.002,0.002,0.0,0.0,-0.0,0.0
-0.0,-0.688,-0.691,0.691,-0.692,-0.007,0.001,0.003,4.778,4.861,2.336,0.998,0.003,0.003,0.0,2.344,0.018,0.0,1.39,0.179,0.179,0.18,0.176,0.442,1.567,0.004,0.0,-0.699,0.697,-0.011,-0.695,-0.697,0.014,0.003,0.0,0.0,0.001,0.001,0.004,-0.014,0.002,0.0,0.001,0.021,-0.016,0.001,-0.018,0.002,0.002,0.002,0.0,-0.014,0.001,0.001,0.319,0.002,0.001,0.014,0.025,0.016,-0.019,0.007,0.003,-0.008,0.013,0.042,0.002,0.012,0.001,0.001,0.002,-0.0,0.0,-0.0,0.0
0.0,-0.687,-0.691,0.691,-0.692,-0.002,-0.001,-0.004,4.771,4.848,2.337,0.997,0.001,0.003,0.0,2.343,-0.009,-0.0,1.39,0.179,0.179,0.18,0.177,0.441,1.566,0.003,0.0,-0.7,0.696,-0.011,-0.694,-0.696,0.015,0.002,0.0,0.0,0.001,0.002,0.002,-0.014,0.002,0.0,0.001,0.023,-0.017,0.001,-0.017,0.002,0.002,0.002,0.0,-0.014,0.001,0.001,0.319,0.002,0.002,0.014,0.026,0.017,-0.021,0.01,0.003,-0.001,0.015,0.045,0.003,0.014,0.002,0.001,0.002,0.0,0.0,0.0,0.0
-0.0,-0.687,-0.69,0.69,-0.694,0.002,0.003,0.001,4.767,4.871,2.335,0.998,-0.003,0.001,0.0,2.346,-0.008,-0.0,1.391,0.178,0.178,0.18,0.177,0.441,1.567,0.002,0.0,-0.701,0.698,-0.01,-0.695,-0.698,0.016,0.002,0.0,0.0,0.002,0.003,0.003,-0.015,0.001,0.0,0.001,0.019,-0.017,0.001,-0.017,0.001,0.002,0.001,0.0,-0.014,0.002,0.001,0.318,0.002,0.002,0.015,0.027,0.017,-0.018,0.011,0.003,-0.0,0.015,0.046,0.002,0.015,0.002,0.002,0.002,0.0,0.0,-0.0,-0.0
-0.0,-0.684,-0.689,0.689,-0.691,0.007,0.001,0.006,4.742,4.903,2.333,0.998,-0.006,0.003,0.0,2.348,-0.008,0.0,1.392,0.178,0.178,0.18,0.177,0.441,1.567,0.004,0.0,-0.704,0.7,-0.011,-0.697,-0.7,0.014,0.003,0.0,0.0,0.001,0.002,0.004,-0.014,0.002,0.0,0.001,0.026,-0.016,0.001,-0.018,0.002,0.002,0.001,0.0,-0.014,0.001,0.001,0.318,0.002,0.002,0.014,0.026,0.016,-0.019,0.012,0.003,0.007,0.016,0.045,0.002,0.015,0.002,0.002,0.002,-0.0,0.0,0.0,0.0
-0.0,-0.686,-0.689,0.689,-0.69,-0.001,-0.0,-0.007,4.744,4.889,2.334,0.998,0.003,0.004,-0.0,2.347,0.013,0.0,1.391,0.179,0.179,0.18,0.177,0.442,1.567,0.003,0.0,-0.703,0.699,-0.009,-0.697,-0.699,0.014,0.003,0.0,0.0,0.004,0.0,0.003,-0.014,0.002,0.0,0.001,0.019,-0.017,0.001,-0.018,0.002,0.003,0.001,0.0,-0.014,0.002,0.001,0.319,0.002,0.001,0.014,0.025,0.017,-0.019,0.009,0.003,-0.002,0.013,0.043,0.002,0.013,0.002,0.001,0.002,0.0,0.0,-0.0,-0.0
-0.0,-0.686,-0.689,0.689,-0.691,-0.002,-0.002,-0.001,4.742,4.894,2.332,0.998,0.003,0.003,-0.0,2.348,0.002,-0.0,1.391,0.178,0.178,0.18,0.176,0.441,1.566,0.003,0.0,-0.703,0.7,-0.013,-0.697,-0.7,0.015,0.002,0.0,0.0,0.001,0.001,0.003,-0.013,0.001,0.0,0.001,0.021,-0.016,0.001,-0.017,0.002,0.001,0.001,0.0,-0.014,0.001,0.001,0.318,0.002,0.001,0.014,0.026,0.016,-0.018,0.011,0.003,-0.002,0.014,0.044,0.003,0.014,0.002,0.001,0.002,-0.0,0.0,0.0,0.0
0.0,-0.685,-0.687,0.687,-0.69,0.0,-0.0,0.002,4.725,4.9,2.331,0.998,0.0,0.002,0.0,2.349,-0.003,0.0,1.391,0.179,0.178,0.18,0.178,0.441,1.566,0.003,0.0,-0.703,0.7,-0.01,-0.697,-0.7,0.014,0.002,0.0,0.0,0.001,0.002,0.002,-0.014,0.001,0.0,0.001,0.021,-0.016,0.001,-0.015,0.001,0.002,0.001,0.0,-0.013,0.001,0.001,0.319,0.002,0.001,0.013,0.025,0.016,-0.018,0.011,0.003,-0.004,0.014,0.043,0.002,0.014,0.002,0.001,0.002,0.0,0.0,-0.0,0.0
-0.0,-0.685,-0.687,0.687,-0.689,0.007,0.001,0.004,4.717,4.915,2.33,0.998,-0.003,0.003,0.0,2.351,-0.009,-0.0,1.391,0.179,0.179,0.18,0.178,0.442,1.567,0.003,0.0,-0.705,0.701,-0.012,-0.698,-0.701,0.014,0.003,0.0,0.0,0.002,0.002,0.002,-0.014,0.001,0.0,0.001,0.021,-0.016,0.001,-0.018,0.002,0.002,0.002,0.0,-0.015,0.002,0.001,0.32,0.002,0.001,0.015,0.026,0.016,-0.019,0.008,0.003,0.006,0.014,0.045,0.002,0.014,0.002,0.002,0.002,-0.0,0.0,0.0,0.0
-0.0,-0.685,-0.686,0.686,-0.689,0.002,0.004,0.003,4.711,4.925,2.329,0.998,-0.002,0.002,-0.0,2.351,-0.007,-0.0,1.39,0.179,0.179,0.181,0.178,0.442,1.568,0.003,0.0,-0.704,0.702,-0.013,-0.7,-0.702,0.014,0.002,0.0,0.0,0.001,0.001,0.001,-0.013,0.001,0.0,0.001,0.021,-0.016,0.001,-0.017,0.001,0.001,0.001,0.0,-0.014,0.001,0.001,0.322,0.002,0.001,0.014,0.026,0.016,-0.017,0.011,0.003,0.006,0.014,0.044,0.003,0.014,0.001,0.001,0.002,-0.0,0.0,0.0,0.0
0.0,-0.685,-0.686,0.686,-0.688,0.008,-0.0,0.002,4.705,4.934,2.328,0.998,0.0,0.003,-0.0,2.352,-0.012,0.0,1.391,0.179,0.179,0.179,0.177,0.442,1.567,0.003,0.0,-0.705,0.702,-0.011,-0.7,-0.702,0.015,0.002,0.0,0.0,0.002,0.001,0.002,-0.014,0.001,0.0,0.001,0.025,-0.016,0.001,-0.017,0.002,0.002,0.001,0.0,-0.014,0.001,0.001,0.319,0.002,0.001,0.014,0.026,0.016,-0.018,0.012,0.003,-0.003,0.015,0.045,0.003,0.015,0.002,0.001,0.002,0.0,0.0,0.0,-0.0
-0.0,-0.681,-0.683,0.683,-0.685,-0.005,-0.001,0.002,4.668,4.955,2.326,0.997,-0.001,0.0,-0.0,2.354,0.007,0.0,1.39,0.179,0.179,0.18,0.178,0.441,1.566,0.003,0.0,-0.709,0.704,-0.008,-0.702,-0.704,0.014,0.002,0.0,0.0,0.001,0.001,0.003,-0.014,0.001,0.0,0.001,0.021,-0.017,0.001,-0.016,0.001,0.002,0.001,0.0,-0.013,0.001,0.001,0.32,0.002,0.001,0.013,0.026,0.017,-0.019,0.01,0.003,0.004,0.015,0.044,0.002,0.014,0.002,0.001,0.002,0.0,0.0,0.0,0.0
-0.0,-0.681,-0.684,0.684,-0.686,-0.005,-0.001,-0.013,4.68,4.949,2.327,0.998,0.002,0.003,0.0,2.352,0.019,0.0,1.389,0.18,0.18,0.181,0.178,0.442,1.567,0.004,0.0,-0.708,0.704,-0.012,-0.701,-0.703,0.015,0.003,0.0,0.0,0.002,0.002,0.002,-0.009,0.002,0.0,0.001,0.022,-0.016,0.001,-0.017,0.003,0.001,0.001,0.0,-0.015,0.001,0.001,0.323,0.002,0.001,0.015,0.026,0.016,-0.019,0.009,0.002,0.002,0.013,0.043,0.002,0.013,0.002,0.002,0.002,0.0,0.0,-0.0,0.0
0.0,-0.682,-0.684,0.684,-0.686,-0.002,-0.004,-0.0,4.677,4.958,2.326,0.998,0.002,0.002,-0.0,2.354,-0.01,-0.0,1.39,0.179,0.179,0.181,0.178,0.442,1.567,0.003,0.0,-0.706,0.704,-0.012,-0.702,-0.704,0.015,0.002,0.0,0.0,0.001,0.002,0.002,-0.015,0.001,0.0,0.001,0.021,-0.017,0.001,-0.018,0.001,0.002,0.002,0.0,-0.014,0.001,0.001,0.321,0.002,0.001,0.015,0.026,0.017,-0.02,0.009,0.003,0.002,0.014,0.044,0.002,0.013,0.001,0.001,0.002,-0.0,0.0,0.0,-0.0
0.0,-0.681,-0.684,0.684,-0.685,0.001,-0.0,0.001,4.673,4.955,2.326,0.998,-0.001,0.002,0.0,2.354,-0.013,-0.0,1.39,0.18,0.18,0.182,0.179,0.442,1.568,0.003,0.0,-0.707,0.704,-0.01,-0.702,-0.704,0.014,0.002,0.0,0.0,0.002,0.001,0.003,-0.014,0.001,0.0,0.001,0.023,-0.016,0.001,-0.018,0.001,0.002,0.002,0.0,-0.014,0.002,0.001,0.325,0.002,0.001,0.014,0.026,0.016,-0.018,0.01,0.003,0.002,0.014,0.043,0.001,0.014,0.001,0.001,0.002,0.0,0.0,-0.0,0.0
0.0,-0.68,-0.683,0.683,-0.685,0.001,-0.0,0.005,4.668,4.969,2.325,0.998,-0.006,0.002,0.0,2.355,-0.009,0.0,1.39,0.179,0.179,0.181,0.178,0.442,1.567,0.003,0.0,-0.708,0.705,-0.01,-0.702,-0.705,0.015,0.003,0.0,0.0,0.003,0.002,0.004,-0.015,0.001,0.0,0.001,0.021,-0.017,0.001,-0.016,0.001,0.002,0.002,0.0,-0.013,0.002,0.001,0.321,0.002,0.002,0.013,0.026,0.017,-0.019,0.01,0.003,0.003,0.014,0.044,0.002,0.014,0.002,0.001,0.002,-0.0,0.0,0.0,-0.0
0.0,-0.679,-0.683,0.683,-0.685,0.004,-0.0,-0.005,4.665,4.976,2.325,0.998,-0.001,0.003,-0.0,2.355,0.013,0.0,1.39,0.179,0.179,0.181,0.177,0.442,1.568,0.003,0.0,-0.709,0.705,-0.013,-0.702,-0.705,0.014,0.002,0.0,0.0,0.001,0.002,0.004,-0.015,0.001,0.0,0.001,0.018,-0.016,0.001,-0.016,0.001,0.001,0.001,0.0,-0.014,0.001,0.001,0.322,0.002,0.002,0.014,0.026,0.016,-0.018,0.008,0.003,-0.002,0.013,0.043,0.001,0.013,0.002,0.001,0.002,0.0,0.0,0.0,0.0
0.0,-0.681,-0.683,0.683,-0.684,-0.001,-0.001,-0.005,4.664,4.973,2.325,0.998,0.002,0.002,-0.0,2.355,-0.011,-0.0,1.39,0.179,0.179,0.18,0.178,0.442,1.567,0.003,0.0,-0.708,0.705,-0.01,-0.703,-0.705,0.014,0.002,0.0,0.0,0.002,0.002,0.003,-0.013,0.002,0.0,0.001,0.021,-0.016,0.001,-0.016,0.002,0.002,0.002,0.0,-0.014,0.001,0.001,0.321,0.002,0.001,0.014,0.024,0.016,-0.019,0.009,0.003,-0.001,0.013,0.042,0.002,0.012,0.001,0.001,0.002,0.0,0.0,0.0,-0.0
-0.0,-0.681,-0.683,0.683,-0.685,0.0,0.001,0.001,4.665,4.967,2.325,0.998,0.003,0.002,0.0,2.356,-0.001,0.0,1.39,0.179,0.179,0.18,0.178,0.441,1.567,0.002,0.0,-0.707,0.705,-0.012,-0.702,-0.705,0.014,0.002,0.0,0.0,0.001,0.002,0.001,-0.014,0.001,0.0,0.001,0.02,-0.017,0.001,-0.015,0.001,0.001,0.002,0.0,-0.014,0.001,0.001,0.32,0.002,0.001,0.014,0.025,0.017,-0.019,0.011,0.003,-0.001,0.014,0.044,0.002,0.014,0.002,0.001,0.002,0.0,0.0,-0.0,0.0
