RMS_ag_x,ag_x_mean,ag_x_min,ag_x_max,E_ag_x,accl_x,E_ag_z,th_x,SVM_a,FFT_ag_y,accl_y,E_ag_y,IQR_g_x,VAR_g_x,FFT_g_x,FFT_g_y,th_z,th_y,STD_g_x,MAD_g_x,ag_y_max,RMS_ag_y,ag_y_mean,RMS_ag_z,FFT_ag_x,ag_z_max,ag_z_mean,ag_z_min,ag_y_min,VAR_ag_x,accl_z,VAR_g_z,IQR_g_z,STD_g_y,STD_ag_x,E_g_z,CM_g,MAD_ag_x,RMS_g_z,g_x_max,IQR_ag_x,MAD_g_y,SMA_a,VAR_ag_y,RMS_g_x,VAR_g_y,g_z_mean,IQR_g_y,E_g_x,g_x_min,MAD_g_z,g_z_max,STD_g_z,STD_ag_y,CM_a,MAD_ag_y,g_x_mean,g_z_min,SVM_g,FFT_g_z,IQR_ag_y,g_y_max,SMA_g,FFT_ag_z,RMS_g_y,g_y_min,STD_ag_z,IQR_ag_z,MAD_ag_z,g_y_mean,E_g_y,VAR_ag_z,jerk_x,jerk_y,jerk_z
0.863,-0.863,-0.882,-0.838,7.455,0.001,1.876,2.617,1.0,-0.012,-0.0,0.646,0.042,0.006,-0.288,0.303,2.016,1.31,0.08,0.055,0.274,0.254,0.254,0.433,0.027,-0.419,-0.433,-0.456,0.213,0.0,0.0,0.001,0.049,0.067,0.013,0.007,0.03,0.01,0.027,0.117,0.004,0.046,1.55,0.0,0.081,0.004,0.006,0.037,0.066,-0.176,0.025,0.038,0.027,0.017,0.458,0.013,-0.016,-0.035,0.055,-0.053,0.017,0.172,0.136,-0.041,0.07,-0.083,0.011,0.006,0.008,0.021,0.049,0.0,0.0,0.001,-0.0
0.865,-0.864,-0.869,-0.859,7.474,-0.0,1.862,2.617,1.0,-0.005,0.0,0.656,0.005,0.0,0.014,0.035,2.017,1.312,0.004,0.003,0.259,0.256,0.256,0.432,0.002,-0.425,-0.431,-0.438,0.253,0.0,-0.0,0.0,0.004,0.008,0.002,0.003,0.016,0.002,0.017,-0.008,0.001,0.006,1.552,0.0,0.015,0.0,-0.016,0.007,0.002,-0.02,0.003,-0.011,0.004,0.002,0.457,0.002,-0.015,-0.026,0.028,-0.018,0.003,0.038,0.049,-0.008,0.019,0.008,0.004,0.003,0.003,0.018,0.004,0.0,0.0,-0.0,-0.0
0.862,-0.862,-0.864,-0.86,7.43,-0.0,1.907,2.611,1.0,0.006,-0.0,0.652,0.002,0.0,0.004,-0.007,2.023,1.312,0.002,0.001,0.257,0.255,0.255,0.437,0.008,-0.435,-0.437,-0.441,0.253,0.0,-0.0,0.0,0.004,0.006,0.001,0.003,0.015,0.001,0.016,-0.01,0.002,0.005,1.554,0.0,0.012,0.0,-0.015,0.008,0.002,-0.015,0.003,-0.008,0.004,0.001,0.458,0.001,-0.012,-0.023,0.028,-0.016,0.003,0.034,0.047,-0.004,0.02,0.011,0.002,0.002,0.001,0.019,0.004,0.0,0.0,-0.0,-0.0
0.858,-0.858,-0.861,-0.854,7.365,0.0,1.958,2.604,0.999,0.002,-0.0,0.659,0.004,0.0,-0.008,-0.057,2.029,1.312,0.005,0.004,0.258,0.257,0.257,0.443,-0.001,-0.437,-0.442,-0.449,0.255,0.0,0.0,0.0,0.005,0.016,0.002,0.003,0.013,0.002,0.016,-0.01,0.004,0.012,1.557,0.0,0.017,0.0,-0.016,0.011,0.003,-0.026,0.003,-0.007,0.004,0.001,0.46,0.001,-0.016,-0.021,0.027,-0.013,0.002,0.031,0.047,0.002,0.018,-0.031,0.003,0.003,0.002,0.007,0.003,0.0,0.0,0.0,-0.0
0.863,-0.863,-0.866,-0.854,7.453,0.0,1.858,2.617,1.0,-0.003,0.0,0.669,0.005,0.0,-0.018,-0.036,2.015,1.309,0.005,0.004,0.26,0.259,0.259,0.431,-0.012,-0.428,-0.431,-0.44,0.256,0.0,0.0,0.0,0.007,0.013,0.003,0.004,0.012,0.003,0.019,-0.006,0.001,0.011,1.553,0.0,0.018,0.0,-0.018,0.017,0.003,-0.026,0.004,-0.011,0.005,0.001,0.458,0.001,-0.017,-0.027,0.026,-0.009,0.002,0.023,0.046,0.009,0.013,-0.021,0.003,0.002,0.002,0.003,0.002,0.0,-0.0,-0.0,0.0
0.869,-0.869,-0.873,-0.866,7.548,0.0,1.783,2.624,1.0,-0.001,0.0,0.659,0.003,0.0,-0.014,-0.01,2.008,1.312,0.004,0.004,0.258,0.257,0.257,0.422,-0.001,-0.418,-0.422,-0.427,0.255,0.0,0.0,0.0,0.005,0.008,0.002,0.003,0.012,0.002,0.016,-0.009,0.003,0.006,1.548,0.0,0.014,0.0,-0.015,0.006,0.002,-0.024,0.004,-0.01,0.004,0.001,0.455,0.001,-0.014,-0.024,0.022,-0.018,0.002,0.025,0.04,-0.009,0.012,-0.005,0.003,0.004,0.002,0.01,0.002,0.0,-0.0,0.0,0.0
0.868,-0.868,-0.871,-0.863,7.533,-0.0,1.792,2.624,0.999,0.0,-0.0,0.657,0.002,0.0,0.003,-0.002,2.008,1.311,0.001,0.001,0.258,0.256,0.256,0.423,0.005,-0.421,-0.423,-0.425,0.255,0.0,-0.0,0.0,0.002,0.005,0.002,0.003,0.012,0.002,0.017,-0.011,0.003,0.003,1.548,0.0,0.012,0.0,-0.016,0.003,0.001,-0.014,0.002,-0.01,0.003,0.001,0.455,0.001,-0.012,-0.021,0.023,-0.011,0.001,0.024,0.039,0.0,0.012,0.007,0.001,0.002,0.001,0.011,0.001,0.0,0.0,-0.0,-0.0
0.868,-0.868,-0.871,-0.865,7.541,0.0,1.794,2.625,1.0,-0.001,0.0,0.654,0.001,0.0,0.001,-0.012,2.008,1.312,0.001,0.001,0.257,0.256,0.256,0.424,-0.003,-0.419,-0.424,-0.428,0.255,0.0,0.0,0.0,0.003,0.003,0.002,0.003,0.014,0.001,0.016,-0.011,0.002,0.002,1.548,0.0,0.013,0.0,-0.016,0.003,0.002,-0.015,0.002,-0.013,0.002,0.001,0.454,0.001,-0.013,-0.019,0.024,0.005,0.001,0.019,0.042,0.002,0.014,0.009,0.002,0.002,0.002,0.014,0.002,0.0,-0.0,0.0,-0.0
0.867,-0.867,-0.87,-0.865,7.524,-0.0,1.811,2.622,0.999,-0.001,0.0,0.655,0.003,0.0,-0.002,0.017,2.01,1.312,0.003,0.002,0.257,0.256,0.256,0.426,0.003,-0.422,-0.426,-0.429,0.254,0.0,-0.0,0.0,0.002,0.006,0.002,0.002,0.013,0.001,0.015,-0.008,0.003,0.004,1.549,0.0,0.012,0.0,-0.015,0.006,0.001,-0.017,0.002,-0.011,0.002,0.001,0.455,0.001,-0.011,-0.02,0.025,0.002,0.002,0.027,0.042,-0.0,0.017,0.007,0.002,0.003,0.002,0.016,0.003,0.0,0.0,-0.0,-0.0
0.866,-0.866,-0.868,-0.862,7.496,-0.0,1.832,2.619,1.0,-0.007,-0.0,0.661,0.002,0.0,-0.004,-0.005,2.013,1.31,0.001,0.001,0.259,0.257,0.257,0.428,0.006,-0.427,-0.428,-0.431,0.254,0.0,-0.0,0.0,0.002,0.004,0.002,0.002,0.013,0.001,0.014,-0.011,0.002,0.003,1.551,0.0,0.012,0.0,-0.014,0.003,0.001,-0.014,0.002,-0.01,0.002,0.002,0.457,0.001,-0.012,-0.017,0.022,0.001,0.002,0.026,0.04,-0.003,0.014,0.01,0.001,0.001,0.001,0.014,0.002,0.0,0.0,-0.0,-0.0
0.865,-0.865,-0.87,-0.855,7.489,0.0,1.827,2.619,0.999,-0.002,0.0,0.657,0.008,0.0,-0.014,-0.0,2.013,1.312,0.006,0.005,0.26,0.256,0.256,0.427,-0.017,-0.421,-0.427,-0.439,0.253,0.0,0.0,0.0,0.008,0.009,0.004,0.003,0.012,0.003,0.016,-0.003,0.004,0.008,1.549,0.0,0.016,0.0,-0.015,0.016,0.002,-0.022,0.004,-0.01,0.004,0.002,0.456,0.002,-0.014,-0.022,0.024,0.023,0.003,0.019,0.04,0.019,0.011,-0.006,0.005,0.003,0.004,0.007,0.001,0.0,0.0,0.0,0.0
0.868,-0.868,-0.869,-0.863,7.526,0.0,1.784,2.622,0.999,0.004,0.0,0.672,0.003,0.0,-0.009,-0.001,2.008,1.308,0.004,0.003,0.261,0.259,0.259,0.422,-0.002,-0.418,-0.422,-0.427,0.257,0.0,0.0,0.0,0.007,0.003,0.002,0.002,0.013,0.001,0.014,-0.007,0.002,0.002,1.549,0.0,0.012,0.0,-0.014,0.001,0.002,-0.019,0.003,-0.009,0.004,0.001,0.456,0.001,-0.012,-0.02,0.024,0.011,0.003,0.022,0.041,0.007,0.015,0.011,0.003,0.004,0.002,0.015,0.002,0.0,0.0,0.0,0.0
0.866,-0.866,-0.87,-0.861,7.507,-0.0,1.816,2.62,1.0,0.001,-0.0,0.662,0.002,0.0,0.01,0.005,2.011,1.31,0.003,0.002,0.26,0.257,0.257,0.426,0.008,-0.421,-0.426,-0.431,0.254,0.0,-0.0,0.0,0.005,0.005,0.003,0.003,0.014,0.002,0.017,-0.003,0.003,0.004,1.55,0.0,0.011,0.0,-0.017,0.004,0.001,-0.015,0.003,-0.013,0.003,0.002,0.456,0.001,-0.011,-0.023,0.026,-0.017,0.001,0.028,0.044,-0.004,0.017,0.011,0.003,0.002,0.002,0.016,0.003,0.0,0.0,-0.0,-0.0
0.865,-0.865,-0.87,-0.86,7.489,0.0,1.835,2.619,1.0,0.001,-0.0,0.659,0.004,0.0,0.001,-0.016,2.014,1.311,0.003,0.002,0.26,0.257,0.257,0.428,-0.001,-0.422,-0.428,-0.434,0.255,0.0,0.0,0.0,0.005,0.005,0.002,0.002,0.012,0.002,0.015,-0.01,0.001,0.005,1.55,0.0,0.014,0.0,-0.014,0.007,0.002,-0.017,0.003,-0.009,0.003,0.002,0.456,0.001,-0.014,-0.018,0.024,-0.01,0.003,0.023,0.04,0.001,0.013,0.006,0.003,0.002,0.002,0.012,0.002,0.0,-0.0,0.0,-0.0
0.865,-0.865,-0.868,-0.86,7.477,0.0,1.839,2.616,1.0,0.003,0.0,0.678,0.011,0.0,0.03,-0.001,2.013,1.308,0.008,0.007,0.265,0.26,0.26,0.429,-0.01,-0.424,-0.429,-0.436,0.256,0.0,0.0,0.0,0.004,0.007,0.002,0.002,0.012,0.002,0.013,0.001,0.002,0.005,1.554,0.0,0.016,0.0,-0.012,0.008,0.002,-0.025,0.003,-0.007,0.003,0.002,0.459,0.002,-0.014,-0.017,0.024,-0.009,0.003,0.031,0.041,0.013,0.017,0.006,0.004,0.004,0.003,0.015,0.003,0.0,-0.0,0.0,0.0
0.861,-0.861,-0.865,-0.856,7.412,0.0,1.901,2.609,0.999,-0.01,0.0,0.675,0.012,0.0,-0.002,0.039,2.021,1.307,0.007,0.006,0.263,0.26,0.26,0.436,0.002,-0.427,-0.436,-0.444,0.255,0.0,-0.0,0.0,0.011,0.011,0.003,0.003,0.012,0.002,0.018,0.012,0.004,0.01,1.557,0.0,0.007,0.0,-0.014,0.017,0.001,-0.008,0.009,0.007,0.011,0.002,0.46,0.002,0.002,-0.031,0.026,-0.016,0.003,0.035,0.04,-0.002,0.022,0.002,0.004,0.004,0.003,0.019,0.005,0.0,0.0,-0.0,-0.0
0.861,-0.86,-0.865,-0.857,7.405,-0.0,1.944,2.608,1.0,-0.008,0.0,0.648,0.02,0.0,-0.034,0.023,2.029,1.315,0.013,0.011,0.267,0.255,0.254,0.441,-0.005,-0.435,-0.441,-0.445,0.249,0.0,-0.0,0.0,0.008,0.006,0.002,0.003,0.014,0.002,0.017,0.009,0.003,0.005,1.556,0.0,0.021,0.0,-0.016,0.008,0.004,-0.035,0.005,-0.009,0.005,0.005,0.458,0.003,-0.017,-0.024,0.03,-0.002,0.003,0.019,0.048,-0.004,0.014,0.0,0.003,0.003,0.002,0.013,0.002,0.0,0.0,-0.0,-0.0
0.86,-0.86,-0.868,-0.857,7.396,-0.0,1.948,2.606,0.999,0.001,0.0,0.644,0.009,0.0,-0.035,0.059,2.03,1.314,0.009,0.007,0.26,0.254,0.254,0.441,0.003,-0.437,-0.441,-0.445,0.249,0.0,-0.0,0.0,0.01,0.013,0.004,0.005,0.014,0.003,0.022,0.01,0.004,0.01,1.555,0.0,0.012,0.0,-0.021,0.01,0.001,-0.023,0.005,-0.012,0.006,0.003,0.459,0.002,-0.008,-0.029,0.03,-0.0,0.004,0.041,0.048,0.002,0.02,-0.006,0.003,0.005,0.003,0.015,0.004,0.0,0.0,-0.0,-0.0
0.86,-0.86,-0.863,-0.857,7.389,0.0,1.971,2.608,0.998,0.003,-0.0,0.611,0.006,0.0,-0.004,-0.023,2.032,1.32,0.005,0.004,0.25,0.247,0.247,0.444,-0.002,-0.44,-0.444,-0.447,0.245,0.0,0.0,0.0,0.004,0.004,0.002,0.003,0.014,0.001,0.018,0.001,0.003,0.004,1.551,0.0,0.012,0.0,-0.017,0.006,0.001,-0.019,0.003,-0.012,0.003,0.001,0.455,0.001,-0.011,-0.024,0.027,-0.007,0.002,0.024,0.044,0.003,0.016,0.01,0.002,0.002,0.002,0.015,0.003,0.0,-0.0,0.0,0.0
0.86,-0.86,-0.863,-0.854,7.4,0.0,1.98,2.608,0.999,0.014,0.0,0.602,0.013,0.0,-0.012,0.021,2.032,1.324,0.012,0.01,0.253,0.245,0.245,0.445,-0.003,-0.441,-0.445,-0.452,0.237,0.0,0.0,0.0,0.007,0.009,0.003,0.003,0.012,0.002,0.017,0.009,0.003,0.007,1.55,0.0,0.014,0.0,-0.015,0.005,0.002,-0.032,0.005,-0.003,0.006,0.005,0.454,0.003,-0.008,-0.024,0.026,-0.015,0.003,0.023,0.039,0.014,0.014,-0.009,0.003,0.003,0.002,0.011,0.002,0.0,-0.0,-0.0,0.0
0.86,-0.86,-0.862,-0.857,7.398,-0.0,1.994,2.608,0.999,-0.003,0.0,0.595,0.009,0.0,0.011,0.012,2.034,1.324,0.005,0.005,0.247,0.244,0.244,0.447,0.002,-0.443,-0.446,-0.452,0.241,0.0,-0.0,0.0,0.007,0.005,0.001,0.002,0.012,0.001,0.016,-0.005,0.002,0.003,1.551,0.0,0.013,0.0,-0.015,0.004,0.002,-0.02,0.004,-0.006,0.005,0.002,0.454,0.002,-0.012,-0.023,0.022,-0.02,0.004,0.025,0.04,-0.006,0.015,0.008,0.002,0.002,0.002,0.014,0.002,0.0,0.0,-0.0,-0.0
0.86,-0.86,-0.862,-0.857,7.389,-0.0,2.011,2.606,1.0,-0.0,0.0,0.595,0.004,0.0,0.008,0.024,2.035,1.324,0.004,0.003,0.248,0.244,0.244,0.448,0.001,-0.447,-0.448,-0.451,0.241,0.0,-0.0,0.0,0.003,0.005,0.001,0.003,0.012,0.001,0.016,-0.005,0.002,0.004,1.552,0.0,0.012,0.0,-0.016,0.004,0.001,-0.018,0.003,-0.01,0.004,0.002,0.455,0.001,-0.011,-0.023,0.022,0.002,0.002,0.025,0.039,-0.004,0.014,0.006,0.001,0.001,0.001,0.013,0.002,0.0,0.0,-0.0,-0.0
0.859,-0.859,-0.862,-0.857,7.379,-0.0,2.013,2.606,0.999,-0.005,0.0,0.59,0.01,0.0,-0.009,-0.011,2.037,1.325,0.006,0.006,0.245,0.243,0.243,0.449,-0.002,-0.445,-0.449,-0.453,0.239,0.0,0.0,0.0,0.003,0.004,0.001,0.002,0.013,0.001,0.016,-0.002,0.002,0.003,1.55,0.0,0.014,0.0,-0.015,0.003,0.002,-0.022,0.003,-0.008,0.004,0.002,0.454,0.001,-0.013,-0.021,0.025,-0.002,0.002,0.021,0.043,0.004,0.015,0.008,0.002,0.001,0.002,0.015,0.002,0.0,-0.0,-0.0,0.0
0.857,-0.857,-0.859,-0.853,7.35,0.0,2.025,2.603,0.999,0.001,0.0,0.603,0.008,0.0,0.021,0.005,2.038,1.322,0.005,0.004,0.248,0.246,0.246,0.45,-0.002,-0.447,-0.45,-0.454,0.241,0.0,0.0,0.0,0.003,0.004,0.002,0.002,0.013,0.001,0.013,-0.002,0.002,0.003,1.553,0.0,0.014,0.0,-0.013,0.006,0.002,-0.019,0.002,-0.008,0.003,0.002,0.456,0.002,-0.013,-0.018,0.024,0.007,0.003,0.018,0.04,0.005,0.015,0.006,0.002,0.002,0.001,0.014,0.002,0.0,0.0,0.0,0.0
0.858,-0.858,-0.861,-0.854,7.357,-0.0,2.026,2.602,0.999,0.0,-0.0,0.611,0.004,0.0,-0.01,0.031,2.037,1.32,0.003,0.003,0.25,0.247,0.247,0.45,-0.002,-0.446,-0.45,-0.456,0.242,0.0,-0.0,0.0,0.006,0.005,0.002,0.002,0.009,0.002,0.012,-0.007,0.003,0.005,1.555,0.0,0.013,0.0,-0.012,0.01,0.002,-0.018,0.004,-0.005,0.004,0.002,0.457,0.002,-0.012,-0.016,0.019,-0.024,0.002,0.016,0.032,0.003,0.01,0.001,0.003,0.005,0.003,0.008,0.001,0.0,-0.0,0.0,0.0
0.857,-0.857,-0.86,-0.851,7.341,0.0,2.021,2.601,1.0,-0.018,-0.0,0.633,0.008,0.0,-0.032,-0.063,2.035,1.316,0.008,0.006,0.257,0.252,0.252,0.45,0.007,-0.444,-0.45,-0.458,0.246,0.0,0.0,0.0,0.016,0.014,0.003,0.004,0.01,0.002,0.02,0.001,0.004,0.012,1.558,0.0,0.014,0.0,-0.016,0.02,0.002,-0.03,0.01,0.0,0.012,0.004,0.46,0.003,-0.011,-0.036,0.033,0.016,0.005,0.049,0.044,-0.016,0.022,0.002,0.005,0.009,0.005,0.017,0.005,0.0,0.0,0.0,-0.0
0.857,-0.857,-0.861,-0.854,7.35,-0.0,2.034,2.601,1.0,-0.012,0.0,0.605,0.011,0.0,-0.047,-0.039,2.038,1.322,0.008,0.007,0.252,0.246,0.246,0.451,-0.007,-0.447,-0.451,-0.456,0.242,0.0,-0.0,0.0,0.003,0.01,0.002,0.003,0.011,0.002,0.017,0.003,0.004,0.008,1.554,0.0,0.012,0.0,-0.016,0.012,0.001,-0.022,0.003,-0.009,0.004,0.003,0.456,0.002,-0.009,-0.026,0.024,-0.005,0.002,0.025,0.038,0.012,0.014,-0.008,0.003,0.005,0.003,0.009,0.002,0.0,-0.0,-0.0,0.0
0.857,-0.857,-0.861,-0.85,7.351,-0.0,2.042,2.603,0.999,0.022,0.0,0.582,0.008,0.0,-0.053,0.006,2.041,1.328,0.01,0.008,0.249,0.241,0.241,0.452,-0.004,-0.447,-0.452,-0.458,0.234,0.0,-0.0,0.0,0.018,0.007,0.003,0.008,0.018,0.002,0.028,-0.01,0.003,0.006,1.55,0.0,0.022,0.0,-0.026,0.01,0.005,-0.039,0.009,-0.013,0.009,0.005,0.453,0.004,-0.02,-0.039,0.037,-0.003,0.008,0.03,0.063,0.015,0.019,0.006,0.003,0.006,0.003,0.017,0.003,0.0,0.0,0.0,-0.0
0.858,-0.858,-0.861,-0.854,7.362,0.0,2.055,2.604,0.999,0.011,-0.0,0.564,0.003,0.0,0.001,-0.01,2.041,1.332,0.003,0.002,0.243,0.238,0.238,0.453,0.013,-0.451,-0.453,-0.456,0.234,0.0,-0.0,0.0,0.004,0.006,0.002,0.004,0.016,0.002,0.021,-0.007,0.002,0.005,1.549,0.0,0.013,0.0,-0.021,0.008,0.002,-0.018,0.003,-0.013,0.004,0.003,0.452,0.002,-0.013,-0.026,0.03,0.012,0.004,0.03,0.05,-0.004,0.018,0.008,0.002,0.003,0.002,0.016,0.003,0.0,0.0,0.0,-0.0
0.857,-0.857,-0.86,-0.848,7.339,0.0,2.098,2.602,0.998,0.008,0.0,0.529,0.005,0.0,-0.021,0.08,2.046,1.339,0.004,0.003,0.237,0.23,0.23,0.458,-0.003,-0.454,-0.458,-0.466,0.226,0.0,-0.0,0.0,0.003,0.015,0.003,0.005,0.01,0.002,0.022,-0.004,0.003,0.014,1.545,0.0,0.01,0.0,-0.022,0.029,0.001,-0.015,0.002,-0.018,0.002,0.003,0.448,0.002,-0.009,-0.025,0.026,-0.011,0.001,0.032,0.044,0.002,0.017,-0.011,0.004,0.005,0.003,0.007,0.003,0.0,-0.0,-0.0,-0.0
0.864,-0.864,-0.867,-0.862,7.47,-0.0,1.999,2.615,0.999,0.004,0.0,0.516,0.004,0.0,-0.012,-0.01,2.036,1.342,0.003,0.003,0.23,0.227,0.227,0.447,-0.005,-0.441,-0.447,-0.451,0.224,0.0,0.0,0.0,0.007,0.007,0.002,0.002,0.01,0.001,0.015,-0.01,0.003,0.006,1.538,0.0,0.016,0.0,-0.014,0.009,0.003,-0.02,0.004,-0.008,0.004,0.002,0.444,0.001,-0.016,-0.022,0.024,-0.013,0.002,0.012,0.036,0.008,0.007,-0.013,0.003,0.003,0.002,0.0,0.001,0.0,-0.0,0.0,0.0
0.867,-0.867,-0.87,-0.863,7.51,-0.0,1.942,2.62,1.0,-0.014,0.0,0.543,0.014,0.0,-0.029,0.047,2.027,1.336,0.009,0.008,0.238,0.233,0.233,0.441,-0.008,-0.439,-0.441,-0.443,0.23,0.0,0.0,0.0,0.011,0.012,0.002,0.002,0.012,0.002,0.015,0.0,0.003,0.009,1.54,0.0,0.014,0.0,-0.013,0.011,0.002,-0.027,0.007,0.001,0.008,0.003,0.446,0.002,-0.01,-0.026,0.027,-0.001,0.003,0.044,0.041,-0.003,0.021,-0.001,0.002,0.003,0.001,0.017,0.004,0.0,0.0,0.0,-0.0
0.862,-0.862,-0.864,-0.858,7.425,-0.0,2.02,2.612,0.999,-0.002,-0.0,0.525,0.004,0.0,0.044,0.005,2.038,1.34,0.008,0.006,0.231,0.229,0.229,0.449,0.004,-0.445,-0.449,-0.453,0.228,0.0,0.0,0.0,0.005,0.004,0.002,0.002,0.015,0.001,0.016,0.006,0.002,0.003,1.54,0.0,0.014,0.0,-0.015,0.005,0.002,-0.023,0.003,-0.011,0.003,0.001,0.446,0.001,-0.011,-0.02,0.027,0.003,0.002,0.027,0.046,-0.001,0.019,0.013,0.002,0.002,0.002,0.018,0.004,0.0,0.0,-0.0,-0.0
0.861,-0.86,-0.864,-0.855,7.405,0.0,2.061,2.609,0.999,0.008,0.0,0.515,0.001,0.0,-0.009,-0.01,2.042,1.342,0.003,0.002,0.23,0.227,0.227,0.454,0.002,-0.449,-0.454,-0.462,0.221,0.0,-0.0,0.0,0.006,0.003,0.003,0.003,0.016,0.002,0.019,-0.002,0.002,0.002,1.541,0.0,0.012,0.0,-0.018,0.002,0.001,-0.014,0.003,-0.01,0.004,0.003,0.446,0.002,-0.012,-0.023,0.028,0.01,0.004,0.022,0.047,-0.002,0.018,0.011,0.004,0.003,0.003,0.017,0.003,0.0,-0.0,0.0,0.0
0.859,-0.859,-0.863,-0.856,7.386,0.0,2.076,2.608,1.0,0.006,0.0,0.513,0.004,0.0,-0.01,0.002,2.045,1.342,0.007,0.005,0.229,0.227,0.226,0.456,0.0,-0.452,-0.456,-0.459,0.222,0.0,-0.0,0.0,0.005,0.003,0.002,0.002,0.013,0.002,0.014,0.008,0.003,0.003,1.542,0.0,0.012,0.0,-0.013,0.004,0.002,-0.017,0.003,-0.006,0.004,0.002,0.446,0.002,-0.01,-0.018,0.023,0.002,0.003,0.018,0.038,0.006,0.013,0.008,0.002,0.002,0.002,0.013,0.002,0.0,0.0,0.0,-0.0
0.858,-0.858,-0.862,-0.854,7.36,0.0,2.088,2.604,0.999,-0.022,-0.0,0.528,0.002,0.0,0.014,0.016,2.045,1.338,0.003,0.002,0.236,0.23,0.23,0.457,-0.003,-0.454,-0.457,-0.461,0.223,0.0,0.0,0.0,0.013,0.004,0.002,0.002,0.012,0.001,0.014,-0.004,0.002,0.003,1.545,0.0,0.011,0.0,-0.009,0.006,0.001,-0.014,0.008,0.013,0.01,0.004,0.448,0.003,-0.01,-0.022,0.022,-0.001,0.006,0.017,0.034,-0.005,0.013,0.005,0.002,0.003,0.002,0.012,0.002,0.0,0.0,-0.0,-0.0
0.857,-0.857,-0.859,-0.855,7.348,-0.0,2.107,2.602,0.999,-0.008,0.0,0.526,0.003,0.0,-0.003,0.023,2.048,1.34,0.003,0.002,0.232,0.229,0.229,0.459,0.002,-0.456,-0.459,-0.462,0.227,0.0,0.0,0.0,0.005,0.007,0.001,0.003,0.014,0.001,0.018,-0.008,0.001,0.005,1.546,0.0,0.012,0.0,-0.017,0.006,0.002,-0.016,0.002,-0.014,0.003,0.002,0.448,0.001,-0.012,-0.022,0.026,-0.002,0.002,0.028,0.045,-0.009,0.017,0.005,0.002,0.003,0.002,0.016,0.003,0.0,0.0,-0.0,-0.0
0.856,-0.856,-0.858,-0.851,7.326,-0.0,2.123,2.602,0.998,-0.007,-0.0,0.516,0.002,0.0,0.0,-0.026,2.05,1.342,0.003,0.002,0.23,0.227,0.227,0.461,0.001,-0.457,-0.461,-0.467,0.225,0.0,0.0,0.0,0.002,0.005,0.002,0.003,0.014,0.001,0.017,-0.005,0.001,0.004,1.544,0.0,0.013,0.0,-0.017,0.005,0.002,-0.017,0.002,-0.012,0.003,0.002,0.447,0.001,-0.013,-0.022,0.026,0.004,0.003,0.025,0.045,-0.005,0.016,0.006,0.003,0.003,0.002,0.015,0.002,0.0,0.0,-0.0,0.0
0.855,-0.855,-0.857,-0.853,7.312,0.0,2.15,2.598,0.999,0.002,-0.0,0.515,0.002,0.0,0.002,-0.009,2.053,1.342,0.001,0.001,0.228,0.227,0.227,0.464,0.005,-0.46,-0.464,-0.468,0.225,0.0,0.0,0.0,0.001,0.004,0.001,0.002,0.012,0.001,0.013,-0.01,0.002,0.004,1.546,0.0,0.012,0.0,-0.013,0.005,0.001,-0.014,0.002,-0.01,0.002,0.001,0.448,0.001,-0.012,-0.018,0.023,0.007,0.002,0.023,0.039,-0.0,0.015,0.008,0.002,0.002,0.002,0.014,0.002,0.0,0.0,0.0,-0.0
0.854,-0.854,-0.859,-0.85,7.3,0.0,2.144,2.598,0.998,0.01,-0.0,0.533,0.028,0.001,-0.067,-0.011,2.053,1.339,0.024,0.018,0.242,0.231,0.231,0.463,-0.003,-0.456,-0.463,-0.471,0.221,0.0,0.0,0.0,0.013,0.007,0.003,0.001,0.011,0.002,0.011,0.051,0.004,0.006,1.548,0.0,0.025,0.0,-0.006,0.009,0.006,-0.039,0.008,0.015,0.01,0.006,0.45,0.004,-0.007,-0.016,0.024,-0.031,0.003,0.018,0.043,0.003,0.013,-0.002,0.004,0.005,0.003,0.011,0.002,0.0,-0.0,-0.0,0.0
0.851,-0.851,-0.856,-0.847,7.247,-0.0,2.19,2.593,0.998,-0.004,-0.0,0.52,0.016,0.0,0.029,0.013,2.059,1.34,0.011,0.009,0.233,0.228,0.228,0.468,0.015,-0.461,-0.468,-0.474,0.22,0.0,-0.0,0.0,0.005,0.01,0.003,0.005,0.015,0.003,0.022,0.008,0.004,0.008,1.547,0.0,0.017,0.0,-0.02,0.008,0.003,-0.028,0.006,-0.012,0.007,0.004,0.45,0.003,-0.013,-0.038,0.033,-0.032,0.004,0.04,0.052,-0.017,0.02,0.005,0.004,0.002,0.003,0.017,0.004,0.0,0.0,-0.0,-0.0
0.852,-0.852,-0.855,-0.847,7.257,0.0,2.199,2.593,0.999,0.001,-0.0,0.524,0.003,0.0,0.002,-0.011,2.059,1.34,0.005,0.003,0.232,0.229,0.229,0.469,-0.003,-0.465,-0.469,-0.474,0.227,0.0,0.0,0.0,0.005,0.004,0.002,0.002,0.012,0.002,0.015,0.001,0.003,0.003,1.55,0.0,0.011,0.0,-0.014,0.004,0.001,-0.013,0.004,-0.009,0.004,0.002,0.45,0.001,-0.01,-0.021,0.022,0.011,0.003,0.02,0.037,0.003,0.013,0.009,0.002,0.002,0.002,0.012,0.002,0.0,-0.0,-0.0,0.0
0.852,-0.852,-0.856,-0.845,7.251,-0.0,2.204,2.593,0.998,-0.003,-0.0,0.512,0.016,0.0,0.02,-0.044,2.06,1.34,0.016,0.012,0.23,0.226,0.226,0.47,-0.005,-0.464,-0.47,-0.478,0.218,0.0,-0.0,0.0,0.009,0.012,0.003,0.003,0.01,0.003,0.016,0.033,0.004,0.009,1.547,0.0,0.018,0.0,-0.012,0.01,0.003,-0.027,0.008,0.008,0.01,0.004,0.45,0.003,-0.007,-0.031,0.025,0.013,0.006,0.039,0.04,0.009,0.016,-0.003,0.004,0.004,0.003,0.011,0.003,0.0,0.0,-0.0,-0.0
0.851,-0.85,-0.854,-0.844,7.234,0.0,2.224,2.591,0.999,-0.001,0.0,0.515,0.008,0.0,0.006,-0.011,2.062,1.342,0.007,0.006,0.232,0.227,0.227,0.472,-0.01,-0.468,-0.472,-0.477,0.223,0.0,0.0,0.0,0.006,0.005,0.003,0.002,0.012,0.002,0.016,0.002,0.002,0.004,1.549,0.0,0.012,0.0,-0.015,0.004,0.001,-0.022,0.005,-0.001,0.006,0.003,0.45,0.002,-0.009,-0.021,0.026,0.006,0.003,0.028,0.039,0.015,0.016,0.008,0.003,0.005,0.003,0.015,0.002,0.0,-0.0,-0.0,-0.0
0.851,-0.851,-0.854,-0.849,7.24,-0.0,2.223,2.59,0.998,0.009,0.0,0.507,0.01,0.0,0.015,0.004,2.062,1.343,0.006,0.005,0.23,0.225,0.225,0.472,-0.004,-0.468,-0.472,-0.476,0.221,0.0,-0.0,0.0,0.004,0.004,0.001,0.003,0.012,0.001,0.018,-0.004,0.002,0.003,1.547,0.0,0.015,0.0,-0.018,0.003,0.002,-0.026,0.002,-0.013,0.003,0.003,0.449,0.003,-0.013,-0.023,0.024,-0.01,0.005,0.023,0.043,0.012,0.013,0.007,0.002,0.003,0.002,0.012,0.002,0.0,0.0,0.0,-0.0
0.851,-0.851,-0.853,-0.847,7.235,0.0,2.241,2.591,0.999,-0.004,-0.0,0.504,0.011,0.0,-0.026,0.023,2.064,1.344,0.011,0.009,0.231,0.224,0.224,0.473,0.005,-0.468,-0.473,-0.478,0.22,0.0,0.0,0.0,0.003,0.006,0.002,0.003,0.014,0.002,0.016,0.017,0.003,0.005,1.548,0.0,0.014,0.0,-0.015,0.008,0.002,-0.018,0.003,-0.01,0.004,0.003,0.449,0.002,-0.009,-0.026,0.024,-0.022,0.002,0.024,0.043,-0.01,0.016,0.006,0.003,0.004,0.002,0.015,0.002,0.0,0.0,-0.0,-0.0
0.85,-0.85,-0.852,-0.848,7.222,0.0,2.236,2.59,0.998,-0.011,-0.0,0.504,0.006,0.0,0.014,-0.004,2.064,1.344,0.005,0.004,0.227,0.225,0.224,0.473,-0.005,-0.471,-0.473,-0.474,0.22,0.0,0.0,0.0,0.01,0.004,0.001,0.002,0.012,0.001,0.015,-0.006,0.001,0.003,1.547,0.0,0.014,0.0,-0.013,0.005,0.002,-0.02,0.006,0.0,0.007,0.002,0.448,0.002,-0.013,-0.024,0.022,-0.009,0.003,0.015,0.036,0.003,0.011,0.002,0.001,0.002,0.001,0.01,0.001,0.0,-0.0,-0.0,0.0
0.851,-0.851,-0.857,-0.845,7.244,-0.0,2.223,2.59,0.999,-0.005,-0.0,0.511,0.007,0.0,-0.029,0.003,2.063,1.343,0.005,0.004,0.23,0.226,0.226,0.472,0.004,-0.467,-0.472,-0.476,0.223,0.0,0.0,0.0,0.005,0.007,0.003,0.002,0.012,0.002,0.015,-0.009,0.002,0.006,1.549,0.0,0.017,0.0,-0.014,0.011,0.003,-0.024,0.004,-0.007,0.005,0.002,0.45,0.002,-0.017,-0.026,0.025,-0.009,0.003,0.021,0.041,-0.006,0.011,0.002,0.002,0.004,0.002,0.009,0.001,0.0,0.0,0.0,0.0
0.851,-0.851,-0.853,-0.847,7.24,0.0,2.21,2.591,0.999,-0.0,0.0,0.523,0.006,0.0,0.017,-0.025,2.061,1.338,0.005,0.004,0.231,0.229,0.229,0.47,0.002,-0.466,-0.47,-0.476,0.224,0.0,0.0,0.0,0.007,0.005,0.002,0.003,0.01,0.001,0.016,-0.001,0.002,0.004,1.55,0.0,0.011,0.0,-0.015,0.008,0.001,-0.02,0.004,-0.009,0.006,0.002,0.451,0.002,-0.01,-0.03,0.024,0.003,0.003,0.022,0.039,-0.008,0.015,0.007,0.003,0.003,0.002,0.014,0.002,0.0,-0.0,-0.0,0.0
0.851,-0.851,-0.853,-0.849,7.235,-0.0,2.23,2.59,0.998,-0.003,-0.0,0.503,0.007,0.0,0.008,-0.007,2.064,1.343,0.006,0.005,0.228,0.224,0.224,0.472,-0.003,-0.469,-0.472,-0.476,0.218,0.0,0.0,0.0,0.008,0.005,0.001,0.003,0.012,0.001,0.018,-0.004,0.001,0.004,1.547,0.0,0.016,0.0,-0.017,0.003,0.002,-0.024,0.004,-0.01,0.005,0.003,0.449,0.003,-0.015,-0.025,0.026,0.016,0.004,0.021,0.043,0.009,0.012,0.006,0.002,0.002,0.002,0.011,0.001,0.0,0.0,-0.0,0.0
0.851,-0.851,-0.853,-0.849,7.245,0.0,2.223,2.592,0.999,0.006,-0.0,0.509,0.005,0.0,0.014,0.019,2.061,1.343,0.005,0.004,0.227,0.226,0.226,0.472,-0.007,-0.467,-0.472,-0.477,0.223,0.0,-0.0,0.0,0.005,0.006,0.002,0.002,0.01,0.001,0.014,0.004,0.003,0.005,1.548,0.0,0.009,0.0,-0.014,0.007,0.001,-0.013,0.002,-0.01,0.003,0.001,0.449,0.001,-0.007,-0.018,0.022,-0.007,0.002,0.027,0.036,0.012,0.015,0.003,0.003,0.004,0.003,0.014,0.002,0.0,-0.0,0.0,0.0
0.847,-0.847,-0.851,-0.84,7.176,-0.0,2.308,2.586,0.999,-0.005,-0.0,0.487,0.015,0.0,-0.002,0.032,2.07,1.348,0.014,0.011,0.225,0.221,0.221,0.48,0.011,-0.476,-0.48,-0.493,0.216,0.0,-0.0,0.0,0.01,0.013,0.003,0.004,0.016,0.003,0.02,0.026,0.004,0.011,1.548,0.0,0.014,0.0,-0.019,0.019,0.002,-0.029,0.007,-0.008,0.008,0.002,0.447,0.002,-0.002,-0.034,0.04,-0.036,0.002,0.05,0.055,-0.015,0.029,0.005,0.005,0.007,0.004,0.025,0.008,0.0,0.0,-0.0,-0.0
0.847,-0.847,-0.857,-0.841,7.173,-0.0,2.301,2.584,0.998,-0.035,-0.0,0.488,0.037,0.001,0.084,0.066,2.071,1.346,0.026,0.023,0.232,0.221,0.221,0.48,0.02,-0.463,-0.48,-0.493,0.21,0.0,0.0,0.0,0.005,0.015,0.005,0.003,0.019,0.004,0.018,0.001,0.006,0.013,1.547,0.0,0.045,0.0,-0.018,0.027,0.02,-0.082,0.004,-0.006,0.005,0.008,0.448,0.007,-0.036,-0.025,0.035,-0.016,0.013,0.021,0.067,-0.044,0.015,-0.022,0.01,0.016,0.009,-0.001,0.002,0.0,-0.0,-0.0,0.0
0.852,-0.852,-0.855,-0.85,7.266,0.0,2.202,2.593,0.999,0.001,0.0,0.511,0.005,0.0,-0.022,-0.037,2.06,1.342,0.006,0.004,0.228,0.226,0.226,0.469,0.002,-0.466,-0.469,-0.471,0.224,0.0,-0.0,0.0,0.003,0.009,0.001,0.002,0.011,0.001,0.016,-0.004,0.002,0.006,1.548,0.0,0.014,0.0,-0.016,0.007,0.002,-0.024,0.002,-0.011,0.002,0.001,0.449,0.001,-0.013,-0.019,0.022,-0.006,0.002,0.03,0.037,0.002,0.012,-0.002,0.001,0.001,0.001,0.008,0.001,0.0,-0.0,0.0,0.0
0.853,-0.853,-0.856,-0.85,7.281,-0.0,2.184,2.596,1.0,-0.007,0.0,0.514,0.003,0.0,-0.001,-0.007,2.057,1.342,0.002,0.002,0.23,0.227,0.227,0.467,0.002,-0.464,-0.467,-0.472,0.223,0.0,0.0,0.0,0.008,0.008,0.002,0.002,0.01,0.001,0.014,-0.011,0.002,0.007,1.547,0.0,0.015,0.0,-0.012,0.01,0.002,-0.018,0.005,-0.006,0.005,0.003,0.449,0.003,-0.015,-0.022,0.022,-0.033,0.006,0.025,0.04,-0.007,0.014,-0.001,0.003,0.003,0.002,0.012,0.002,0.0,-0.0,-0.0,-0.0
0.855,-0.855,-0.857,-0.852,7.307,-0.0,2.133,2.597,0.999,0.001,-0.0,0.534,0.006,0.0,-0.01,-0.017,2.052,1.337,0.003,0.003,0.233,0.231,0.231,0.462,-0.006,-0.455,-0.462,-0.466,0.229,0.0,0.0,0.0,0.003,0.007,0.002,0.001,0.011,0.002,0.012,-0.013,0.003,0.006,1.548,0.0,0.018,0.0,-0.012,0.011,0.003,-0.022,0.002,-0.008,0.002,0.001,0.45,0.001,-0.018,-0.015,0.024,0.004,0.002,0.013,0.036,0.008,0.007,-0.009,0.003,0.005,0.003,0.001,0.001,0.0,-0.0,0.0,0.0
0.858,-0.858,-0.861,-0.853,7.357,-0.0,2.036,2.604,0.998,-0.012,0.0,0.584,0.002,0.0,0.008,0.019,2.039,1.326,0.002,0.002,0.247,0.242,0.242,0.451,-0.003,-0.445,-0.451,-0.457,0.235,0.0,0.0,0.0,0.007,0.006,0.002,0.0,0.007,0.001,0.007,-0.017,0.002,0.004,1.55,0.0,0.02,0.0,-0.005,0.007,0.004,-0.024,0.004,0.003,0.005,0.005,0.454,0.005,-0.02,-0.011,0.022,-0.014,0.01,0.018,0.031,-0.003,0.007,-0.005,0.004,0.007,0.004,0.004,0.0,0.0,-0.0,0.0,0.0
0.859,-0.859,-0.863,-0.854,7.381,-0.0,1.977,2.606,1.0,-0.002,-0.0,0.634,0.006,0.0,0.027,0.013,2.031,1.317,0.005,0.004,0.257,0.252,0.252,0.445,0.001,-0.44,-0.445,-0.448,0.247,0.0,-0.0,0.0,0.005,0.006,0.003,0.001,0.012,0.002,0.01,-0.01,0.004,0.005,1.555,0.0,0.019,0.0,-0.009,0.005,0.004,-0.027,0.003,-0.003,0.003,0.003,0.458,0.003,-0.019,-0.013,0.024,-0.006,0.007,0.024,0.039,-0.005,0.013,0.0,0.003,0.005,0.002,0.011,0.002,0.0,0.0,0.0,-0.0
0.866,-0.866,-0.881,-0.858,7.497,-0.0,2.176,2.617,0.998,-0.008,-0.0,0.298,0.006,0.0,-0.011,0.049,2.06,1.397,0.003,0.003,0.176,0.173,0.173,0.467,-0.02,-0.445,-0.466,-0.479,0.168,0.0,-0.0,0.0,0.011,0.015,0.006,0.002,0.019,0.005,0.012,-0.01,0.008,0.012,1.505,0.0,0.015,0.0,-0.009,0.024,0.002,-0.02,0.007,0.005,0.008,0.003,0.412,0.002,-0.015,-0.022,0.056,0.053,0.003,0.081,0.077,0.029,0.053,0.034,0.01,0.011,0.008,0.051,0.029,0.0,0.0,0.0,-0.0
0.858,-0.858,-0.86,-0.854,7.358,-0.0,2.291,2.605,0.998,-0.002,-0.0,0.326,0.003,0.0,-0.021,0.013,2.07,1.39,0.004,0.003,0.184,0.181,0.18,0.479,0.007,-0.472,-0.479,-0.485,0.178,0.0,-0.0,0.0,0.006,0.008,0.002,0.003,0.012,0.002,0.017,-0.008,0.004,0.006,1.517,0.0,0.014,0.0,-0.015,0.005,0.002,-0.02,0.006,0.002,0.008,0.002,0.42,0.002,-0.014,-0.023,0.025,0.043,0.005,0.03,0.042,-0.013,0.015,-0.004,0.004,0.004,0.003,0.012,0.002,0.0,0.0,0.0,-0.0
0.858,-0.858,-0.866,-0.849,7.357,-0.0,2.3,2.604,0.998,0.002,-0.0,0.311,0.01,0.001,-0.152,-0.095,2.072,1.392,0.036,0.022,0.183,0.176,0.176,0.48,-0.014,-0.469,-0.48,-0.489,0.166,0.0,-0.0,0.001,0.004,0.038,0.004,0.012,0.014,0.003,0.035,0.055,0.001,0.03,1.514,0.0,0.037,0.001,-0.022,0.028,0.014,-0.094,0.016,0.003,0.027,0.005,0.418,0.004,-0.009,-0.101,0.031,-0.091,0.005,0.024,0.076,0.014,0.038,-0.084,0.005,0.004,0.004,-0.008,0.015,0.0,0.0,0.0,-0.0
0.884,-0.884,-0.898,-0.871,7.81,-0.0,1.87,2.654,1.0,-0.008,0.001,0.313,0.068,0.003,-0.232,-0.194,2.019,1.39,0.051,0.044,0.185,0.177,0.177,0.432,-0.002,-0.416,-0.432,-0.446,0.165,0.0,0.0,0.001,0.04,0.049,0.008,0.019,0.017,0.006,0.043,0.003,0.01,0.034,1.493,0.0,0.07,0.002,-0.03,0.042,0.048,-0.16,0.025,0.007,0.031,0.006,0.408,0.005,-0.048,-0.101,0.051,-0.167,0.008,0.064,0.115,0.012,0.051,-0.133,0.009,0.013,0.008,-0.017,0.026,0.0,-0.0,-0.0,0.0
0.89,-0.89,-0.893,-0.887,7.926,0.0,1.743,2.67,1.0,-0.012,-0.0,0.317,0.01,0.0,0.033,0.005,2.001,1.39,0.006,0.006,0.185,0.178,0.178,0.418,0.004,-0.412,-0.418,-0.425,0.169,0.0,0.0,0.0,0.016,0.019,0.002,0.004,0.013,0.002,0.021,-0.002,0.003,0.017,1.486,0.0,0.015,0.0,-0.017,0.032,0.002,-0.023,0.009,0.001,0.012,0.005,0.404,0.004,-0.014,-0.041,0.028,-0.068,0.007,0.035,0.047,-0.013,0.019,-0.016,0.004,0.005,0.003,0.006,0.004,0.0,-0.0,-0.0,0.0
0.889,-0.889,-0.892,-0.885,7.909,-0.0,1.758,2.668,0.999,0.01,-0.0,0.318,0.007,0.0,0.011,0.059,2.003,1.393,0.005,0.004,0.188,0.178,0.178,0.419,-0.001,-0.412,-0.419,-0.43,0.174,0.0,0.0,0.0,0.019,0.012,0.002,0.004,0.012,0.002,0.019,-0.009,0.003,0.01,1.487,0.0,0.018,0.0,-0.016,0.013,0.003,-0.025,0.009,0.002,0.01,0.004,0.404,0.004,-0.017,-0.031,0.026,-0.053,0.006,0.03,0.045,0.001,0.015,-0.013,0.005,0.004,0.004,0.008,0.002,0.0,-0.0,-0.0,-0.0
0.888,-0.888,-0.893,-0.881,7.891,-0.0,1.765,2.666,1.0,-0.002,0.0,0.328,0.007,0.0,-0.015,-0.069,2.004,1.388,0.005,0.004,0.185,0.181,0.181,0.42,-0.006,-0.41,-0.42,-0.431,0.176,0.0,-0.0,0.0,0.011,0.013,0.004,0.004,0.014,0.004,0.02,-0.003,0.007,0.011,1.49,0.0,0.011,0.0,-0.018,0.023,0.001,-0.019,0.006,0.0,0.008,0.003,0.408,0.003,-0.01,-0.027,0.033,-0.038,0.004,0.041,0.05,0.011,0.026,0.005,0.007,0.013,0.007,0.022,0.007,0.0,-0.0,-0.0,0.0
0.88,-0.88,-0.888,-0.869,7.744,-0.0,1.92,2.646,1.0,-0.008,0.0,0.319,0.03,0.001,-0.083,-0.169,2.025,1.392,0.029,0.023,0.19,0.178,0.178,0.438,-0.01,-0.423,-0.438,-0.458,0.17,0.0,0.0,0.001,0.014,0.032,0.006,0.009,0.018,0.006,0.03,0.052,0.011,0.024,1.496,0.0,0.029,0.001,-0.007,0.024,0.008,-0.042,0.018,0.074,0.029,0.006,0.409,0.004,-0.002,-0.036,0.046,0.051,0.007,0.12,0.085,0.021,0.051,0.01,0.012,0.023,0.011,0.04,0.026,0.0,-0.0,0.0,0.0
0.869,-0.869,-0.877,-0.862,7.554,-0.0,2.057,2.625,0.999,0.02,-0.0,0.37,0.015,0.0,-0.114,-0.031,2.044,1.379,0.021,0.017,0.205,0.192,0.192,0.454,0.007,-0.444,-0.454,-0.466,0.183,0.0,-0.0,0.0,0.025,0.011,0.005,0.004,0.016,0.005,0.02,0.004,0.008,0.009,1.515,0.0,0.029,0.0,-0.004,0.013,0.008,-0.062,0.016,0.018,0.019,0.007,0.422,0.005,-0.019,-0.041,0.033,-0.085,0.006,0.037,0.058,-0.007,0.024,-0.003,0.006,0.007,0.005,0.021,0.006,0.0,-0.0,0.0,0.0
0.863,-0.863,-0.87,-0.858,7.453,0.0,2.148,2.615,0.999,0.034,0.0,0.372,0.014,0.0,-0.028,0.011,2.052,1.376,0.015,0.012,0.203,0.193,0.193,0.463,-0.006,-0.454,-0.463,-0.475,0.183,0.0,-0.0,0.0,0.014,0.016,0.003,0.005,0.016,0.002,0.022,0.023,0.002,0.012,1.52,0.0,0.016,0.0,-0.02,0.016,0.003,-0.021,0.007,-0.01,0.008,0.006,0.425,0.004,-0.006,-0.03,0.032,0.003,0.007,0.054,0.057,0.024,0.027,0.001,0.006,0.008,0.005,0.022,0.007,0.0,0.0,-0.0,-0.0
0.861,-0.861,-0.865,-0.857,7.406,-0.0,2.202,2.609,0.999,-0.002,-0.0,0.376,0.006,0.0,-0.019,0.035,2.06,1.375,0.005,0.004,0.2,0.194,0.194,0.469,-0.007,-0.463,-0.469,-0.473,0.188,0.0,-0.0,0.0,0.008,0.008,0.002,0.005,0.018,0.002,0.022,-0.007,0.002,0.007,1.524,0.0,0.017,0.0,-0.021,0.012,0.003,-0.023,0.006,-0.01,0.009,0.004,0.428,0.003,-0.016,-0.043,0.034,-0.024,0.005,0.031,0.055,0.009,0.02,0.004,0.003,0.003,0.002,0.018,0.004,0.0,-0.0,-0.0,-0.0
0.856,-0.856,-0.86,-0.853,7.326,-0.0,2.278,2.599,0.998,-0.009,0.0,0.363,0.004,0.0,-0.01,0.017,2.07,1.378,0.009,0.006,0.193,0.191,0.191,0.477,-0.011,-0.47,-0.477,-0.482,0.184,0.0,0.0,0.0,0.007,0.01,0.003,0.003,0.014,0.002,0.016,0.003,0.004,0.01,1.524,0.0,0.016,0.0,-0.015,0.019,0.003,-0.032,0.004,-0.009,0.005,0.003,0.428,0.002,-0.014,-0.025,0.028,-0.022,0.003,0.038,0.052,0.016,0.024,0.009,0.004,0.006,0.003,0.022,0.006,0.0,0.0,-0.0,-0.0
0.855,-0.854,-0.856,-0.852,7.302,0.0,2.305,2.598,0.999,0.0,0.0,0.37,0.002,0.0,-0.003,0.023,2.072,1.376,0.002,0.002,0.195,0.192,0.192,0.48,-0.005,-0.477,-0.48,-0.483,0.19,0.0,0.0,0.0,0.005,0.005,0.001,0.003,0.014,0.001,0.017,-0.008,0.003,0.003,1.527,0.0,0.013,0.0,-0.017,0.003,0.002,-0.018,0.003,-0.012,0.003,0.002,0.429,0.001,-0.013,-0.022,0.025,0.008,0.002,0.027,0.041,0.001,0.013,0.007,0.002,0.002,0.002,0.012,0.002,0.0,-0.0,0.0,0.0
0.854,-0.854,-0.859,-0.845,7.288,-0.0,2.292,2.598,0.999,0.018,0.0,0.377,0.006,0.001,-0.026,0.024,2.072,1.376,0.024,0.014,0.207,0.194,0.194,0.479,-0.001,-0.47,-0.479,-0.483,0.177,0.0,-0.0,0.001,0.009,0.009,0.004,0.017,0.015,0.003,0.041,0.059,0.004,0.007,1.526,0.0,0.026,0.0,-0.015,0.01,0.007,-0.031,0.021,0.071,0.038,0.008,0.429,0.006,-0.01,-0.095,0.03,-0.083,0.005,0.026,0.061,0.004,0.012,-0.007,0.004,0.004,0.003,0.008,0.001,0.0,0.0,0.0,-0.0
0.858,-0.858,-0.868,-0.851,7.357,-0.0,2.288,2.602,0.999,-0.002,0.0,0.333,0.012,0.0,-0.062,0.029,2.072,1.386,0.018,0.012,0.187,0.182,0.182,0.478,-0.014,-0.464,-0.478,-0.49,0.176,0.0,0.001,0.001,0.013,0.016,0.005,0.022,0.018,0.004,0.047,0.029,0.005,0.012,1.518,0.0,0.024,0.0,-0.027,0.013,0.006,-0.039,0.028,0.022,0.038,0.003,0.422,0.003,-0.016,-0.119,0.038,-0.175,0.003,0.053,0.076,0.027,0.027,-0.006,0.007,0.005,0.005,0.022,0.008,0.0,-0.0,-0.0,0.0
0.848,-0.848,-0.86,-0.84,7.195,-0.0,2.4,2.586,0.999,-0.027,-0.0,0.381,0.024,0.001,-0.068,0.147,2.084,1.374,0.028,0.022,0.207,0.195,0.195,0.49,-0.019,-0.478,-0.49,-0.503,0.185,0.0,0.0,0.0,0.024,0.026,0.006,0.006,0.014,0.004,0.024,0.019,0.005,0.02,1.533,0.0,0.034,0.001,-0.012,0.027,0.011,-0.084,0.017,0.019,0.021,0.005,0.433,0.004,-0.019,-0.058,0.034,0.035,0.004,0.066,0.069,0.019,0.033,-0.029,0.008,0.009,0.006,0.02,0.011,0.0,0.0,0.0,-0.0
0.846,-0.846,-0.85,-0.843,7.164,-0.0,2.414,2.583,0.998,0.002,-0.0,0.381,0.002,0.0,0.0,-0.004,2.086,1.374,0.002,0.002,0.198,0.195,0.195,0.491,0.0,-0.488,-0.491,-0.494,0.193,0.0,0.0,0.0,0.004,0.004,0.002,0.002,0.012,0.001,0.013,-0.006,0.001,0.003,1.533,0.0,0.01,0.0,-0.012,0.006,0.001,-0.015,0.003,-0.005,0.004,0.001,0.433,0.001,-0.009,-0.021,0.022,0.011,0.002,0.019,0.036,-0.0,0.015,0.007,0.002,0.004,0.002,0.014,0.002,0.0,0.0,0.0,-0.0
0.844,-0.844,-0.848,-0.84,7.128,0.0,2.442,2.58,0.999,0.003,0.0,0.402,0.005,0.0,-0.003,-0.043,2.086,1.369,0.006,0.004,0.208,0.201,0.2,0.494,-0.002,-0.488,-0.494,-0.503,0.195,0.0,-0.0,0.0,0.004,0.008,0.003,0.001,0.011,0.002,0.01,-0.003,0.005,0.006,1.539,0.0,0.014,0.0,-0.01,0.008,0.002,-0.028,0.003,-0.004,0.003,0.004,0.437,0.003,-0.012,-0.017,0.022,-0.01,0.003,0.033,0.036,0.003,0.017,-0.001,0.004,0.003,0.003,0.014,0.003,0.0,-0.0,0.0,0.0
0.844,-0.844,-0.846,-0.841,7.123,-0.0,2.42,2.579,0.998,-0.006,0.0,0.417,0.006,0.0,0.0,-0.017,2.086,1.365,0.005,0.004,0.207,0.204,0.204,0.492,-0.003,-0.49,-0.492,-0.495,0.201,0.0,0.0,0.0,0.007,0.007,0.001,0.003,0.012,0.001,0.018,-0.005,0.002,0.005,1.54,0.0,0.015,0.0,-0.018,0.005,0.002,-0.022,0.004,-0.014,0.004,0.002,0.439,0.002,-0.015,-0.024,0.026,0.003,0.002,0.03,0.045,0.008,0.014,0.007,0.002,0.003,0.001,0.012,0.002,0.0,-0.0,-0.0,0.0
0.842,-0.842,-0.845,-0.838,7.096,-0.0,2.465,2.576,0.998,0.002,0.0,0.408,0.006,0.0,0.001,0.022,2.09,1.367,0.005,0.004,0.207,0.202,0.202,0.497,-0.006,-0.491,-0.496,-0.501,0.198,0.0,0.0,0.0,0.007,0.007,0.002,0.003,0.016,0.002,0.017,-0.005,0.004,0.006,1.541,0.0,0.014,0.0,-0.016,0.009,0.002,-0.022,0.004,-0.008,0.005,0.002,0.439,0.002,-0.013,-0.023,0.03,-0.009,0.002,0.034,0.048,0.008,0.02,0.009,0.003,0.004,0.002,0.019,0.004,0.0,0.0,-0.0,-0.0
0.84,-0.84,-0.842,-0.838,7.054,0.0,2.503,2.57,0.998,0.02,0.0,0.405,0.003,0.0,0.005,0.018,2.096,1.37,0.003,0.003,0.21,0.201,0.201,0.5,0.001,-0.496,-0.5,-0.503,0.198,0.0,-0.0,0.0,0.009,0.005,0.001,0.004,0.015,0.001,0.02,-0.005,0.002,0.003,1.541,0.0,0.012,0.0,-0.019,0.002,0.001,-0.017,0.006,-0.01,0.006,0.004,0.438,0.003,-0.011,-0.031,0.028,-0.013,0.005,0.03,0.047,0.007,0.018,0.012,0.002,0.003,0.002,0.017,0.003,0.0,-0.0,-0.0,0.0
0.845,-0.845,-0.856,-0.834,7.137,-0.0,2.401,2.578,0.998,-0.001,-0.0,0.423,0.006,0.0,0.026,0.13,2.087,1.364,0.005,0.004,0.214,0.206,0.206,0.49,0.006,-0.472,-0.49,-0.506,0.199,0.0,0.0,0.0,0.006,0.02,0.006,0.002,0.016,0.005,0.014,-0.012,0.007,0.018,1.54,0.0,0.02,0.0,-0.013,0.033,0.004,-0.027,0.004,-0.004,0.005,0.005,0.439,0.004,-0.02,-0.022,0.036,-0.019,0.008,0.009,0.057,-0.01,0.028,-0.048,0.012,0.021,0.011,-0.02,0.008,0.0,0.0,-0.0,-0.0
0.863,-0.863,-0.877,-0.854,7.446,-0.0,2.113,2.612,0.999,-0.004,-0.0,0.424,0.008,0.0,0.014,0.016,2.05,1.364,0.006,0.005,0.21,0.206,0.206,0.46,0.002,-0.439,-0.459,-0.475,0.201,0.0,-0.0,0.0,0.007,0.021,0.007,0.005,0.018,0.006,0.022,-0.002,0.01,0.02,1.528,0.0,0.014,0.0,-0.021,0.039,0.002,-0.02,0.005,-0.01,0.006,0.003,0.435,0.002,-0.013,-0.029,0.035,0.0,0.004,-0.005,0.063,-0.005,0.036,-0.06,0.011,0.016,0.009,-0.029,0.013,0.0,0.0,-0.0,-0.0
0.88,-0.88,-0.883,-0.875,7.749,0.0,1.817,2.65,0.999,0.001,0.0,0.415,0.008,0.0,-0.008,0.003,2.011,1.364,0.006,0.005,0.209,0.204,0.204,0.426,0.004,-0.421,-0.426,-0.434,0.197,0.0,-0.0,0.0,0.008,0.009,0.002,0.007,0.011,0.002,0.026,-0.001,0.003,0.007,1.51,0.0,0.011,0.0,-0.025,0.011,0.001,-0.022,0.006,-0.008,0.008,0.004,0.424,0.004,-0.009,-0.034,0.03,0.028,0.007,0.017,0.042,-0.007,0.01,-0.019,0.004,0.004,0.003,-0.002,0.001,0.0,-0.0,0.0,0.0
0.887,-0.887,-0.894,-0.88,7.864,-0.0,1.727,2.661,0.999,-0.013,-0.0,0.401,0.004,0.0,-0.009,0.043,2.001,1.368,0.006,0.004,0.205,0.2,0.2,0.416,-0.007,-0.405,-0.416,-0.427,0.192,0.0,0.0,0.0,0.005,0.008,0.003,0.002,0.01,0.002,0.014,-0.013,0.003,0.006,1.502,0.0,0.021,0.0,-0.014,0.009,0.004,-0.037,0.003,-0.007,0.004,0.004,0.42,0.003,-0.02,-0.021,0.024,-0.005,0.003,0.017,0.04,0.001,0.008,-0.012,0.007,0.01,0.006,0.0,0.001,0.0,-0.0,-0.0,0.0
0.891,-0.891,-0.896,-0.888,7.942,0.0,1.632,2.673,0.999,0.001,-0.0,0.417,0.004,0.0,-0.02,0.032,1.985,1.366,0.003,0.003,0.207,0.204,0.204,0.404,0.003,-0.397,-0.404,-0.413,0.202,0.0,0.0,0.0,0.008,0.007,0.002,0.004,0.01,0.002,0.02,-0.01,0.004,0.005,1.499,0.0,0.015,0.0,-0.019,0.008,0.002,-0.022,0.005,-0.012,0.005,0.002,0.42,0.002,-0.015,-0.028,0.026,0.036,0.003,0.016,0.039,-0.014,0.007,-0.01,0.005,0.006,0.004,-0.0,0.0,0.0,0.0,-0.0,-0.0
0.896,-0.896,-0.899,-0.892,8.03,0.0,1.55,2.682,1.0,0.012,0.0,0.42,0.003,0.0,-0.002,0.065,1.976,1.364,0.002,0.002,0.208,0.205,0.205,0.394,0.007,-0.387,-0.394,-0.399,0.2,0.0,-0.0,0.0,0.009,0.014,0.002,0.002,0.012,0.002,0.016,-0.009,0.003,0.011,1.495,0.0,0.012,0.0,-0.015,0.018,0.002,-0.016,0.005,-0.005,0.005,0.002,0.417,0.002,-0.012,-0.022,0.024,0.001,0.004,0.04,0.04,-0.01,0.016,-0.008,0.004,0.005,0.003,0.009,0.003,0.0,0.0,0.0,0.0
0.895,-0.895,-0.899,-0.891,8.01,0.0,1.566,2.681,1.0,-0.003,-0.0,0.415,0.003,0.0,-0.007,0.005,1.977,1.365,0.003,0.002,0.206,0.204,0.204,0.396,0.005,-0.392,-0.396,-0.402,0.202,0.0,-0.0,0.0,0.002,0.005,0.002,0.003,0.014,0.002,0.018,-0.004,0.002,0.004,1.494,0.0,0.011,0.0,-0.017,0.005,0.001,-0.014,0.003,-0.014,0.003,0.001,0.416,0.001,-0.011,-0.025,0.026,-0.018,0.001,0.032,0.046,-0.009,0.018,0.013,0.003,0.002,0.002,0.017,0.003,0.0,0.0,-0.0,-0.0
0.894,-0.894,-0.897,-0.89,7.991,0.0,1.593,2.676,1.0,-0.001,-0.0,0.419,0.005,0.0,-0.01,-0.014,1.982,1.364,0.003,0.002,0.207,0.205,0.205,0.399,-0.003,-0.392,-0.399,-0.403,0.202,0.0,0.0,0.0,0.011,0.007,0.002,0.004,0.012,0.002,0.02,-0.007,0.002,0.006,1.498,0.0,0.011,0.0,-0.019,0.011,0.001,-0.015,0.005,-0.013,0.006,0.002,0.418,0.002,-0.011,-0.029,0.025,-0.002,0.003,0.021,0.041,0.007,0.013,0.0,0.003,0.006,0.003,0.011,0.002,0.0,-0.0,0.0,0.0
0.896,-0.896,-0.899,-0.894,8.032,0.0,1.563,2.682,1.0,-0.002,0.0,0.407,0.003,0.0,0.007,-0.024,1.978,1.368,0.002,0.002,0.205,0.202,0.202,0.395,-0.001,-0.393,-0.395,-0.399,0.199,0.0,0.0,0.0,0.005,0.007,0.002,0.004,0.012,0.002,0.021,-0.009,0.004,0.006,1.493,0.0,0.013,0.0,-0.019,0.01,0.002,-0.017,0.006,0.002,0.009,0.002,0.415,0.001,-0.013,-0.034,0.028,-0.005,0.003,0.028,0.043,-0.005,0.013,0.002,0.002,0.004,0.002,0.011,0.002,0.0,0.0,0.0,-0.0
0.896,-0.896,-0.898,-0.894,8.035,-0.0,1.553,2.684,1.0,-0.007,0.0,0.403,0.005,0.0,0.009,0.02,1.976,1.368,0.004,0.003,0.202,0.201,0.201,0.394,-0.0,-0.391,-0.394,-0.397,0.198,0.0,0.0,0.0,0.003,0.006,0.001,0.003,0.013,0.001,0.019,-0.01,0.001,0.005,1.491,0.0,0.017,0.0,-0.018,0.008,0.003,-0.022,0.002,-0.015,0.002,0.001,0.414,0.001,-0.016,-0.022,0.028,0.004,0.002,0.024,0.045,-0.003,0.012,0.003,0.002,0.004,0.002,0.01,0.001,0.0,0.0,0.0,-0.0
0.896,-0.896,-0.902,-0.893,8.03,-0.0,1.56,2.682,1.0,-0.002,0.0,0.4,0.002,0.0,0.002,0.012,1.978,1.369,0.003,0.002,0.201,0.2,0.2,0.395,-0.008,-0.386,-0.395,-0.4,0.198,0.0,0.0,0.0,0.001,0.005,0.002,0.003,0.016,0.002,0.018,-0.011,0.002,0.004,1.491,0.0,0.014,0.0,-0.018,0.002,0.002,-0.023,0.001,-0.013,0.002,0.001,0.414,0.001,-0.014,-0.024,0.029,-0.008,0.002,0.033,0.053,0.011,0.021,0.016,0.004,0.004,0.003,0.02,0.004,0.0,-0.0,0.0,0.0
0.894,-0.894,-0.897,-0.891,7.985,-0.0,1.61,2.677,1.0,0.0,0.0,0.397,0.005,0.0,-0.002,0.036,1.983,1.37,0.003,0.003,0.202,0.199,0.199,0.401,-0.001,-0.395,-0.401,-0.406,0.197,0.0,-0.0,0.0,0.003,0.006,0.002,0.003,0.016,0.001,0.017,-0.006,0.003,0.005,1.494,0.0,0.012,0.0,-0.017,0.011,0.002,-0.016,0.002,-0.013,0.003,0.002,0.415,0.001,-0.012,-0.023,0.028,-0.012,0.003,0.03,0.048,-0.001,0.02,0.011,0.003,0.005,0.003,0.019,0.004,0.0,-0.0,0.0,0.0
0.891,-0.891,-0.893,-0.89,7.946,-0.0,1.64,2.673,1.0,0.0,-0.0,0.401,0.001,0.0,0.0,0.01,1.988,1.368,0.003,0.002,0.202,0.2,0.2,0.405,0.001,-0.403,-0.405,-0.408,0.198,0.0,0.0,0.0,0.006,0.006,0.001,0.003,0.014,0.001,0.016,-0.003,0.002,0.005,1.497,0.0,0.013,0.0,-0.016,0.008,0.002,-0.015,0.003,-0.011,0.003,0.001,0.416,0.001,-0.012,-0.02,0.026,0.018,0.003,0.025,0.042,0.001,0.015,0.005,0.001,0.001,0.001,0.014,0.002,0.0,0.0,0.0,-0.0
0.891,-0.891,-0.893,-0.887,7.941,-0.0,1.648,2.671,1.0,0.004,0.0,0.403,0.003,0.0,-0.002,0.019,1.989,1.368,0.002,0.002,0.202,0.201,0.201,0.406,-0.008,-0.401,-0.406,-0.411,0.198,0.0,-0.0,0.0,0.003,0.005,0.002,0.003,0.015,0.002,0.017,-0.01,0.003,0.004,1.498,0.0,0.013,0.0,-0.017,0.007,0.002,-0.016,0.002,-0.013,0.003,0.001,0.417,0.001,-0.013,-0.022,0.026,-0.002,0.002,0.023,0.043,0.012,0.014,0.006,0.003,0.003,0.002,0.013,0.002,0.0,0.0,-0.0,-0.0
0.89,-0.89,-0.895,-0.887,7.925,0.0,1.664,2.67,0.999,-0.012,0.0,0.398,0.004,0.0,-0.01,0.032,1.991,1.369,0.008,0.005,0.204,0.2,0.2,0.408,0.001,-0.401,-0.408,-0.412,0.191,0.0,-0.0,0.0,0.013,0.008,0.002,0.007,0.014,0.002,0.027,0.009,0.003,0.006,1.498,0.0,0.013,0.0,-0.025,0.006,0.002,-0.021,0.008,-0.013,0.009,0.004,0.417,0.003,-0.01,-0.042,0.03,-0.019,0.003,0.025,0.052,-0.001,0.016,-0.005,0.003,0.003,0.002,0.014,0.003,0.0,0.0,-0.0,-0.0
0.89,-0.89,-0.897,-0.884,7.916,0.0,1.687,2.67,0.998,0.001,0.0,0.375,0.005,0.0,0.017,-0.012,1.995,1.378,0.005,0.004,0.202,0.194,0.194,0.411,-0.006,-0.402,-0.411,-0.416,0.187,0.0,0.0,0.0,0.011,0.005,0.004,0.002,0.014,0.003,0.013,-0.005,0.005,0.004,1.494,0.0,0.016,0.0,-0.01,0.004,0.002,-0.023,0.007,0.004,0.009,0.005,0.413,0.004,-0.015,-0.025,0.028,-0.038,0.006,0.034,0.047,0.006,0.022,0.016,0.004,0.005,0.003,0.021,0.005,0.0,0.0,-0.0,-0.0
0.885,-0.885,-0.889,-0.881,7.832,0.0,1.746,2.657,1.0,-0.002,0.0,0.412,0.004,0.0,-0.005,-0.007,2.002,1.366,0.003,0.003,0.207,0.203,0.203,0.418,-0.006,-0.411,-0.418,-0.424,0.197,0.0,-0.0,0.0,0.007,0.004,0.002,0.003,0.016,0.002,0.016,-0.007,0.004,0.003,1.506,0.0,0.015,0.0,-0.015,0.005,0.002,-0.019,0.005,-0.01,0.006,0.003,0.42,0.002,-0.014,-0.029,0.031,-0.016,0.004,0.031,0.053,0.013,0.024,0.015,0.004,0.008,0.004,0.023,0.006,0.0,0.0,0.0,-0.0
0.881,-0.881,-0.886,-0.876,7.769,0.0,1.817,2.651,1.0,-0.005,0.0,0.404,0.002,0.0,0.005,0.032,2.01,1.368,0.002,0.002,0.204,0.201,0.201,0.426,-0.005,-0.424,-0.426,-0.432,0.196,0.0,0.0,0.0,0.004,0.007,0.003,0.003,0.014,0.002,0.018,-0.007,0.003,0.006,1.509,0.0,0.012,0.0,-0.017,0.011,0.001,-0.015,0.004,-0.008,0.006,0.002,0.423,0.002,-0.011,-0.031,0.026,-0.011,0.003,0.034,0.047,0.002,0.02,0.009,0.002,0.002,0.002,0.019,0.004,0.0,-0.0,-0.0,-0.0
0.879,-0.879,-0.88,-0.875,7.721,-0.0,1.843,2.645,1.0,-0.015,-0.0,0.424,0.006,0.0,-0.002,-0.007,2.014,1.363,0.004,0.003,0.209,0.206,0.206,0.429,0.008,-0.426,-0.429,-0.433,0.199,0.0,0.0,0.0,0.01,0.007,0.002,0.002,0.014,0.001,0.013,-0.008,0.002,0.005,1.514,0.0,0.015,0.0,-0.012,0.008,0.002,-0.019,0.006,0.001,0.006,0.003,0.428,0.003,-0.014,-0.019,0.024,0.021,0.005,0.031,0.042,-0.012,0.018,0.008,0.002,0.004,0.002,0.016,0.003,0.0,0.0,0.0,-0.0
0.877,-0.877,-0.88,-0.872,7.684,0.0,1.867,2.641,0.999,-0.013,0.0,0.436,0.005,0.0,-0.011,-0.009,2.016,1.36,0.004,0.003,0.213,0.209,0.209,0.432,-0.0,-0.428,-0.432,-0.44,0.205,0.0,0.0,0.0,0.006,0.005,0.002,0.002,0.015,0.001,0.015,-0.006,0.001,0.004,1.517,0.0,0.015,0.0,-0.015,0.002,0.002,-0.019,0.003,-0.009,0.004,0.002,0.429,0.002,-0.014,-0.02,0.027,0.013,0.004,0.027,0.047,-0.009,0.019,0.009,0.004,0.004,0.003,0.018,0.003,0.0,-0.0,0.0,0.0
0.873,-0.872,-0.878,-0.869,7.613,-0.0,1.905,2.632,0.999,-0.019,-0.0,0.465,0.004,0.0,-0.019,-0.02,2.022,1.354,0.005,0.003,0.22,0.216,0.216,0.436,-0.01,-0.433,-0.436,-0.441,0.21,0.0,0.0,0.0,0.011,0.004,0.002,0.002,0.014,0.002,0.015,-0.002,0.002,0.003,1.525,0.0,0.015,0.0,-0.012,0.004,0.002,-0.021,0.007,0.003,0.009,0.003,0.435,0.003,-0.015,-0.027,0.028,0.036,0.005,0.027,0.045,-0.001,0.018,0.012,0.003,0.003,0.002,0.017,0.003,0.0,0.0,0.0,0.0
0.871,-0.871,-0.873,-0.867,7.583,0.0,1.935,2.629,1.0,-0.001,0.0,0.469,0.003,0.0,-0.013,0.0,2.026,1.352,0.003,0.002,0.221,0.217,0.217,0.44,-0.003,-0.437,-0.44,-0.447,0.213,0.0,0.0,0.0,0.011,0.005,0.002,0.003,0.012,0.001,0.018,-0.007,0.002,0.004,1.527,0.0,0.012,0.0,-0.017,0.008,0.001,-0.015,0.006,-0.008,0.006,0.003,0.436,0.003,-0.012,-0.027,0.025,0.044,0.005,0.02,0.041,0.008,0.013,0.004,0.003,0.002,0.002,0.012,0.002,0.0,0.0,0.0,-0.0
0.87,-0.87,-0.873,-0.866,7.569,0.0,1.941,2.626,0.999,-0.006,0.0,0.477,0.003,0.0,0.002,-0.021,2.027,1.35,0.003,0.002,0.222,0.218,0.218,0.441,-0.006,-0.435,-0.441,-0.445,0.213,0.0,0.0,0.0,0.006,0.005,0.002,0.001,0.013,0.002,0.012,-0.008,0.004,0.003,1.529,0.0,0.012,0.0,-0.011,0.001,0.002,-0.018,0.004,-0.002,0.005,0.003,0.438,0.002,-0.012,-0.017,0.025,0.004,0.003,0.033,0.042,0.008,0.019,0.012,0.003,0.005,0.003,0.018,0.004,0.0,0.0,-0.0,0.0
0.867,-0.867,-0.87,-0.863,7.513,-0.0,1.99,2.62,0.999,0.003,0.0,0.483,0.001,0.0,-0.002,0.012,2.034,1.35,0.002,0.001,0.222,0.22,0.22,0.446,-0.003,-0.442,-0.446,-0.451,0.219,0.0,-0.0,0.0,0.004,0.004,0.002,0.003,0.016,0.002,0.016,-0.009,0.002,0.003,1.533,0.0,0.014,0.0,-0.016,0.005,0.002,-0.015,0.002,-0.012,0.002,0.001,0.44,0.001,-0.014,-0.019,0.027,-0.008,0.001,0.023,0.047,0.007,0.018,0.012,0.003,0.003,0.002,0.017,0.003,0.0,0.0,-0.0,0.0
0.865,-0.865,-0.866,-0.864,7.486,0.0,2.005,2.617,0.999,0.002,0.0,0.491,0.001,0.0,0.001,0.005,2.036,1.347,0.001,0.001,0.224,0.222,0.222,0.448,-0.0,-0.446,-0.448,-0.449,0.22,0.0,-0.0,0.0,0.001,0.003,0.001,0.003,0.014,0.0,0.017,-0.011,0.001,0.002,1.535,0.0,0.012,0.0,-0.017,0.003,0.001,-0.014,0.001,-0.015,0.001,0.001,0.441,0.001,-0.012,-0.019,0.024,-0.005,0.001,0.022,0.042,0.004,0.014,0.009,0.001,0.001,0.001,0.013,0.002,0.0,-0.0,0.0,-0.0
0.866,-0.866,-0.867,-0.864,7.498,-0.0,2.003,2.618,1.0,-0.001,0.0,0.491,0.001,0.0,0.001,0.029,2.035,1.347,0.002,0.001,0.224,0.222,0.221,0.448,-0.001,-0.445,-0.448,-0.452,0.219,0.0,0.0,0.0,0.002,0.007,0.001,0.003,0.014,0.001,0.019,-0.012,0.002,0.005,1.535,0.0,0.014,0.0,-0.018,0.005,0.002,-0.018,0.002,-0.014,0.002,0.002,0.441,0.001,-0.014,-0.023,0.027,-0.004,0.003,0.03,0.046,-0.008,0.015,0.004,0.002,0.002,0.002,0.013,0.002,0.0,0.0,-0.0,-0.0
0.864,-0.864,-0.87,-0.855,7.458,0.0,2.024,2.617,0.999,0.01,-0.0,0.493,0.01,0.001,0.094,-0.04,2.037,1.348,0.024,0.016,0.232,0.222,0.222,0.45,0.006,-0.442,-0.45,-0.461,0.216,0.0,0.0,0.0,0.001,0.014,0.004,0.005,0.017,0.003,0.023,0.034,0.004,0.008,1.536,0.0,0.028,0.0,-0.019,0.002,0.008,-0.067,0.007,0.008,0.012,0.004,0.442,0.003,-0.014,-0.044,0.03,-0.004,0.004,0.04,0.061,-0.008,0.019,-0.021,0.005,0.003,0.003,0.014,0.004,0.0,-0.0,-0.0,0.0
0.87,-0.87,-0.88,-0.856,7.564,0.001,1.961,2.631,1.0,-0.001,-0.0,0.463,0.028,0.003,0.228,-0.187,2.027,1.357,0.059,0.043,0.235,0.215,0.215,0.443,0.009,-0.43,-0.443,-0.457,0.195,0.0,0.001,0.003,0.09,0.039,0.008,0.03,0.03,0.007,0.055,0.054,0.014,0.032,1.527,0.0,0.061,0.002,-0.01,0.06,0.038,-0.152,0.049,0.081,0.054,0.013,0.432,0.011,-0.018,-0.078,0.073,-0.173,0.02,0.095,0.127,-0.022,0.044,-0.035,0.009,0.014,0.008,0.019,0.019,0.0,-0.0,-0.0,0.0
0.862,-0.862,-0.863,-0.859,7.425,-0.0,2.024,2.611,0.999,-0.017,-0.0,0.533,0.008,0.0,-0.023,-0.023,2.038,1.338,0.011,0.009,0.238,0.231,0.231,0.45,-0.0,-0.446,-0.45,-0.453,0.223,0.0,0.0,0.0,0.017,0.011,0.001,0.005,0.017,0.001,0.022,-0.002,0.003,0.008,1.542,0.0,0.021,0.0,-0.017,0.01,0.004,-0.041,0.011,0.007,0.014,0.004,0.447,0.003,-0.018,-0.037,0.034,0.02,0.004,0.031,0.049,-0.006,0.014,-0.01,0.002,0.004,0.002,0.01,0.002,0.0,-0.0,0.0,0.0
0.862,-0.862,-0.863,-0.858,7.424,-0.0,2.021,2.612,1.0,-0.004,-0.0,0.538,0.005,0.0,-0.012,-0.02,2.038,1.335,0.004,0.003,0.236,0.232,0.232,0.45,-0.001,-0.446,-0.45,-0.453,0.227,0.0,0.0,0.0,0.006,0.005,0.002,0.004,0.014,0.001,0.02,-0.007,0.003,0.004,1.543,0.0,0.013,0.0,-0.019,0.006,0.002,-0.02,0.005,-0.009,0.007,0.003,0.448,0.003,-0.012,-0.031,0.027,0.038,0.006,0.023,0.046,0.003,0.016,0.004,0.002,0.002,0.002,0.015,0.003,0.0,0.0,0.0,0.0
0.863,-0.862,-0.865,-0.859,7.439,0.0,2.019,2.612,0.999,0.007,-0.0,0.526,0.008,0.0,-0.008,-0.01,2.037,1.34,0.005,0.005,0.235,0.229,0.229,0.449,-0.002,-0.446,-0.449,-0.454,0.226,0.0,0.0,0.0,0.004,0.012,0.002,0.004,0.014,0.001,0.019,-0.01,0.001,0.009,1.541,0.0,0.018,0.0,-0.018,0.015,0.003,-0.026,0.003,-0.011,0.005,0.002,0.446,0.001,-0.017,-0.029,0.028,-0.016,0.0,0.015,0.046,0.004,0.012,-0.024,0.002,0.003,0.002,0.004,0.002,0.0,0.0,0.0,0.0
0.867,-0.867,-0.869,-0.863,7.519,0.0,1.926,2.624,0.998,-0.003,0.0,0.524,0.01,0.0,-0.026,-0.055,2.025,1.34,0.007,0.006,0.232,0.229,0.229,0.439,0.001,-0.434,-0.439,-0.448,0.226,0.0,0.0,0.0,0.007,0.017,0.002,0.004,0.016,0.001,0.021,-0.001,0.002,0.01,1.535,0.0,0.015,0.0,-0.02,0.006,0.002,-0.023,0.005,-0.009,0.006,0.002,0.444,0.002,-0.013,-0.03,0.031,-0.017,0.005,0.028,0.054,-0.001,0.022,-0.037,0.003,0.003,0.002,0.014,0.005,0.0,-0.0,-0.0,0.0
0.865,-0.865,-0.867,-0.861,7.479,-0.0,1.979,2.617,0.999,-0.01,-0.0,0.527,0.009,0.0,-0.005,-0.009,2.032,1.34,0.005,0.005,0.235,0.23,0.23,0.445,-0.006,-0.441,-0.445,-0.449,0.225,0.0,0.0,0.0,0.005,0.004,0.002,0.004,0.014,0.001,0.019,-0.002,0.002,0.003,1.539,0.0,0.012,0.0,-0.018,0.006,0.002,-0.019,0.004,-0.006,0.006,0.003,0.445,0.003,-0.011,-0.032,0.028,0.02,0.005,0.022,0.046,0.005,0.018,0.009,0.003,0.004,0.002,0.017,0.003,0.0,-0.0,0.0,0.0
0.865,-0.865,-0.868,-0.863,7.479,0.0,1.988,2.616,1.0,-0.01,-0.0,0.526,0.011,0.0,-0.012,-0.005,2.033,1.34,0.008,0.006,0.234,0.229,0.229,0.446,0.0,-0.443,-0.446,-0.45,0.226,0.0,-0.0,0.0,0.004,0.005,0.002,0.003,0.015,0.001,0.018,-0.003,0.001,0.004,1.54,0.0,0.017,0.0,-0.017,0.002,0.003,-0.03,0.004,-0.006,0.005,0.003,0.445,0.002,-0.015,-0.028,0.028,0.01,0.003,0.023,0.044,-0.002,0.013,0.008,0.002,0.002,0.002,0.012,0.002,0.0,0.0,0.0,0.0
0.864,-0.864,-0.866,-0.86,7.47,-0.0,1.995,2.616,1.0,-0.002,-0.0,0.522,0.008,0.0,-0.003,0.002,2.034,1.342,0.007,0.006,0.233,0.229,0.228,0.447,-0.006,-0.445,-0.447,-0.449,0.226,0.0,-0.0,0.0,0.006,0.005,0.002,0.004,0.014,0.001,0.019,0.001,0.002,0.004,1.539,0.0,0.014,0.0,-0.019,0.005,0.002,-0.025,0.004,-0.009,0.005,0.003,0.444,0.002,-0.012,-0.027,0.027,0.004,0.003,0.027,0.044,0.005,0.014,0.008,0.001,0.002,0.001,0.013,0.002,0.0,-0.0,0.0,0.0
0.864,-0.864,-0.866,-0.861,7.468,-0.0,1.989,2.617,0.998,-0.004,0.0,0.517,0.009,0.0,-0.003,0.025,2.034,1.342,0.006,0.005,0.234,0.227,0.227,0.446,0.003,-0.44,-0.446,-0.451,0.223,0.0,0.0,0.0,0.004,0.005,0.002,0.004,0.015,0.001,0.02,-0.004,0.002,0.005,1.538,0.0,0.016,0.0,-0.02,0.008,0.003,-0.025,0.003,-0.015,0.003,0.003,0.444,0.003,-0.015,-0.027,0.03,0.017,0.003,0.023,0.047,0.001,0.013,0.005,0.003,0.004,0.003,0.012,0.002,0.0,-0.0,0.0,0.0
0.866,-0.866,-0.87,-0.863,7.494,-0.0,1.987,2.618,0.999,0.006,-0.0,0.505,0.008,0.0,0.003,-0.005,2.034,1.344,0.005,0.004,0.229,0.225,0.225,0.446,0.004,-0.443,-0.446,-0.449,0.22,0.0,-0.0,0.0,0.016,0.004,0.002,0.004,0.014,0.001,0.02,-0.003,0.001,0.003,1.536,0.0,0.014,0.0,-0.018,0.004,0.002,-0.021,0.007,-0.006,0.008,0.003,0.442,0.002,-0.012,-0.028,0.029,0.025,0.004,0.022,0.044,-0.003,0.014,0.007,0.002,0.003,0.002,0.014,0.002,0.0,-0.0,0.0,0.0
0.867,-0.866,-0.87,-0.859,7.508,-0.0,2.105,2.62,0.999,0.011,0.0,0.363,0.004,0.0,-0.011,-0.115,2.049,1.379,0.005,0.004,0.195,0.191,0.191,0.459,0.006,-0.452,-0.459,-0.468,0.186,0.0,-0.0,0.0,0.013,0.021,0.003,0.004,0.014,0.003,0.021,-0.01,0.004,0.016,1.516,0.0,0.016,0.0,-0.018,0.024,0.003,-0.029,0.008,-0.001,0.01,0.002,0.423,0.002,-0.015,-0.032,0.033,0.019,0.002,0.028,0.053,0.0,0.023,-0.044,0.005,0.008,0.004,0.009,0.005,0.0,-0.0,0.0,0.0
0.866,-0.866,-0.879,-0.851,7.5,0.0,2.112,2.617,0.999,0.013,0.0,0.37,0.005,0.0,0.021,0.035,2.052,1.376,0.003,0.003,0.195,0.192,0.192,0.46,0.012,-0.443,-0.459,-0.478,0.187,0.0,-0.0,0.0,0.005,0.019,0.008,0.004,0.016,0.006,0.019,-0.012,0.009,0.018,1.518,0.0,0.017,0.0,-0.018,0.032,0.003,-0.023,0.005,-0.004,0.007,0.003,0.424,0.002,-0.017,-0.029,0.03,0.007,0.003,0.029,0.053,-0.012,0.019,-0.031,0.01,0.013,0.008,0.001,0.004,0.0,-0.0,0.0,0.0
0.873,-0.872,-0.876,-0.867,7.613,0.0,2.009,2.633,1.0,-0.008,0.0,0.374,0.008,0.0,-0.023,0.002,2.034,1.375,0.005,0.005,0.197,0.193,0.193,0.448,-0.018,-0.444,-0.448,-0.455,0.187,0.0,0.0,0.0,0.013,0.007,0.003,0.007,0.01,0.003,0.026,-0.003,0.005,0.006,1.514,0.0,0.012,0.0,-0.024,0.01,0.001,-0.018,0.009,-0.01,0.011,0.003,0.424,0.003,-0.011,-0.047,0.026,0.016,0.005,0.02,0.044,0.016,0.011,-0.002,0.003,0.004,0.002,0.009,0.001,0.0,-0.0,0.0,0.0
0.869,-0.869,-0.873,-0.859,7.552,-0.0,2.07,2.628,0.999,0.038,0.0,0.352,0.022,0.001,0.026,0.008,2.044,1.385,0.028,0.023,0.204,0.187,0.187,0.455,0.011,-0.448,-0.455,-0.461,0.178,0.0,0.0,0.0,0.016,0.011,0.005,0.005,0.022,0.004,0.023,0.002,0.002,0.009,1.511,0.0,0.041,0.0,-0.02,0.013,0.017,-0.084,0.01,-0.001,0.011,0.008,0.418,0.007,-0.03,-0.038,0.046,-0.009,0.009,0.049,0.079,0.011,0.03,0.013,0.004,0.004,0.003,0.028,0.009,0.0,0.0,0.0,-0.0
0.897,-0.897,-0.922,-0.873,8.045,0.0,1.676,2.69,1.0,0.056,0.001,0.274,0.072,0.002,-0.224,0.275,1.988,1.41,0.042,0.037,0.196,0.166,0.165,0.409,0.03,-0.363,-0.408,-0.452,0.148,0.0,-0.0,0.001,0.016,0.051,0.016,0.029,0.048,0.014,0.054,0.077,0.027,0.044,1.47,0.0,0.048,0.003,-0.049,0.076,0.023,-0.044,0.017,-0.004,0.023,0.015,0.388,0.013,0.024,-0.084,0.103,-0.097,0.019,-0.048,0.191,-0.053,0.113,-0.205,0.032,0.051,0.028,-0.101,0.128,0.001,-0.0,-0.0,0.0
0.938,-0.938,-0.947,-0.927,8.806,0.0,1.05,2.798,1.001,0.074,0.001,0.16,0.061,0.001,0.028,-0.091,1.888,1.445,0.037,0.032,0.144,0.127,0.126,0.324,0.035,-0.307,-0.323,-0.358,0.108,0.0,0.0,0.001,0.053,0.057,0.007,0.02,0.034,0.006,0.044,0.075,0.01,0.054,1.388,0.0,0.039,0.003,-0.027,0.109,0.015,-0.05,0.03,0.024,0.035,0.012,0.334,0.011,0.01,-0.086,0.074,-0.123,0.019,0.03,0.13,-0.095,0.07,-0.113,0.019,0.028,0.017,-0.04,0.049,0.0,-0.0,-0.0,0.0
0.931,-0.931,-0.941,-0.919,8.676,-0.0,1.1,2.772,1.0,-0.044,0.0,0.236,0.011,0.0,0.065,-0.054,1.904,1.416,0.014,0.01,0.177,0.154,0.153,0.332,-0.002,-0.314,-0.331,-0.35,0.128,0.0,0.0,0.0,0.032,0.018,0.007,0.005,0.044,0.007,0.023,-0.038,0.012,0.015,1.416,0.0,0.074,0.0,0.008,0.022,0.054,-0.091,0.019,0.052,0.022,0.017,0.361,0.015,-0.072,-0.021,0.106,-0.019,0.032,0.107,0.162,0.014,0.073,0.046,0.013,0.025,0.012,0.071,0.053,0.0,-0.0,0.0,-0.0
0.889,-0.889,-0.918,-0.869,7.91,0.0,1.632,2.657,1.0,-0.085,0.001,0.443,0.072,0.002,0.09,-0.034,1.994,1.35,0.041,0.036,0.238,0.21,0.209,0.404,-0.046,-0.364,-0.403,-0.431,0.156,0.0,0.001,0.002,0.015,0.049,0.017,0.025,0.052,0.015,0.05,-0.022,0.032,0.043,1.501,0.001,0.083,0.002,0.03,0.076,0.069,-0.137,0.027,0.121,0.04,0.027,0.43,0.023,-0.073,-0.04,0.122,-0.059,0.034,0.21,0.225,0.083,0.124,0.053,0.024,0.036,0.021,0.114,0.154,0.001,0.0,-0.0,-0.0
0.852,-0.852,-0.866,-0.835,7.255,0.001,2.014,2.587,0.999,-0.105,-0.0,0.72,0.032,0.002,-0.124,-0.077,2.03,1.3,0.042,0.031,0.298,0.268,0.268,0.449,-0.046,-0.437,-0.449,-0.469,0.24,0.0,0.0,0.002,0.061,0.025,0.009,0.018,0.037,0.007,0.043,0.043,0.011,0.02,1.568,0.0,0.054,0.001,0.002,0.034,0.029,-0.092,0.036,0.076,0.043,0.016,0.468,0.014,-0.034,-0.064,0.077,0.094,0.02,0.082,0.129,0.014,0.049,0.002,0.01,0.014,0.009,0.043,0.024,0.0,0.0,0.0,-0.0
0.84,-0.84,-0.849,-0.832,7.063,0.0,2.166,2.571,0.999,0.009,0.0,0.751,0.014,0.0,-0.06,0.011,2.056,1.292,0.017,0.012,0.284,0.274,0.274,0.465,-0.01,-0.449,-0.465,-0.481,0.262,0.0,0.0,0.0,0.018,0.008,0.005,0.005,0.016,0.004,0.023,0.027,0.007,0.007,1.58,0.0,0.017,0.0,-0.014,0.011,0.003,-0.038,0.014,0.027,0.017,0.008,0.476,0.007,-0.004,-0.03,0.044,0.075,0.015,0.049,0.069,0.018,0.036,0.023,0.01,0.015,0.009,0.035,0.013,0.0,0.0,0.0,0.0
0.827,-0.827,-0.834,-0.817,6.846,0.001,2.445,2.545,0.999,0.057,0.0,0.696,0.09,0.006,0.247,-0.011,2.094,1.305,0.078,0.064,0.28,0.264,0.264,0.494,-0.033,-0.475,-0.494,-0.508,0.244,0.0,-0.0,0.001,0.034,0.044,0.005,0.009,0.035,0.005,0.03,0.119,0.008,0.036,1.585,0.0,0.081,0.002,-0.01,0.053,0.066,-0.113,0.023,0.048,0.028,0.011,0.477,0.008,-0.023,-0.043,0.107,0.006,0.01,0.083,0.133,0.073,0.048,-0.059,0.012,0.02,0.011,0.019,0.023,0.0,-0.0,0.0,0.0
0.838,-0.838,-0.855,-0.823,7.022,0.001,1.938,2.568,0.999,-0.078,0.0,1.032,0.056,0.003,0.024,0.097,2.021,1.24,0.052,0.042,0.346,0.321,0.321,0.44,0.015,-0.405,-0.439,-0.481,0.289,0.0,-0.0,0.0,0.014,0.02,0.01,0.003,0.037,0.008,0.018,-0.049,0.014,0.017,1.598,0.0,0.139,0.0,-0.012,0.03,0.192,-0.237,0.011,0.011,0.014,0.019,0.49,0.016,-0.128,-0.033,0.127,0.022,0.025,-0.01,0.185,-0.075,0.046,-0.076,0.028,0.051,0.025,-0.041,0.021,0.001,0.0,0.0,-0.0
0.859,-0.859,-0.868,-0.851,7.381,-0.0,1.338,2.601,1.002,-0.017,-0.0,1.316,0.067,0.001,-0.05,-0.034,1.948,1.199,0.036,0.033,0.374,0.363,0.363,0.366,-0.004,-0.344,-0.366,-0.395,0.347,0.0,0.0,0.0,0.009,0.018,0.006,0.001,0.024,0.005,0.01,0.001,0.008,0.015,1.587,0.0,0.066,0.0,-0.007,0.02,0.044,-0.101,0.006,0.006,0.007,0.008,0.484,0.006,-0.056,-0.019,0.07,0.018,0.009,0.005,0.095,-0.012,0.035,-0.06,0.015,0.02,0.012,-0.03,0.012,0.0,-0.0,0.0,0.0
0.861,-0.861,-0.867,-0.855,7.41,0.001,1.29,2.607,1.001,-0.011,-0.0,1.316,0.162,0.007,-0.225,-0.114,1.924,1.19,0.084,0.08,0.378,0.363,0.362,0.359,0.007,-0.338,-0.358,-0.393,0.336,0.0,-0.0,0.0,0.022,0.036,0.003,0.015,0.053,0.002,0.039,0.18,0.004,0.033,1.582,0.0,0.112,0.001,-0.035,0.066,0.126,-0.034,0.015,-0.011,0.017,0.015,0.481,0.014,0.074,-0.062,0.113,0.014,0.024,0.1,0.172,-0.031,0.058,-0.008,0.022,0.036,0.02,0.045,0.034,0.0,0.0,0.0,0.0
0.85,-0.85,-0.856,-0.845,7.225,-0.0,1.993,2.586,1.0,0.025,-0.0,0.774,0.025,0.001,0.077,0.019,2.035,1.284,0.025,0.018,0.31,0.278,0.277,0.446,-0.015,-0.417,-0.446,-0.477,0.24,0.0,0.0,0.0,0.017,0.01,0.004,0.028,0.065,0.003,0.053,0.168,0.004,0.009,1.573,0.001,0.107,0.0,-0.051,0.015,0.114,0.074,0.011,-0.03,0.013,0.024,0.474,0.021,0.104,-0.071,0.126,0.055,0.044,0.068,0.208,0.04,0.054,0.034,0.018,0.029,0.015,0.053,0.029,0.0,0.0,-0.0,-0.0
0.846,-0.846,-0.85,-0.839,7.149,0.001,2.401,2.58,1.0,0.056,0.001,0.431,0.07,0.002,0.248,-0.052,2.08,1.364,0.049,0.04,0.229,0.208,0.207,0.49,-0.012,-0.479,-0.49,-0.509,0.188,0.0,-0.0,0.003,0.062,0.033,0.004,0.04,0.04,0.003,0.063,0.101,0.005,0.024,1.542,0.0,0.053,0.001,-0.038,0.028,0.028,-0.067,0.044,0.054,0.05,0.013,0.438,0.011,0.021,-0.083,0.094,0.104,0.013,0.071,0.142,0.035,0.043,-0.058,0.009,0.011,0.007,0.027,0.018,0.0,0.0,-0.0,-0.0
0.835,-0.835,-0.842,-0.823,6.971,0.0,2.615,2.562,0.998,-0.003,0.0,0.38,0.04,0.001,-0.038,0.054,2.107,1.374,0.022,0.019,0.204,0.195,0.195,0.511,-0.008,-0.497,-0.511,-0.529,0.183,0.0,-0.0,0.001,0.04,0.02,0.005,0.009,0.018,0.004,0.03,0.027,0.005,0.016,1.541,0.0,0.026,0.0,-0.015,0.02,0.007,-0.041,0.022,0.022,0.026,0.006,0.434,0.004,-0.014,-0.063,0.046,-0.042,0.005,0.074,0.083,0.01,0.042,0.015,0.008,0.004,0.005,0.037,0.018,0.0,0.0,-0.0,-0.0
0.828,-0.828,-0.833,-0.821,6.849,0.0,2.737,2.55,0.998,0.025,0.0,0.37,0.007,0.0,-0.041,0.001,2.124,1.376,0.008,0.006,0.206,0.192,0.192,0.523,-0.021,-0.514,-0.523,-0.533,0.179,0.0,0.0,0.0,0.031,0.016,0.004,0.01,0.014,0.003,0.031,0.002,0.005,0.014,1.543,0.0,0.011,0.0,-0.026,0.025,0.001,-0.026,0.016,0.003,0.017,0.009,0.438,0.009,-0.007,-0.048,0.038,0.105,0.015,0.044,0.055,0.033,0.025,-0.006,0.006,0.01,0.005,0.019,0.006,0.0,-0.0,0.0,0.0
0.832,-0.832,-0.843,-0.813,6.928,-0.0,2.642,2.558,0.997,-0.03,-0.0,0.395,0.031,0.001,-0.018,-0.074,2.11,1.368,0.022,0.019,0.206,0.199,0.199,0.514,0.023,-0.501,-0.514,-0.535,0.185,0.0,0.0,0.001,0.038,0.029,0.007,0.009,0.015,0.005,0.03,-0.004,0.003,0.022,1.545,0.0,0.044,0.001,-0.019,0.036,0.019,-0.074,0.021,0.007,0.023,0.006,0.44,0.005,-0.038,-0.056,0.038,0.026,0.006,0.076,0.081,-0.038,0.029,-0.023,0.009,0.007,0.006,0.006,0.008,0.0,-0.0,0.0,0.0
0.869,-0.869,-0.907,-0.826,7.549,-0.0,2.033,2.626,0.998,-0.018,0.0,0.4,0.029,0.0,0.019,0.02,2.037,1.37,0.016,0.015,0.208,0.2,0.2,0.451,0.041,-0.378,-0.449,-0.524,0.194,0.0,-0.0,0.0,0.031,0.03,0.022,0.014,0.047,0.017,0.038,-0.005,0.02,0.026,1.518,0.0,0.038,0.001,-0.032,0.049,0.015,-0.054,0.016,-0.01,0.019,0.004,0.43,0.003,-0.035,-0.069,0.132,-0.117,0.004,-0.093,0.196,-0.056,0.132,-0.185,0.041,0.047,0.034,-0.129,0.175,0.002,-0.0,-0.0,0.0
0.942,-0.942,-0.964,-0.909,8.87,-0.0,0.771,2.805,1.003,0.002,-0.0,0.414,0.037,0.001,-0.01,-0.057,1.836,1.366,0.026,0.023,0.208,0.203,0.203,0.278,0.061,-0.167,-0.27,-0.376,0.198,0.0,0.0,0.0,0.018,0.026,0.019,0.012,0.074,0.017,0.035,-0.043,0.034,0.022,1.415,0.0,0.081,0.001,-0.033,0.029,0.066,-0.124,0.01,-0.014,0.012,0.003,0.368,0.002,-0.077,-0.05,0.202,0.04,0.003,-0.163,0.302,-0.136,0.195,-0.241,0.065,0.084,0.054,-0.193,0.379,0.004,-0.0,0.0,0.0
0.981,-0.981,-0.99,-0.968,9.63,0.001,0.1,2.932,1.005,0.026,0.0,0.368,0.032,0.001,0.162,-0.06,1.659,1.382,0.034,0.026,0.217,0.192,0.192,0.1,0.022,-0.037,-0.091,-0.155,0.182,0.0,-0.0,0.0,0.011,0.031,0.006,0.021,0.053,0.005,0.046,0.058,0.007,0.027,1.264,0.0,0.043,0.001,-0.042,0.047,0.018,-0.067,0.013,-0.013,0.019,0.01,0.254,0.007,-0.026,-0.091,0.127,-0.043,0.007,-0.074,0.197,-0.109,0.122,-0.176,0.041,0.066,0.036,-0.118,0.149,0.002,-0.0,-0.0,0.0
0.991,-0.991,-0.995,-0.987,9.815,-0.0,0.002,2.956,1.008,0.001,-0.0,0.344,0.032,0.001,-0.114,-0.154,1.577,1.386,0.037,0.029,0.194,0.185,0.185,0.014,-0.002,0.009,-0.007,-0.038,0.178,0.0,-0.0,0.0,0.005,0.047,0.003,0.005,0.024,0.002,0.022,0.043,0.004,0.04,1.186,0.0,0.039,0.002,-0.022,0.066,0.015,-0.073,0.004,-0.006,0.006,0.004,0.106,0.003,-0.012,-0.028,0.051,0.03,0.003,0.047,0.09,-0.066,0.047,-0.087,0.012,0.01,0.008,-0.005,0.022,0.0,-0.0,0.0,0.0
0.989,-0.989,-0.992,-0.984,9.773,0.0,0.032,2.957,1.007,0.02,0.0,0.316,0.044,0.001,-0.043,-0.03,1.62,1.394,0.028,0.025,0.188,0.178,0.178,0.057,0.011,-0.013,-0.051,-0.091,0.174,0.0,-0.0,0.0,0.005,0.021,0.003,0.005,0.034,0.002,0.021,0.058,0.004,0.018,1.217,0.0,0.032,0.0,-0.021,0.028,0.01,-0.023,0.004,-0.011,0.005,0.004,0.205,0.003,0.015,-0.029,0.1,-0.005,0.003,0.124,0.133,0.041,0.09,0.051,0.025,0.036,0.021,0.087,0.081,0.001,0.0,0.0,-0.0
0.969,-0.969,-0.986,-0.946,9.396,0.0,0.326,2.897,1.003,-0.019,0.0,0.333,0.033,0.001,0.0,-0.188,1.731,1.388,0.027,0.022,0.196,0.182,0.182,0.181,-0.001,-0.101,-0.172,-0.268,0.17,0.0,0.0,0.001,0.029,0.055,0.015,0.006,0.03,0.013,0.024,0.019,0.026,0.049,1.323,0.0,0.028,0.003,0.001,0.092,0.008,-0.067,0.019,0.026,0.024,0.007,0.306,0.006,-0.008,-0.056,0.21,-0.074,0.01,0.254,0.232,0.037,0.201,0.103,0.057,0.099,0.05,0.193,0.402,0.003,-0.0,-0.0,-0.0
0.901,-0.901,-0.933,-0.865,8.114,0.001,1.504,2.696,1.0,0.029,0.0,0.38,0.029,0.001,0.103,0.108,1.968,1.376,0.035,0.028,0.204,0.195,0.195,0.388,-0.04,-0.282,-0.384,-0.453,0.186,0.001,-0.0,0.001,0.02,0.046,0.023,0.006,0.049,0.02,0.024,0.083,0.037,0.04,1.479,0.0,0.043,0.002,-0.007,0.075,0.019,-0.038,0.017,0.032,0.023,0.006,0.406,0.005,0.025,-0.059,0.2,0.034,0.008,0.291,0.267,0.147,0.216,0.138,0.055,0.075,0.046,0.211,0.466,0.003,0.0,0.0,-0.0
0.836,-0.836,-0.857,-0.824,6.985,0.0,2.603,2.55,0.998,-0.027,-0.0,0.364,0.031,0.001,0.077,0.117,2.119,1.379,0.027,0.022,0.203,0.191,0.191,0.51,-0.054,-0.476,-0.51,-0.529,0.183,0.0,0.0,0.001,0.034,0.047,0.012,0.005,0.036,0.011,0.023,0.074,0.019,0.043,1.536,0.0,0.047,0.002,0.003,0.07,0.022,-0.017,0.02,0.035,0.022,0.006,0.432,0.004,0.039,-0.034,0.094,0.04,0.006,0.162,0.146,0.071,0.096,0.013,0.018,0.029,0.016,0.083,0.092,0.0,0.0,-0.0,-0.0
0.821,-0.821,-0.825,-0.816,6.742,-0.0,2.888,2.537,0.998,-0.019,-0.0,0.334,0.008,0.0,0.032,0.04,2.137,1.385,0.014,0.009,0.192,0.183,0.183,0.537,0.001,-0.532,-0.537,-0.549,0.171,0.0,-0.0,0.0,0.008,0.013,0.003,0.001,0.012,0.002,0.012,0.018,0.003,0.009,1.541,0.0,0.024,0.0,-0.009,0.012,0.006,-0.042,0.006,0.009,0.008,0.007,0.432,0.006,-0.019,-0.021,0.027,-0.011,0.01,0.043,0.045,-0.012,0.017,-0.005,0.005,0.007,0.004,0.012,0.003,0.0,0.0,-0.0,-0.0
0.824,-0.824,-0.829,-0.818,6.787,-0.0,2.814,2.542,0.998,-0.003,0.0,0.365,0.004,0.0,-0.006,0.024,2.13,1.378,0.003,0.002,0.194,0.191,0.191,0.531,0.0,-0.525,-0.531,-0.538,0.188,0.0,-0.0,0.0,0.003,0.006,0.003,0.003,0.012,0.002,0.016,-0.009,0.002,0.005,1.545,0.0,0.014,0.0,-0.016,0.007,0.002,-0.019,0.003,-0.006,0.004,0.002,0.437,0.002,-0.013,-0.023,0.023,-0.013,0.003,0.016,0.037,-0.002,0.009,-0.006,0.004,0.006,0.004,0.006,0.001,0.0,-0.0,-0.0,0.0
0.822,-0.822,-0.826,-0.815,6.754,-0.0,2.843,2.539,0.998,-0.007,0.0,0.353,0.015,0.0,-0.023,-0.034,2.135,1.379,0.009,0.008,0.192,0.188,0.188,0.533,-0.007,-0.524,-0.533,-0.542,0.179,0.0,-0.0,0.0,0.006,0.008,0.004,0.011,0.018,0.003,0.033,0.01,0.005,0.006,1.543,0.0,0.009,0.0,-0.031,0.007,0.001,-0.014,0.007,-0.02,0.009,0.004,0.436,0.004,-0.003,-0.051,0.041,-0.018,0.005,0.034,0.062,0.008,0.024,0.005,0.005,0.008,0.004,0.022,0.006,0.0,-0.0,-0.0,-0.0
0.86,-0.86,-0.896,-0.821,7.404,0.0,2.415,2.61,1.0,0.044,-0.0,0.179,0.047,0.001,-0.022,0.227,2.084,1.44,0.029,0.025,0.174,0.134,0.132,0.491,0.053,-0.434,-0.49,-0.542,0.099,0.001,-0.0,0.001,0.028,0.041,0.025,0.04,0.07,0.022,0.063,0.098,0.039,0.03,1.482,0.001,0.061,0.002,-0.056,0.021,0.037,0.01,0.023,-0.005,0.029,0.023,0.38,0.018,0.054,-0.107,0.161,0.017,0.021,-0.033,0.242,-0.067,0.138,-0.187,0.038,0.066,0.034,-0.132,0.19,0.001,-0.0,-0.0,0.0
0.921,-0.92,-0.928,-0.907,8.474,0.0,1.432,2.75,0.999,0.042,0.0,0.072,0.091,0.002,0.098,-0.129,1.952,1.488,0.048,0.046,0.1,0.085,0.084,0.378,0.027,-0.363,-0.378,-0.404,0.072,0.0,-0.0,0.001,0.041,0.064,0.006,0.013,0.03,0.005,0.036,0.061,0.007,0.059,1.383,0.0,0.049,0.004,-0.027,0.112,0.024,-0.062,0.022,0.008,0.023,0.008,0.304,0.007,-0.005,-0.054,0.079,-0.007,0.008,0.061,0.136,-0.069,0.072,-0.141,0.013,0.017,0.011,-0.032,0.052,0.0,-0.0,-0.0,0.0
0.904,-0.904,-0.919,-0.887,8.17,-0.0,1.657,2.7,1.0,-0.037,0.0,0.155,0.024,0.0,0.026,-0.027,1.991,1.449,0.018,0.015,0.154,0.124,0.123,0.407,-0.018,-0.37,-0.406,-0.436,0.089,0.0,0.0,0.0,0.017,0.015,0.011,0.003,0.045,0.01,0.017,-0.054,0.019,0.01,1.433,0.0,0.088,0.0,0.013,0.01,0.078,-0.106,0.01,0.035,0.011,0.021,0.354,0.019,-0.086,-0.004,0.124,-0.02,0.03,0.123,0.191,0.038,0.092,0.059,0.021,0.034,0.017,0.091,0.085,0.0,0.0,0.0,-0.0
0.856,-0.856,-0.883,-0.827,7.324,-0.0,2.337,2.6,0.998,-0.03,0.0,0.306,0.052,0.001,-0.172,-0.017,2.077,1.398,0.031,0.029,0.202,0.175,0.174,0.483,-0.034,-0.439,-0.483,-0.526,0.151,0.0,0.0,0.0,0.034,0.017,0.018,0.008,0.045,0.016,0.029,0.005,0.027,0.014,1.512,0.0,0.062,0.0,0.023,0.022,0.039,-0.082,0.016,0.048,0.017,0.016,0.414,0.013,-0.054,0.001,0.139,-0.035,0.018,0.136,0.194,0.045,0.118,0.086,0.026,0.039,0.023,0.117,0.139,0.001,0.0,-0.0,-0.0
0.821,-0.821,-0.827,-0.812,6.742,0.0,2.794,2.537,0.997,-0.005,-0.0,0.414,0.035,0.001,0.013,0.095,2.13,1.364,0.023,0.02,0.212,0.203,0.203,0.529,0.003,-0.518,-0.529,-0.539,0.193,0.0,-0.0,0.0,0.016,0.026,0.004,0.007,0.016,0.003,0.026,0.009,0.005,0.023,1.553,0.0,0.033,0.001,-0.022,0.044,0.011,-0.066,0.01,0.0,0.013,0.005,0.446,0.004,-0.025,-0.044,0.044,-0.008,0.006,0.063,0.074,-0.008,0.032,-0.011,0.005,0.005,0.004,0.019,0.01,0.0,0.0,0.0,-0.0
0.819,-0.819,-0.83,-0.812,6.713,0.001,2.83,2.534,0.998,0.008,0.0,0.422,0.025,0.003,-0.126,0.122,2.134,1.364,0.051,0.034,0.215,0.205,0.205,0.532,-0.008,-0.521,-0.532,-0.541,0.187,0.0,0.0,0.001,0.048,0.027,0.005,0.01,0.02,0.005,0.032,0.137,0.009,0.023,1.556,0.0,0.051,0.001,-0.006,0.039,0.026,-0.048,0.026,0.055,0.031,0.008,0.448,0.006,-0.004,-0.045,0.058,-0.073,0.008,0.049,0.091,0.023,0.033,-0.033,0.006,0.008,0.005,0.02,0.011,0.0,0.0,0.0,0.0
0.815,-0.815,-0.821,-0.811,6.646,0.0,2.872,2.527,0.998,-0.009,-0.0,0.443,0.022,0.0,-0.02,-0.026,2.138,1.358,0.015,0.012,0.215,0.21,0.21,0.536,0.008,-0.527,-0.536,-0.541,0.202,0.0,0.0,0.0,0.015,0.01,0.003,0.005,0.015,0.002,0.021,0.003,0.004,0.009,1.562,0.0,0.027,0.0,-0.018,0.014,0.007,-0.046,0.009,-0.002,0.011,0.004,0.452,0.003,-0.023,-0.041,0.039,-0.019,0.005,0.031,0.057,-0.017,0.018,-0.003,0.004,0.003,0.003,0.014,0.003,0.0,-0.0,-0.0,-0.0
0.814,-0.814,-0.821,-0.804,6.63,-0.0,2.861,2.528,0.999,0.001,0.0,0.477,0.009,0.0,-0.012,-0.019,2.134,1.354,0.014,0.009,0.23,0.219,0.218,0.535,0.001,-0.529,-0.535,-0.546,0.211,0.0,0.0,0.001,0.015,0.017,0.006,0.006,0.008,0.005,0.024,-0.001,0.007,0.014,1.568,0.0,0.023,0.0,-0.008,0.019,0.005,-0.055,0.015,0.022,0.023,0.007,0.454,0.006,-0.017,-0.063,0.024,-0.081,0.01,0.059,0.054,-0.005,0.026,0.003,0.004,0.003,0.003,0.019,0.007,0.0,-0.0,-0.0,0.0
0.808,-0.808,-0.815,-0.8,6.535,-0.0,2.915,2.518,0.998,-0.025,0.0,0.506,0.012,0.0,0.026,-0.019,2.141,1.342,0.012,0.009,0.233,0.225,0.225,0.54,0.019,-0.528,-0.54,-0.554,0.217,0.0,-0.0,0.0,0.034,0.027,0.005,0.007,0.02,0.005,0.026,0.023,0.009,0.024,1.573,0.0,0.013,0.001,-0.018,0.052,0.002,-0.018,0.018,0.014,0.02,0.005,0.461,0.004,-0.007,-0.043,0.037,-0.057,0.007,0.068,0.064,-0.034,0.039,-0.005,0.008,0.014,0.007,0.028,0.015,0.0,0.0,-0.0,-0.0
0.8,-0.8,-0.803,-0.794,6.397,-0.0,3.086,2.502,0.998,-0.01,-0.0,0.478,0.009,0.0,-0.002,0.024,2.162,1.35,0.011,0.008,0.223,0.219,0.218,0.556,0.014,-0.55,-0.556,-0.56,0.212,0.0,0.0,0.0,0.012,0.011,0.003,0.003,0.01,0.003,0.017,0.005,0.004,0.01,1.574,0.0,0.016,0.0,-0.015,0.019,0.003,-0.032,0.007,-0.002,0.008,0.004,0.46,0.003,-0.012,-0.025,0.03,-0.032,0.005,0.032,0.042,-0.017,0.019,0.0,0.003,0.005,0.003,0.015,0.004,0.0,0.0,0.0,-0.0
0.801,-0.801,-0.81,-0.793,6.415,0.001,3.015,2.5,0.998,0.041,0.0,0.526,0.048,0.001,0.078,0.127,2.158,1.344,0.035,0.028,0.26,0.229,0.229,0.549,-0.02,-0.524,-0.549,-0.569,0.206,0.0,0.001,0.002,0.062,0.038,0.006,0.019,0.027,0.005,0.043,0.02,0.011,0.035,1.579,0.0,0.044,0.001,0.016,0.064,0.019,-0.1,0.035,0.082,0.04,0.016,0.464,0.013,-0.026,-0.044,0.062,-0.086,0.018,0.025,0.102,0.046,0.042,-0.081,0.015,0.017,0.012,-0.017,0.018,0.0,0.0,-0.0,0.0
0.829,-0.829,-0.856,-0.808,6.876,-0.0,2.156,2.548,1.0,-0.093,-0.0,0.973,0.097,0.005,0.467,0.051,2.053,1.253,0.073,0.064,0.347,0.312,0.31,0.464,0.022,-0.388,-0.462,-0.53,0.258,0.0,0.0,0.002,0.073,0.026,0.015,0.022,0.082,0.013,0.046,-0.039,0.024,0.018,1.602,0.001,0.195,0.001,-0.01,0.019,0.382,-0.26,0.038,0.077,0.045,0.031,0.492,0.028,-0.181,-0.071,0.246,0.036,0.053,-0.023,0.313,-0.07,0.097,-0.117,0.046,0.073,0.04,-0.094,0.095,0.002,0.0,-0.0,-0.0
0.881,-0.881,-0.894,-0.868,7.768,0.001,0.986,2.649,1.003,-0.04,-0.0,1.276,0.105,0.007,0.102,-0.151,1.877,1.203,0.083,0.069,0.373,0.357,0.357,0.314,0.032,-0.284,-0.313,-0.371,0.34,0.0,0.0,0.001,0.028,0.062,0.01,0.017,0.054,0.009,0.041,0.107,0.02,0.053,1.551,0.0,0.103,0.004,-0.032,0.092,0.106,-0.157,0.021,0.017,0.025,0.011,0.46,0.01,-0.062,-0.07,0.133,0.054,0.018,0.043,0.209,-0.119,0.094,-0.181,0.029,0.04,0.025,-0.071,0.089,0.001,-0.0,0.0,0.0
0.888,-0.888,-0.895,-0.881,7.893,-0.0,0.908,2.664,1.001,-0.025,0.0,1.232,0.091,0.003,-0.089,-0.109,1.866,1.212,0.058,0.051,0.36,0.351,0.351,0.301,0.003,-0.281,-0.301,-0.334,0.334,0.0,0.0,0.0,0.023,0.037,0.005,0.007,0.034,0.005,0.026,0.122,0.009,0.035,1.54,0.0,0.068,0.001,-0.02,0.073,0.046,-0.052,0.014,0.005,0.017,0.007,0.453,0.005,0.035,-0.053,0.08,0.005,0.004,0.098,0.132,-0.032,0.065,-0.003,0.018,0.029,0.016,0.053,0.043,0.0,0.0,0.0,-0.0
0.86,-0.86,-0.881,-0.832,7.402,0.001,1.754,2.608,1.0,-0.025,0.0,0.845,0.119,0.005,-0.342,-0.149,1.991,1.26,0.071,0.067,0.325,0.291,0.289,0.419,-0.018,-0.352,-0.416,-0.512,0.225,0.0,-0.0,0.001,0.049,0.032,0.015,0.03,0.105,0.013,0.055,0.279,0.019,0.029,1.565,0.001,0.192,0.001,-0.048,0.061,0.369,0.091,0.023,-0.018,0.026,0.033,0.466,0.028,0.178,-0.087,0.244,-0.008,0.044,0.183,0.36,0.026,0.137,0.092,0.051,0.079,0.044,0.133,0.187,0.003,0.0,-0.0,-0.0
0.82,-0.82,-0.839,-0.803,6.719,0.001,2.988,2.532,0.999,0.123,-0.0,0.289,0.115,0.008,0.205,0.099,2.152,1.402,0.089,0.078,0.216,0.17,0.168,0.547,-0.01,-0.521,-0.546,-0.567,0.129,0.0,0.001,0.005,0.111,0.045,0.011,0.061,0.046,0.009,0.078,0.192,0.013,0.037,1.534,0.001,0.106,0.002,-0.035,0.061,0.113,-0.094,0.061,0.078,0.07,0.024,0.422,0.019,0.058,-0.149,0.112,-0.359,0.028,0.13,0.213,0.045,0.073,-0.033,0.015,0.023,0.012,0.058,0.054,0.0,-0.0,-0.0,-0.0
0.822,-0.822,-0.834,-0.811,6.759,-0.0,2.892,2.533,0.998,-0.003,0.0,0.299,0.028,0.0,0.055,0.009,2.15,1.404,0.02,0.018,0.19,0.173,0.173,0.538,0.0,-0.509,-0.538,-0.556,0.161,0.0,-0.0,0.0,0.032,0.034,0.008,0.008,0.026,0.007,0.028,-0.029,0.013,0.032,1.532,0.0,0.059,0.001,-0.02,0.054,0.035,-0.091,0.017,0.006,0.019,0.012,0.422,0.011,-0.056,-0.053,0.076,-0.107,0.023,-0.002,0.12,0.015,0.054,-0.1,0.017,0.024,0.015,-0.042,0.029,0.0,-0.0,0.0,0.0
0.854,-0.854,-0.86,-0.84,7.285,0.0,2.339,2.598,0.998,-0.022,0.0,0.348,0.005,0.0,0.022,-0.097,2.074,1.384,0.009,0.006,0.193,0.187,0.187,0.484,0.022,-0.474,-0.484,-0.506,0.181,0.0,0.0,0.0,0.018,0.038,0.006,0.007,0.019,0.004,0.027,0.005,0.005,0.032,1.524,0.0,0.019,0.001,-0.023,0.05,0.004,-0.028,0.012,-0.004,0.015,0.004,0.426,0.004,-0.017,-0.054,0.042,-0.049,0.006,0.048,0.072,-0.039,0.039,-0.075,0.008,0.007,0.006,-0.004,0.015,0.0,-0.0,-0.0,0.0
0.845,-0.845,-0.854,-0.84,7.135,-0.0,2.498,2.578,0.998,0.014,0.0,0.323,0.01,0.0,0.023,0.051,2.099,1.391,0.008,0.006,0.185,0.18,0.18,0.5,-0.004,-0.483,-0.5,-0.51,0.176,0.0,0.0,0.0,0.007,0.009,0.004,0.004,0.016,0.004,0.019,0.005,0.006,0.007,1.524,0.0,0.012,0.0,-0.015,0.009,0.001,-0.019,0.008,-0.003,0.011,0.003,0.424,0.002,-0.009,-0.04,0.044,0.009,0.002,0.055,0.065,0.014,0.04,0.022,0.009,0.009,0.007,0.039,0.016,0.0,0.0,-0.0,-0.0
0.842,-0.842,-0.848,-0.835,7.09,-0.0,2.494,2.57,0.998,-0.008,0.001,0.372,0.014,0.001,0.121,0.249,2.101,1.378,0.025,0.018,0.208,0.193,0.193,0.499,0.012,-0.467,-0.499,-0.515,0.181,0.0,0.0,0.0,0.031,0.047,0.005,0.005,0.016,0.004,0.022,0.018,0.008,0.039,1.534,0.0,0.042,0.002,-0.008,0.059,0.017,-0.082,0.017,0.032,0.021,0.009,0.432,0.008,-0.033,-0.037,0.042,-0.038,0.015,0.069,0.092,-0.012,0.049,-0.097,0.016,0.024,0.014,-0.011,0.024,0.0,0.0,0.0,-0.0
0.846,-0.846,-0.859,-0.837,7.156,-0.0,2.428,2.577,0.999,-0.037,0.0,0.406,0.029,0.001,0.107,0.205,2.087,1.37,0.033,0.025,0.211,0.201,0.201,0.493,-0.013,-0.479,-0.493,-0.507,0.19,0.0,0.0,0.0,0.022,0.047,0.007,0.007,0.021,0.006,0.026,0.045,0.009,0.039,1.54,0.0,0.036,0.002,-0.02,0.054,0.013,-0.084,0.015,0.009,0.017,0.006,0.438,0.005,-0.015,-0.046,0.057,0.071,0.009,0.095,0.087,0.019,0.047,-0.063,0.01,0.015,0.009,0.004,0.023,0.0,0.0,-0.0,-0.0
0.858,-0.858,-0.879,-0.847,7.359,0.001,2.189,2.602,0.998,-0.029,0.001,0.424,0.021,0.001,-0.018,-0.133,2.063,1.362,0.037,0.028,0.217,0.206,0.206,0.468,-0.041,-0.425,-0.467,-0.491,0.196,0.0,0.0,0.001,0.046,0.064,0.01,0.013,0.018,0.008,0.036,0.009,0.011,0.05,1.531,0.0,0.048,0.004,-0.022,0.055,0.023,-0.11,0.025,0.013,0.029,0.007,0.436,0.006,-0.03,-0.067,0.045,0.052,0.01,0.07,0.108,0.09,0.065,-0.129,0.021,0.028,0.017,-0.012,0.043,0.0,-0.0,0.0,0.0
0.871,-0.87,-0.928,-0.839,7.583,0.0,2.033,2.606,1.0,-0.005,0.001,0.388,0.111,0.004,0.099,0.19,2.058,1.372,0.064,0.059,0.207,0.197,0.197,0.451,-0.104,-0.354,-0.448,-0.51,0.187,0.001,0.0,0.001,0.036,0.242,0.026,0.023,0.048,0.022,0.048,0.027,0.03,0.224,1.515,0.0,0.081,0.059,-0.039,0.446,0.066,-0.159,0.024,0.005,0.027,0.006,0.429,0.005,-0.05,-0.082,0.141,-0.054,0.01,0.123,0.327,0.184,0.279,-0.533,0.05,0.062,0.042,-0.138,0.776,0.002,0.0,0.0,0.001
0.979,-0.979,-0.999,-0.953,9.592,0.001,0.148,2.938,1.005,0.004,0.001,0.361,0.068,0.003,-0.12,-0.15,1.616,1.378,0.058,0.044,0.202,0.19,0.19,0.122,0.049,0.064,-0.055,-0.243,0.173,0.0,0.0,0.0,0.026,0.209,0.014,0.026,0.105,0.012,0.051,-0.002,0.019,0.182,1.269,0.0,0.092,0.043,-0.046,0.36,0.084,-0.217,0.017,-0.012,0.022,0.01,0.235,0.009,-0.071,-0.091,0.41,0.04,0.017,0.01,0.457,-0.328,0.398,-0.604,0.109,0.189,0.097,-0.339,1.581,0.012,-0.0,0.0,0.001
0.988,-0.988,-1.001,-0.958,9.753,0.001,0.062,2.95,1.007,0.024,0.001,0.338,0.047,0.003,0.073,-0.015,1.558,1.393,0.051,0.038,0.209,0.184,0.183,0.079,0.033,0.058,-0.016,-0.191,0.168,0.0,0.001,0.003,0.059,0.208,0.011,0.027,0.038,0.007,0.052,0.139,0.008,0.182,1.232,0.0,0.052,0.043,0.013,0.281,0.027,-0.06,0.041,0.125,0.05,0.013,0.214,0.011,0.01,-0.043,0.211,0.151,0.02,0.662,0.351,-0.054,0.348,0.034,0.077,0.102,0.064,0.279,1.211,0.006,0.0,0.0,-0.0
0.893,-0.892,-0.951,-0.86,7.967,-0.0,1.697,2.648,0.999,0.062,-0.0,0.348,0.123,0.005,-0.099,0.481,2.026,1.394,0.072,0.063,0.212,0.186,0.186,0.412,-0.129,-0.268,-0.405,-0.48,0.166,0.001,-0.0,0.001,0.025,0.169,0.032,0.009,0.071,0.027,0.03,0.193,0.043,0.152,1.483,0.0,0.117,0.029,-0.006,0.299,0.136,-0.027,0.023,0.052,0.029,0.018,0.408,0.016,0.092,-0.053,0.294,0.167,0.034,0.586,0.41,0.294,0.334,0.086,0.075,0.123,0.067,0.288,1.112,0.006,0.0,0.0,-0.0
0.834,-0.834,-0.852,-0.814,6.962,-0.0,2.618,2.56,0.997,-0.008,-0.0,0.349,0.033,0.0,0.035,0.054,2.112,1.381,0.019,0.017,0.197,0.187,0.187,0.512,-0.041,-0.49,-0.512,-0.533,0.171,0.0,-0.0,0.001,0.059,0.03,0.01,0.014,0.028,0.009,0.038,0.009,0.015,0.026,1.532,0.0,0.029,0.001,-0.005,0.042,0.008,-0.046,0.033,0.061,0.038,0.008,0.43,0.007,-0.022,-0.055,0.079,-0.089,0.011,0.085,0.11,0.061,0.059,-0.014,0.012,0.016,0.01,0.05,0.035,0.0,0.0,0.0,-0.0
0.832,-0.832,-0.844,-0.813,6.928,-0.0,2.671,2.552,0.998,-0.017,-0.0,0.359,0.026,0.0,-0.087,-0.103,2.117,1.378,0.019,0.016,0.206,0.19,0.189,0.517,-0.01,-0.504,-0.517,-0.533,0.174,0.0,0.0,0.0,0.03,0.029,0.009,0.008,0.019,0.007,0.029,-0.003,0.011,0.02,1.538,0.0,0.03,0.001,-0.021,0.025,0.009,-0.067,0.017,0.006,0.02,0.008,0.435,0.006,-0.023,-0.06,0.042,-0.055,0.009,0.047,0.074,-0.023,0.033,-0.055,0.009,0.014,0.008,0.017,0.011,0.0,-0.0,-0.0,0.0
0.719,-0.719,-0.74,-0.71,5.175,0.0,4.435,2.372,0.998,0.04,0.001,0.347,0.068,0.004,0.295,-0.159,2.302,1.38,0.059,0.046,0.209,0.186,0.186,0.666,0.005,-0.653,-0.666,-0.677,0.154,0.0,0.001,0.002,0.07,0.037,0.009,0.021,0.022,0.007,0.045,0.081,0.011,0.028,1.571,0.0,0.06,0.001,-0.019,0.028,0.036,-0.12,0.037,0.027,0.041,0.016,0.448,0.013,-0.009,-0.087,0.047,-0.142,0.021,0.082,0.113,0.01,0.038,-0.051,0.007,0.007,0.006,0.01,0.015,0.0,0.0,-0.0,0.0
0.719,-0.719,-0.721,-0.718,5.174,-0.0,4.428,2.376,0.998,-0.002,0.0,0.352,0.009,0.0,-0.043,0.016,2.3,1.381,0.007,0.006,0.194,0.188,0.188,0.665,-0.001,-0.663,-0.665,-0.671,0.181,0.0,-0.0,0.0,0.006,0.005,0.001,0.008,0.016,0.001,0.028,-0.005,0.001,0.004,1.572,0.0,0.016,0.0,-0.024,0.006,0.003,-0.029,0.01,-0.005,0.014,0.004,0.448,0.003,-0.014,-0.056,0.028,-0.065,0.003,0.027,0.052,0.0,0.014,0.008,0.002,0.002,0.002,0.013,0.002,0.0,-0.0,-0.0,-0.0
0.714,-0.714,-0.718,-0.708,5.095,0.0,4.508,2.368,0.998,0.021,-0.0,0.351,0.003,0.0,0.029,0.024,2.31,1.382,0.007,0.004,0.194,0.187,0.187,0.671,0.014,-0.669,-0.671,-0.673,0.182,0.0,-0.0,0.0,0.02,0.007,0.003,0.003,0.017,0.003,0.017,0.0,0.004,0.005,1.572,0.0,0.017,0.0,-0.011,0.008,0.003,-0.03,0.012,0.01,0.013,0.004,0.447,0.003,-0.015,-0.03,0.034,-0.0,0.006,0.039,0.056,-0.004,0.027,0.014,0.001,0.002,0.001,0.026,0.007,0.0,0.0,0.0,-0.0
0.702,-0.702,-0.706,-0.692,4.928,0.0,4.654,2.353,0.998,0.017,-0.0,0.375,0.002,0.0,-0.004,0.029,2.322,1.376,0.003,0.002,0.201,0.194,0.194,0.682,0.006,-0.68,-0.682,-0.692,0.19,0.0,-0.0,0.0,0.009,0.009,0.004,0.002,0.016,0.002,0.016,-0.006,0.002,0.007,1.578,0.0,0.014,0.0,-0.014,0.011,0.002,-0.017,0.005,-0.005,0.006,0.003,0.452,0.002,-0.013,-0.023,0.035,0.02,0.003,0.047,0.055,-0.006,0.029,0.016,0.003,0.002,0.002,0.027,0.008,0.0,0.0,0.0,-0.0
0.7,-0.7,-0.703,-0.695,4.901,0.0,4.68,2.348,0.998,0.004,-0.0,0.373,0.005,0.0,-0.011,0.009,2.327,1.376,0.004,0.003,0.196,0.193,0.193,0.684,0.005,-0.682,-0.684,-0.688,0.19,0.0,-0.0,0.0,0.003,0.005,0.003,0.004,0.014,0.002,0.019,-0.011,0.004,0.004,1.577,0.0,0.016,0.0,-0.019,0.005,0.003,-0.023,0.003,-0.011,0.004,0.002,0.452,0.001,-0.016,-0.023,0.026,0.01,0.002,0.021,0.044,-0.001,0.011,0.003,0.002,0.002,0.001,0.01,0.001,0.0,-0.0,0.0,0.0
0.698,-0.698,-0.703,-0.693,4.874,-0.0,4.698,2.346,0.997,-0.004,0.0,0.382,0.002,0.0,-0.005,-0.006,2.327,1.374,0.003,0.002,0.198,0.195,0.195,0.685,-0.003,-0.683,-0.685,-0.692,0.191,0.0,0.0,0.0,0.004,0.005,0.003,0.003,0.015,0.002,0.016,-0.012,0.002,0.004,1.579,0.0,0.016,0.0,-0.014,0.003,0.002,-0.023,0.005,-0.005,0.008,0.002,0.454,0.001,-0.015,-0.035,0.028,-0.002,0.001,0.031,0.05,0.004,0.021,0.009,0.003,0.003,0.002,0.02,0.004,0.0,0.0,0.0,-0.0
0.694,-0.694,-0.698,-0.691,4.822,0.0,4.747,2.34,0.999,-0.008,-0.0,0.394,0.009,0.0,0.037,-0.025,2.333,1.37,0.007,0.006,0.202,0.199,0.199,0.689,-0.008,-0.687,-0.689,-0.691,0.192,0.0,0.0,0.0,0.012,0.006,0.002,0.003,0.012,0.001,0.016,0.003,0.003,0.005,1.582,0.0,0.012,0.0,-0.012,0.005,0.001,-0.022,0.009,0.01,0.011,0.003,0.456,0.002,-0.01,-0.023,0.025,0.021,0.002,0.029,0.042,0.002,0.018,0.01,0.001,0.002,0.001,0.017,0.003,0.0,0.0,0.0,-0.0
0.69,-0.69,-0.693,-0.687,4.767,-0.0,4.804,2.335,0.998,0.001,0.0,0.381,0.005,0.0,0.01,-0.007,2.339,1.374,0.004,0.003,0.198,0.195,0.195,0.693,-0.009,-0.691,-0.693,-0.696,0.194,0.0,0.0,0.0,0.004,0.005,0.002,0.003,0.016,0.001,0.018,-0.007,0.003,0.004,1.579,0.0,0.013,0.0,-0.018,0.008,0.002,-0.019,0.003,-0.014,0.004,0.001,0.454,0.001,-0.012,-0.025,0.028,-0.003,0.002,0.024,0.047,0.007,0.017,0.01,0.002,0.002,0.001,0.017,0.003,0.0,0.0,0.0,-0.0
0.687,-0.687,-0.691,-0.682,4.721,0.0,4.843,2.33,0.998,-0.016,0.0,0.389,0.007,0.0,0.026,-0.008,2.343,1.371,0.009,0.006,0.204,0.197,0.197,0.696,-0.013,-0.693,-0.696,-0.699,0.191,0.0,0.0,0.0,0.008,0.005,0.003,0.002,0.012,0.002,0.012,-0.005,0.003,0.003,1.58,0.0,0.016,0.0,-0.01,0.004,0.003,-0.036,0.006,0.002,0.007,0.004,0.456,0.003,-0.014,-0.022,0.025,-0.02,0.006,0.024,0.043,0.006,0.019,0.007,0.001,0.001,0.001,0.019,0.004,0.0,0.0,-0.0,0.0
0.684,-0.684,-0.687,-0.679,4.68,-0.0,4.869,2.327,0.998,-0.009,0.0,0.398,0.002,0.0,-0.008,-0.0,2.345,1.369,0.003,0.002,0.202,0.2,0.2,0.698,-0.005,-0.695,-0.698,-0.701,0.192,0.0,-0.0,0.0,0.003,0.004,0.002,0.002,0.016,0.002,0.015,-0.01,0.002,0.003,1.582,0.0,0.016,0.0,-0.014,0.006,0.002,-0.023,0.002,-0.01,0.002,0.003,0.457,0.002,-0.015,-0.018,0.028,0.003,0.001,0.023,0.047,0.005,0.018,0.013,0.002,0.002,0.002,0.017,0.003,0.0,0.0,0.0,-0.0
0.681,-0.681,-0.682,-0.678,4.631,0.0,4.924,2.322,0.998,0.003,-0.0,0.403,0.003,0.0,0.003,0.02,2.35,1.368,0.002,0.002,0.202,0.201,0.201,0.702,-0.002,-0.699,-0.702,-0.705,0.198,0.0,-0.0,0.0,0.004,0.007,0.001,0.003,0.014,0.001,0.017,-0.009,0.003,0.006,1.583,0.0,0.013,0.0,-0.016,0.01,0.002,-0.017,0.003,-0.01,0.003,0.001,0.458,0.001,-0.013,-0.02,0.026,0.022,0.002,0.025,0.041,0.004,0.014,0.003,0.002,0.004,0.002,0.012,0.002,0.0,0.0,0.0,-0.0
0.683,-0.682,-0.684,-0.68,4.658,-0.0,4.89,2.324,0.998,0.001,0.0,0.4,0.001,0.0,0.001,0.004,2.347,1.369,0.001,0.001,0.202,0.2,0.2,0.699,-0.002,-0.697,-0.699,-0.704,0.197,0.0,0.0,0.0,0.002,0.003,0.001,0.003,0.013,0.001,0.017,-0.011,0.001,0.002,1.582,0.0,0.013,0.0,-0.017,0.003,0.002,-0.016,0.002,-0.014,0.002,0.001,0.457,0.001,-0.013,-0.02,0.024,0.005,0.001,0.017,0.042,0.001,0.012,0.007,0.002,0.002,0.001,0.012,0.001,0.0,-0.0,-0.0,0.0
0.683,-0.683,-0.686,-0.682,4.668,-0.0,4.893,2.325,0.998,0.01,-0.0,0.402,0.003,0.0,-0.0,0.0,2.347,1.369,0.002,0.002,0.205,0.2,0.2,0.7,0.002,-0.698,-0.699,-0.701,0.197,0.0,0.0,0.0,0.003,0.004,0.001,0.003,0.014,0.001,0.017,-0.01,0.002,0.003,1.583,0.0,0.014,0.0,-0.017,0.003,0.002,-0.019,0.003,-0.013,0.004,0.002,0.458,0.002,-0.014,-0.026,0.026,-0.008,0.004,0.023,0.043,-0.001,0.013,0.01,0.001,0.001,0.001,0.012,0.002,0.0,0.0,0.0,0.0
0.686,-0.686,-0.688,-0.683,4.699,0.0,4.897,2.328,0.998,0.022,0.0,0.362,0.01,0.0,-0.04,-0.001,2.348,1.381,0.008,0.007,0.2,0.19,0.19,0.7,0.003,-0.698,-0.7,-0.703,0.184,0.0,-0.0,0.0,0.016,0.007,0.001,0.006,0.01,0.001,0.025,0.005,0.001,0.005,1.575,0.0,0.009,0.0,-0.023,0.003,0.001,-0.022,0.009,-0.005,0.011,0.005,0.448,0.005,-0.004,-0.042,0.029,-0.023,0.007,0.023,0.039,0.001,0.011,-0.004,0.002,0.003,0.002,0.008,0.001,0.0,0.0,-0.0,0.0
0.693,-0.693,-0.698,-0.685,4.8,0.0,4.801,2.339,0.998,0.003,-0.0,0.353,0.004,0.0,-0.004,0.015,2.338,1.381,0.003,0.003,0.191,0.188,0.188,0.693,0.002,-0.687,-0.693,-0.703,0.185,0.0,0.0,0.0,0.003,0.005,0.003,0.003,0.01,0.002,0.016,-0.005,0.004,0.005,1.574,0.0,0.012,0.0,-0.016,0.01,0.002,-0.016,0.002,-0.009,0.003,0.002,0.448,0.001,-0.012,-0.021,0.021,0.001,0.002,0.008,0.033,-0.002,0.006,-0.007,0.004,0.002,0.002,0.002,0.0,0.0,-0.0,0.0,0.0
0.699,-0.699,-0.702,-0.696,4.886,-0.0,4.718,2.348,0.998,-0.003,-0.0,0.352,0.002,0.0,0.002,0.008,2.329,1.382,0.002,0.001,0.189,0.188,0.188,0.687,0.004,-0.684,-0.687,-0.691,0.186,0.0,-0.0,0.0,0.003,0.012,0.002,0.002,0.014,0.001,0.015,-0.011,0.002,0.008,1.574,0.0,0.014,0.0,-0.015,0.005,0.002,-0.016,0.003,-0.008,0.004,0.001,0.448,0.001,-0.014,-0.021,0.025,0.005,0.001,0.025,0.041,-0.01,0.014,-0.021,0.002,0.004,0.002,0.007,0.002,0.0,0.0,0.0,-0.0
0.7,-0.7,-0.702,-0.698,4.897,0.0,4.707,2.348,0.998,0.004,0.0,0.353,0.004,0.0,0.009,-0.02,2.329,1.382,0.003,0.003,0.19,0.188,0.188,0.686,0.002,-0.685,-0.686,-0.687,0.186,0.0,-0.0,0.0,0.003,0.005,0.001,0.002,0.014,0.001,0.016,-0.008,0.002,0.003,1.574,0.0,0.013,0.0,-0.016,0.003,0.002,-0.018,0.002,-0.01,0.002,0.001,0.448,0.001,-0.013,-0.019,0.026,-0.003,0.002,0.028,0.043,0.001,0.015,0.006,0.001,0.001,0.001,0.014,0.002,0.0,-0.0,0.0,-0.0
0.697,-0.697,-0.699,-0.693,4.858,-0.0,4.732,2.344,0.997,0.001,0.0,0.355,0.003,0.0,-0.012,-0.002,2.332,1.38,0.003,0.002,0.19,0.189,0.188,0.688,-0.004,-0.686,-0.688,-0.692,0.187,0.0,-0.0,0.0,0.003,0.003,0.002,0.002,0.015,0.001,0.015,-0.01,0.003,0.003,1.573,0.0,0.015,0.0,-0.015,0.004,0.002,-0.02,0.002,-0.013,0.002,0.001,0.449,0.001,-0.014,-0.018,0.026,0.003,0.001,0.024,0.047,0.003,0.018,0.013,0.002,0.002,0.001,0.017,0.003,0.0,0.0,0.0,-0.0
0.693,-0.693,-0.697,-0.689,4.805,0.0,4.783,2.339,0.998,-0.001,-0.0,0.361,0.003,0.0,-0.006,-0.003,2.338,1.379,0.002,0.002,0.191,0.19,0.19,0.692,-0.001,-0.687,-0.692,-0.693,0.189,0.0,0.0,0.0,0.001,0.004,0.002,0.002,0.016,0.002,0.016,-0.011,0.002,0.003,1.575,0.0,0.014,0.0,-0.016,0.004,0.002,-0.016,0.001,-0.014,0.001,0.001,0.45,0.001,-0.013,-0.018,0.028,0.002,0.002,0.025,0.048,-0.004,0.02,0.014,0.002,0.002,0.001,0.019,0.004,0.0,0.0,0.0,-0.0
0.688,-0.688,-0.692,-0.685,4.735,0.0,4.864,2.332,0.998,-0.001,-0.0,0.362,0.002,0.0,0.001,0.013,2.345,1.379,0.002,0.001,0.192,0.19,0.19,0.697,-0.01,-0.694,-0.697,-0.701,0.189,0.0,0.0,0.0,0.003,0.006,0.002,0.003,0.016,0.002,0.016,-0.007,0.003,0.006,1.576,0.0,0.013,0.0,-0.016,0.01,0.002,-0.015,0.002,-0.013,0.003,0.001,0.45,0.001,-0.013,-0.022,0.029,-0.01,0.001,0.027,0.047,0.01,0.02,0.01,0.002,0.001,0.001,0.019,0.004,0.0,0.0,0.0,-0.0
0.688,-0.688,-0.691,-0.684,4.728,0.0,4.872,2.332,0.998,-0.004,0.0,0.351,0.002,0.0,-0.003,0.019,2.346,1.381,0.004,0.003,0.19,0.187,0.187,0.698,-0.004,-0.694,-0.698,-0.701,0.183,0.0,0.0,0.0,0.004,0.004,0.002,0.005,0.015,0.001,0.021,-0.01,0.001,0.003,1.573,0.0,0.015,0.0,-0.021,0.005,0.002,-0.022,0.003,-0.017,0.004,0.002,0.448,0.001,-0.014,-0.029,0.026,-0.002,0.001,0.017,0.046,-0.003,0.011,0.005,0.002,0.004,0.002,0.011,0.001,0.0,-0.0,-0.0,0.0
0.695,-0.695,-0.698,-0.689,4.828,-0.0,4.779,2.343,0.997,0.002,-0.0,0.339,0.003,0.0,-0.044,-0.027,2.335,1.385,0.01,0.007,0.187,0.184,0.184,0.691,0.016,-0.686,-0.691,-0.697,0.181,0.0,-0.0,0.0,0.005,0.009,0.004,0.004,0.011,0.003,0.019,0.009,0.006,0.008,1.57,0.0,0.013,0.0,-0.018,0.014,0.002,-0.028,0.004,-0.011,0.005,0.002,0.446,0.002,-0.009,-0.027,0.023,-0.006,0.004,0.017,0.038,-0.02,0.009,-0.01,0.003,0.005,0.003,0.003,0.001,0.0,0.0,0.0,0.0
0.699,-0.699,-0.702,-0.697,4.886,-0.0,4.731,2.346,0.998,0.003,0.0,0.333,0.004,0.0,0.002,0.018,2.332,1.387,0.005,0.004,0.185,0.182,0.182,0.688,0.007,-0.679,-0.688,-0.693,0.181,0.0,-0.0,0.0,0.003,0.011,0.002,0.003,0.014,0.002,0.016,-0.009,0.004,0.008,1.569,0.0,0.015,0.0,-0.016,0.008,0.002,-0.027,0.002,-0.011,0.002,0.001,0.444,0.001,-0.014,-0.019,0.024,0.001,0.002,0.025,0.044,-0.013,0.014,-0.016,0.004,0.002,0.002,0.009,0.002,0.0,0.0,0.0,0.0
0.7,-0.7,-0.701,-0.699,4.896,0.0,4.731,2.348,0.998,0.001,-0.0,0.335,0.002,0.0,-0.001,0.004,2.332,1.386,0.002,0.001,0.185,0.183,0.183,0.688,-0.003,-0.686,-0.688,-0.691,0.18,0.0,0.0,0.0,0.004,0.006,0.001,0.002,0.014,0.001,0.015,-0.01,0.001,0.004,1.57,0.0,0.013,0.0,-0.015,0.003,0.002,-0.015,0.002,-0.01,0.003,0.001,0.445,0.001,-0.012,-0.019,0.026,0.015,0.002,0.032,0.045,-0.0,0.019,0.012,0.002,0.003,0.002,0.018,0.003,0.0,-0.0,0.0,0.0
0.696,-0.696,-0.7,-0.688,4.846,0.0,4.772,2.343,0.998,0.003,-0.0,0.329,0.012,0.0,-0.032,0.058,2.335,1.388,0.008,0.007,0.187,0.181,0.181,0.691,-0.009,-0.686,-0.691,-0.7,0.178,0.0,-0.0,0.0,0.003,0.011,0.003,0.003,0.012,0.003,0.018,0.007,0.005,0.009,1.568,0.0,0.011,0.0,-0.017,0.02,0.001,-0.015,0.003,-0.01,0.004,0.003,0.444,0.002,-0.008,-0.023,0.026,0.014,0.002,0.028,0.04,0.009,0.015,-0.005,0.004,0.005,0.003,0.011,0.002,0.0,0.0,-0.0,-0.0
0.699,-0.699,-0.703,-0.696,4.88,0.0,4.762,2.346,0.998,0.003,-0.0,0.317,0.003,0.0,-0.003,-0.011,2.335,1.391,0.004,0.003,0.181,0.178,0.178,0.69,0.005,-0.686,-0.69,-0.693,0.176,0.0,0.0,0.0,0.003,0.005,0.002,0.003,0.014,0.002,0.018,-0.005,0.003,0.004,1.567,0.0,0.014,0.0,-0.018,0.004,0.002,-0.02,0.003,-0.011,0.004,0.002,0.441,0.001,-0.014,-0.024,0.028,-0.015,0.002,0.027,0.044,-0.008,0.014,0.008,0.002,0.004,0.002,0.013,0.002,0.0,0.0,0.0,-0.0
0.699,-0.699,-0.701,-0.696,4.886,-0.0,4.749,2.348,0.998,-0.006,0.0,0.312,0.003,0.0,-0.006,0.002,2.333,1.392,0.002,0.001,0.179,0.177,0.177,0.689,-0.008,-0.687,-0.689,-0.693,0.174,0.0,0.0,0.0,0.003,0.004,0.002,0.003,0.015,0.001,0.018,-0.012,0.003,0.004,1.565,0.0,0.016,0.0,-0.017,0.007,0.002,-0.018,0.002,-0.014,0.003,0.001,0.44,0.001,-0.016,-0.024,0.027,-0.009,0.003,0.023,0.049,0.003,0.016,0.01,0.002,0.001,0.001,0.016,0.003,0.0,-0.0,-0.0,0.0
0.696,-0.695,-0.697,-0.694,4.837,-0.0,4.809,2.342,0.998,-0.0,0.0,0.32,0.004,0.0,-0.016,0.018,2.338,1.391,0.003,0.003,0.181,0.179,0.179,0.694,-0.003,-0.691,-0.694,-0.697,0.177,0.0,0.0,0.0,0.003,0.005,0.001,0.003,0.016,0.001,0.016,-0.013,0.003,0.004,1.568,0.0,0.016,0.0,-0.016,0.007,0.003,-0.021,0.002,-0.015,0.002,0.001,0.442,0.001,-0.016,-0.019,0.028,0.002,0.002,0.026,0.048,0.001,0.017,0.011,0.002,0.003,0.001,0.016,0.003,0.0,0.0,0.0,-0.0
0.694,-0.694,-0.697,-0.691,4.822,0.0,4.814,2.341,0.997,-0.001,-0.0,0.319,0.001,0.0,-0.002,-0.007,2.34,1.391,0.002,0.001,0.181,0.179,0.179,0.694,0.004,-0.692,-0.694,-0.696,0.178,0.0,-0.0,0.0,0.002,0.002,0.002,0.003,0.015,0.001,0.016,-0.011,0.001,0.002,1.567,0.0,0.014,0.0,-0.016,0.002,0.002,-0.018,0.001,-0.013,0.002,0.001,0.441,0.001,-0.014,-0.019,0.027,0.0,0.001,0.021,0.045,-0.002,0.015,0.011,0.001,0.002,0.001,0.015,0.002,0.0,0.0,-0.0,-0.0
0.693,-0.693,-0.695,-0.689,4.8,-0.0,4.837,2.339,0.998,0.002,-0.0,0.322,0.004,0.0,0.014,-0.026,2.341,1.39,0.003,0.002,0.182,0.18,0.18,0.696,0.003,-0.693,-0.695,-0.699,0.178,0.0,0.0,0.0,0.002,0.006,0.002,0.003,0.017,0.002,0.018,-0.011,0.002,0.005,1.568,0.0,0.016,0.0,-0.018,0.008,0.003,-0.021,0.001,-0.014,0.002,0.001,0.442,0.001,-0.016,-0.021,0.029,0.007,0.002,0.031,0.052,-0.002,0.019,0.01,0.002,0.003,0.002,0.018,0.004,0.0,-0.0,0.0,0.0
0.69,-0.69,-0.692,-0.688,4.762,-0.0,4.872,2.335,0.998,-0.002,-0.0,0.319,0.002,0.0,0.004,0.001,2.346,1.391,0.001,0.001,0.18,0.179,0.179,0.698,-0.006,-0.695,-0.698,-0.702,0.177,0.0,0.0,0.0,0.002,0.004,0.002,0.003,0.014,0.001,0.016,-0.01,0.003,0.003,1.567,0.0,0.013,0.0,-0.016,0.003,0.002,-0.015,0.001,-0.015,0.001,0.001,0.442,0.001,-0.013,-0.019,0.024,0.004,0.001,0.02,0.043,0.006,0.014,0.007,0.002,0.002,0.002,0.013,0.002,0.0,-0.0,0.0,0.0
0.691,-0.691,-0.692,-0.688,4.778,-0.0,4.861,2.336,0.998,0.001,0.0,0.319,0.001,0.0,-0.007,0.018,2.344,1.39,0.002,0.001,0.18,0.179,0.179,0.697,0.003,-0.695,-0.697,-0.699,0.176,0.0,0.0,0.0,0.003,0.004,0.001,0.003,0.014,0.001,0.016,-0.011,0.001,0.003,1.567,0.0,0.014,0.0,-0.016,0.004,0.002,-0.018,0.002,-0.014,0.002,0.001,0.442,0.001,-0.014,-0.019,0.025,0.003,0.002,0.021,0.042,-0.008,0.013,0.007,0.001,0.002,0.001,0.012,0.002,0.0,-0.0,0.0,-0.0
0.691,-0.691,-0.692,-0.687,4.771,0.0,4.848,2.337,0.997,-0.001,-0.0,0.319,0.001,0.0,-0.002,-0.009,2.343,1.39,0.002,0.001,0.18,0.179,0.179,0.696,0.001,-0.694,-0.696,-0.7,0.177,0.0,0.0,0.0,0.003,0.003,0.002,0.003,0.015,0.001,0.017,-0.011,0.002,0.002,1.566,0.0,0.014,0.0,-0.017,0.002,0.002,-0.017,0.002,-0.014,0.002,0.001,0.441,0.001,-0.014,-0.021,0.026,-0.004,0.002,0.023,0.045,-0.001,0.015,0.01,0.002,0.003,0.001,0.014,0.002,0.0,0.0,0.0,0.0
0.69,-0.69,-0.694,-0.687,4.767,-0.0,4.871,2.335,0.998,0.003,-0.0,0.318,0.002,0.0,0.002,-0.008,2.346,1.391,0.002,0.002,0.18,0.178,0.178,0.698,-0.003,-0.695,-0.698,-0.701,0.177,0.0,0.0,0.0,0.001,0.002,0.002,0.003,0.016,0.001,0.017,-0.01,0.003,0.002,1.567,0.0,0.015,0.0,-0.017,0.003,0.002,-0.017,0.001,-0.015,0.001,0.001,0.441,0.001,-0.014,-0.018,0.027,0.001,0.001,0.019,0.046,-0.0,0.015,0.011,0.002,0.002,0.002,0.015,0.002,0.0,-0.0,-0.0,0.0
0.689,-0.689,-0.691,-0.684,4.742,-0.0,4.903,2.333,0.998,0.001,0.0,0.318,0.001,0.0,0.007,-0.008,2.348,1.392,0.002,0.001,0.18,0.178,0.178,0.7,-0.006,-0.697,-0.7,-0.704,0.177,0.0,0.0,0.0,0.003,0.004,0.002,0.003,0.014,0.001,0.016,-0.011,0.002,0.003,1.567,0.0,0.014,0.0,-0.016,0.004,0.002,-0.018,0.002,-0.014,0.002,0.001,0.441,0.001,-0.014,-0.019,0.026,0.006,0.001,0.026,0.045,0.007,0.016,0.012,0.002,0.002,0.002,0.015,0.002,0.0,0.0,0.0,-0.0
0.689,-0.689,-0.69,-0.686,4.744,-0.0,4.889,2.334,0.998,-0.0,0.0,0.319,0.004,0.0,-0.001,0.013,2.347,1.391,0.003,0.002,0.18,0.179,0.179,0.699,0.003,-0.697,-0.699,-0.703,0.177,0.0,-0.0,0.0,0.004,0.003,0.001,0.003,0.014,0.001,0.017,-0.009,0.0,0.003,1.567,0.0,0.014,0.0,-0.017,0.003,0.002,-0.018,0.002,-0.014,0.002,0.001,0.442,0.001,-0.014,-0.019,0.025,-0.007,0.001,0.019,0.043,-0.002,0.013,0.009,0.002,0.002,0.001,0.013,0.002,0.0,-0.0,-0.0,0.0
0.689,-0.689,-0.691,-0.686,4.742,-0.0,4.894,2.332,0.998,-0.002,-0.0,0.318,0.001,0.0,-0.002,0.002,2.348,1.391,0.001,0.001,0.18,0.178,0.178,0.7,0.003,-0.697,-0.7,-0.703,0.176,0.0,-0.0,0.0,0.003,0.003,0.001,0.003,0.015,0.001,0.016,-0.013,0.001,0.002,1.566,0.0,0.014,0.0,-0.016,0.003,0.002,-0.017,0.001,-0.013,0.002,0.001,0.441,0.001,-0.014,-0.018,0.026,-0.001,0.001,0.021,0.044,-0.002,0.014,0.011,0.002,0.003,0.001,0.014,0.002,0.0,0.0,0.0,-0.0
0.687,-0.687,-0.69,-0.685,4.725,0.0,4.9,2.331,0.998,-0.0,0.0,0.319,0.001,0.0,0.0,-0.003,2.349,1.391,0.002,0.001,0.18,0.179,0.178,0.7,0.0,-0.697,-0.7,-0.703,0.178,0.0,0.0,0.0,0.002,0.003,0.001,0.003,0.014,0.001,0.016,-0.01,0.002,0.002,1.566,0.0,0.013,0.0,-0.016,0.002,0.002,-0.015,0.001,-0.014,0.001,0.001,0.441,0.001,-0.013,-0.018,0.025,0.002,0.001,0.021,0.043,-0.004,0.014,0.011,0.002,0.002,0.001,0.014,0.002,0.0,-0.0,0.0,0.0
0.687,-0.687,-0.689,-0.685,4.717,-0.0,4.915,2.33,0.998,0.001,-0.0,0.32,0.002,0.0,0.007,-0.009,2.351,1.391,0.002,0.002,0.18,0.179,0.179,0.701,-0.003,-0.698,-0.701,-0.705,0.178,0.0,0.0,0.0,0.003,0.003,0.001,0.003,0.014,0.001,0.016,-0.012,0.002,0.003,1.567,0.0,0.015,0.0,-0.016,0.002,0.002,-0.018,0.001,-0.014,0.002,0.001,0.442,0.001,-0.015,-0.019,0.026,0.004,0.002,0.021,0.045,0.006,0.014,0.008,0.002,0.002,0.002,0.014,0.002,0.0,0.0,0.0,-0.0
0.686,-0.686,-0.689,-0.685,4.711,-0.0,4.925,2.329,0.998,0.004,-0.0,0.322,0.001,0.0,0.002,-0.007,2.351,1.39,0.001,0.001,0.181,0.179,0.179,0.702,-0.002,-0.7,-0.702,-0.704,0.178,0.0,-0.0,0.0,0.002,0.003,0.001,0.003,0.014,0.001,0.016,-0.013,0.001,0.002,1.568,0.0,0.014,0.0,-0.016,0.001,0.002,-0.017,0.001,-0.013,0.001,0.001,0.442,0.001,-0.014,-0.017,0.026,0.003,0.001,0.021,0.044,0.006,0.014,0.011,0.001,0.003,0.001,0.014,0.002,0.0,0.0,0.0,-0.0
0.686,-0.686,-0.688,-0.685,4.705,0.0,4.934,2.328,0.998,-0.0,0.0,0.319,0.002,0.0,0.008,-0.012,2.352,1.391,0.002,0.001,0.179,0.179,0.179,0.702,0.0,-0.7,-0.702,-0.705,0.177,0.0,-0.0,0.0,0.003,0.003,0.001,0.003,0.015,0.001,0.016,-0.011,0.001,0.002,1.567,0.0,0.014,0.0,-0.016,0.002,0.002,-0.017,0.001,-0.014,0.002,0.001,0.442,0.001,-0.014,-0.018,0.026,0.002,0.001,0.025,0.045,-0.003,0.015,0.012,0.002,0.003,0.001,0.015,0.002,0.0,0.0,-0.0,0.0
0.683,-0.683,-0.685,-0.681,4.668,-0.0,4.955,2.326,0.997,-0.001,0.0,0.32,0.001,0.0,-0.005,0.007,2.354,1.39,0.002,0.001,0.18,0.179,0.179,0.704,-0.001,-0.702,-0.704,-0.709,0.178,0.0,-0.0,0.0,0.0,0.003,0.001,0.003,0.014,0.001,0.017,-0.008,0.001,0.002,1.566,0.0,0.013,0.0,-0.017,0.003,0.002,-0.016,0.001,-0.014,0.001,0.001,0.441,0.001,-0.013,-0.019,0.026,0.002,0.001,0.021,0.044,0.004,0.015,0.01,0.002,0.002,0.001,0.014,0.002,0.0,0.0,0.0,0.0
0.684,-0.684,-0.686,-0.681,4.68,-0.0,4.949,2.327,0.998,-0.001,0.0,0.323,0.002,0.0,-0.005,0.019,2.352,1.389,0.001,0.001,0.181,0.18,0.18,0.704,0.002,-0.701,-0.703,-0.708,0.178,0.0,0.0,0.0,0.003,0.004,0.001,0.002,0.015,0.001,0.016,-0.012,0.002,0.003,1.567,0.0,0.015,0.0,-0.016,0.002,0.002,-0.017,0.002,-0.009,0.003,0.001,0.442,0.001,-0.015,-0.019,0.026,-0.013,0.001,0.022,0.043,0.002,0.013,0.009,0.002,0.002,0.002,0.013,0.002,0.0,-0.0,0.0,0.0
0.684,-0.684,-0.686,-0.682,4.677,0.0,4.958,2.326,0.998,-0.004,-0.0,0.321,0.001,0.0,-0.002,-0.01,2.354,1.39,0.002,0.001,0.181,0.179,0.179,0.704,0.002,-0.702,-0.704,-0.706,0.178,0.0,-0.0,0.0,0.002,0.003,0.001,0.003,0.015,0.001,0.017,-0.012,0.002,0.002,1.567,0.0,0.015,0.0,-0.017,0.002,0.002,-0.018,0.001,-0.015,0.001,0.001,0.442,0.001,-0.014,-0.02,0.026,-0.0,0.002,0.021,0.044,0.002,0.014,0.009,0.001,0.002,0.001,0.013,0.002,0.0,0.0,-0.0,-0.0
0.684,-0.684,-0.685,-0.681,4.673,0.0,4.955,2.326,0.998,-0.0,-0.0,0.325,0.002,0.0,0.001,-0.013,2.354,1.39,0.002,0.002,0.182,0.18,0.18,0.704,-0.001,-0.702,-0.704,-0.707,0.179,0.0,0.0,0.0,0.002,0.003,0.001,0.003,0.014,0.001,0.016,-0.01,0.001,0.002,1.568,0.0,0.014,0.0,-0.016,0.003,0.002,-0.018,0.001,-0.014,0.001,0.001,0.442,0.001,-0.014,-0.018,0.026,0.001,0.002,0.023,0.043,0.002,0.014,0.01,0.001,0.001,0.001,0.014,0.002,0.0,-0.0,0.0,0.0
0.683,-0.683,-0.685,-0.68,4.668,0.0,4.969,2.325,0.998,-0.0,0.0,0.321,0.003,0.0,0.001,-0.009,2.355,1.39,0.002,0.002,0.181,0.179,0.179,0.705,-0.006,-0.702,-0.705,-0.708,0.178,0.0,0.0,0.0,0.002,0.003,0.002,0.003,0.015,0.001,0.017,-0.01,0.002,0.003,1.567,0.0,0.013,0.0,-0.017,0.004,0.002,-0.016,0.001,-0.015,0.001,0.001,0.442,0.001,-0.013,-0.019,0.026,0.005,0.002,0.021,0.044,0.003,0.014,0.01,0.002,0.002,0.001,0.014,0.002,0.0,0.0,-0.0,-0.0
0.683,-0.683,-0.685,-0.679,4.665,0.0,4.976,2.325,0.998,-0.0,0.0,0.322,0.001,0.0,0.004,0.013,2.355,1.39,0.001,0.001,0.181,0.179,0.179,0.705,-0.001,-0.702,-0.705,-0.709,0.177,0.0,-0.0,0.0,0.003,0.003,0.002,0.003,0.014,0.001,0.016,-0.013,0.002,0.002,1.568,0.0,0.014,0.0,-0.016,0.004,0.002,-0.016,0.001,-0.015,0.001,0.001,0.442,0.001,-0.014,-0.018,0.026,-0.005,0.001,0.018,0.043,-0.002,0.013,0.008,0.002,0.001,0.001,0.013,0.002,0.0,0.0,0.0,0.0
0.683,-0.683,-0.684,-0.681,4.664,0.0,4.973,2.325,0.998,-0.001,-0.0,0.321,0.002,0.0,-0.001,-0.011,2.355,1.39,0.002,0.001,0.18,0.179,0.179,0.705,0.002,-0.703,-0.705,-0.708,0.178,0.0,-0.0,0.0,0.002,0.003,0.001,0.003,0.014,0.001,0.016,-0.01,0.002,0.002,1.567,0.0,0.014,0.0,-0.016,0.003,0.002,-0.016,0.002,-0.013,0.002,0.001,0.442,0.001,-0.014,-0.019,0.024,-0.005,0.002,0.021,0.042,-0.001,0.013,0.009,0.001,0.002,0.001,0.012,0.002,0.0,0.0,-0.0,0.0
0.683,-0.683,-0.685,-0.681,4.665,-0.0,4.967,2.325,0.998,0.001,0.0,0.32,0.001,0.0,0.0,-0.001,2.356,1.39,0.001,0.001,0.18,0.179,0.179,0.705,0.003,-0.702,-0.705,-0.707,0.178,0.0,0.0,0.0,0.002,0.002,0.001,0.003,0.014,0.001,0.017,-0.012,0.002,0.002,1.567,0.0,0.014,0.0,-0.017,0.001,0.002,-0.015,0.001,-0.014,0.001,0.001,0.441,0.001,-0.014,-0.019,0.025,0.001,0.002,0.02,0.044,-0.001,0.014,0.011,0.002,0.002,0.001,0.014,0.002,0.0,-0.0,0.0,0.0
0.683,-0.683,-0.684,-0.681,4.661,0.0,4.973,2.325,0.997,-0.002,0.0,0.318,0.0,0.0,0.002,-0.001,2.356,1.391,0.001,0.0,0.18,0.178,0.178,0.705,0.001,-0.704,-0.705,-0.71,0.177,0.0,0.0,0.0,0.002,0.002,0.001,0.003,0.014,0.001,0.016,-0.013,0.002,0.001,1.566,0.0,0.014,0.0,-0.016,0.002,0.002,-0.015,0.001,-0.014,0.001,0.001,0.442,0.001,-0.014,-0.019,0.025,0.004,0.002,0.018,0.043,-0.0,0.013,0.01,0.002,0.001,0.001,0.013,0.002,0.0,-0.0,-0.0,0.0
0.682,-0.682,-0.683,-0.68,4.654,0.0,4.98,2.324,0.998,-0.0,-0.0,0.319,0.002,0.0,0.006,-0.011,2.356,1.391,0.001,0.001,0.18,0.179,0.179,0.706,0.005,-0.704,-0.706,-0.708,0.178,0.0,0.0,0.0,0.002,0.004,0.001,0.003,0.014,0.001,0.016,-0.012,0.002,0.002,1.567,0.0,0.014,0.0,-0.016,0.003,0.002,-0.017,0.001,-0.013,0.002,0.001,0.442,0.001,-0.014,-0.018,0.024,0.005,0.001,0.023,0.043,-0.001,0.014,0.009,0.001,0.003,0.001,0.013,0.002,0.0,0.0,0.0,-0.0
0.682,-0.682,-0.684,-0.68,4.653,-0.0,4.984,2.324,0.998,0.008,0.0,0.32,0.001,0.0,0.004,-0.004,2.357,1.39,0.002,0.001,0.181,0.179,0.179,0.706,-0.002,-0.704,-0.706,-0.708,0.177,0.0,-0.0,0.0,0.002,0.002,0.001,0.003,0.015,0.001,0.017,-0.011,0.001,0.001,1.567,0.0,0.014,0.0,-0.017,0.001,0.002,-0.016,0.001,-0.014,0.001,0.001,0.442,0.001,-0.014,-0.019,0.026,0.005,0.001,0.018,0.044,0.004,0.014,0.012,0.001,0.002,0.001,0.014,0.002,0.0,-0.0,0.0,0.0
