RMS_ag_x,ag_x_mean,ag_x_min,ag_x_max,E_ag_x,accl_x,E_ag_z,th_x,SVM_a,FFT_ag_y,accl_y,E_ag_y,IQR_g_x,VAR_g_x,FFT_g_x,FFT_g_y,th_z,th_y,STD_g_x,MAD_g_x,ag_y_max,RMS_ag_y,ag_y_mean,RMS_ag_z,FFT_ag_x,ag_z_max,ag_z_mean,ag_z_min,ag_y_min,VAR_ag_x,accl_z,VAR_g_z,IQR_g_z,STD_g_y,STD_ag_x,E_g_z,CM_g,MAD_ag_x,RMS_g_z,g_x_max,IQR_ag_x,MAD_g_y,SMA_a,VAR_ag_y,RMS_g_x,VAR_g_y,g_z_mean,IQR_g_y,E_g_x,g_x_min,MAD_g_z,g_z_max,STD_g_z,STD_ag_y,CM_a,MAD_ag_y,g_x_mean,g_z_min,SVM_g,FFT_g_z,IQR_ag_y,g_y_max,SMA_g,FFT_ag_z,RMS_g_y,g_y_min,STD_ag_z,IQR_ag_z,MAD_ag_z,g_y_mean,E_g_y,VAR_ag_z,jerk_x,jerk_y,jerk_z
0.891,-0.891,-0.9,-0.884,7.935,-0.0,1.476,2.662,1.004,-0.014,-0.0,0.653,0.019,0.0,-0.007,-0.036,1.965,1.314,0.016,0.013,0.267,0.256,0.256,0.384,0.022,-0.366,-0.384,-0.398,0.244,0.0,-0.0,0.0,0.007,0.027,0.005,0.001,0.01,0.004,0.01,0.016,0.006,0.026,1.53,0.0,0.018,0.001,-0.0,0.05,0.003,-0.035,0.008,0.014,0.01,0.006,0.444,0.004,-0.009,-0.025,0.032,0.002,0.004,0.044,0.048,-0.046,0.027,-0.032,0.009,0.011,0.008,0.0,0.008,0.0,-0.0,-0.0,0.0
0.886,-0.886,-0.892,-0.881,7.847,-0.0,1.487,2.654,1.002,-0.091,-0.0,0.718,0.07,0.002,-0.104,0.006,1.966,1.307,0.042,0.038,0.309,0.268,0.267,0.386,-0.004,-0.364,-0.386,-0.398,0.242,0.0,-0.0,0.001,0.032,0.013,0.003,0.014,0.03,0.002,0.038,0.051,0.003,0.009,1.539,0.0,0.048,0.0,-0.022,0.012,0.023,-0.079,0.025,0.034,0.031,0.018,0.448,0.014,-0.024,-0.073,0.064,0.008,0.019,0.037,0.097,-0.046,0.023,-0.011,0.009,0.012,0.007,0.019,0.005,0.0,-0.0,0.0,0.0
0.886,-0.886,-0.888,-0.881,7.846,-0.0,1.486,2.655,1.002,-0.008,0.0,0.713,0.014,0.0,-0.006,0.046,1.965,1.302,0.008,0.008,0.274,0.267,0.267,0.386,-0.007,-0.381,-0.386,-0.392,0.259,0.0,0.0,0.0,0.004,0.008,0.002,0.001,0.008,0.001,0.009,-0.003,0.002,0.008,1.538,0.0,0.018,0.0,-0.006,0.014,0.003,-0.026,0.004,0.01,0.007,0.005,0.45,0.004,-0.016,-0.019,0.026,-0.022,0.009,0.027,0.034,0.005,0.013,0.0,0.004,0.008,0.004,0.01,0.002,0.0,-0.0,0.0,0.0
0.883,-0.883,-0.886,-0.878,7.802,-0.0,1.496,2.649,1.002,-0.003,-0.0,0.754,0.015,0.0,0.071,0.014,1.967,1.294,0.02,0.015,0.292,0.275,0.274,0.387,0.001,-0.378,-0.387,-0.395,0.263,0.0,-0.0,0.0,0.009,0.01,0.002,0.005,0.016,0.002,0.022,0.0,0.003,0.008,1.544,0.0,0.029,0.0,-0.02,0.012,0.009,-0.06,0.008,0.0,0.011,0.009,0.454,0.007,-0.021,-0.038,0.038,-0.051,0.007,0.039,0.059,-0.003,0.021,0.007,0.005,0.004,0.003,0.018,0.004,0.0,0.0,0.0,-0.0
0.883,-0.883,-0.894,-0.871,7.796,0.0,1.502,2.651,1.002,-0.06,0.0,0.748,0.023,0.001,-0.116,0.068,1.966,1.298,0.029,0.021,0.301,0.273,0.273,0.388,-0.015,-0.376,-0.388,-0.398,0.257,0.0,0.0,0.001,0.036,0.029,0.007,0.015,0.013,0.005,0.038,0.071,0.008,0.023,1.544,0.0,0.03,0.001,-0.022,0.038,0.009,-0.035,0.026,0.012,0.031,0.013,0.452,0.011,0.005,-0.091,0.033,0.055,0.017,0.067,0.076,-0.016,0.036,-0.028,0.006,0.007,0.005,0.023,0.013,0.0,-0.0,-0.0,0.0
0.881,-0.881,-0.897,-0.862,7.768,0.0,1.676,2.649,1.002,0.035,0.001,0.588,0.034,0.003,-0.085,0.131,1.992,1.327,0.053,0.04,0.261,0.242,0.242,0.409,0.013,-0.394,-0.409,-0.428,0.222,0.0,-0.0,0.0,0.027,0.046,0.01,0.014,0.034,0.008,0.037,0.071,0.011,0.036,1.533,0.0,0.054,0.002,-0.032,0.048,0.029,-0.099,0.016,-0.002,0.019,0.012,0.443,0.01,0.009,-0.066,0.074,0.03,0.015,0.101,0.113,-0.005,0.046,-0.074,0.011,0.018,0.009,0.008,0.022,0.0,0.0,-0.0,-0.0
0.89,-0.89,-0.897,-0.882,7.918,0.0,1.516,2.662,1.002,-0.006,-0.0,0.617,0.011,0.0,-0.037,0.002,1.971,1.32,0.015,0.01,0.255,0.248,0.248,0.389,0.001,-0.374,-0.389,-0.405,0.241,0.0,-0.0,0.0,0.018,0.012,0.005,0.006,0.016,0.005,0.025,-0.013,0.009,0.01,1.527,0.0,0.033,0.0,-0.02,0.019,0.011,-0.07,0.012,0.008,0.014,0.004,0.442,0.003,-0.03,-0.043,0.04,0.035,0.004,0.007,0.067,-0.008,0.018,-0.028,0.009,0.01,0.007,-0.014,0.003,0.0,0.0,0.0,0.0
0.898,-0.898,-0.902,-0.891,8.062,0.0,1.416,2.682,1.002,-0.001,0.0,0.577,0.008,0.0,0.019,-0.073,1.955,1.328,0.005,0.004,0.245,0.24,0.24,0.376,-0.014,-0.369,-0.376,-0.385,0.232,0.0,0.0,0.0,0.005,0.014,0.003,0.008,0.02,0.003,0.029,-0.007,0.003,0.01,1.514,0.0,0.018,0.0,-0.028,0.012,0.003,-0.023,0.004,-0.019,0.005,0.004,0.433,0.004,-0.017,-0.039,0.038,0.026,0.007,0.051,0.063,0.022,0.022,-0.006,0.005,0.006,0.004,0.016,0.005,0.0,-0.0,-0.0,0.0
0.896,-0.896,-0.902,-0.888,8.019,0.0,1.465,2.677,1.002,0.006,0.0,0.556,0.003,0.0,-0.026,0.042,1.964,1.334,0.005,0.003,0.24,0.236,0.236,0.383,-0.001,-0.37,-0.383,-0.391,0.23,0.0,0.0,0.0,0.008,0.007,0.004,0.004,0.016,0.004,0.02,-0.003,0.004,0.006,1.514,0.0,0.013,0.0,-0.019,0.012,0.002,-0.025,0.005,-0.012,0.006,0.003,0.432,0.003,-0.012,-0.031,0.032,0.033,0.005,0.033,0.051,0.013,0.021,0.011,0.006,0.008,0.005,0.02,0.005,0.0,-0.0,0.0,0.0
0.893,-0.893,-0.897,-0.89,7.978,-0.0,1.509,2.67,1.002,0.01,-0.0,0.551,0.003,0.0,0.002,0.01,1.972,1.335,0.002,0.002,0.239,0.235,0.235,0.388,0.003,-0.377,-0.388,-0.392,0.232,0.0,-0.0,0.0,0.008,0.016,0.002,0.003,0.016,0.002,0.016,-0.016,0.004,0.014,1.516,0.0,0.019,0.0,-0.016,0.029,0.004,-0.023,0.004,-0.008,0.005,0.002,0.433,0.002,-0.019,-0.021,0.03,-0.013,0.002,0.028,0.05,0.008,0.018,-0.019,0.005,0.005,0.004,0.007,0.003,0.0,0.0,0.0,-0.0
0.901,-0.901,-0.909,-0.893,8.109,0.0,1.38,2.686,1.003,0.011,0.0,0.565,0.008,0.0,-0.027,0.17,1.953,1.332,0.006,0.005,0.243,0.238,0.238,0.371,0.022,-0.357,-0.371,-0.386,0.233,0.0,-0.0,0.0,0.008,0.028,0.006,0.005,0.018,0.005,0.022,-0.009,0.011,0.025,1.509,0.0,0.015,0.001,-0.021,0.044,0.002,-0.028,0.004,-0.011,0.005,0.003,0.43,0.003,-0.014,-0.029,0.04,0.003,0.005,0.034,0.059,-0.023,0.03,-0.06,0.01,0.018,0.009,-0.008,0.009,0.0,0.0,0.0,-0.0
0.908,-0.908,-0.917,-0.902,8.239,0.0,1.285,2.704,1.003,0.015,0.0,0.532,0.014,0.0,-0.024,0.004,1.937,1.339,0.008,0.007,0.238,0.231,0.231,0.359,0.016,-0.35,-0.358,-0.365,0.225,0.0,-0.0,0.0,0.015,0.009,0.004,0.006,0.016,0.003,0.025,-0.004,0.004,0.008,1.497,0.0,0.018,0.0,-0.023,0.014,0.003,-0.027,0.009,-0.003,0.011,0.004,0.422,0.003,-0.016,-0.039,0.036,0.012,0.005,0.026,0.054,-0.027,0.017,-0.002,0.005,0.008,0.004,0.014,0.003,0.0,-0.0,0.0,0.0
0.905,-0.904,-0.911,-0.897,8.181,-0.0,1.337,2.696,1.002,0.007,-0.0,0.52,0.018,0.0,0.044,-0.024,1.946,1.342,0.011,0.01,0.235,0.228,0.228,0.366,0.0,-0.352,-0.366,-0.375,0.225,0.0,-0.0,0.0,0.019,0.011,0.004,0.006,0.018,0.003,0.025,0.005,0.004,0.009,1.498,0.0,0.016,0.0,-0.024,0.02,0.003,-0.029,0.009,-0.013,0.009,0.003,0.423,0.002,-0.012,-0.037,0.041,0.034,0.004,0.039,0.063,0.008,0.029,0.009,0.007,0.011,0.006,0.027,0.008,0.0,0.0,0.0,-0.0
0.903,-0.903,-0.913,-0.898,8.152,-0.0,1.412,2.69,1.002,-0.006,0.0,0.496,0.006,0.0,0.014,0.009,1.957,1.346,0.004,0.004,0.226,0.223,0.223,0.376,-0.019,-0.363,-0.376,-0.384,0.219,0.0,-0.0,0.0,0.004,0.01,0.004,0.003,0.014,0.003,0.017,-0.005,0.003,0.007,1.501,0.0,0.015,0.0,-0.017,0.008,0.002,-0.02,0.003,-0.009,0.004,0.002,0.423,0.001,-0.014,-0.026,0.028,-0.003,0.002,0.038,0.048,0.029,0.02,0.0,0.006,0.006,0.004,0.017,0.004,0.0,-0.0,-0.0,-0.0
0.901,-0.901,-0.907,-0.895,8.111,-0.0,1.427,2.688,1.002,-0.005,0.0,0.499,0.003,0.0,-0.01,0.012,1.958,1.346,0.005,0.003,0.226,0.223,0.223,0.378,-0.004,-0.371,-0.378,-0.384,0.221,0.0,-0.0,0.0,0.005,0.006,0.004,0.004,0.016,0.003,0.019,-0.011,0.004,0.004,1.502,0.0,0.018,0.0,-0.019,0.003,0.003,-0.029,0.003,-0.013,0.003,0.001,0.424,0.001,-0.018,-0.023,0.03,-0.001,0.001,0.033,0.053,0.006,0.017,0.009,0.004,0.002,0.003,0.016,0.003,0.0,0.0,0.0,-0.0
0.9,-0.9,-0.904,-0.893,8.093,0.0,1.443,2.687,1.002,0.015,-0.0,0.509,0.012,0.0,0.025,0.012,1.957,1.342,0.008,0.007,0.229,0.226,0.226,0.38,-0.013,-0.375,-0.38,-0.393,0.22,0.0,0.0,0.0,0.012,0.011,0.003,0.005,0.013,0.002,0.021,-0.001,0.002,0.009,1.505,0.0,0.017,0.0,-0.019,0.014,0.003,-0.026,0.008,0.0,0.01,0.003,0.426,0.003,-0.015,-0.039,0.03,0.049,0.004,0.031,0.047,0.021,0.016,-0.006,0.006,0.004,0.004,0.012,0.003,0.0,0.0,0.0,-0.0
0.898,-0.898,-0.903,-0.888,8.066,-0.0,1.472,2.683,1.003,0.001,0.0,0.507,0.009,0.0,0.005,-0.011,1.964,1.344,0.007,0.006,0.23,0.225,0.225,0.384,0.001,-0.376,-0.384,-0.395,0.222,0.0,-0.0,0.0,0.005,0.01,0.004,0.002,0.015,0.003,0.015,0.005,0.004,0.008,1.507,0.0,0.014,0.0,-0.015,0.014,0.002,-0.019,0.003,-0.011,0.003,0.002,0.426,0.002,-0.012,-0.022,0.03,-0.01,0.003,0.043,0.05,0.005,0.024,0.011,0.005,0.003,0.003,0.022,0.006,0.0,0.0,-0.0,-0.0
0.896,-0.896,-0.904,-0.89,8.032,0.0,1.498,2.677,1.002,0.002,0.0,0.51,0.006,0.0,0.006,-0.021,1.967,1.344,0.009,0.007,0.229,0.226,0.226,0.387,-0.002,-0.378,-0.387,-0.395,0.222,0.0,0.0,0.0,0.006,0.012,0.004,0.003,0.014,0.003,0.017,0.015,0.006,0.01,1.509,0.0,0.013,0.0,-0.015,0.012,0.002,-0.017,0.006,0.008,0.008,0.002,0.428,0.002,-0.009,-0.023,0.027,0.004,0.003,0.022,0.042,0.004,0.014,-0.016,0.004,0.005,0.003,0.008,0.002,0.0,-0.0,-0.0,0.0
0.897,-0.897,-0.903,-0.891,8.041,-0.0,1.478,2.681,1.001,-0.002,0.0,0.511,0.008,0.0,-0.038,0.007,1.964,1.343,0.008,0.006,0.232,0.226,0.226,0.384,-0.004,-0.377,-0.384,-0.393,0.222,0.0,-0.0,0.0,0.007,0.007,0.004,0.004,0.018,0.003,0.021,-0.012,0.003,0.006,1.507,0.0,0.021,0.0,-0.02,0.01,0.004,-0.04,0.004,-0.01,0.005,0.003,0.427,0.002,-0.019,-0.027,0.032,-0.006,0.003,0.025,0.055,0.007,0.018,0.001,0.005,0.006,0.004,0.016,0.003,0.0,0.0,0.0,0.0
0.897,-0.897,-0.9,-0.892,8.046,0.0,1.495,2.678,1.003,-0.006,-0.0,0.51,0.012,0.0,-0.028,0.009,1.967,1.342,0.007,0.007,0.23,0.226,0.226,0.387,-0.002,-0.379,-0.387,-0.396,0.22,0.0,0.0,0.0,0.011,0.006,0.002,0.005,0.016,0.002,0.022,0.0,0.003,0.005,1.509,0.0,0.015,0.0,-0.021,0.006,0.002,-0.021,0.006,-0.012,0.006,0.003,0.428,0.002,-0.013,-0.031,0.034,0.019,0.003,0.032,0.051,0.003,0.018,0.009,0.004,0.002,0.002,0.017,0.003,0.0,0.0,0.0,0.0
0.896,-0.896,-0.906,-0.887,8.025,-0.0,1.518,2.676,1.003,0.001,-0.0,0.507,0.014,0.0,-0.025,-0.012,1.97,1.344,0.013,0.009,0.229,0.225,0.225,0.39,-0.013,-0.377,-0.39,-0.399,0.221,0.0,0.0,0.0,0.005,0.013,0.005,0.002,0.012,0.004,0.015,-0.003,0.005,0.01,1.511,0.0,0.02,0.0,-0.015,0.012,0.004,-0.047,0.003,-0.008,0.004,0.002,0.428,0.002,-0.015,-0.022,0.027,-0.006,0.002,0.035,0.044,0.011,0.018,-0.008,0.006,0.005,0.004,0.013,0.003,0.0,0.0,0.0,-0.0
0.895,-0.895,-0.9,-0.891,8.005,0.0,1.524,2.673,1.002,-0.003,-0.0,0.513,0.017,0.0,0.021,0.006,1.972,1.344,0.013,0.011,0.23,0.226,0.226,0.39,-0.007,-0.379,-0.39,-0.395,0.224,0.0,0.0,0.0,0.015,0.01,0.003,0.003,0.015,0.002,0.016,0.011,0.004,0.008,1.511,0.0,0.02,0.0,-0.013,0.015,0.004,-0.037,0.008,0.001,0.009,0.002,0.43,0.002,-0.015,-0.021,0.03,0.054,0.005,0.036,0.048,0.015,0.02,0.002,0.005,0.007,0.004,0.017,0.004,0.0,0.0,-0.0,-0.0
0.894,-0.894,-0.9,-0.884,7.998,0.0,1.517,2.678,1.003,0.017,-0.0,0.514,0.011,0.0,0.013,-0.013,1.969,1.344,0.009,0.007,0.238,0.227,0.227,0.39,0.028,-0.382,-0.39,-0.402,0.222,0.0,-0.0,0.0,0.011,0.011,0.005,0.006,0.014,0.004,0.025,0.002,0.006,0.007,1.51,0.0,0.015,0.0,-0.024,0.004,0.002,-0.026,0.006,-0.013,0.006,0.004,0.428,0.003,-0.012,-0.032,0.03,-0.021,0.004,0.021,0.048,-0.028,0.012,-0.022,0.005,0.004,0.004,0.006,0.002,0.0,0.0,-0.0,-0.0
0.899,-0.899,-0.902,-0.897,8.087,-0.0,1.475,2.684,1.002,0.006,-0.0,0.483,0.01,0.0,-0.033,-0.001,1.965,1.35,0.009,0.007,0.223,0.22,0.22,0.384,0.003,-0.38,-0.384,-0.386,0.217,0.0,0.0,0.0,0.01,0.009,0.002,0.005,0.011,0.001,0.023,-0.001,0.002,0.008,1.503,0.0,0.017,0.0,-0.022,0.015,0.003,-0.031,0.006,-0.01,0.007,0.002,0.423,0.002,-0.014,-0.03,0.031,-0.044,0.003,0.024,0.048,0.0,0.015,-0.001,0.002,0.002,0.002,0.012,0.002,0.0,-0.0,-0.0,0.0
0.897,-0.897,-0.905,-0.89,8.039,0.0,1.522,2.678,1.002,-0.011,0.0,0.48,0.005,0.0,0.023,0.029,1.97,1.351,0.007,0.005,0.223,0.219,0.219,0.39,-0.011,-0.383,-0.39,-0.398,0.216,0.0,0.0,0.0,0.004,0.011,0.004,0.002,0.012,0.003,0.013,0.006,0.003,0.007,1.506,0.0,0.012,0.0,-0.013,0.006,0.001,-0.02,0.004,-0.002,0.005,0.002,0.425,0.002,-0.01,-0.017,0.024,-0.004,0.004,0.05,0.042,0.011,0.022,0.006,0.005,0.005,0.004,0.019,0.005,0.0,-0.0,-0.0,-0.0
0.893,-0.893,-0.9,-0.887,7.971,0.0,1.559,2.672,1.002,-0.012,0.0,0.502,0.003,0.0,0.012,0.034,1.976,1.344,0.002,0.002,0.227,0.224,0.224,0.395,-0.015,-0.388,-0.395,-0.402,0.219,0.0,0.0,0.0,0.01,0.009,0.003,0.002,0.014,0.003,0.014,-0.011,0.003,0.008,1.512,0.0,0.015,0.0,-0.012,0.014,0.002,-0.019,0.006,-0.003,0.006,0.003,0.43,0.002,-0.015,-0.022,0.028,0.006,0.003,0.031,0.046,0.019,0.02,0.003,0.003,0.003,0.003,0.018,0.004,0.0,0.0,0.0,-0.0
0.891,-0.891,-0.897,-0.884,7.932,0.0,1.595,2.665,1.002,-0.007,0.0,0.511,0.003,0.0,-0.003,0.023,1.982,1.342,0.002,0.002,0.228,0.226,0.226,0.399,-0.004,-0.392,-0.399,-0.407,0.224,0.0,0.0,0.0,0.009,0.006,0.004,0.003,0.017,0.003,0.018,-0.012,0.004,0.005,1.516,0.0,0.015,0.0,-0.017,0.009,0.002,-0.018,0.004,-0.011,0.005,0.001,0.432,0.001,-0.015,-0.023,0.031,-0.021,0.002,0.027,0.05,0.003,0.019,0.01,0.004,0.003,0.003,0.018,0.003,0.0,0.0,-0.0,-0.0
0.891,-0.891,-0.894,-0.886,7.939,0.0,1.598,2.667,1.002,0.0,-0.0,0.504,0.004,0.0,-0.005,-0.026,1.981,1.345,0.003,0.003,0.227,0.225,0.224,0.4,-0.002,-0.393,-0.4,-0.404,0.222,0.0,0.0,0.0,0.002,0.009,0.002,0.004,0.015,0.002,0.019,-0.007,0.003,0.007,1.515,0.0,0.013,0.0,-0.019,0.009,0.002,-0.019,0.002,-0.015,0.002,0.002,0.431,0.001,-0.012,-0.024,0.027,0.009,0.001,0.034,0.046,-0.006,0.017,0.002,0.004,0.006,0.003,0.014,0.003,0.0,-0.0,0.0,0.0
0.888,-0.888,-0.892,-0.883,7.88,0.0,1.666,2.658,1.002,0.003,0.0,0.504,0.009,0.0,0.038,0.029,1.99,1.345,0.008,0.006,0.229,0.225,0.224,0.408,-0.008,-0.4,-0.408,-0.415,0.221,0.0,0.0,0.0,0.005,0.012,0.002,0.003,0.016,0.002,0.018,0.007,0.004,0.009,1.52,0.0,0.013,0.0,-0.017,0.011,0.002,-0.02,0.003,-0.01,0.004,0.002,0.432,0.002,-0.01,-0.023,0.036,-0.016,0.003,0.062,0.06,0.003,0.033,0.02,0.005,0.007,0.004,0.031,0.011,0.0,0.0,0.0,-0.0
0.885,-0.885,-0.893,-0.874,7.825,-0.0,1.716,2.654,1.002,0.004,-0.0,0.488,0.004,0.0,-0.006,0.065,1.998,1.348,0.003,0.002,0.227,0.221,0.221,0.414,0.004,-0.402,-0.414,-0.424,0.217,0.0,0.0,0.0,0.01,0.012,0.005,0.003,0.012,0.004,0.017,-0.011,0.006,0.01,1.52,0.0,0.016,0.0,-0.016,0.01,0.003,-0.022,0.006,-0.005,0.007,0.003,0.432,0.002,-0.016,-0.03,0.028,-0.017,0.001,0.02,0.042,-0.003,0.013,-0.023,0.007,0.013,0.006,-0.002,0.002,0.0,0.0,-0.0,-0.0
0.888,-0.888,-0.893,-0.883,7.889,0.0,1.636,2.66,1.003,0.003,0.0,0.519,0.012,0.0,0.048,-0.062,1.987,1.342,0.009,0.008,0.232,0.228,0.228,0.404,0.005,-0.396,-0.404,-0.411,0.225,0.0,0.0,0.0,0.006,0.012,0.003,0.002,0.018,0.002,0.015,0.0,0.003,0.011,1.521,0.0,0.019,0.0,-0.013,0.015,0.004,-0.027,0.005,0.0,0.007,0.003,0.434,0.002,-0.016,-0.023,0.034,0.008,0.004,0.028,0.048,0.001,0.021,-0.01,0.005,0.007,0.004,0.016,0.004,0.0,0.0,-0.0,0.0
0.886,-0.886,-0.891,-0.882,7.857,0.0,1.66,2.656,1.002,0.007,0.0,0.524,0.006,0.0,-0.016,-0.056,1.989,1.34,0.004,0.003,0.231,0.229,0.229,0.407,0.002,-0.403,-0.407,-0.413,0.226,0.0,0.0,0.0,0.007,0.011,0.003,0.003,0.013,0.002,0.017,-0.008,0.003,0.008,1.523,0.0,0.016,0.0,-0.016,0.01,0.002,-0.022,0.004,-0.01,0.004,0.002,0.436,0.001,-0.015,-0.023,0.027,-0.014,0.002,0.04,0.045,-0.003,0.017,-0.001,0.003,0.006,0.003,0.013,0.003,0.0,-0.0,-0.0,0.0
0.886,-0.886,-0.89,-0.881,7.854,0.0,1.654,2.656,1.002,-0.004,0.0,0.537,0.006,0.0,0.004,0.003,1.989,1.338,0.005,0.004,0.234,0.232,0.232,0.407,-0.009,-0.403,-0.407,-0.409,0.231,0.0,0.0,0.0,0.003,0.006,0.002,0.003,0.014,0.002,0.017,-0.002,0.002,0.004,1.525,0.0,0.014,0.0,-0.016,0.006,0.002,-0.018,0.003,-0.009,0.003,0.001,0.437,0.001,-0.013,-0.022,0.026,0.009,0.001,0.024,0.042,0.008,0.014,0.001,0.002,0.002,0.001,0.013,0.002,0.0,-0.0,0.0,0.0
0.887,-0.887,-0.89,-0.883,7.859,-0.0,1.652,2.657,1.002,-0.006,-0.0,0.526,0.012,0.0,-0.017,-0.022,1.989,1.34,0.006,0.006,0.232,0.229,0.229,0.406,0.002,-0.399,-0.406,-0.41,0.227,0.0,-0.0,0.0,0.005,0.006,0.002,0.004,0.015,0.002,0.019,-0.005,0.003,0.004,1.522,0.0,0.014,0.0,-0.019,0.003,0.002,-0.02,0.003,-0.014,0.003,0.002,0.436,0.001,-0.013,-0.022,0.028,-0.001,0.003,0.019,0.044,-0.01,0.013,-0.004,0.003,0.002,0.002,0.011,0.002,0.0,-0.0,-0.0,-0.0
0.887,-0.887,-0.894,-0.881,7.862,0.0,1.657,2.657,1.002,0.002,-0.0,0.517,0.005,0.0,0.002,0.021,1.989,1.342,0.006,0.005,0.23,0.227,0.227,0.407,-0.012,-0.402,-0.407,-0.413,0.224,0.0,0.0,0.0,0.005,0.009,0.004,0.004,0.015,0.003,0.02,-0.003,0.004,0.007,1.521,0.0,0.016,0.0,-0.02,0.008,0.002,-0.027,0.003,-0.016,0.004,0.001,0.434,0.001,-0.014,-0.026,0.03,0.002,0.001,0.035,0.053,0.014,0.02,0.009,0.004,0.005,0.003,0.018,0.004,0.0,-0.0,0.0,0.0
0.883,-0.883,-0.888,-0.878,7.804,0.0,1.707,2.651,1.002,-0.004,-0.0,0.524,0.002,0.0,-0.006,0.004,1.996,1.34,0.002,0.002,0.23,0.229,0.229,0.413,0.003,-0.406,-0.413,-0.419,0.226,0.0,0.0,0.0,0.006,0.003,0.003,0.003,0.014,0.002,0.017,-0.011,0.003,0.002,1.526,0.0,0.014,0.0,-0.017,0.003,0.002,-0.018,0.003,-0.011,0.004,0.001,0.437,0.001,-0.014,-0.023,0.026,0.015,0.001,0.02,0.046,-0.009,0.015,0.012,0.003,0.004,0.003,0.015,0.002,0.0,0.0,0.0,-0.0
0.883,-0.883,-0.886,-0.879,7.799,0.0,1.72,2.65,1.002,0.005,-0.0,0.514,0.004,0.0,-0.011,-0.026,1.997,1.342,0.003,0.003,0.229,0.227,0.227,0.415,-0.004,-0.41,-0.415,-0.422,0.225,0.0,0.0,0.0,0.005,0.008,0.002,0.003,0.014,0.001,0.018,-0.006,0.002,0.005,1.525,0.0,0.013,0.0,-0.018,0.004,0.002,-0.018,0.003,-0.013,0.003,0.001,0.436,0.001,-0.012,-0.023,0.026,0.015,0.002,0.035,0.044,0.012,0.016,0.006,0.003,0.004,0.002,0.014,0.003,0.0,-0.0,0.0,0.0
0.882,-0.882,-0.886,-0.88,7.786,0.0,1.732,2.648,1.002,-0.004,0.0,0.516,0.003,0.0,-0.015,0.039,2.0,1.342,0.003,0.003,0.229,0.227,0.227,0.416,-0.002,-0.411,-0.416,-0.42,0.226,0.0,0.0,0.0,0.004,0.007,0.002,0.003,0.012,0.002,0.016,-0.01,0.004,0.006,1.526,0.0,0.015,0.0,-0.016,0.008,0.002,-0.023,0.002,-0.012,0.003,0.001,0.437,0.001,-0.015,-0.022,0.022,-0.008,0.002,0.03,0.044,-0.004,0.015,0.006,0.002,0.001,0.001,0.014,0.002,0.0,-0.0,0.0,0.0
0.881,-0.881,-0.884,-0.874,7.763,0.0,1.746,2.647,1.002,-0.004,-0.0,0.524,0.007,0.0,0.015,-0.021,2.0,1.34,0.004,0.004,0.23,0.229,0.229,0.418,0.003,-0.413,-0.418,-0.424,0.228,0.0,0.0,0.0,0.004,0.007,0.003,0.002,0.013,0.002,0.016,-0.007,0.003,0.006,1.528,0.0,0.014,0.0,-0.015,0.011,0.002,-0.021,0.003,-0.008,0.004,0.001,0.438,0.001,-0.013,-0.02,0.025,0.018,0.002,0.029,0.042,-0.006,0.015,0.003,0.003,0.002,0.002,0.013,0.002,0.0,-0.0,0.0,0.0
0.883,-0.883,-0.885,-0.88,7.799,-0.0,1.719,2.65,1.002,0.008,0.0,0.524,0.008,0.0,0.01,-0.042,1.997,1.34,0.006,0.005,0.231,0.229,0.229,0.415,-0.004,-0.412,-0.415,-0.419,0.225,0.0,-0.0,0.0,0.004,0.009,0.002,0.003,0.014,0.001,0.016,-0.01,0.001,0.006,1.527,0.0,0.019,0.0,-0.016,0.005,0.003,-0.028,0.003,-0.008,0.003,0.002,0.438,0.001,-0.017,-0.02,0.027,0.011,0.002,0.032,0.042,0.008,0.012,-0.004,0.002,0.002,0.002,0.009,0.002,0.0,-0.0,0.0,0.0
0.884,-0.884,-0.886,-0.878,7.816,0.0,1.676,2.652,1.002,-0.0,0.0,0.544,0.002,0.0,-0.002,0.008,1.992,1.336,0.002,0.002,0.235,0.233,0.233,0.409,0.001,-0.405,-0.409,-0.414,0.23,0.0,-0.0,0.0,0.004,0.005,0.002,0.003,0.013,0.001,0.016,-0.011,0.001,0.004,1.527,0.0,0.015,0.0,-0.016,0.008,0.002,-0.017,0.003,-0.007,0.004,0.001,0.439,0.001,-0.014,-0.022,0.024,0.024,0.001,0.015,0.038,0.001,0.009,0.002,0.002,0.001,0.001,0.008,0.001,0.0,-0.0,0.0,0.0
0.89,-0.89,-0.901,-0.881,7.925,0.0,1.546,2.667,1.001,-0.016,-0.0,0.56,0.014,0.0,0.062,0.016,1.972,1.332,0.01,0.008,0.241,0.237,0.237,0.393,0.008,-0.38,-0.393,-0.409,0.23,0.0,0.0,0.0,0.011,0.004,0.006,0.003,0.02,0.005,0.018,-0.003,0.007,0.004,1.52,0.0,0.024,0.0,-0.017,0.008,0.006,-0.036,0.006,-0.003,0.007,0.004,0.436,0.003,-0.022,-0.025,0.035,0.024,0.006,-0.013,0.057,-0.032,0.019,-0.025,0.011,0.021,0.01,-0.019,0.004,0.0,0.0,0.0,0.0
0.899,-0.899,-0.914,-0.863,8.081,-0.0,1.349,2.689,1.004,-0.071,0.0,0.584,0.044,0.001,0.061,-0.066,1.945,1.326,0.028,0.024,0.262,0.242,0.241,0.367,0.051,-0.349,-0.367,-0.397,0.217,0.0,0.0,0.0,0.025,0.048,0.015,0.007,0.013,0.012,0.026,0.025,0.018,0.036,1.507,0.0,0.036,0.002,-0.018,0.043,0.013,-0.067,0.015,0.011,0.018,0.013,0.43,0.011,-0.023,-0.048,0.056,0.071,0.016,0.116,0.083,-0.081,0.049,-0.056,0.014,0.016,0.011,0.01,0.024,0.0,0.0,-0.0,0.0
0.898,-0.898,-0.918,-0.876,8.066,0.0,1.414,2.686,1.002,-0.039,0.0,0.565,0.039,0.001,0.008,-0.007,1.949,1.33,0.026,0.022,0.25,0.238,0.238,0.376,-0.001,-0.352,-0.376,-0.399,0.221,0.0,0.0,0.0,0.026,0.029,0.013,0.008,0.022,0.012,0.028,0.042,0.022,0.023,1.511,0.0,0.026,0.001,-0.021,0.043,0.007,-0.05,0.015,0.005,0.018,0.009,0.43,0.007,0.001,-0.055,0.046,0.0,0.011,0.067,0.077,-0.028,0.038,-0.034,0.014,0.022,0.012,0.024,0.014,0.0,0.0,-0.0,0.0
0.893,-0.893,-0.9,-0.879,7.97,0.0,1.547,2.67,1.002,0.003,-0.0,0.523,0.034,0.001,-0.072,-0.058,1.97,1.342,0.024,0.02,0.24,0.229,0.229,0.393,-0.01,-0.382,-0.393,-0.408,0.22,0.0,0.0,0.0,0.028,0.017,0.007,0.01,0.019,0.006,0.031,0.026,0.01,0.014,1.515,0.0,0.025,0.0,-0.025,0.026,0.006,-0.056,0.016,0.002,0.019,0.007,0.43,0.005,-0.007,-0.06,0.046,0.036,0.007,0.051,0.074,0.014,0.032,-0.007,0.009,0.014,0.008,0.027,0.01,0.0,-0.0,0.0,0.0
0.887,-0.887,-0.898,-0.874,7.872,0.0,1.686,2.657,1.001,0.002,0.0,0.473,0.019,0.0,-0.043,0.003,1.996,1.352,0.01,0.01,0.222,0.217,0.217,0.411,-0.029,-0.397,-0.411,-0.421,0.212,0.0,0.0,0.0,0.019,0.021,0.007,0.007,0.014,0.006,0.026,-0.002,0.011,0.019,1.515,0.0,0.017,0.0,-0.021,0.028,0.003,-0.029,0.012,0.001,0.014,0.003,0.429,0.002,-0.013,-0.051,0.038,-0.072,0.002,0.051,0.057,0.036,0.027,-0.019,0.007,0.008,0.006,0.017,0.007,0.0,-0.0,-0.0,0.0
0.891,-0.891,-0.896,-0.883,7.943,0.0,1.62,2.669,1.002,-0.012,0.0,0.477,0.014,0.0,0.019,-0.088,1.984,1.35,0.009,0.008,0.223,0.218,0.218,0.403,-0.003,-0.395,-0.402,-0.412,0.214,0.0,0.0,0.0,0.009,0.014,0.004,0.003,0.016,0.003,0.016,-0.007,0.005,0.012,1.512,0.0,0.021,0.0,-0.015,0.023,0.004,-0.033,0.005,-0.008,0.006,0.003,0.427,0.002,-0.019,-0.027,0.029,-0.002,0.004,0.029,0.051,0.001,0.019,-0.017,0.005,0.007,0.004,0.013,0.004,0.0,-0.0,-0.0,0.0
0.887,-0.887,-0.901,-0.881,7.872,0.0,1.664,2.654,1.001,-0.002,-0.0,0.499,0.012,0.0,-0.028,-0.057,1.994,1.346,0.009,0.007,0.227,0.223,0.223,0.408,-0.009,-0.392,-0.408,-0.415,0.22,0.0,0.0,0.0,0.01,0.012,0.006,0.003,0.014,0.005,0.016,-0.002,0.007,0.011,1.518,0.0,0.019,0.0,-0.015,0.019,0.004,-0.031,0.005,-0.007,0.006,0.002,0.433,0.002,-0.017,-0.026,0.034,-0.014,0.003,0.036,0.049,0.007,0.02,-0.004,0.007,0.007,0.006,0.016,0.004,0.0,-0.0,0.0,0.0
0.888,-0.888,-0.891,-0.883,7.891,0.0,1.633,2.662,1.002,-0.008,0.0,0.507,0.006,0.0,-0.019,0.008,1.986,1.344,0.005,0.004,0.227,0.225,0.225,0.404,0.01,-0.398,-0.404,-0.411,0.223,0.0,0.0,0.0,0.003,0.01,0.002,0.002,0.012,0.002,0.016,-0.007,0.004,0.007,1.518,0.0,0.015,0.0,-0.016,0.011,0.002,-0.027,0.002,-0.011,0.002,0.001,0.433,0.001,-0.014,-0.019,0.023,-0.005,0.003,0.022,0.039,-0.02,0.012,-0.01,0.004,0.006,0.004,0.007,0.001,0.0,-0.0,0.0,0.0
0.887,-0.887,-0.892,-0.882,7.862,-0.0,1.655,2.66,1.002,0.007,-0.0,0.514,0.007,0.0,-0.043,-0.023,1.986,1.342,0.011,0.008,0.239,0.227,0.227,0.407,0.001,-0.4,-0.407,-0.419,0.211,0.0,0.0,0.0,0.009,0.02,0.003,0.003,0.014,0.002,0.016,0.007,0.002,0.012,1.52,0.0,0.019,0.0,-0.013,0.008,0.004,-0.034,0.008,0.011,0.01,0.007,0.434,0.004,-0.015,-0.023,0.027,0.023,0.003,0.073,0.049,0.003,0.026,-0.001,0.005,0.005,0.004,0.017,0.007,0.0,-0.0,0.0,0.0
0.885,-0.885,-0.889,-0.88,7.834,0.0,1.665,2.656,1.002,-0.01,0.0,0.529,0.014,0.0,0.029,0.02,1.99,1.34,0.01,0.008,0.236,0.23,0.23,0.408,0.012,-0.401,-0.408,-0.417,0.225,0.0,0.0,0.0,0.02,0.013,0.003,0.003,0.012,0.002,0.018,0.01,0.002,0.011,1.523,0.0,0.017,0.0,-0.015,0.017,0.003,-0.026,0.01,0.001,0.01,0.003,0.436,0.003,-0.013,-0.025,0.034,0.044,0.006,0.045,0.051,-0.017,0.024,-0.002,0.005,0.003,0.004,0.02,0.006,0.0,-0.0,-0.0,0.0
0.884,-0.884,-0.888,-0.879,7.809,-0.0,1.683,2.652,1.002,-0.006,-0.0,0.549,0.008,0.0,-0.006,-0.006,1.991,1.334,0.005,0.005,0.238,0.234,0.234,0.41,0.009,-0.406,-0.41,-0.416,0.231,0.0,-0.0,0.0,0.006,0.008,0.003,0.002,0.01,0.003,0.016,-0.009,0.004,0.007,1.528,0.0,0.017,0.0,-0.014,0.008,0.003,-0.024,0.005,-0.001,0.006,0.002,0.439,0.002,-0.016,-0.023,0.024,0.037,0.002,0.029,0.039,-0.015,0.012,-0.002,0.003,0.005,0.003,0.008,0.001,0.0,-0.0,0.0,0.0
0.884,-0.884,-0.891,-0.879,7.82,-0.0,1.662,2.653,1.002,0.011,0.0,0.55,0.009,0.0,-0.049,-0.017,1.99,1.336,0.011,0.008,0.24,0.234,0.234,0.408,-0.008,-0.401,-0.408,-0.414,0.231,0.0,-0.0,0.0,0.005,0.007,0.003,0.004,0.014,0.003,0.021,-0.002,0.005,0.006,1.526,0.0,0.019,0.0,-0.02,0.007,0.004,-0.039,0.004,-0.012,0.005,0.003,0.439,0.002,-0.016,-0.031,0.032,0.008,0.003,0.027,0.05,0.012,0.016,0.003,0.004,0.003,0.003,0.014,0.002,0.0,-0.0,0.0,0.0
0.886,-0.886,-0.892,-0.882,7.854,0.0,1.646,2.657,1.002,0.009,-0.0,0.538,0.019,0.0,0.036,0.003,1.989,1.337,0.011,0.01,0.237,0.232,0.232,0.406,-0.008,-0.392,-0.406,-0.411,0.229,0.0,0.0,0.0,0.011,0.009,0.003,0.006,0.01,0.002,0.024,0.005,0.004,0.006,1.524,0.0,0.015,0.0,-0.022,0.006,0.002,-0.028,0.007,-0.011,0.008,0.003,0.437,0.002,-0.01,-0.038,0.032,0.007,0.004,0.031,0.042,0.017,0.012,-0.003,0.005,0.002,0.003,0.008,0.002,0.0,-0.0,0.0,0.0
0.886,-0.886,-0.89,-0.879,7.847,-0.0,1.675,2.657,1.002,-0.004,0.0,0.516,0.008,0.0,0.023,-0.008,1.99,1.342,0.011,0.007,0.23,0.227,0.227,0.409,0.007,-0.404,-0.409,-0.418,0.222,0.0,0.0,0.0,0.007,0.007,0.003,0.003,0.016,0.003,0.017,0.013,0.003,0.006,1.522,0.0,0.02,0.0,-0.016,0.009,0.004,-0.026,0.004,-0.009,0.005,0.002,0.436,0.002,-0.017,-0.024,0.032,0.026,0.003,0.029,0.052,-0.014,0.018,0.003,0.005,0.006,0.004,0.016,0.003,0.0,0.0,-0.0,-0.0
0.885,-0.885,-0.891,-0.88,7.838,0.0,1.655,2.656,1.001,-0.002,-0.0,0.533,0.006,0.0,-0.007,-0.016,1.989,1.338,0.003,0.002,0.233,0.231,0.231,0.407,-0.002,-0.399,-0.407,-0.412,0.229,0.0,-0.0,0.0,0.003,0.006,0.003,0.003,0.014,0.002,0.016,-0.011,0.001,0.005,1.523,0.0,0.015,0.0,-0.016,0.006,0.002,-0.019,0.002,-0.013,0.002,0.001,0.436,0.001,-0.014,-0.02,0.026,0.006,0.001,0.022,0.042,0.01,0.013,0.001,0.004,0.006,0.003,0.012,0.002,0.0,0.0,0.0,0.0
0.886,-0.886,-0.89,-0.877,7.843,0.0,1.662,2.656,1.002,0.004,0.0,0.531,0.005,0.0,-0.012,-0.043,1.989,1.338,0.006,0.004,0.233,0.231,0.23,0.408,0.009,-0.402,-0.408,-0.416,0.228,0.0,0.0,0.0,0.007,0.011,0.003,0.003,0.013,0.002,0.017,-0.002,0.004,0.009,1.524,0.0,0.013,0.0,-0.016,0.016,0.002,-0.025,0.005,-0.006,0.006,0.002,0.436,0.002,-0.011,-0.03,0.028,0.004,0.003,0.03,0.045,-0.009,0.019,-0.007,0.004,0.006,0.003,0.016,0.004,0.0,-0.0,0.0,0.0
0.886,-0.886,-0.891,-0.88,7.847,0.0,1.666,2.654,1.003,0.003,-0.0,0.531,0.014,0.0,0.033,-0.002,1.99,1.338,0.009,0.008,0.237,0.23,0.23,0.408,-0.007,-0.4,-0.408,-0.422,0.219,0.0,0.0,0.0,0.015,0.007,0.003,0.005,0.01,0.003,0.022,-0.002,0.005,0.006,1.524,0.0,0.015,0.0,-0.02,0.006,0.002,-0.028,0.007,-0.007,0.009,0.005,0.436,0.004,-0.012,-0.031,0.028,0.002,0.005,0.021,0.041,0.003,0.011,-0.006,0.006,0.004,0.004,0.008,0.001,0.0,-0.0,0.0,0.0
0.921,-0.921,-0.938,-0.901,8.491,0.001,0.938,2.738,1.003,-0.001,-0.0,0.627,0.107,0.003,-0.001,0.153,1.876,1.318,0.055,0.051,0.264,0.25,0.25,0.306,0.017,-0.273,-0.305,-0.35,0.235,0.0,-0.0,0.001,0.036,0.034,0.011,0.024,0.041,0.01,0.049,0.051,0.016,0.027,1.477,0.0,0.066,0.001,-0.039,0.043,0.043,-0.1,0.024,0.02,0.029,0.009,0.412,0.007,-0.035,-0.08,0.078,0.023,0.009,0.044,0.14,-0.068,0.044,-0.072,0.025,0.041,0.023,-0.029,0.02,0.001,-0.0,-0.0,0.0
0.925,-0.925,-0.93,-0.921,8.564,-0.0,0.913,2.748,1.003,0.002,0.0,0.575,0.012,0.0,-0.026,0.059,1.878,1.33,0.013,0.01,0.243,0.24,0.24,0.302,-0.001,-0.295,-0.302,-0.308,0.236,0.0,0.0,0.0,0.008,0.017,0.003,0.003,0.01,0.002,0.016,0.013,0.004,0.015,1.467,0.0,0.015,0.0,-0.014,0.025,0.002,-0.035,0.006,0.001,0.007,0.002,0.406,0.002,-0.008,-0.023,0.028,0.024,0.003,0.061,0.051,0.012,0.03,0.008,0.004,0.007,0.004,0.025,0.009,0.0,0.0,0.0,-0.0
0.924,-0.924,-0.927,-0.92,8.53,-0.0,0.932,2.744,1.002,-0.01,-0.0,0.585,0.008,0.0,-0.017,-0.001,1.879,1.328,0.007,0.006,0.246,0.242,0.242,0.305,-0.007,-0.301,-0.305,-0.313,0.238,0.0,0.0,0.0,0.011,0.006,0.002,0.003,0.011,0.002,0.019,0.001,0.003,0.005,1.471,0.0,0.014,0.0,-0.016,0.007,0.002,-0.023,0.007,-0.006,0.009,0.003,0.408,0.002,-0.012,-0.034,0.025,0.005,0.004,0.025,0.043,0.005,0.016,0.005,0.004,0.004,0.003,0.014,0.002,0.0,-0.0,0.0,0.0
0.924,-0.924,-0.927,-0.92,8.538,0.0,0.92,2.742,1.003,-0.012,-0.0,0.605,0.006,0.0,-0.013,-0.032,1.878,1.322,0.005,0.004,0.25,0.246,0.246,0.303,-0.006,-0.299,-0.303,-0.308,0.242,0.0,0.0,0.0,0.006,0.007,0.002,0.002,0.011,0.002,0.015,-0.006,0.002,0.006,1.473,0.0,0.014,0.0,-0.013,0.008,0.002,-0.022,0.005,-0.001,0.007,0.002,0.41,0.002,-0.013,-0.028,0.025,0.004,0.002,0.023,0.036,-0.004,0.011,-0.002,0.003,0.004,0.002,0.009,0.001,0.0,-0.0,0.0,0.0
0.928,-0.928,-0.936,-0.92,8.618,0.0,0.844,2.754,1.003,-0.001,0.0,0.601,0.012,0.0,0.008,0.018,1.866,1.324,0.007,0.006,0.248,0.245,0.245,0.29,-0.006,-0.269,-0.29,-0.306,0.243,0.0,-0.0,0.0,0.005,0.024,0.005,0.006,0.022,0.004,0.025,-0.014,0.005,0.02,1.464,0.0,0.025,0.001,-0.024,0.033,0.006,-0.033,0.005,-0.013,0.007,0.002,0.404,0.001,-0.024,-0.038,0.04,-0.01,0.002,0.008,0.076,0.008,0.035,-0.074,0.012,0.019,0.01,-0.026,0.012,0.0,-0.0,-0.0,0.0
0.941,-0.941,-0.946,-0.936,8.853,0.0,0.634,2.783,1.004,-0.004,0.0,0.588,0.006,0.0,-0.003,-0.007,1.828,1.328,0.005,0.004,0.248,0.243,0.242,0.252,-0.0,-0.233,-0.252,-0.261,0.239,0.0,0.0,0.0,0.014,0.028,0.003,0.007,0.027,0.003,0.027,-0.008,0.005,0.024,1.435,0.0,0.021,0.001,-0.024,0.045,0.004,-0.025,0.01,-0.002,0.012,0.003,0.388,0.002,-0.02,-0.042,0.05,0.038,0.003,0.035,0.073,0.021,0.032,-0.046,0.009,0.009,0.007,-0.016,0.01,0.0,-0.0,-0.0,0.0
0.951,-0.951,-0.956,-0.942,9.039,0.0,0.484,2.818,1.004,0.01,0.0,0.551,0.008,0.0,0.022,0.062,1.788,1.335,0.009,0.007,0.242,0.235,0.235,0.22,0.015,-0.207,-0.22,-0.238,0.228,0.0,-0.0,0.0,0.008,0.017,0.005,0.006,0.018,0.004,0.025,0.013,0.007,0.014,1.405,0.0,0.015,0.0,-0.024,0.022,0.002,-0.021,0.006,-0.014,0.007,0.004,0.364,0.003,-0.012,-0.037,0.035,-0.038,0.003,0.027,0.054,-0.032,0.019,-0.033,0.011,0.02,0.011,-0.009,0.004,0.0,0.0,-0.0,-0.0
0.952,-0.952,-0.955,-0.949,9.061,-0.0,0.462,2.818,1.004,-0.015,-0.0,0.552,0.006,0.0,-0.014,0.015,1.787,1.334,0.004,0.003,0.238,0.235,0.235,0.215,-0.002,-0.208,-0.215,-0.22,0.228,0.0,0.0,0.0,0.007,0.004,0.002,0.002,0.015,0.002,0.015,-0.009,0.002,0.003,1.402,0.0,0.015,0.0,-0.014,0.005,0.002,-0.02,0.004,-0.009,0.005,0.003,0.364,0.002,-0.014,-0.023,0.028,0.004,0.004,0.024,0.046,0.003,0.018,0.01,0.003,0.003,0.002,0.018,0.003,0.0,0.0,0.0,-0.0
0.949,-0.949,-0.952,-0.947,9.01,-0.0,0.496,2.81,1.004,0.002,0.0,0.568,0.004,0.0,0.013,0.019,1.794,1.33,0.003,0.003,0.241,0.238,0.238,0.223,0.001,-0.218,-0.223,-0.23,0.234,0.0,0.0,0.0,0.014,0.006,0.001,0.002,0.015,0.001,0.016,-0.004,0.001,0.005,1.41,0.0,0.012,0.0,-0.014,0.004,0.001,-0.016,0.007,-0.002,0.008,0.002,0.369,0.002,-0.011,-0.024,0.031,0.043,0.003,0.035,0.047,0.0,0.023,0.014,0.004,0.005,0.003,0.022,0.005,0.0,0.0,0.0,-0.0
0.944,-0.944,-0.949,-0.939,8.911,-0.0,0.558,2.798,1.003,-0.006,0.0,0.605,0.005,0.0,-0.008,-0.057,1.804,1.324,0.004,0.003,0.254,0.246,0.246,0.236,-0.005,-0.227,-0.236,-0.248,0.24,0.0,-0.0,0.0,0.006,0.012,0.004,0.001,0.014,0.003,0.01,-0.003,0.007,0.009,1.426,0.0,0.012,0.0,-0.008,0.01,0.001,-0.015,0.005,0.003,0.006,0.005,0.378,0.004,-0.011,-0.019,0.037,-0.023,0.009,0.059,0.053,0.008,0.035,0.015,0.008,0.015,0.008,0.033,0.012,0.0,-0.0,0.0,0.0
0.94,-0.94,-0.945,-0.935,8.829,-0.0,0.639,2.784,1.004,-0.009,0.0,0.603,0.009,0.0,0.016,0.091,1.826,1.323,0.006,0.005,0.25,0.246,0.246,0.253,0.001,-0.244,-0.253,-0.262,0.24,0.0,-0.0,0.0,0.006,0.018,0.003,0.006,0.014,0.003,0.025,-0.007,0.005,0.014,1.438,0.0,0.016,0.0,-0.025,0.017,0.003,-0.027,0.005,-0.016,0.006,0.003,0.388,0.003,-0.015,-0.035,0.035,0.011,0.005,0.052,0.055,-0.003,0.023,-0.003,0.006,0.005,0.005,0.014,0.005,0.0,0.0,-0.0,-0.0
0.939,-0.939,-0.946,-0.932,8.81,-0.0,0.658,2.78,1.003,-0.007,0.0,0.598,0.007,0.0,-0.023,0.002,1.83,1.325,0.006,0.005,0.253,0.245,0.244,0.257,-0.02,-0.244,-0.256,-0.267,0.239,0.0,0.0,0.0,0.02,0.019,0.004,0.005,0.012,0.003,0.021,0.0,0.003,0.017,1.44,0.0,0.013,0.0,-0.017,0.028,0.002,-0.021,0.01,0.0,0.012,0.004,0.389,0.003,-0.012,-0.039,0.036,-0.013,0.003,0.06,0.05,0.047,0.028,-0.003,0.008,0.013,0.007,0.02,0.008,0.0,0.0,0.0,-0.0
0.94,-0.94,-0.946,-0.937,8.84,-0.0,0.651,2.784,1.004,-0.015,0.0,0.587,0.008,0.0,-0.051,-0.01,1.828,1.327,0.011,0.009,0.248,0.242,0.242,0.255,-0.006,-0.249,-0.255,-0.26,0.236,0.0,0.0,0.0,0.012,0.012,0.002,0.005,0.016,0.002,0.023,-0.001,0.003,0.009,1.438,0.0,0.019,0.0,-0.017,0.012,0.004,-0.035,0.012,0.015,0.015,0.003,0.387,0.003,-0.016,-0.042,0.028,-0.052,0.004,0.034,0.052,-0.001,0.018,-0.012,0.004,0.005,0.003,0.013,0.003,0.0,-0.0,-0.0,-0.0
0.938,-0.938,-0.94,-0.934,8.802,0.0,0.663,2.78,1.003,-0.01,0.0,0.597,0.003,0.0,0.032,-0.022,1.83,1.325,0.008,0.006,0.25,0.244,0.244,0.258,0.002,-0.255,-0.258,-0.262,0.241,0.0,0.0,0.0,0.009,0.006,0.002,0.003,0.014,0.002,0.018,-0.005,0.002,0.005,1.44,0.0,0.016,0.0,-0.017,0.006,0.002,-0.029,0.005,-0.009,0.005,0.003,0.39,0.002,-0.014,-0.025,0.029,-0.011,0.003,0.029,0.049,0.001,0.019,0.006,0.002,0.002,0.002,0.018,0.004,0.0,-0.0,-0.0,0.0
0.936,-0.936,-0.938,-0.933,8.767,-0.0,0.692,2.774,1.003,-0.011,-0.0,0.604,0.003,0.0,-0.015,0.022,1.836,1.323,0.005,0.004,0.25,0.246,0.246,0.263,-0.005,-0.261,-0.263,-0.265,0.242,0.0,0.0,0.0,0.007,0.008,0.001,0.004,0.014,0.001,0.019,-0.006,0.002,0.006,1.445,0.0,0.015,0.0,-0.018,0.008,0.002,-0.027,0.005,-0.005,0.006,0.003,0.393,0.002,-0.014,-0.024,0.028,0.018,0.004,0.029,0.046,0.007,0.016,0.0,0.001,0.002,0.001,0.013,0.002,0.0,-0.0,-0.0,-0.0
0.937,-0.937,-0.939,-0.933,8.778,0.0,0.686,2.776,1.004,0.009,0.0,0.607,0.01,0.0,-0.001,0.032,1.834,1.324,0.006,0.005,0.25,0.246,0.246,0.262,0.002,-0.257,-0.262,-0.27,0.243,0.0,0.0,0.0,0.007,0.007,0.002,0.003,0.014,0.002,0.017,-0.004,0.002,0.006,1.445,0.0,0.015,0.0,-0.017,0.012,0.002,-0.021,0.004,-0.01,0.005,0.002,0.392,0.002,-0.014,-0.025,0.028,-0.001,0.003,0.02,0.043,0.001,0.015,0.001,0.003,0.002,0.002,0.013,0.002,0.0,-0.0,0.0,0.0
0.937,-0.936,-0.94,-0.934,8.77,-0.0,0.691,2.776,1.003,0.017,0.0,0.608,0.01,0.0,-0.016,0.041,1.836,1.322,0.009,0.007,0.252,0.247,0.247,0.263,0.005,-0.26,-0.263,-0.266,0.242,0.0,-0.0,0.0,0.014,0.007,0.001,0.004,0.015,0.001,0.019,-0.009,0.001,0.005,1.446,0.0,0.019,0.0,-0.017,0.007,0.004,-0.037,0.008,-0.005,0.008,0.004,0.392,0.003,-0.017,-0.028,0.03,-0.04,0.007,0.029,0.05,-0.002,0.017,0.007,0.002,0.004,0.002,0.015,0.003,0.0,-0.0,-0.0,0.0
0.935,-0.935,-0.937,-0.932,8.744,0.0,0.692,2.771,1.003,0.009,-0.0,0.621,0.008,0.0,0.004,0.023,1.836,1.32,0.004,0.004,0.254,0.249,0.249,0.263,0.01,-0.257,-0.263,-0.269,0.244,0.0,-0.0,0.0,0.006,0.006,0.002,0.003,0.013,0.002,0.018,-0.006,0.003,0.005,1.447,0.0,0.013,0.0,-0.017,0.005,0.002,-0.018,0.006,-0.004,0.007,0.004,0.394,0.004,-0.012,-0.029,0.026,-0.038,0.007,0.019,0.041,-0.01,0.013,-0.004,0.003,0.004,0.003,0.011,0.002,0.0,0.0,-0.0,-0.0
0.935,-0.935,-0.939,-0.931,8.748,-0.0,0.69,2.772,1.003,-0.023,-0.0,0.631,0.027,0.0,-0.031,-0.024,1.835,1.318,0.019,0.018,0.258,0.251,0.251,0.263,-0.006,-0.254,-0.263,-0.271,0.246,0.0,0.0,0.0,0.017,0.01,0.003,0.008,0.016,0.002,0.027,0.037,0.003,0.008,1.449,0.0,0.019,0.0,-0.022,0.015,0.004,-0.023,0.012,0.008,0.016,0.004,0.395,0.003,-0.001,-0.055,0.033,0.001,0.007,0.03,0.058,-0.003,0.019,0.001,0.005,0.007,0.004,0.016,0.004,0.0,-0.0,-0.0,0.0
0.935,-0.935,-0.938,-0.931,8.733,-0.0,0.744,2.771,1.002,-0.016,0.0,0.573,0.012,0.0,0.008,0.005,1.847,1.329,0.011,0.008,0.246,0.239,0.239,0.273,0.003,-0.267,-0.273,-0.279,0.231,0.0,0.0,0.0,0.015,0.007,0.002,0.006,0.018,0.002,0.024,0.001,0.002,0.006,1.447,0.0,0.023,0.0,-0.02,0.008,0.005,-0.039,0.011,0.001,0.013,0.005,0.394,0.004,-0.021,-0.047,0.037,-0.076,0.008,0.028,0.06,-0.01,0.02,0.006,0.003,0.004,0.003,0.019,0.004,0.0,0.0,-0.0,-0.0
0.935,-0.935,-0.937,-0.932,8.746,0.0,0.728,2.774,1.003,0.012,0.0,0.588,0.022,0.0,0.062,0.026,1.841,1.326,0.017,0.014,0.247,0.242,0.242,0.27,0.007,-0.264,-0.27,-0.279,0.238,0.0,0.0,0.0,0.006,0.01,0.002,0.005,0.016,0.002,0.022,-0.003,0.004,0.009,1.447,0.0,0.029,0.0,-0.022,0.017,0.008,-0.062,0.004,-0.011,0.006,0.002,0.392,0.002,-0.023,-0.031,0.033,0.014,0.003,0.023,0.057,-0.012,0.014,-0.007,0.005,0.008,0.004,0.01,0.002,0.0,-0.0,0.0,0.0
0.935,-0.935,-0.938,-0.933,8.75,0.0,0.731,2.772,1.003,-0.01,-0.0,0.586,0.007,0.0,-0.016,-0.02,1.843,1.326,0.01,0.008,0.247,0.242,0.242,0.27,0.002,-0.263,-0.27,-0.278,0.238,0.0,-0.0,0.0,0.007,0.005,0.002,0.003,0.015,0.001,0.016,0.008,0.003,0.005,1.448,0.0,0.014,0.0,-0.015,0.008,0.002,-0.024,0.004,-0.006,0.005,0.003,0.394,0.002,-0.01,-0.022,0.03,-0.028,0.003,0.03,0.05,-0.008,0.022,0.012,0.004,0.004,0.003,0.022,0.005,0.0,0.0,-0.0,-0.0
0.932,-0.932,-0.934,-0.93,8.69,0.0,0.779,2.762,1.003,-0.01,-0.0,0.598,0.01,0.0,0.001,-0.006,1.854,1.324,0.009,0.007,0.248,0.245,0.245,0.279,-0.001,-0.275,-0.279,-0.285,0.24,0.0,-0.0,0.0,0.002,0.004,0.001,0.003,0.012,0.001,0.018,0.009,0.003,0.004,1.456,0.0,0.012,0.0,-0.017,0.006,0.001,-0.022,0.003,-0.012,0.004,0.002,0.399,0.002,-0.008,-0.029,0.026,-0.0,0.003,0.021,0.043,-0.008,0.016,0.009,0.003,0.003,0.002,0.016,0.003,0.0,-0.0,-0.0,0.0
0.936,-0.936,-0.942,-0.93,8.763,-0.0,0.743,2.771,1.002,0.015,-0.0,0.555,0.051,0.001,0.146,0.034,1.848,1.331,0.029,0.026,0.24,0.236,0.236,0.273,0.007,-0.261,-0.272,-0.284,0.227,0.0,-0.0,0.0,0.027,0.017,0.004,0.016,0.028,0.003,0.04,-0.004,0.005,0.014,1.444,0.0,0.06,0.0,-0.036,0.025,0.037,-0.086,0.016,-0.006,0.018,0.005,0.394,0.004,-0.053,-0.066,0.078,0.098,0.007,0.023,0.103,0.002,0.017,-0.033,0.008,0.014,0.007,0.001,0.003,0.0,-0.0,-0.0,0.0
0.936,-0.936,-0.942,-0.931,8.761,0.0,0.721,2.771,1.003,-0.016,0.0,0.586,0.048,0.001,-0.138,-0.02,1.84,1.326,0.028,0.025,0.249,0.242,0.242,0.269,-0.002,-0.255,-0.268,-0.283,0.236,0.0,0.0,0.0,0.014,0.017,0.004,0.002,0.017,0.003,0.013,0.057,0.005,0.013,1.446,0.0,0.029,0.0,0.003,0.016,0.008,-0.025,0.01,0.023,0.013,0.005,0.394,0.004,0.007,-0.017,0.044,0.02,0.009,0.053,0.063,-0.016,0.034,-0.001,0.008,0.013,0.007,0.029,0.011,0.0,-0.0,-0.0,0.0
0.927,-0.927,-0.932,-0.92,8.595,0.0,0.831,2.752,1.003,-0.01,-0.0,0.626,0.013,0.001,-0.101,-0.073,1.861,1.32,0.023,0.017,0.26,0.25,0.25,0.288,-0.007,-0.27,-0.288,-0.307,0.244,0.0,-0.0,0.0,0.02,0.015,0.004,0.004,0.014,0.003,0.021,0.045,0.005,0.013,1.465,0.0,0.024,0.0,-0.016,0.021,0.006,-0.035,0.012,0.01,0.014,0.004,0.405,0.003,0.008,-0.038,0.047,0.008,0.003,0.053,0.068,0.001,0.036,0.009,0.011,0.016,0.009,0.033,0.013,0.0,-0.0,-0.0,0.0
0.922,-0.922,-0.926,-0.917,8.497,-0.0,0.952,2.735,1.002,-0.003,-0.0,0.607,0.023,0.0,-0.006,0.012,1.883,1.322,0.015,0.013,0.255,0.246,0.246,0.309,0.008,-0.302,-0.308,-0.313,0.235,0.0,0.0,0.0,0.017,0.009,0.003,0.003,0.016,0.003,0.019,0.004,0.005,0.008,1.477,0.0,0.029,0.0,-0.011,0.013,0.008,-0.05,0.012,0.019,0.015,0.006,0.413,0.005,-0.025,-0.036,0.043,-0.08,0.008,0.037,0.062,-0.003,0.022,0.007,0.003,0.004,0.003,0.02,0.005,0.0,0.0,0.0,-0.0
0.921,-0.921,-0.922,-0.92,8.486,0.0,0.928,2.735,1.003,0.004,0.0,0.64,0.007,0.0,0.001,-0.016,1.88,1.317,0.007,0.006,0.257,0.253,0.253,0.305,0.001,-0.301,-0.305,-0.309,0.251,0.0,0.0,0.0,0.007,0.01,0.001,0.003,0.01,0.001,0.017,-0.003,0.001,0.008,1.479,0.0,0.019,0.0,-0.015,0.015,0.004,-0.025,0.006,-0.006,0.008,0.002,0.414,0.002,-0.017,-0.034,0.027,0.011,0.004,0.025,0.042,0.011,0.013,-0.005,0.003,0.005,0.003,0.008,0.002,0.0,-0.0,-0.0,0.0
0.92,-0.92,-0.922,-0.917,8.468,-0.0,0.925,2.734,1.003,0.014,0.0,0.659,0.006,0.0,-0.003,0.008,1.878,1.312,0.007,0.005,0.262,0.257,0.257,0.304,0.001,-0.3,-0.304,-0.31,0.252,0.0,-0.0,0.0,0.002,0.006,0.001,0.004,0.016,0.001,0.021,0.0,0.001,0.005,1.481,0.0,0.015,0.0,-0.02,0.007,0.002,-0.027,0.002,-0.013,0.004,0.002,0.416,0.002,-0.014,-0.027,0.031,0.009,0.003,0.027,0.051,0.003,0.018,0.006,0.003,0.002,0.002,0.017,0.003,0.0,0.0,0.0,-0.0
0.921,-0.921,-0.923,-0.918,8.481,-0.0,0.957,2.734,1.003,0.004,0.0,0.628,0.012,0.0,-0.03,-0.003,1.884,1.318,0.008,0.007,0.254,0.251,0.25,0.309,0.004,-0.305,-0.309,-0.313,0.245,0.0,0.0,0.0,0.007,0.009,0.002,0.004,0.012,0.002,0.021,-0.002,0.003,0.008,1.481,0.0,0.012,0.0,-0.02,0.013,0.001,-0.028,0.005,-0.01,0.005,0.003,0.415,0.002,-0.009,-0.029,0.03,-0.015,0.003,0.032,0.046,-0.001,0.019,0.001,0.003,0.004,0.002,0.016,0.004,0.0,0.0,-0.0,-0.0
0.92,-0.92,-0.923,-0.917,8.455,0.0,0.97,2.732,1.002,0.012,-0.0,0.624,0.018,0.0,-0.033,-0.018,1.886,1.319,0.011,0.01,0.254,0.25,0.25,0.312,0.005,-0.309,-0.312,-0.314,0.245,0.0,-0.0,0.0,0.009,0.007,0.002,0.004,0.014,0.002,0.019,0.007,0.003,0.005,1.481,0.0,0.015,0.0,-0.018,0.006,0.002,-0.029,0.005,-0.01,0.006,0.002,0.415,0.002,-0.01,-0.027,0.028,-0.024,0.002,0.027,0.045,-0.003,0.017,0.004,0.001,0.002,0.001,0.015,0.003,0.0,0.0,0.0,-0.0
0.92,-0.92,-0.922,-0.916,8.455,-0.0,0.993,2.732,1.003,0.007,0.0,0.604,0.011,0.0,-0.047,0.049,1.89,1.323,0.009,0.008,0.249,0.246,0.246,0.315,0.002,-0.31,-0.315,-0.321,0.243,0.0,-0.0,0.0,0.014,0.008,0.002,0.004,0.014,0.002,0.02,0.004,0.003,0.008,1.48,0.0,0.015,0.0,-0.019,0.015,0.002,-0.022,0.007,-0.008,0.007,0.002,0.414,0.002,-0.012,-0.029,0.028,-0.018,0.003,0.025,0.045,0.002,0.016,0.001,0.003,0.005,0.003,0.014,0.003,0.0,-0.0,0.0,0.0
0.92,-0.92,-0.923,-0.915,8.455,0.0,0.995,2.732,1.003,0.003,0.0,0.607,0.01,0.0,0.008,0.046,1.89,1.323,0.006,0.005,0.252,0.246,0.246,0.315,-0.001,-0.309,-0.315,-0.321,0.242,0.0,-0.0,0.0,0.006,0.007,0.002,0.004,0.014,0.002,0.019,-0.006,0.003,0.006,1.481,0.0,0.014,0.0,-0.018,0.012,0.002,-0.023,0.005,-0.008,0.006,0.003,0.414,0.002,-0.013,-0.029,0.028,0.027,0.003,0.026,0.046,0.002,0.016,0.006,0.004,0.005,0.003,0.014,0.003,0.0,0.0,0.0,-0.0
0.918,-0.918,-0.92,-0.916,8.435,-0.0,1.005,2.73,1.002,-0.008,-0.0,0.606,0.006,0.0,0.006,0.001,1.892,1.322,0.004,0.003,0.248,0.246,0.246,0.317,0.008,-0.314,-0.317,-0.323,0.242,0.0,0.0,0.0,0.005,0.005,0.001,0.003,0.014,0.001,0.018,-0.005,0.002,0.004,1.482,0.0,0.013,0.0,-0.018,0.007,0.002,-0.017,0.003,-0.011,0.004,0.002,0.415,0.002,-0.013,-0.023,0.027,0.021,0.002,0.02,0.045,-0.014,0.015,0.002,0.003,0.004,0.002,0.014,0.002,0.0,0.0,0.0,-0.0
0.92,-0.92,-0.922,-0.917,8.46,-0.0,0.991,2.731,1.003,-0.006,-0.0,0.603,0.006,0.0,-0.014,-0.005,1.89,1.324,0.003,0.003,0.249,0.246,0.246,0.315,0.004,-0.309,-0.315,-0.318,0.242,0.0,0.0,0.0,0.003,0.006,0.001,0.004,0.015,0.001,0.02,-0.009,0.001,0.006,1.48,0.0,0.016,0.0,-0.02,0.012,0.003,-0.019,0.003,-0.013,0.005,0.002,0.415,0.002,-0.016,-0.029,0.028,0.022,0.004,0.022,0.047,-0.01,0.014,0.004,0.003,0.003,0.002,0.012,0.002,0.0,-0.0,0.0,0.0
0.919,-0.919,-0.921,-0.916,8.442,0.0,1.002,2.732,1.002,-0.002,-0.0,0.603,0.006,0.0,-0.01,-0.027,1.892,1.323,0.004,0.003,0.248,0.246,0.246,0.317,0.001,-0.313,-0.316,-0.32,0.242,0.0,0.0,0.0,0.004,0.008,0.001,0.003,0.013,0.001,0.016,-0.008,0.002,0.006,1.481,0.0,0.014,0.0,-0.016,0.008,0.002,-0.019,0.003,-0.011,0.003,0.002,0.414,0.001,-0.014,-0.021,0.025,-0.012,0.003,0.034,0.044,-0.0,0.016,0.007,0.002,0.004,0.002,0.014,0.003,0.0,0.0,0.0,0.0
0.918,-0.918,-0.922,-0.915,8.433,-0.0,1.009,2.73,1.002,-0.001,0.0,0.601,0.007,0.0,-0.017,-0.027,1.894,1.324,0.004,0.004,0.247,0.245,0.245,0.318,-0.003,-0.312,-0.318,-0.322,0.244,0.0,0.0,0.0,0.002,0.006,0.002,0.003,0.014,0.002,0.018,-0.009,0.003,0.006,1.481,0.0,0.015,0.0,-0.017,0.01,0.002,-0.023,0.002,-0.011,0.003,0.001,0.415,0.001,-0.014,-0.023,0.028,-0.004,0.001,0.024,0.046,0.003,0.015,0.007,0.003,0.004,0.002,0.014,0.002,0.0,-0.0,-0.0,0.0
0.919,-0.919,-0.92,-0.917,8.442,0.0,1.014,2.729,1.003,0.007,0.0,0.601,0.012,0.0,-0.014,-0.02,1.894,1.324,0.007,0.006,0.248,0.245,0.245,0.318,-0.002,-0.313,-0.318,-0.323,0.243,0.0,-0.0,0.0,0.006,0.008,0.001,0.004,0.014,0.001,0.02,-0.004,0.001,0.007,1.482,0.0,0.015,0.0,-0.019,0.011,0.002,-0.025,0.004,-0.013,0.004,0.001,0.415,0.001,-0.013,-0.028,0.031,-0.005,0.002,0.033,0.048,0.007,0.018,0.003,0.003,0.002,0.002,0.016,0.003,0.0,-0.0,0.0,0.0
0.917,-0.917,-0.92,-0.914,8.414,-0.0,1.034,2.726,1.002,-0.001,-0.0,0.598,0.008,0.0,-0.009,0.042,1.898,1.324,0.006,0.005,0.247,0.245,0.245,0.322,0.007,-0.315,-0.322,-0.326,0.242,0.0,0.0,0.0,0.006,0.009,0.002,0.003,0.014,0.001,0.018,-0.007,0.003,0.007,1.483,0.0,0.015,0.0,-0.018,0.01,0.002,-0.024,0.003,-0.012,0.004,0.001,0.417,0.001,-0.014,-0.023,0.028,0.014,0.001,0.035,0.046,-0.014,0.017,0.004,0.003,0.004,0.003,0.014,0.003,0.0,0.0,0.0,-0.0
0.917,-0.917,-0.92,-0.914,8.413,-0.0,1.032,2.727,1.002,0.009,-0.0,0.601,0.005,0.0,-0.004,-0.018,1.897,1.324,0.005,0.004,0.248,0.245,0.245,0.321,0.005,-0.318,-0.321,-0.33,0.242,0.0,-0.0,0.0,0.007,0.005,0.001,0.003,0.016,0.001,0.016,-0.004,0.001,0.003,1.484,0.0,0.016,0.0,-0.016,0.001,0.003,-0.022,0.005,-0.007,0.005,0.002,0.416,0.002,-0.016,-0.022,0.028,-0.004,0.003,0.031,0.047,-0.006,0.017,0.009,0.003,0.003,0.002,0.016,0.003,0.0,0.0,0.0,0.0
0.915,-0.915,-0.919,-0.911,8.378,-0.0,1.043,2.721,1.003,-0.01,0.0,0.641,0.033,0.0,0.054,0.017,1.898,1.316,0.018,0.016,0.259,0.253,0.253,0.323,-0.004,-0.319,-0.323,-0.327,0.248,0.0,-0.0,0.0,0.022,0.008,0.002,0.006,0.012,0.002,0.024,0.003,0.003,0.007,1.491,0.0,0.028,0.0,-0.019,0.012,0.008,-0.055,0.013,-0.001,0.015,0.004,0.421,0.004,-0.021,-0.044,0.036,-0.018,0.007,0.026,0.055,-0.002,0.016,0.001,0.003,0.006,0.003,0.014,0.003,0.0,0.0,0.0,-0.0
0.916,-0.916,-0.92,-0.912,8.389,-0.0,1.049,2.722,1.002,-0.008,0.0,0.611,0.022,0.0,0.064,-0.004,1.9,1.322,0.015,0.012,0.251,0.247,0.247,0.324,-0.011,-0.317,-0.324,-0.332,0.244,0.0,0.0,0.0,0.01,0.011,0.003,0.003,0.012,0.002,0.017,0.016,0.004,0.009,1.487,0.0,0.015,0.0,-0.016,0.014,0.002,-0.03,0.005,-0.008,0.005,0.002,0.419,0.002,-0.002,-0.024,0.028,-0.011,0.004,0.03,0.044,0.011,0.018,-0.009,0.005,0.008,0.004,0.014,0.003,0.0,0.0,-0.0,-0.0
0.914,-0.914,-0.928,-0.906,8.358,-0.0,1.057,2.718,1.002,-0.006,-0.0,0.626,0.034,0.0,-0.004,-0.067,1.904,1.319,0.022,0.019,0.256,0.25,0.25,0.325,0.017,-0.305,-0.325,-0.336,0.24,0.0,-0.0,0.0,0.006,0.019,0.006,0.005,0.019,0.004,0.022,0.019,0.005,0.015,1.489,0.0,0.029,0.0,-0.02,0.018,0.009,-0.053,0.008,0.0,0.011,0.005,0.42,0.004,-0.019,-0.037,0.042,0.021,0.006,0.039,0.068,-0.03,0.027,-0.029,0.009,0.012,0.008,0.019,0.007,0.0,0.0,0.0,-0.0
0.914,-0.914,-0.918,-0.91,8.356,-0.0,1.096,2.721,1.002,-0.02,0.0,0.596,0.016,0.0,0.004,0.025,1.906,1.324,0.011,0.009,0.252,0.244,0.244,0.331,-0.005,-0.326,-0.331,-0.34,0.238,0.0,-0.0,0.0,0.013,0.013,0.002,0.005,0.016,0.002,0.022,0.013,0.003,0.011,1.489,0.0,0.015,0.0,-0.02,0.023,0.002,-0.023,0.008,-0.002,0.01,0.004,0.419,0.004,-0.01,-0.041,0.032,-0.019,0.007,0.038,0.051,-0.004,0.022,0.0,0.004,0.004,0.003,0.017,0.005,0.0,-0.0,-0.0,0.0
0.912,-0.912,-0.919,-0.904,8.323,0.001,1.093,2.715,1.002,-0.02,0.0,0.62,0.051,0.001,-0.026,0.047,1.907,1.319,0.037,0.029,0.26,0.249,0.249,0.331,-0.034,-0.311,-0.33,-0.345,0.23,0.0,0.0,0.0,0.008,0.027,0.005,0.003,0.018,0.004,0.018,0.044,0.007,0.022,1.492,0.0,0.043,0.001,-0.012,0.029,0.019,-0.079,0.009,0.005,0.013,0.008,0.422,0.007,-0.022,-0.042,0.05,-0.045,0.009,0.034,0.076,0.049,0.03,-0.055,0.01,0.008,0.007,-0.012,0.009,0.0,-0.0,0.0,0.0
0.928,-0.928,-0.936,-0.92,8.618,-0.0,0.816,2.754,1.003,0.005,-0.0,0.628,0.009,0.0,-0.008,-0.037,1.857,1.318,0.009,0.007,0.254,0.251,0.25,0.286,0.021,-0.268,-0.285,-0.311,0.246,0.0,0.0,0.0,0.008,0.023,0.005,0.008,0.02,0.004,0.029,-0.011,0.005,0.02,1.464,0.0,0.024,0.001,-0.028,0.031,0.006,-0.043,0.006,-0.017,0.008,0.002,0.404,0.002,-0.022,-0.043,0.04,-0.02,0.004,0.001,0.077,-0.059,0.036,-0.07,0.013,0.016,0.011,-0.028,0.013,0.0,-0.0,0.0,0.0
0.935,-0.935,-0.948,-0.928,8.748,0.0,0.732,2.767,1.004,-0.011,0.0,0.592,0.009,0.0,0.003,-0.034,1.847,1.324,0.006,0.006,0.247,0.243,0.243,0.271,-0.012,-0.253,-0.27,-0.281,0.236,0.0,0.0,0.0,0.008,0.013,0.005,0.003,0.008,0.004,0.017,0.003,0.004,0.01,1.449,0.0,0.009,0.0,-0.014,0.011,0.001,-0.019,0.008,-0.003,0.011,0.004,0.396,0.003,-0.007,-0.042,0.032,-0.047,0.005,0.046,0.044,0.023,0.026,-0.003,0.008,0.007,0.007,0.023,0.007,0.0,-0.0,-0.0,0.0
0.929,-0.929,-0.937,-0.924,8.629,-0.0,0.802,2.754,1.002,-0.003,0.0,0.628,0.045,0.001,-0.012,-0.051,1.859,1.32,0.034,0.029,0.258,0.251,0.25,0.283,-0.017,-0.269,-0.283,-0.293,0.244,0.0,0.0,0.0,0.022,0.012,0.004,0.004,0.021,0.004,0.02,0.049,0.005,0.01,1.462,0.0,0.04,0.0,-0.016,0.02,0.016,-0.063,0.011,-0.001,0.013,0.004,0.404,0.004,-0.021,-0.039,0.051,-0.016,0.005,0.038,0.074,0.043,0.025,0.005,0.008,0.011,0.006,0.022,0.006,0.0,-0.0,-0.0,0.0
0.928,-0.928,-0.931,-0.925,8.616,0.0,0.817,2.753,1.003,0.004,-0.0,0.629,0.006,0.0,-0.006,-0.055,1.86,1.318,0.006,0.005,0.254,0.251,0.251,0.286,0.002,-0.28,-0.286,-0.292,0.247,0.0,0.0,0.0,0.009,0.01,0.002,0.003,0.014,0.002,0.018,-0.006,0.003,0.007,1.465,0.0,0.014,0.0,-0.017,0.008,0.002,-0.028,0.004,-0.01,0.005,0.002,0.405,0.002,-0.012,-0.024,0.028,-0.023,0.004,0.046,0.048,0.006,0.022,0.007,0.004,0.008,0.004,0.02,0.005,0.0,-0.0,-0.0,-0.0
0.925,-0.925,-0.929,-0.921,8.551,-0.0,0.883,2.744,1.003,0.005,0.0,0.624,0.003,0.0,0.005,-0.045,1.871,1.319,0.003,0.003,0.253,0.25,0.25,0.297,-0.004,-0.291,-0.297,-0.305,0.248,0.0,-0.0,0.0,0.003,0.014,0.002,0.005,0.016,0.002,0.021,-0.005,0.004,0.011,1.472,0.0,0.012,0.0,-0.021,0.016,0.001,-0.015,0.003,-0.01,0.004,0.001,0.41,0.001,-0.011,-0.024,0.034,-0.018,0.001,0.049,0.053,0.011,0.025,-0.001,0.005,0.007,0.004,0.02,0.006,0.0,-0.0,-0.0,-0.0
0.926,-0.926,-0.931,-0.922,8.566,-0.0,0.876,2.746,1.002,0.003,0.0,0.616,0.002,0.0,-0.005,-0.003,1.87,1.321,0.002,0.002,0.251,0.248,0.248,0.296,-0.004,-0.287,-0.296,-0.303,0.245,0.0,0.0,0.0,0.006,0.005,0.002,0.002,0.014,0.002,0.016,-0.011,0.003,0.004,1.47,0.0,0.015,0.0,-0.015,0.005,0.002,-0.018,0.004,-0.011,0.004,0.002,0.408,0.002,-0.015,-0.023,0.024,-0.022,0.003,0.022,0.041,0.017,0.012,0.004,0.004,0.004,0.003,0.011,0.002,0.0,-0.0,-0.0,0.0
0.922,-0.922,-0.925,-0.918,8.495,0.0,0.88,2.736,1.003,-0.048,0.0,0.682,0.01,0.0,0.042,0.003,1.871,1.305,0.01,0.007,0.272,0.261,0.261,0.297,-0.006,-0.292,-0.297,-0.303,0.245,0.0,0.0,0.0,0.036,0.013,0.003,0.005,0.014,0.002,0.022,0.003,0.004,0.012,1.479,0.0,0.016,0.0,-0.005,0.023,0.003,-0.036,0.02,0.022,0.022,0.01,0.415,0.009,-0.013,-0.038,0.032,-0.048,0.02,0.039,0.054,-0.019,0.024,0.001,0.004,0.005,0.003,0.02,0.006,0.0,0.0,-0.0,-0.0
0.918,-0.918,-0.921,-0.914,8.425,0.0,0.961,2.73,1.002,0.025,-0.0,0.657,0.012,0.0,0.008,0.003,1.886,1.314,0.008,0.007,0.263,0.256,0.256,0.31,0.006,-0.304,-0.31,-0.316,0.25,0.0,0.0,0.0,0.019,0.005,0.002,0.007,0.016,0.002,0.027,0.004,0.003,0.004,1.484,0.0,0.014,0.0,-0.025,0.005,0.002,-0.025,0.01,-0.01,0.011,0.004,0.417,0.003,-0.011,-0.041,0.036,-0.058,0.006,0.035,0.062,-0.0,0.025,0.018,0.004,0.007,0.004,0.025,0.006,0.0,0.0,-0.0,-0.0
0.916,-0.916,-0.922,-0.91,8.398,0.0,0.977,2.728,1.003,0.003,-0.0,0.679,0.01,0.0,0.044,-0.048,1.888,1.31,0.009,0.008,0.278,0.261,0.26,0.313,0.0,-0.306,-0.312,-0.317,0.247,0.0,0.0,0.0,0.034,0.009,0.004,0.005,0.018,0.004,0.022,-0.002,0.009,0.008,1.489,0.0,0.021,0.0,-0.008,0.014,0.004,-0.035,0.018,0.022,0.02,0.011,0.419,0.01,-0.018,-0.041,0.034,-0.137,0.02,0.023,0.05,-0.002,0.014,-0.005,0.003,0.002,0.002,0.012,0.002,0.0,-0.0,-0.0,0.0
0.917,-0.917,-0.921,-0.914,8.416,0.0,0.972,2.726,1.003,0.016,0.0,0.67,0.003,0.0,0.011,-0.008,1.887,1.311,0.005,0.004,0.268,0.259,0.259,0.312,0.004,-0.31,-0.312,-0.313,0.255,0.0,0.0,0.0,0.024,0.006,0.002,0.006,0.012,0.001,0.025,-0.003,0.002,0.004,1.488,0.0,0.013,0.0,-0.022,0.004,0.002,-0.021,0.011,-0.005,0.013,0.003,0.42,0.002,-0.012,-0.043,0.028,-0.034,0.002,0.029,0.046,0.005,0.013,0.007,0.001,0.001,0.001,0.012,0.002,0.0,-0.0,-0.0,0.0
0.911,-0.911,-0.918,-0.907,8.305,0.0,0.998,2.708,1.003,-0.066,0.0,0.751,0.008,0.0,-0.009,0.016,1.892,1.292,0.007,0.006,0.287,0.274,0.274,0.316,-0.02,-0.311,-0.316,-0.321,0.26,0.0,0.0,0.001,0.072,0.005,0.003,0.013,0.014,0.003,0.036,0.003,0.003,0.004,1.501,0.0,0.009,0.0,-0.01,0.006,0.001,-0.023,0.031,0.03,0.034,0.01,0.431,0.009,-0.006,-0.054,0.038,0.016,0.016,0.028,0.06,0.004,0.023,0.014,0.003,0.003,0.003,0.023,0.005,0.0,0.0,0.0,0.0
0.91,-0.91,-0.918,-0.903,8.283,-0.0,1.075,2.716,1.002,0.014,-0.0,0.691,0.012,0.0,0.052,0.015,1.902,1.312,0.01,0.008,0.278,0.263,0.263,0.328,0.009,-0.322,-0.328,-0.337,0.251,0.0,0.0,0.001,0.034,0.012,0.005,0.006,0.015,0.005,0.025,-0.003,0.01,0.01,1.501,0.0,0.018,0.0,-0.008,0.01,0.003,-0.033,0.02,0.022,0.024,0.01,0.424,0.009,-0.015,-0.05,0.034,-0.102,0.019,0.044,0.059,-0.008,0.026,0.005,0.005,0.008,0.004,0.023,0.007,0.0,-0.0,-0.0,-0.0
0.908,-0.908,-0.915,-0.902,8.239,0.0,1.07,2.706,1.002,0.018,-0.0,0.737,0.008,0.0,-0.006,0.016,1.903,1.297,0.006,0.005,0.282,0.271,0.271,0.327,0.006,-0.318,-0.327,-0.335,0.263,0.0,-0.0,0.0,0.009,0.005,0.004,0.009,0.01,0.003,0.03,0.0,0.006,0.005,1.506,0.0,0.014,0.0,-0.028,0.008,0.002,-0.022,0.006,-0.015,0.008,0.006,0.43,0.005,-0.013,-0.041,0.03,0.046,0.009,0.012,0.046,-0.01,0.006,-0.005,0.006,0.009,0.005,0.002,0.0,0.0,0.0,0.0,0.0
0.918,-0.918,-0.921,-0.916,8.427,0.0,0.887,2.729,1.002,0.004,0.0,0.729,0.001,0.0,-0.004,0.016,1.872,1.297,0.003,0.002,0.273,0.27,0.27,0.298,0.004,-0.296,-0.298,-0.301,0.267,0.0,0.0,0.0,0.005,0.005,0.001,0.005,0.015,0.001,0.022,-0.008,0.002,0.004,1.486,0.0,0.014,0.0,-0.022,0.005,0.002,-0.019,0.004,-0.01,0.005,0.002,0.42,0.002,-0.014,-0.028,0.03,0.01,0.004,0.025,0.049,-0.004,0.014,0.005,0.002,0.002,0.001,0.013,0.002,0.0,-0.0,-0.0,-0.0
0.917,-0.917,-0.92,-0.914,8.405,0.0,0.906,2.726,1.002,0.001,0.0,0.731,0.001,0.0,-0.0,0.022,1.876,1.297,0.001,0.001,0.272,0.27,0.27,0.301,0.001,-0.292,-0.301,-0.307,0.268,0.0,-0.0,0.0,0.003,0.005,0.002,0.003,0.015,0.001,0.017,-0.01,0.002,0.004,1.488,0.0,0.012,0.0,-0.017,0.005,0.002,-0.014,0.002,-0.009,0.003,0.001,0.421,0.001,-0.012,-0.021,0.028,0.018,0.001,0.03,0.048,0.0,0.019,0.011,0.004,0.003,0.003,0.018,0.004,0.0,0.0,0.0,-0.0
0.915,-0.915,-0.917,-0.914,8.38,0.0,0.941,2.722,1.002,0.013,0.0,0.719,0.006,0.0,-0.017,-0.007,1.882,1.3,0.006,0.005,0.271,0.268,0.268,0.307,-0.0,-0.301,-0.307,-0.311,0.265,0.0,-0.0,0.0,0.006,0.005,0.001,0.004,0.015,0.001,0.019,0.007,0.001,0.004,1.49,0.0,0.012,0.0,-0.019,0.005,0.001,-0.016,0.004,-0.013,0.004,0.002,0.422,0.002,-0.01,-0.026,0.028,-0.005,0.005,0.03,0.048,0.007,0.019,0.011,0.003,0.004,0.003,0.018,0.003,0.0,0.0,0.0,-0.0
0.913,-0.913,-0.916,-0.909,8.33,0.0,0.977,2.717,1.002,-0.014,0.0,0.73,0.005,0.0,-0.001,0.034,1.888,1.3,0.005,0.004,0.283,0.27,0.27,0.313,-0.004,-0.307,-0.312,-0.316,0.266,0.0,-0.0,0.0,0.006,0.016,0.002,0.006,0.017,0.001,0.024,-0.012,0.002,0.013,1.495,0.0,0.018,0.0,-0.022,0.017,0.003,-0.027,0.009,-0.013,0.012,0.005,0.425,0.004,-0.018,-0.05,0.03,-0.04,0.006,0.062,0.063,0.0,0.029,0.009,0.003,0.005,0.002,0.024,0.008,0.0,0.0,-0.0,-0.0
0.919,-0.919,-0.927,-0.913,8.437,0.0,0.988,2.734,1.002,-0.001,-0.0,0.61,0.061,0.001,-0.009,0.051,1.892,1.324,0.035,0.031,0.262,0.247,0.247,0.314,-0.004,-0.302,-0.314,-0.328,0.236,0.0,0.0,0.0,0.031,0.023,0.005,0.02,0.024,0.004,0.045,0.061,0.008,0.019,1.48,0.0,0.035,0.001,-0.041,0.034,0.013,-0.037,0.016,-0.014,0.018,0.009,0.413,0.008,0.001,-0.069,0.056,0.015,0.015,0.038,0.091,-0.002,0.023,-0.039,0.007,0.008,0.006,-0.004,0.005,0.0,0.0,-0.0,-0.0
0.921,-0.921,-0.925,-0.914,8.481,0.0,0.957,2.738,1.002,-0.03,-0.0,0.602,0.031,0.001,0.075,-0.125,1.885,1.326,0.028,0.022,0.263,0.245,0.245,0.309,-0.007,-0.303,-0.309,-0.316,0.237,0.0,0.0,0.0,0.019,0.043,0.003,0.006,0.014,0.003,0.025,0.055,0.004,0.033,1.476,0.0,0.029,0.002,-0.018,0.039,0.008,-0.047,0.015,-0.003,0.018,0.007,0.41,0.006,-0.004,-0.051,0.038,-0.038,0.009,0.039,0.073,0.002,0.043,-0.109,0.005,0.009,0.004,-0.002,0.019,0.0,0.0,-0.0,-0.0
0.942,-0.942,-0.955,-0.933,8.878,-0.0,0.579,2.792,1.002,-0.102,-0.0,0.582,0.032,0.001,-0.035,-0.153,1.806,1.325,0.026,0.02,0.258,0.241,0.241,0.241,-0.006,-0.192,-0.239,-0.288,0.214,0.0,0.001,0.003,0.093,0.027,0.006,0.029,0.06,0.005,0.054,0.086,0.008,0.021,1.422,0.0,0.051,0.001,-0.003,0.03,0.026,-0.007,0.049,0.075,0.054,0.016,0.38,0.014,0.044,-0.083,0.137,-0.139,0.028,-0.065,0.202,-0.061,0.111,-0.161,0.029,0.034,0.024,-0.107,0.122,0.001,-0.0,-0.0,0.0
0.965,-0.965,-0.972,-0.957,9.314,0.001,0.278,2.859,1.003,0.073,0.001,0.481,0.085,0.003,0.252,-0.271,1.736,1.346,0.055,0.045,0.237,0.219,0.219,0.167,0.02,-0.147,-0.166,-0.179,0.197,0.0,-0.0,0.002,0.068,0.059,0.005,0.032,0.037,0.004,0.056,0.048,0.007,0.052,1.35,0.0,0.066,0.003,-0.035,0.092,0.044,-0.14,0.036,0.051,0.044,0.013,0.333,0.012,-0.037,-0.091,0.09,-0.193,0.02,0.086,0.156,-0.053,0.059,-0.093,0.01,0.015,0.008,-0.001,0.035,0.0,-0.0,-0.0,0.0
0.963,-0.963,-0.97,-0.958,9.272,-0.0,0.316,2.858,1.003,0.002,0.0,0.49,0.015,0.0,-0.015,-0.01,1.748,1.35,0.016,0.012,0.228,0.221,0.221,0.178,-0.003,-0.17,-0.178,-0.189,0.214,0.0,0.0,0.0,0.02,0.007,0.004,0.003,0.018,0.003,0.017,-0.002,0.006,0.006,1.362,0.0,0.029,0.0,-0.012,0.007,0.008,-0.063,0.011,0.001,0.012,0.005,0.334,0.005,-0.024,-0.035,0.04,-0.027,0.009,0.046,0.068,-0.002,0.033,0.02,0.006,0.01,0.005,0.032,0.011,0.0,-0.0,-0.0,0.0
0.938,-0.937,-0.959,-0.887,8.792,0.001,0.591,2.814,1.002,0.052,0.002,0.69,0.033,0.003,0.208,-0.671,1.782,1.324,0.053,0.041,0.327,0.263,0.26,0.243,0.044,-0.186,-0.237,-0.326,0.202,0.001,0.001,0.005,0.107,0.133,0.025,0.077,0.064,0.022,0.088,0.007,0.035,0.123,1.434,0.002,0.082,0.018,0.054,0.229,0.067,-0.169,0.059,0.167,0.069,0.039,0.366,0.034,-0.062,-0.026,0.14,-0.354,0.054,0.385,0.308,-0.036,0.221,0.03,0.053,0.079,0.047,0.177,0.489,0.003,0.0,-0.0,-0.0
0.898,-0.898,-0.902,-0.893,8.055,0.001,1.108,2.682,1.002,0.0,-0.0,0.869,0.059,0.002,0.199,-0.007,1.908,1.273,0.043,0.035,0.318,0.295,0.295,0.333,0.016,-0.318,-0.333,-0.349,0.284,0.0,-0.0,0.0,0.018,0.02,0.003,0.014,0.027,0.003,0.037,0.066,0.005,0.015,1.525,0.0,0.044,0.0,-0.034,0.021,0.019,-0.081,0.012,-0.003,0.015,0.01,0.444,0.008,0.01,-0.053,0.059,0.048,0.015,0.049,0.092,-0.028,0.026,-0.03,0.009,0.011,0.008,0.017,0.007,0.0,-0.0,-0.0,-0.0
0.898,-0.898,-0.901,-0.893,8.068,-0.0,1.191,2.686,1.001,-0.008,0.0,0.762,0.013,0.001,0.057,-0.009,1.922,1.29,0.028,0.017,0.284,0.276,0.276,0.345,0.004,-0.339,-0.345,-0.353,0.269,0.0,-0.0,0.0,0.009,0.009,0.002,0.011,0.02,0.002,0.033,0.067,0.002,0.007,1.519,0.0,0.029,0.0,-0.031,0.009,0.008,-0.045,0.008,-0.02,0.01,0.005,0.44,0.004,-0.007,-0.054,0.047,-0.047,0.006,0.04,0.071,-0.008,0.021,0.004,0.004,0.003,0.003,0.019,0.005,0.0,-0.0,-0.0,-0.0
0.902,-0.902,-0.906,-0.898,8.134,0.0,1.163,2.692,1.002,0.04,-0.0,0.73,0.137,0.008,-0.067,-0.157,1.916,1.297,0.088,0.08,0.288,0.27,0.27,0.341,-0.007,-0.326,-0.341,-0.37,0.237,0.0,0.0,0.0,0.019,0.025,0.003,0.008,0.02,0.003,0.029,0.053,0.005,0.022,1.513,0.0,0.108,0.001,-0.018,0.044,0.117,-0.223,0.016,0.035,0.022,0.013,0.436,0.009,-0.063,-0.042,0.06,-0.02,0.01,0.041,0.126,0.036,0.027,-0.039,0.011,0.008,0.008,0.009,0.007,0.0,-0.0,-0.0,0.0
0.907,-0.907,-0.917,-0.903,8.221,-0.0,0.911,2.7,1.002,-0.018,0.0,0.942,0.022,0.001,-0.198,-0.112,1.878,1.26,0.036,0.027,0.324,0.307,0.307,0.302,0.003,-0.28,-0.302,-0.318,0.29,0.0,0.0,0.0,0.021,0.023,0.004,0.002,0.024,0.002,0.014,-0.025,0.002,0.016,1.515,0.0,0.076,0.001,-0.002,0.02,0.057,-0.143,0.012,0.016,0.014,0.009,0.436,0.008,-0.066,-0.023,0.065,0.013,0.012,0.036,0.1,0.009,0.027,-0.056,0.011,0.018,0.009,-0.015,0.007,0.0,-0.0,0.0,0.0
0.91,-0.91,-0.917,-0.904,8.288,0.0,0.662,2.708,1.002,0.034,0.0,1.109,0.086,0.002,0.23,0.034,1.832,1.238,0.049,0.045,0.351,0.333,0.333,0.257,0.013,-0.229,-0.257,-0.275,0.324,0.0,-0.0,0.0,0.033,0.016,0.004,0.006,0.018,0.003,0.025,0.018,0.006,0.014,1.5,0.0,0.066,0.0,-0.014,0.027,0.043,-0.114,0.018,0.018,0.021,0.008,0.427,0.007,-0.044,-0.045,0.056,0.067,0.012,0.008,0.092,-0.017,0.023,-0.041,0.015,0.026,0.013,-0.017,0.005,0.0,-0.0,0.0,0.0
0.915,-0.915,-0.918,-0.911,8.372,0.001,0.627,2.72,1.003,-0.001,0.0,1.051,0.087,0.009,0.063,0.004,1.82,1.239,0.095,0.073,0.342,0.324,0.324,0.25,-0.0,-0.232,-0.25,-0.29,0.293,0.0,-0.0,0.0,0.013,0.035,0.002,0.016,0.04,0.002,0.04,0.293,0.003,0.027,1.489,0.0,0.125,0.001,-0.039,0.042,0.157,-0.031,0.009,-0.02,0.011,0.015,0.42,0.012,0.082,-0.056,0.08,-0.016,0.015,0.12,0.17,-0.012,0.055,0.002,0.016,0.02,0.013,0.043,0.031,0.0,-0.0,0.0,0.0
0.907,-0.907,-0.912,-0.893,8.223,-0.0,1.287,2.705,1.002,0.15,-0.0,0.521,0.166,0.01,0.042,0.07,1.942,1.354,0.098,0.088,0.287,0.228,0.226,0.359,0.006,-0.308,-0.358,-0.39,0.186,0.0,-0.0,0.003,0.06,0.028,0.005,0.073,0.093,0.003,0.085,0.24,0.004,0.024,1.491,0.001,0.138,0.001,-0.064,0.045,0.191,-0.064,0.045,0.042,0.056,0.033,0.416,0.029,0.097,-0.157,0.175,-0.031,0.046,0.094,0.256,0.079,0.067,0.004,0.025,0.032,0.021,0.061,0.046,0.001,0.0,-0.0,-0.0
0.903,-0.903,-0.907,-0.896,8.156,0.0,1.341,2.698,1.0,0.005,-0.0,0.519,0.035,0.001,-0.173,0.023,1.945,1.342,0.036,0.026,0.252,0.228,0.227,0.366,0.004,-0.359,-0.366,-0.377,0.212,0.0,0.0,0.0,0.025,0.011,0.003,0.006,0.014,0.003,0.025,0.003,0.005,0.01,1.497,0.0,0.05,0.0,0.012,0.02,0.025,-0.127,0.019,0.043,0.022,0.012,0.421,0.009,-0.035,-0.027,0.039,-0.057,0.01,0.023,0.07,-0.013,0.015,-0.007,0.005,0.004,0.004,0.009,0.002,0.0,-0.0,0.0,0.0
0.896,-0.896,-0.9,-0.89,8.032,0.0,1.386,2.683,1.0,0.009,-0.0,0.581,0.006,0.0,0.022,0.033,1.952,1.328,0.005,0.004,0.245,0.241,0.241,0.372,0.011,-0.366,-0.372,-0.381,0.237,0.0,-0.0,0.0,0.006,0.008,0.003,0.005,0.016,0.002,0.022,-0.002,0.005,0.006,1.51,0.0,0.011,0.0,-0.022,0.008,0.001,-0.02,0.004,-0.014,0.005,0.002,0.431,0.002,-0.01,-0.03,0.032,0.004,0.002,0.032,0.05,-0.017,0.02,0.009,0.005,0.01,0.005,0.019,0.004,0.0,0.0,-0.0,-0.0
0.897,-0.897,-0.902,-0.895,8.041,-0.0,1.41,2.681,1.0,0.002,-0.0,0.565,0.01,0.0,0.006,-0.019,1.957,1.332,0.006,0.005,0.24,0.238,0.238,0.376,0.003,-0.367,-0.376,-0.379,0.235,0.0,-0.0,0.0,0.01,0.009,0.002,0.005,0.016,0.001,0.022,-0.003,0.002,0.008,1.51,0.0,0.016,0.0,-0.02,0.015,0.002,-0.022,0.006,-0.009,0.007,0.002,0.43,0.002,-0.014,-0.032,0.031,0.025,0.005,0.027,0.049,-0.004,0.017,-0.002,0.003,0.003,0.002,0.014,0.003,0.0,-0.0,-0.0,0.0
0.896,-0.896,-0.907,-0.885,8.027,0.0,1.408,2.68,1.0,0.028,0.0,0.581,0.034,0.0,0.062,-0.103,1.956,1.33,0.022,0.019,0.252,0.241,0.241,0.375,0.017,-0.36,-0.375,-0.39,0.228,0.0,0.0,0.0,0.01,0.024,0.007,0.004,0.017,0.006,0.019,-0.005,0.008,0.018,1.512,0.0,0.036,0.001,-0.014,0.021,0.013,-0.075,0.009,0.014,0.012,0.007,0.431,0.006,-0.028,-0.034,0.036,-0.019,0.008,0.066,0.067,-0.022,0.03,-0.011,0.009,0.011,0.007,0.019,0.009,0.0,-0.0,0.0,0.0
0.926,-0.925,-0.956,-0.887,8.569,-0.0,0.933,2.756,1.003,0.029,0.001,0.552,0.025,0.0,-0.005,0.274,1.868,1.336,0.018,0.016,0.25,0.235,0.235,0.305,0.056,-0.22,-0.3,-0.385,0.223,0.0,-0.0,0.0,0.023,0.051,0.022,0.032,0.076,0.019,0.057,-0.032,0.036,0.04,1.46,0.0,0.066,0.003,-0.055,0.05,0.043,-0.095,0.014,-0.03,0.015,0.01,0.4,0.009,-0.063,-0.076,0.15,0.034,0.018,-0.049,0.258,-0.127,0.149,-0.235,0.057,0.102,0.052,-0.14,0.223,0.003,-0.0,-0.0,0.0
0.962,-0.962,-0.967,-0.952,9.259,0.0,0.311,2.864,1.004,0.024,0.001,0.508,0.021,0.0,-0.064,-0.171,1.735,1.344,0.022,0.016,0.234,0.225,0.225,0.176,0.022,-0.155,-0.175,-0.22,0.218,0.0,0.0,0.0,0.021,0.058,0.005,0.007,0.017,0.004,0.027,0.026,0.006,0.053,1.363,0.0,0.031,0.003,-0.023,0.094,0.01,-0.06,0.012,-0.003,0.014,0.005,0.328,0.004,-0.023,-0.048,0.044,0.002,0.006,0.023,0.104,-0.094,0.074,-0.155,0.022,0.024,0.019,-0.046,0.055,0.0,0.0,0.0,0.0
0.953,-0.953,-0.966,-0.928,9.082,-0.0,0.477,2.832,1.003,-0.024,0.001,0.528,0.043,0.001,-0.205,-0.374,1.769,1.34,0.032,0.028,0.244,0.23,0.23,0.218,-0.001,-0.158,-0.213,-0.295,0.222,0.0,0.0,0.0,0.008,0.084,0.012,0.001,0.013,0.011,0.009,0.074,0.021,0.075,1.396,0.0,0.037,0.007,0.003,0.115,0.013,-0.019,0.006,0.024,0.008,0.006,0.354,0.004,0.017,-0.009,0.151,0.002,0.006,0.282,0.184,0.039,0.174,0.026,0.047,0.087,0.042,0.153,0.304,0.002,0.0,-0.0,-0.0
0.906,-0.906,-0.921,-0.897,8.213,0.0,1.254,2.702,1.0,0.018,-0.0,0.542,0.033,0.001,-0.087,-0.007,1.936,1.334,0.027,0.021,0.243,0.233,0.233,0.354,-0.021,-0.31,-0.353,-0.379,0.222,0.0,-0.0,0.001,0.032,0.043,0.007,0.008,0.018,0.006,0.028,0.045,0.009,0.037,1.492,0.0,0.027,0.002,-0.014,0.057,0.007,-0.037,0.021,0.008,0.025,0.007,0.423,0.006,0.007,-0.064,0.112,0.139,0.013,0.136,0.127,0.083,0.096,0.01,0.024,0.036,0.021,0.085,0.091,0.001,0.0,0.0,-0.0
0.898,-0.898,-0.903,-0.894,8.064,0.0,1.396,2.684,1.0,-0.007,-0.0,0.551,0.009,0.0,0.008,0.014,1.954,1.334,0.009,0.007,0.238,0.235,0.235,0.374,0.009,-0.364,-0.374,-0.382,0.229,0.0,-0.0,0.0,0.012,0.011,0.003,0.002,0.012,0.003,0.014,0.01,0.004,0.01,1.506,0.0,0.014,0.0,-0.012,0.015,0.002,-0.021,0.006,0.002,0.007,0.003,0.429,0.002,-0.011,-0.02,0.022,0.018,0.003,0.019,0.038,-0.022,0.013,-0.015,0.006,0.011,0.005,0.007,0.002,0.0,0.0,-0.0,-0.0
0.897,-0.897,-0.901,-0.895,8.046,0.0,1.413,2.682,1.001,0.007,0.0,0.558,0.003,0.0,0.015,0.023,1.957,1.333,0.004,0.003,0.239,0.236,0.236,0.376,-0.007,-0.369,-0.376,-0.379,0.234,0.0,-0.0,0.0,0.002,0.005,0.002,0.003,0.014,0.001,0.016,-0.005,0.002,0.005,1.509,0.0,0.011,0.0,-0.016,0.008,0.001,-0.018,0.002,-0.011,0.004,0.002,0.43,0.001,-0.01,-0.025,0.028,0.003,0.002,0.026,0.046,0.017,0.021,0.009,0.003,0.003,0.002,0.02,0.004,0.0,-0.0,-0.0,0.0
0.897,-0.897,-0.901,-0.893,8.044,-0.0,1.416,2.684,1.001,-0.008,-0.0,0.557,0.005,0.0,0.027,0.078,1.954,1.332,0.007,0.004,0.238,0.236,0.236,0.376,0.005,-0.37,-0.376,-0.385,0.228,0.0,-0.0,0.0,0.006,0.014,0.002,0.005,0.014,0.002,0.022,-0.001,0.004,0.011,1.509,0.0,0.019,0.0,-0.021,0.013,0.004,-0.028,0.005,-0.009,0.006,0.003,0.43,0.002,-0.018,-0.029,0.031,-0.011,0.002,0.036,0.051,-0.02,0.015,-0.018,0.005,0.007,0.005,0.007,0.002,0.0,0.0,-0.0,-0.0
0.897,-0.897,-0.904,-0.892,8.052,0.0,1.412,2.681,1.001,-0.006,-0.0,0.55,0.003,0.0,-0.001,-0.018,1.958,1.334,0.003,0.002,0.237,0.235,0.234,0.376,-0.005,-0.36,-0.376,-0.382,0.232,0.0,0.0,0.0,0.008,0.005,0.004,0.003,0.015,0.003,0.017,-0.003,0.004,0.004,1.508,0.0,0.009,0.0,-0.017,0.006,0.001,-0.015,0.004,-0.01,0.005,0.002,0.43,0.001,-0.008,-0.024,0.03,-0.015,0.002,0.027,0.046,0.006,0.022,0.01,0.006,0.007,0.005,0.021,0.005,0.0,0.0,-0.0,-0.0
0.894,-0.894,-0.899,-0.89,7.994,0.0,1.466,2.678,1.0,-0.009,0.0,0.542,0.005,0.0,-0.001,0.048,1.965,1.336,0.004,0.004,0.237,0.233,0.233,0.383,-0.003,-0.378,-0.383,-0.388,0.23,0.0,0.0,0.0,0.006,0.009,0.002,0.004,0.018,0.002,0.021,-0.008,0.002,0.007,1.51,0.0,0.016,0.0,-0.02,0.007,0.003,-0.023,0.004,-0.013,0.006,0.002,0.43,0.001,-0.015,-0.034,0.034,0.01,0.002,0.037,0.054,0.001,0.021,0.007,0.003,0.005,0.003,0.019,0.004,0.0,-0.0,-0.0,0.0
0.905,-0.904,-0.933,-0.887,8.184,-0.0,1.35,2.68,1.001,0.013,0.0,0.485,0.08,0.002,-0.252,0.416,1.962,1.344,0.045,0.039,0.24,0.22,0.22,0.367,-0.01,-0.3,-0.366,-0.403,0.184,0.0,0.0,0.001,0.05,0.101,0.016,0.035,0.06,0.014,0.059,0.089,0.026,0.092,1.49,0.0,0.047,0.01,-0.05,0.168,0.022,-0.043,0.029,-0.004,0.032,0.017,0.428,0.015,0.015,-0.097,0.129,0.071,0.027,0.067,0.204,0.035,0.134,-0.231,0.033,0.05,0.029,-0.088,0.18,0.001,0.0,0.0,-0.0
0.95,-0.949,-0.955,-0.943,9.016,0.0,0.714,2.818,1.001,0.017,0.0,0.298,0.023,0.0,-0.014,-0.068,1.84,1.4,0.014,0.012,0.188,0.173,0.173,0.267,0.006,-0.254,-0.267,-0.283,0.163,0.0,0.0,0.0,0.028,0.035,0.003,0.019,0.022,0.003,0.043,0.018,0.004,0.028,1.389,0.0,0.015,0.001,-0.037,0.05,0.002,-0.023,0.018,-0.001,0.022,0.008,0.352,0.007,-0.005,-0.079,0.048,-0.039,0.01,0.023,0.086,-0.024,0.042,-0.092,0.009,0.016,0.008,-0.023,0.018,0.0,-0.0,-0.0,0.0
0.931,-0.931,-0.955,-0.907,8.675,0.001,0.925,2.763,1.0,-0.053,0.001,0.392,0.064,0.003,-0.165,0.024,1.882,1.366,0.05,0.04,0.23,0.198,0.197,0.304,-0.019,-0.256,-0.302,-0.358,0.159,0.0,-0.0,0.001,0.028,0.038,0.015,0.017,0.042,0.013,0.041,0.006,0.023,0.033,1.43,0.0,0.08,0.001,0.019,0.061,0.064,-0.164,0.028,0.094,0.036,0.022,0.386,0.019,-0.062,-0.033,0.146,-0.085,0.03,0.177,0.216,0.043,0.129,0.057,0.031,0.044,0.026,0.123,0.167,0.001,0.0,-0.0,0.0
0.901,-0.901,-0.905,-0.898,8.125,0.0,1.408,2.692,1.0,-0.013,-0.0,0.475,0.027,0.0,0.099,0.13,1.957,1.351,0.021,0.017,0.231,0.218,0.218,0.375,-0.011,-0.361,-0.375,-0.381,0.201,0.0,-0.0,0.0,0.026,0.031,0.003,0.007,0.026,0.003,0.027,0.009,0.005,0.026,1.494,0.0,0.034,0.001,-0.018,0.038,0.012,-0.062,0.017,0.021,0.021,0.008,0.42,0.007,-0.027,-0.053,0.057,-0.034,0.011,0.086,0.091,0.024,0.047,-0.017,0.006,0.006,0.005,0.036,0.022,0.0,0.0,-0.0,-0.0
0.895,-0.895,-0.899,-0.883,8.003,0.0,1.425,2.682,1.0,-0.067,0.0,0.581,0.037,0.001,-0.004,-0.015,1.958,1.326,0.031,0.023,0.257,0.241,0.241,0.378,0.006,-0.361,-0.377,-0.394,0.222,0.0,-0.0,0.001,0.037,0.019,0.005,0.008,0.016,0.004,0.028,0.022,0.007,0.013,1.513,0.0,0.035,0.0,-0.002,0.008,0.012,-0.091,0.023,0.058,0.028,0.012,0.436,0.01,-0.015,-0.034,0.042,-0.038,0.022,0.056,0.071,-0.041,0.028,-0.005,0.01,0.015,0.008,0.021,0.008,0.0,-0.0,0.0,0.0
0.896,-0.896,-0.902,-0.892,8.035,0.0,1.324,2.68,1.001,-0.056,-0.0,0.668,0.072,0.002,0.142,0.055,1.941,1.302,0.045,0.041,0.281,0.259,0.258,0.364,-0.005,-0.339,-0.364,-0.386,0.232,0.0,0.0,0.001,0.028,0.021,0.003,0.008,0.025,0.003,0.028,-0.013,0.004,0.017,1.518,0.0,0.094,0.0,-0.001,0.026,0.089,-0.145,0.023,0.052,0.028,0.018,0.44,0.017,-0.083,-0.035,0.092,-0.144,0.034,0.007,0.129,-0.026,0.03,-0.062,0.016,0.025,0.015,-0.021,0.009,0.0,-0.0,-0.0,0.0
0.913,-0.913,-0.922,-0.901,8.329,0.001,0.78,2.722,1.002,-0.029,0.001,0.938,0.08,0.006,0.1,-0.045,1.842,1.257,0.08,0.065,0.318,0.306,0.306,0.279,0.014,-0.252,-0.278,-0.333,0.285,0.0,-0.0,0.0,0.018,0.052,0.007,0.005,0.038,0.006,0.022,0.071,0.01,0.041,1.497,0.0,0.121,0.003,-0.018,0.059,0.146,-0.201,0.011,-0.001,0.012,0.009,0.423,0.007,-0.091,-0.039,0.131,0.011,0.009,0.065,0.178,-0.097,0.063,-0.134,0.027,0.025,0.021,-0.035,0.04,0.001,-0.0,0.0,0.0
0.895,-0.895,-0.915,-0.877,8.019,0.001,1.354,2.676,1.0,0.031,0.001,0.639,0.092,0.007,0.024,0.125,1.95,1.31,0.085,0.071,0.303,0.253,0.249,0.368,0.0,-0.257,-0.364,-0.439,0.177,0.0,-0.0,0.001,0.045,0.056,0.012,0.043,0.105,0.01,0.066,0.314,0.015,0.046,1.508,0.002,0.215,0.003,-0.056,0.055,0.461,0.042,0.029,0.005,0.035,0.042,0.429,0.037,0.197,-0.122,0.261,0.153,0.076,0.259,0.394,0.115,0.15,0.078,0.056,0.071,0.047,0.14,0.226,0.003,0.0,-0.0,-0.0
0.876,-0.876,-0.882,-0.863,7.681,-0.0,1.925,2.641,1.0,0.004,-0.0,0.382,0.016,0.0,0.02,0.16,2.023,1.373,0.016,0.011,0.2,0.196,0.196,0.439,0.029,-0.427,-0.439,-0.458,0.184,0.0,0.0,0.0,0.008,0.036,0.005,0.005,0.02,0.004,0.021,0.021,0.004,0.025,1.511,0.0,0.026,0.001,-0.019,0.034,0.007,-0.038,0.007,0.0,0.01,0.004,0.422,0.003,-0.021,-0.037,0.041,-0.008,0.004,0.105,0.072,-0.05,0.039,-0.029,0.009,0.014,0.008,0.014,0.015,0.0,0.0,0.0,-0.0
0.878,-0.878,-0.882,-0.876,7.714,-0.0,1.897,2.644,1.0,-0.002,-0.0,0.383,0.004,0.0,-0.01,-0.049,2.022,1.374,0.005,0.004,0.198,0.196,0.196,0.436,0.004,-0.431,-0.436,-0.441,0.194,0.0,-0.0,0.0,0.005,0.011,0.002,0.003,0.014,0.002,0.018,-0.001,0.002,0.008,1.509,0.0,0.015,0.0,-0.018,0.013,0.002,-0.022,0.004,-0.005,0.005,0.001,0.421,0.001,-0.014,-0.025,0.028,-0.002,0.001,0.021,0.045,-0.004,0.014,-0.017,0.003,0.002,0.002,0.01,0.002,0.0,-0.0,-0.0,0.0
0.879,-0.879,-0.887,-0.868,7.73,0.0,1.859,2.649,1.0,0.023,0.0,0.389,0.085,0.004,-0.018,-0.224,2.015,1.372,0.064,0.059,0.209,0.197,0.197,0.431,-0.034,-0.397,-0.431,-0.464,0.179,0.0,-0.0,0.001,0.019,0.088,0.006,0.017,0.032,0.006,0.041,0.008,0.011,0.079,1.507,0.0,0.087,0.008,-0.029,0.147,0.076,-0.178,0.02,-0.005,0.029,0.007,0.422,0.005,-0.06,-0.11,0.085,0.081,0.004,0.1,0.166,0.082,0.091,-0.154,0.017,0.011,0.012,-0.023,0.082,0.0,-0.0,0.0,0.0
0.958,-0.957,-0.984,-0.901,9.171,0.001,0.503,2.864,1.006,0.033,0.001,0.408,0.044,0.001,0.093,-0.062,1.761,1.372,0.038,0.032,0.214,0.202,0.202,0.224,0.091,-0.074,-0.199,-0.397,0.194,0.001,-0.0,0.0,0.032,0.117,0.027,0.034,0.11,0.022,0.059,-0.044,0.039,0.093,1.358,0.0,0.116,0.014,-0.055,0.123,0.134,-0.18,0.019,-0.03,0.021,0.006,0.33,0.005,-0.11,-0.095,0.32,-0.031,0.008,-0.161,0.482,-0.276,0.339,-0.521,0.103,0.151,0.085,-0.318,1.15,0.011,-0.0,0.0,0.001
0.988,-0.988,-0.993,-0.98,9.76,-0.0,0.004,2.942,1.008,-0.026,0.001,0.387,0.031,0.001,-0.038,-0.273,1.562,1.372,0.027,0.021,0.206,0.197,0.197,0.02,-0.015,0.027,0.006,-0.043,0.183,0.0,0.0,0.0,0.028,0.081,0.004,0.006,0.015,0.003,0.025,0.009,0.005,0.067,1.2,0.0,0.042,0.007,-0.02,0.096,0.018,-0.077,0.014,0.001,0.016,0.007,0.131,0.006,-0.032,-0.047,0.054,-0.1,0.009,0.06,0.118,-0.051,0.096,-0.235,0.019,0.02,0.014,-0.05,0.091,0.0,-0.0,-0.0,0.0
0.97,-0.97,-0.997,-0.933,9.414,0.001,0.343,2.882,1.008,-0.046,0.001,0.393,0.037,0.001,-0.029,-0.411,1.723,1.371,0.033,0.028,0.212,0.198,0.198,0.185,-0.011,0.025,-0.149,-0.297,0.179,0.0,0.001,0.001,0.035,0.077,0.021,0.011,0.084,0.019,0.033,0.147,0.036,0.065,1.322,0.0,0.095,0.006,0.008,0.105,0.091,0.034,0.027,0.059,0.032,0.012,0.314,0.011,0.089,-0.059,0.343,0.029,0.021,0.428,0.43,0.237,0.322,0.181,0.109,0.18,0.098,0.312,1.034,0.012,-0.0,-0.0,-0.0
0.898,-0.898,-0.934,-0.883,8.061,0.0,1.522,2.676,0.999,0.015,0.0,0.42,0.069,0.001,0.038,0.36,1.981,1.362,0.038,0.034,0.215,0.205,0.205,0.39,-0.075,-0.318,-0.389,-0.416,0.193,0.0,-0.0,0.001,0.027,0.112,0.014,0.009,0.034,0.011,0.03,0.041,0.009,0.1,1.491,0.0,0.038,0.012,-0.01,0.201,0.015,-0.06,0.021,0.057,0.028,0.007,0.418,0.006,-0.006,-0.05,0.088,0.062,0.011,0.287,0.173,0.157,0.154,-0.03,0.03,0.015,0.023,0.106,0.238,0.001,0.0,0.0,-0.0
0.889,-0.889,-0.902,-0.883,7.898,0.0,1.626,2.665,1.0,-0.007,0.0,0.466,0.007,0.0,0.019,0.048,1.988,1.353,0.008,0.006,0.22,0.216,0.216,0.403,-0.024,-0.382,-0.403,-0.411,0.212,0.0,0.0,0.0,0.016,0.016,0.005,0.001,0.012,0.003,0.011,0.008,0.004,0.011,1.508,0.0,0.016,0.0,-0.005,0.01,0.003,-0.023,0.009,0.01,0.009,0.003,0.426,0.003,-0.014,-0.017,0.024,0.021,0.006,0.061,0.044,0.036,0.025,0.003,0.008,0.005,0.005,0.019,0.006,0.0,0.0,0.0,-0.0
0.885,-0.885,-0.887,-0.88,7.829,0.0,1.674,2.658,1.0,0.001,0.0,0.492,0.006,0.0,-0.014,0.031,1.991,1.346,0.004,0.003,0.224,0.222,0.222,0.409,0.003,-0.405,-0.409,-0.417,0.219,0.0,-0.0,0.0,0.004,0.012,0.002,0.003,0.015,0.002,0.016,-0.003,0.002,0.008,1.516,0.0,0.01,0.0,-0.016,0.005,0.001,-0.014,0.004,-0.009,0.005,0.002,0.432,0.002,-0.01,-0.026,0.028,0.018,0.003,0.04,0.043,-0.007,0.021,-0.003,0.004,0.003,0.003,0.017,0.004,0.0,0.0,0.0,-0.0
0.883,-0.883,-0.888,-0.877,7.793,0.0,1.716,2.652,1.0,-0.011,0.0,0.491,0.003,0.0,0.005,-0.021,1.998,1.348,0.004,0.003,0.226,0.222,0.222,0.414,-0.01,-0.407,-0.414,-0.421,0.219,0.0,0.0,0.0,0.008,0.005,0.003,0.003,0.016,0.002,0.018,-0.003,0.002,0.004,1.519,0.0,0.012,0.0,-0.017,0.007,0.002,-0.017,0.006,-0.005,0.007,0.002,0.434,0.002,-0.012,-0.028,0.03,0.035,0.003,0.028,0.048,0.01,0.02,0.011,0.004,0.005,0.003,0.02,0.004,0.0,0.0,-0.0,-0.0
0.88,-0.88,-0.884,-0.876,7.742,0.0,1.754,2.646,1.0,-0.025,-0.0,0.502,0.004,0.0,0.018,-0.014,2.002,1.344,0.015,0.008,0.229,0.224,0.224,0.419,-0.002,-0.412,-0.419,-0.426,0.217,0.0,0.0,0.0,0.01,0.007,0.002,0.001,0.011,0.002,0.01,0.028,0.004,0.006,1.523,0.0,0.019,0.0,-0.008,0.007,0.003,-0.034,0.005,0.0,0.006,0.004,0.435,0.004,-0.012,-0.015,0.026,-0.019,0.009,0.03,0.04,-0.011,0.016,0.006,0.004,0.004,0.003,0.015,0.003,0.0,0.0,-0.0,-0.0
0.879,-0.879,-0.885,-0.876,7.723,0.0,1.712,2.644,1.0,0.014,-0.0,0.558,0.017,0.0,-0.079,-0.056,1.998,1.333,0.021,0.016,0.25,0.236,0.236,0.414,0.006,-0.405,-0.414,-0.418,0.23,0.0,0.0,0.0,0.023,0.013,0.003,0.007,0.012,0.002,0.026,0.005,0.004,0.009,1.529,0.0,0.026,0.0,-0.016,0.006,0.007,-0.072,0.016,0.018,0.02,0.005,0.44,0.004,-0.016,-0.043,0.033,0.036,0.004,0.026,0.054,0.011,0.015,-0.019,0.004,0.005,0.003,0.008,0.002,0.0,-0.0,0.0,0.0
0.878,-0.878,-0.886,-0.872,7.716,0.0,1.765,2.641,1.0,-0.031,-0.0,0.526,0.024,0.0,-0.017,-0.107,2.002,1.337,0.017,0.015,0.237,0.229,0.229,0.42,-0.007,-0.404,-0.42,-0.437,0.215,0.0,0.0,0.0,0.023,0.018,0.005,0.007,0.02,0.004,0.027,0.027,0.008,0.016,1.528,0.0,0.017,0.0,-0.022,0.029,0.003,-0.026,0.014,0.002,0.016,0.008,0.439,0.006,0.002,-0.049,0.048,0.025,0.009,0.057,0.067,-0.008,0.035,0.002,0.011,0.018,0.009,0.03,0.012,0.0,-0.0,-0.0,0.0
0.872,-0.871,-0.875,-0.862,7.595,-0.0,1.892,2.633,0.999,-0.006,0.0,0.497,0.007,0.0,0.027,0.063,2.019,1.346,0.008,0.006,0.229,0.223,0.223,0.435,-0.009,-0.427,-0.435,-0.448,0.217,0.0,-0.0,0.0,0.008,0.015,0.004,0.002,0.012,0.003,0.014,-0.001,0.002,0.014,1.529,0.0,0.022,0.0,-0.013,0.029,0.005,-0.03,0.004,-0.007,0.005,0.003,0.438,0.002,-0.02,-0.02,0.032,0.015,0.002,0.033,0.047,0.008,0.018,-0.007,0.006,0.006,0.005,0.009,0.003,0.0,-0.0,0.0,0.0
0.875,-0.874,-0.879,-0.87,7.648,0.0,1.809,2.635,1.0,-0.005,0.0,0.54,0.003,0.0,0.01,0.003,2.01,1.336,0.003,0.002,0.236,0.232,0.232,0.425,-0.003,-0.417,-0.425,-0.431,0.23,0.0,0.0,0.0,0.004,0.005,0.003,0.001,0.01,0.002,0.01,-0.008,0.004,0.004,1.532,0.0,0.015,0.0,-0.009,0.002,0.002,-0.019,0.002,-0.004,0.003,0.002,0.442,0.002,-0.015,-0.013,0.02,-0.004,0.004,0.021,0.032,0.002,0.009,0.002,0.004,0.004,0.003,0.008,0.001,0.0,-0.0,0.0,0.0
0.873,-0.873,-0.876,-0.869,7.621,0.0,1.791,2.634,1.0,0.006,0.0,0.58,0.007,0.0,0.022,-0.012,2.008,1.328,0.005,0.004,0.251,0.241,0.241,0.423,0.0,-0.419,-0.423,-0.429,0.237,0.0,0.0,0.0,0.009,0.006,0.002,0.001,0.012,0.002,0.008,-0.004,0.002,0.004,1.537,0.0,0.014,0.0,-0.004,0.004,0.002,-0.02,0.006,0.008,0.007,0.004,0.446,0.003,-0.013,-0.011,0.022,0.021,0.004,0.031,0.036,-0.01,0.017,0.007,0.003,0.006,0.003,0.016,0.003,0.0,0.0,0.0,-0.0
0.869,-0.868,-0.872,-0.865,7.543,0.0,1.848,2.624,1.0,0.008,-0.0,0.606,0.004,0.0,-0.007,-0.061,2.013,1.322,0.003,0.002,0.254,0.246,0.246,0.43,0.004,-0.424,-0.43,-0.438,0.239,0.0,-0.0,0.0,0.008,0.01,0.002,0.006,0.016,0.002,0.024,-0.005,0.003,0.008,1.545,0.0,0.009,0.0,-0.022,0.013,0.001,-0.014,0.007,0.002,0.009,0.005,0.452,0.004,-0.009,-0.031,0.037,0.042,0.008,0.044,0.056,0.004,0.026,0.012,0.006,0.012,0.005,0.024,0.007,0.0,0.0,0.0,0.0
0.867,-0.867,-0.872,-0.861,7.512,-0.0,1.877,2.618,0.999,-0.018,-0.0,0.597,0.005,0.0,-0.012,-0.007,2.021,1.324,0.003,0.003,0.249,0.244,0.244,0.433,-0.006,-0.427,-0.433,-0.437,0.239,0.0,0.0,0.0,0.017,0.007,0.003,0.004,0.011,0.002,0.021,-0.011,0.004,0.006,1.544,0.0,0.016,0.0,-0.018,0.009,0.002,-0.019,0.008,-0.008,0.01,0.003,0.452,0.003,-0.016,-0.034,0.024,0.025,0.005,0.017,0.04,-0.003,0.008,-0.01,0.004,0.007,0.003,0.004,0.001,0.0,0.0,0.0,0.0
0.881,-0.881,-0.891,-0.871,7.76,-0.0,1.647,2.652,1.0,-0.002,-0.0,0.594,0.01,0.0,0.037,0.038,1.982,1.325,0.007,0.006,0.251,0.244,0.244,0.406,0.031,-0.388,-0.406,-0.429,0.238,0.0,-0.0,0.0,0.01,0.045,0.007,0.004,0.017,0.006,0.019,-0.01,0.011,0.038,1.53,0.0,0.021,0.002,-0.018,0.066,0.005,-0.033,0.006,-0.006,0.007,0.003,0.442,0.003,-0.02,-0.028,0.038,-0.001,0.003,0.038,0.075,-0.062,0.048,-0.107,0.013,0.019,0.012,-0.018,0.023,0.0,0.0,0.0,-0.0
0.885,-0.885,-0.888,-0.88,7.827,-0.0,1.589,2.656,1.001,0.026,0.001,0.593,0.026,0.0,0.012,-0.005,1.982,1.325,0.018,0.016,0.251,0.244,0.244,0.399,0.006,-0.388,-0.399,-0.406,0.237,0.0,-0.0,0.0,0.018,0.016,0.003,0.007,0.016,0.003,0.027,0.0,0.005,0.012,1.527,0.0,0.03,0.0,-0.024,0.017,0.009,-0.054,0.01,-0.008,0.012,0.005,0.441,0.005,-0.024,-0.042,0.046,-0.062,0.009,0.052,0.067,0.016,0.024,-0.001,0.005,0.008,0.004,0.019,0.006,0.0,0.0,-0.0,0.0
0.662,-0.662,-0.69,-0.64,4.381,-0.0,5.305,2.286,0.998,0.048,-0.0,0.278,0.052,0.007,0.437,-0.094,2.4,1.404,0.084,0.064,0.194,0.167,0.166,0.728,-0.069,-0.69,-0.728,-0.753,0.131,0.0,0.0,0.004,0.052,0.048,0.019,0.04,0.046,0.017,0.064,0.146,0.037,0.041,1.556,0.0,0.085,0.002,-0.017,0.07,0.073,-0.105,0.045,0.112,0.061,0.017,0.432,0.013,-0.016,-0.122,0.149,0.036,0.018,0.176,0.217,0.071,0.111,0.036,0.019,0.023,0.016,0.1,0.123,0.0,0.0,-0.0,-0.0
0.62,-0.62,-0.644,-0.603,3.844,-0.0,5.739,2.23,0.998,-0.054,0.0,0.41,0.052,0.002,-0.1,0.015,2.436,1.364,0.041,0.035,0.219,0.203,0.202,0.758,-0.066,-0.735,-0.758,-0.77,0.175,0.0,-0.0,0.0,0.037,0.025,0.015,0.006,0.029,0.014,0.025,0.033,0.029,0.021,1.579,0.0,0.052,0.001,0.013,0.031,0.027,-0.099,0.019,0.042,0.022,0.014,0.457,0.012,-0.031,-0.023,0.06,-0.132,0.022,0.102,0.113,0.032,0.057,0.024,0.01,0.004,0.007,0.052,0.033,0.0,-0.0,0.0,-0.0
0.6,-0.6,-0.607,-0.596,3.601,0.0,5.906,2.214,1.0,-0.004,-0.0,0.494,0.013,0.0,-0.022,0.032,2.448,1.347,0.007,0.006,0.226,0.222,0.222,0.769,0.014,-0.759,-0.769,-0.772,0.221,0.0,0.0,0.0,0.011,0.011,0.003,0.005,0.018,0.003,0.023,-0.017,0.005,0.009,1.591,0.0,0.026,0.0,-0.02,0.012,0.007,-0.037,0.008,-0.001,0.01,0.001,0.468,0.001,-0.025,-0.034,0.037,0.047,0.002,0.031,0.06,-0.012,0.018,-0.003,0.004,0.005,0.003,0.014,0.003,0.0,0.0,0.0,-0.0
0.604,-0.604,-0.61,-0.601,3.653,0.0,5.826,2.22,0.998,0.002,-0.0,0.496,0.005,0.0,0.005,-0.046,2.44,1.346,0.005,0.004,0.226,0.223,0.223,0.763,0.008,-0.76,-0.763,-0.766,0.219,0.0,0.0,0.0,0.006,0.009,0.003,0.004,0.016,0.002,0.02,-0.009,0.003,0.008,1.59,0.0,0.018,0.0,-0.02,0.013,0.003,-0.027,0.004,-0.012,0.005,0.002,0.469,0.002,-0.017,-0.027,0.028,0.011,0.004,0.029,0.05,-0.006,0.016,-0.002,0.002,0.003,0.002,0.013,0.003,0.0,-0.0,0.0,0.0
0.602,-0.601,-0.604,-0.598,3.618,-0.0,5.854,2.218,0.999,-0.002,-0.0,0.502,0.005,0.0,0.004,-0.011,2.443,1.345,0.003,0.002,0.226,0.224,0.224,0.765,-0.003,-0.762,-0.765,-0.769,0.222,0.0,-0.0,0.0,0.002,0.003,0.002,0.003,0.016,0.001,0.017,-0.01,0.002,0.003,1.591,0.0,0.016,0.0,-0.017,0.004,0.002,-0.018,0.001,-0.015,0.001,0.001,0.469,0.001,-0.015,-0.02,0.028,0.006,0.002,0.021,0.048,0.003,0.016,0.01,0.002,0.002,0.001,0.016,0.003,0.0,-0.0,-0.0,0.0
0.599,-0.599,-0.602,-0.594,3.589,-0.0,5.883,2.214,0.999,0.001,0.0,0.507,0.003,0.0,0.002,-0.009,2.446,1.344,0.003,0.002,0.227,0.225,0.225,0.767,-0.0,-0.765,-0.767,-0.77,0.224,0.0,0.0,0.0,0.003,0.002,0.002,0.003,0.015,0.002,0.017,-0.01,0.003,0.002,1.591,0.0,0.014,0.0,-0.016,0.003,0.002,-0.021,0.002,-0.014,0.002,0.001,0.469,0.001,-0.013,-0.021,0.027,0.006,0.002,0.023,0.047,-0.0,0.017,0.014,0.001,0.002,0.001,0.017,0.003,0.0,-0.0,-0.0,0.0
0.596,-0.596,-0.598,-0.592,3.551,0.0,5.92,2.21,0.999,0.001,-0.0,0.508,0.001,0.0,0.01,0.001,2.449,1.343,0.002,0.002,0.227,0.225,0.225,0.769,-0.0,-0.767,-0.769,-0.773,0.224,0.0,0.0,0.0,0.003,0.003,0.002,0.003,0.014,0.001,0.017,-0.007,0.002,0.003,1.591,0.0,0.013,0.0,-0.016,0.005,0.002,-0.017,0.002,-0.01,0.003,0.001,0.469,0.001,-0.013,-0.02,0.026,0.015,0.001,0.02,0.044,-0.001,0.015,0.011,0.002,0.002,0.001,0.015,0.002,0.0,0.0,0.0,-0.0
0.595,-0.595,-0.596,-0.592,3.536,-0.0,5.924,2.21,0.999,0.004,0.0,0.509,0.002,0.0,-0.001,0.017,2.45,1.344,0.002,0.001,0.227,0.226,0.225,0.77,-0.001,-0.766,-0.77,-0.772,0.224,0.0,0.0,0.0,0.002,0.003,0.001,0.003,0.015,0.001,0.018,-0.011,0.003,0.003,1.59,0.0,0.014,0.0,-0.018,0.003,0.002,-0.016,0.002,-0.015,0.002,0.001,0.469,0.001,-0.014,-0.021,0.027,0.005,0.001,0.02,0.045,0.001,0.014,0.008,0.002,0.004,0.002,0.014,0.002,0.0,-0.0,0.0,0.0
0.595,-0.594,-0.599,-0.593,3.534,0.0,5.944,2.208,0.999,-0.002,-0.0,0.505,0.012,0.0,0.017,0.0,2.452,1.344,0.008,0.008,0.226,0.225,0.225,0.771,-0.009,-0.769,-0.771,-0.773,0.223,0.0,0.0,0.0,0.001,0.004,0.002,0.003,0.014,0.001,0.016,0.009,0.002,0.003,1.59,0.0,0.011,0.0,-0.016,0.005,0.001,-0.014,0.002,-0.01,0.002,0.001,0.469,0.001,-0.007,-0.018,0.026,0.006,0.001,0.024,0.041,0.007,0.015,0.008,0.001,0.002,0.001,0.014,0.002,0.0,-0.0,-0.0,0.0
0.591,-0.591,-0.595,-0.586,3.495,-0.0,5.968,2.205,0.998,-0.007,-0.0,0.499,0.004,0.0,-0.012,-0.005,2.456,1.345,0.007,0.005,0.225,0.223,0.223,0.773,0.006,-0.768,-0.773,-0.776,0.221,0.0,-0.0,0.0,0.002,0.003,0.002,0.003,0.015,0.002,0.019,-0.012,0.002,0.002,1.587,0.0,0.019,0.0,-0.018,0.004,0.004,-0.034,0.003,-0.013,0.004,0.001,0.467,0.001,-0.017,-0.027,0.026,-0.019,0.001,0.019,0.05,0.001,0.015,0.01,0.002,0.002,0.002,0.015,0.002,0.0,0.0,-0.0,-0.0
0.59,-0.59,-0.592,-0.588,3.485,0.0,5.992,2.203,0.998,-0.003,-0.0,0.499,0.001,0.0,0.001,-0.011,2.458,1.346,0.004,0.003,0.226,0.223,0.223,0.774,0.005,-0.77,-0.774,-0.78,0.219,0.0,0.0,0.0,0.002,0.003,0.001,0.003,0.014,0.001,0.016,-0.002,0.003,0.002,1.588,0.0,0.013,0.0,-0.016,0.002,0.002,-0.021,0.002,-0.013,0.002,0.002,0.468,0.002,-0.012,-0.022,0.024,-0.002,0.003,0.016,0.041,-0.004,0.014,0.005,0.003,0.002,0.002,0.013,0.002,0.0,0.0,0.0,-0.0
0.589,-0.589,-0.59,-0.587,3.465,-0.0,6.014,2.2,1.0,0.003,0.0,0.506,0.002,0.0,0.004,0.01,2.459,1.344,0.002,0.001,0.227,0.225,0.225,0.776,-0.0,-0.774,-0.776,-0.777,0.223,0.0,0.0,0.0,0.005,0.003,0.001,0.003,0.015,0.001,0.017,-0.009,0.002,0.002,1.589,0.0,0.013,0.0,-0.016,0.001,0.002,-0.015,0.003,-0.01,0.003,0.001,0.469,0.001,-0.013,-0.02,0.026,0.016,0.002,0.021,0.044,-0.002,0.015,0.011,0.001,0.001,0.001,0.015,0.002,0.0,-0.0,0.0,0.0
0.587,-0.587,-0.59,-0.586,3.45,-0.0,6.026,2.199,0.999,0.001,-0.0,0.507,0.002,0.0,0.001,0.001,2.461,1.344,0.001,0.001,0.227,0.225,0.225,0.776,0.0,-0.774,-0.776,-0.777,0.224,0.0,-0.0,0.0,0.001,0.003,0.001,0.003,0.015,0.001,0.018,-0.011,0.001,0.002,1.589,0.0,0.014,0.0,-0.017,0.003,0.002,-0.015,0.001,-0.016,0.001,0.001,0.468,0.001,-0.014,-0.019,0.027,-0.004,0.002,0.02,0.046,0.002,0.015,0.012,0.001,0.001,0.001,0.015,0.002,0.0,0.0,-0.0,-0.0
0.586,-0.586,-0.587,-0.583,3.43,-0.0,6.048,2.198,0.999,-0.001,-0.0,0.504,0.002,0.0,-0.007,0.01,2.462,1.344,0.001,0.001,0.226,0.225,0.224,0.778,0.002,-0.776,-0.778,-0.781,0.223,0.0,-0.0,0.0,0.002,0.002,0.001,0.003,0.014,0.001,0.017,-0.011,0.001,0.002,1.588,0.0,0.013,0.0,-0.017,0.002,0.002,-0.015,0.001,-0.015,0.001,0.001,0.468,0.001,-0.013,-0.02,0.025,-0.002,0.001,0.02,0.044,0.0,0.015,0.012,0.002,0.001,0.001,0.014,0.002,0.0,0.0,-0.0,-0.0
0.585,-0.585,-0.588,-0.582,3.423,0.0,6.059,2.197,0.999,0.0,-0.0,0.502,0.003,0.0,-0.018,0.016,2.464,1.345,0.003,0.002,0.225,0.224,0.224,0.778,0.003,-0.776,-0.778,-0.781,0.223,0.0,-0.0,0.0,0.003,0.004,0.002,0.003,0.014,0.001,0.018,-0.008,0.002,0.003,1.588,0.0,0.013,0.0,-0.017,0.002,0.002,-0.017,0.002,-0.014,0.002,0.001,0.467,0.001,-0.013,-0.02,0.024,-0.01,0.002,0.023,0.042,-0.004,0.013,0.007,0.001,0.001,0.001,0.012,0.002,0.0,0.0,0.0,-0.0
0.583,-0.583,-0.586,-0.581,3.4,-0.0,6.082,2.194,0.999,-0.002,0.0,0.5,0.013,0.0,-0.005,0.015,2.466,1.346,0.008,0.007,0.227,0.224,0.224,0.78,-0.003,-0.777,-0.78,-0.782,0.218,0.0,-0.0,0.0,0.007,0.004,0.001,0.003,0.015,0.001,0.018,-0.001,0.001,0.003,1.587,0.0,0.015,0.0,-0.017,0.006,0.002,-0.026,0.004,-0.009,0.005,0.002,0.467,0.002,-0.013,-0.026,0.028,-0.007,0.002,0.021,0.046,-0.001,0.016,0.011,0.002,0.002,0.001,0.016,0.003,0.0,0.0,-0.0,-0.0
0.582,-0.582,-0.584,-0.578,3.387,0.0,6.095,2.193,0.999,0.002,-0.0,0.499,0.004,0.0,0.004,0.007,2.468,1.346,0.002,0.002,0.225,0.223,0.223,0.781,0.001,-0.779,-0.781,-0.782,0.222,0.0,-0.0,0.0,0.002,0.003,0.002,0.004,0.016,0.001,0.019,-0.012,0.002,0.002,1.586,0.0,0.015,0.0,-0.019,0.002,0.002,-0.018,0.001,-0.016,0.002,0.001,0.466,0.001,-0.015,-0.022,0.028,-0.003,0.002,0.021,0.048,-0.0,0.014,0.009,0.001,0.002,0.001,0.014,0.002,0.0,0.0,-0.0,-0.0
0.582,-0.581,-0.583,-0.579,3.381,0.0,6.114,2.192,0.999,0.005,0.0,0.499,0.002,0.0,0.007,0.02,2.468,1.345,0.003,0.002,0.225,0.223,0.223,0.782,0.002,-0.78,-0.782,-0.786,0.221,0.0,0.0,0.0,0.004,0.004,0.001,0.003,0.015,0.001,0.017,-0.01,0.002,0.004,1.587,0.0,0.015,0.0,-0.017,0.007,0.002,-0.022,0.002,-0.014,0.002,0.001,0.467,0.001,-0.015,-0.021,0.026,-0.004,0.001,0.022,0.046,-0.003,0.015,0.009,0.002,0.003,0.001,0.014,0.002,0.0,0.0,0.0,0.0
0.582,-0.582,-0.583,-0.58,3.385,0.0,6.1,2.192,0.999,0.002,0.0,0.504,0.002,0.0,0.004,-0.005,2.468,1.344,0.002,0.002,0.226,0.224,0.224,0.781,0.001,-0.779,-0.781,-0.784,0.222,0.0,-0.0,0.0,0.001,0.003,0.001,0.003,0.014,0.001,0.017,-0.011,0.002,0.002,1.587,0.0,0.014,0.0,-0.017,0.003,0.002,-0.017,0.001,-0.015,0.001,0.001,0.467,0.001,-0.014,-0.019,0.025,-0.003,0.001,0.016,0.043,-0.001,0.012,0.007,0.001,0.002,0.001,0.012,0.001,0.0,-0.0,0.0,-0.0
0.583,-0.583,-0.588,-0.58,3.399,0.0,6.084,2.194,1.0,0.002,0.0,0.499,0.013,0.0,-0.001,0.01,2.466,1.345,0.008,0.008,0.225,0.223,0.223,0.78,-0.008,-0.777,-0.78,-0.782,0.22,0.0,0.0,0.0,0.005,0.006,0.002,0.002,0.014,0.002,0.015,0.008,0.003,0.004,1.586,0.0,0.01,0.0,-0.014,0.003,0.001,-0.014,0.004,-0.004,0.005,0.001,0.467,0.001,-0.006,-0.021,0.024,-0.001,0.001,0.018,0.035,0.003,0.012,-0.004,0.001,0.002,0.001,0.011,0.001,0.0,0.0,0.0,-0.0
0.585,-0.585,-0.591,-0.58,3.42,-0.0,6.075,2.194,0.999,0.004,-0.0,0.484,0.003,0.0,0.027,-0.008,2.467,1.349,0.005,0.004,0.222,0.22,0.22,0.779,0.011,-0.772,-0.779,-0.783,0.218,0.0,-0.0,0.0,0.006,0.004,0.003,0.004,0.014,0.003,0.019,-0.004,0.004,0.003,1.584,0.0,0.014,0.0,-0.018,0.007,0.002,-0.02,0.004,-0.005,0.006,0.001,0.464,0.001,-0.014,-0.025,0.026,0.028,0.002,0.015,0.041,-0.01,0.01,0.005,0.003,0.004,0.002,0.01,0.001,0.0,0.0,-0.0,-0.0
0.587,-0.587,-0.589,-0.585,3.442,0.0,6.068,2.198,1.0,-0.001,0.0,0.484,0.001,0.0,-0.003,0.007,2.464,1.349,0.002,0.001,0.222,0.22,0.22,0.779,-0.004,-0.778,-0.779,-0.78,0.219,0.0,-0.0,0.0,0.001,0.004,0.001,0.003,0.016,0.001,0.018,-0.011,0.002,0.003,1.586,0.0,0.014,0.0,-0.018,0.005,0.002,-0.017,0.001,-0.016,0.001,0.001,0.465,0.001,-0.014,-0.019,0.028,0.003,0.002,0.021,0.046,-0.001,0.014,0.007,0.001,0.002,0.001,0.014,0.002,0.0,-0.0,-0.0,0.0
0.587,-0.587,-0.598,-0.583,3.447,-0.0,6.044,2.197,1.0,0.005,0.0,0.493,0.005,0.0,-0.005,-0.007,2.465,1.347,0.005,0.004,0.229,0.222,0.222,0.777,-0.015,-0.765,-0.777,-0.782,0.217,0.0,-0.0,0.0,0.008,0.02,0.005,0.002,0.013,0.004,0.014,-0.007,0.001,0.017,1.586,0.0,0.017,0.0,-0.012,0.032,0.003,-0.024,0.005,0.002,0.006,0.003,0.466,0.003,-0.016,-0.02,0.027,-0.01,0.004,0.023,0.046,0.016,0.02,-0.034,0.005,0.003,0.004,-0.001,0.004,0.0,-0.0,-0.0,0.0
0.604,-0.604,-0.619,-0.595,3.65,-0.0,5.831,2.22,0.999,0.005,0.0,0.504,0.023,0.001,-0.116,-0.085,2.442,1.344,0.024,0.017,0.235,0.225,0.224,0.764,-0.005,-0.753,-0.764,-0.774,0.217,0.0,-0.0,0.0,0.018,0.02,0.007,0.009,0.014,0.006,0.03,0.023,0.011,0.016,1.592,0.0,0.026,0.0,-0.028,0.02,0.007,-0.071,0.01,-0.009,0.011,0.005,0.47,0.005,-0.011,-0.044,0.04,0.032,0.008,0.019,0.061,0.004,0.021,-0.04,0.006,0.007,0.005,-0.007,0.004,0.0,0.0,0.0,-0.0
0.626,-0.626,-0.639,-0.618,3.924,-0.0,5.564,2.244,0.999,-0.001,0.0,0.481,0.006,0.0,-0.001,0.017,2.419,1.349,0.007,0.004,0.224,0.219,0.219,0.746,-0.005,-0.733,-0.746,-0.754,0.214,0.0,-0.0,0.0,0.012,0.019,0.007,0.003,0.011,0.006,0.018,0.005,0.011,0.017,1.592,0.0,0.014,0.0,-0.016,0.036,0.002,-0.02,0.007,-0.001,0.009,0.003,0.469,0.003,-0.012,-0.032,0.028,-0.048,0.004,0.01,0.047,0.008,0.024,-0.04,0.007,0.011,0.006,-0.014,0.006,0.0,-0.0,0.0,0.0
0.634,-0.634,-0.637,-0.63,4.015,-0.0,5.472,2.257,0.998,0.004,0.0,0.483,0.009,0.0,-0.015,-0.024,2.406,1.35,0.009,0.008,0.225,0.22,0.22,0.74,0.006,-0.736,-0.74,-0.743,0.216,0.0,-0.0,0.0,0.015,0.005,0.002,0.009,0.022,0.002,0.03,-0.017,0.004,0.005,1.593,0.0,0.027,0.0,-0.028,0.008,0.007,-0.046,0.01,-0.015,0.012,0.003,0.469,0.002,-0.026,-0.052,0.04,-0.023,0.003,0.032,0.076,-0.003,0.023,0.017,0.003,0.004,0.002,0.023,0.005,0.0,0.0,-0.0,-0.0
0.628,-0.628,-0.637,-0.622,3.94,0.0,5.553,2.25,0.999,-0.008,0.0,0.504,0.004,0.0,-0.024,0.005,2.412,1.344,0.005,0.004,0.228,0.225,0.224,0.745,-0.018,-0.741,-0.745,-0.751,0.22,0.0,0.0,0.0,0.008,0.007,0.004,0.003,0.014,0.003,0.017,-0.013,0.002,0.006,1.597,0.0,0.019,0.0,-0.015,0.01,0.004,-0.03,0.005,-0.002,0.006,0.003,0.472,0.002,-0.018,-0.023,0.028,0.005,0.004,0.025,0.047,0.015,0.015,0.001,0.003,0.005,0.003,0.013,0.002,0.0,-0.0,0.0,0.0
0.627,-0.627,-0.631,-0.625,3.931,0.0,5.543,2.249,0.999,0.001,0.0,0.51,0.008,0.0,-0.03,0.034,2.412,1.342,0.007,0.006,0.228,0.226,0.226,0.745,-0.002,-0.739,-0.744,-0.749,0.224,0.0,0.0,0.0,0.008,0.007,0.002,0.003,0.016,0.002,0.019,-0.005,0.003,0.005,1.597,0.0,0.017,0.0,-0.018,0.005,0.003,-0.029,0.004,-0.011,0.005,0.001,0.472,0.001,-0.015,-0.024,0.03,-0.008,0.003,0.031,0.052,0.002,0.02,0.006,0.003,0.005,0.003,0.019,0.004,0.0,-0.0,-0.0,-0.0
0.621,-0.621,-0.626,-0.616,3.858,0.0,5.607,2.243,0.999,-0.003,-0.0,0.516,0.003,0.0,-0.016,0.02,2.418,1.342,0.003,0.003,0.231,0.227,0.227,0.749,-0.008,-0.746,-0.749,-0.752,0.222,0.0,0.0,0.0,0.004,0.004,0.003,0.003,0.018,0.003,0.019,-0.013,0.005,0.004,1.597,0.0,0.017,0.0,-0.018,0.005,0.003,-0.023,0.002,-0.012,0.003,0.002,0.473,0.002,-0.016,-0.022,0.03,-0.009,0.002,0.027,0.055,0.008,0.02,0.013,0.002,0.003,0.002,0.02,0.004,0.0,0.0,-0.0,-0.0
0.618,-0.618,-0.621,-0.616,3.819,-0.0,5.643,2.238,0.999,0.001,0.0,0.529,0.007,0.0,0.003,-0.01,2.422,1.34,0.005,0.004,0.233,0.23,0.23,0.751,-0.002,-0.749,-0.751,-0.752,0.228,0.0,0.0,0.0,0.004,0.004,0.002,0.004,0.018,0.001,0.02,-0.008,0.003,0.004,1.599,0.0,0.018,0.0,-0.02,0.007,0.003,-0.024,0.003,-0.016,0.003,0.002,0.474,0.001,-0.017,-0.026,0.032,0.003,0.002,0.024,0.054,0.003,0.018,0.012,0.001,0.001,0.001,0.017,0.003,0.0,-0.0,-0.0,-0.0
0.617,-0.617,-0.62,-0.614,3.811,-0.0,5.642,2.237,1.0,-0.002,-0.0,0.53,0.004,0.0,-0.01,0.012,2.422,1.338,0.002,0.002,0.231,0.23,0.23,0.751,0.001,-0.748,-0.751,-0.753,0.229,0.0,-0.0,0.0,0.002,0.003,0.002,0.003,0.014,0.001,0.017,-0.01,0.001,0.002,1.599,0.0,0.015,0.0,-0.017,0.003,0.002,-0.019,0.002,-0.013,0.002,0.001,0.474,0.001,-0.015,-0.022,0.026,-0.011,0.001,0.019,0.043,-0.001,0.012,0.006,0.001,0.001,0.001,0.011,0.001,0.0,-0.0,-0.0,0.0
0.617,-0.617,-0.619,-0.614,3.812,0.0,5.628,2.237,0.999,0.001,-0.0,0.53,0.002,0.0,0.011,-0.002,2.42,1.338,0.002,0.002,0.232,0.23,0.23,0.75,0.002,-0.749,-0.75,-0.753,0.229,0.0,0.0,0.0,0.003,0.003,0.002,0.003,0.014,0.001,0.016,-0.009,0.003,0.003,1.598,0.0,0.013,0.0,-0.016,0.006,0.002,-0.018,0.002,-0.013,0.002,0.001,0.474,0.001,-0.013,-0.018,0.026,0.008,0.001,0.019,0.044,0.0,0.015,0.009,0.001,0.002,0.001,0.014,0.002,0.0,0.0,0.0,0.0
0.614,-0.614,-0.616,-0.611,3.774,-0.0,5.676,2.233,0.999,0.0,-0.0,0.532,0.003,0.0,0.004,-0.002,2.425,1.338,0.001,0.001,0.232,0.231,0.231,0.753,0.002,-0.751,-0.753,-0.756,0.23,0.0,0.0,0.0,0.001,0.004,0.001,0.003,0.015,0.001,0.017,-0.012,0.002,0.003,1.598,0.0,0.014,0.0,-0.017,0.003,0.002,-0.015,0.002,-0.013,0.002,0.001,0.474,0.001,-0.014,-0.019,0.028,0.007,0.001,0.025,0.046,-0.0,0.016,0.01,0.001,0.001,0.001,0.016,0.003,0.0,0.0,-0.0,-0.0
0.614,-0.614,-0.615,-0.612,3.765,-0.0,5.678,2.233,0.998,-0.0,-0.0,0.532,0.003,0.0,-0.004,-0.001,2.426,1.338,0.001,0.001,0.233,0.231,0.231,0.754,0.001,-0.751,-0.754,-0.755,0.23,0.0,0.0,0.0,0.001,0.002,0.001,0.003,0.015,0.001,0.018,-0.013,0.001,0.002,1.598,0.0,0.015,0.0,-0.018,0.003,0.002,-0.016,0.001,-0.016,0.001,0.001,0.474,0.001,-0.015,-0.019,0.027,0.001,0.001,0.017,0.046,-0.005,0.013,0.009,0.001,0.001,0.001,0.013,0.002,0.0,-0.0,-0.0,0.0
0.614,-0.614,-0.616,-0.611,3.765,-0.0,5.675,2.232,0.998,0.0,-0.0,0.535,0.003,0.0,0.004,-0.001,2.425,1.337,0.002,0.002,0.233,0.231,0.231,0.753,-0.001,-0.752,-0.753,-0.755,0.229,0.0,-0.0,0.0,0.001,0.002,0.001,0.003,0.016,0.001,0.017,-0.011,0.001,0.001,1.598,0.0,0.014,0.0,-0.017,0.001,0.002,-0.017,0.001,-0.014,0.002,0.001,0.474,0.001,-0.014,-0.021,0.026,0.008,0.001,0.018,0.045,0.002,0.014,0.009,0.001,0.003,0.001,0.014,0.002,0.0,-0.0,-0.0,0.0
0.613,-0.613,-0.614,-0.611,3.753,0.0,5.691,2.231,0.998,0.001,-0.0,0.536,0.001,0.0,-0.006,0.009,2.426,1.337,0.001,0.001,0.233,0.232,0.231,0.754,-0.002,-0.752,-0.754,-0.757,0.231,0.0,0.0,0.0,0.001,0.003,0.001,0.003,0.015,0.001,0.017,-0.012,0.002,0.002,1.598,0.0,0.014,0.0,-0.017,0.002,0.002,-0.015,0.001,-0.015,0.001,0.001,0.475,0.001,-0.014,-0.019,0.027,0.001,0.001,0.021,0.045,0.003,0.014,0.009,0.001,0.003,0.001,0.014,0.002,0.0,-0.0,-0.0,-0.0
0.612,-0.612,-0.615,-0.61,3.749,0.0,5.699,2.23,0.999,-0.002,0.0,0.536,0.001,0.0,-0.001,0.01,2.428,1.337,0.001,0.001,0.233,0.232,0.231,0.755,-0.0,-0.754,-0.755,-0.757,0.23,0.0,0.0,0.0,0.001,0.002,0.001,0.003,0.015,0.001,0.017,-0.013,0.002,0.002,1.599,0.0,0.015,0.0,-0.017,0.001,0.002,-0.017,0.001,-0.015,0.001,0.001,0.474,0.001,-0.015,-0.019,0.027,0.001,0.001,0.02,0.046,0.001,0.014,0.011,0.001,0.002,0.001,0.014,0.002,0.0,-0.0,0.0,-0.0
0.612,-0.612,-0.614,-0.609,3.739,0.0,5.694,2.23,0.998,0.0,0.0,0.535,0.0,0.0,0.007,0.004,2.428,1.337,0.001,0.001,0.233,0.231,0.231,0.755,-0.003,-0.752,-0.755,-0.756,0.23,0.0,-0.0,0.0,0.001,0.002,0.002,0.003,0.015,0.002,0.018,-0.011,0.003,0.002,1.598,0.0,0.014,0.0,-0.018,0.003,0.002,-0.016,0.001,-0.016,0.001,0.001,0.474,0.001,-0.014,-0.019,0.026,-0.001,0.002,0.017,0.045,0.003,0.014,0.011,0.001,0.001,0.001,0.013,0.002,0.0,0.0,-0.0,-0.0
0.612,-0.612,-0.614,-0.61,3.743,0.0,5.7,2.23,0.998,0.0,-0.0,0.534,0.001,0.0,0.001,0.0,2.428,1.338,0.002,0.001,0.233,0.231,0.231,0.755,0.004,-0.752,-0.755,-0.758,0.228,0.0,0.0,0.0,0.002,0.003,0.001,0.003,0.015,0.001,0.018,-0.011,0.002,0.002,1.598,0.0,0.014,0.0,-0.018,0.001,0.002,-0.017,0.001,-0.016,0.001,0.001,0.475,0.001,-0.014,-0.021,0.026,-0.002,0.002,0.021,0.046,-0.005,0.014,0.008,0.002,0.002,0.001,0.014,0.002,0.0,0.0,0.0,-0.0
0.611,-0.611,-0.612,-0.609,3.73,0.0,5.706,2.23,0.998,0.001,0.0,0.531,0.002,0.0,0.008,0.009,2.429,1.338,0.002,0.001,0.232,0.23,0.23,0.755,0.001,-0.754,-0.755,-0.758,0.229,0.0,0.0,0.0,0.002,0.002,0.001,0.003,0.015,0.001,0.018,-0.012,0.001,0.002,1.596,0.0,0.014,0.0,-0.018,0.003,0.002,-0.018,0.001,-0.016,0.001,0.001,0.474,0.001,-0.014,-0.021,0.027,0.0,0.001,0.017,0.046,-0.004,0.014,0.01,0.001,0.001,0.001,0.014,0.002,0.0,-0.0,0.0,0.0
0.611,-0.611,-0.612,-0.61,3.728,0.0,5.724,2.228,1.0,0.003,-0.0,0.536,0.001,0.0,0.005,-0.004,2.43,1.337,0.001,0.001,0.233,0.232,0.232,0.757,0.002,-0.754,-0.757,-0.758,0.23,0.0,0.0,0.0,0.001,0.003,0.001,0.003,0.015,0.001,0.018,-0.011,0.001,0.002,1.599,0.0,0.014,0.0,-0.017,0.001,0.002,-0.015,0.0,-0.017,0.0,0.001,0.475,0.001,-0.014,-0.018,0.026,-0.0,0.001,0.021,0.045,-0.0,0.014,0.01,0.001,0.001,0.001,0.014,0.002,0.0,0.0,0.0,0.0
0.609,-0.609,-0.611,-0.606,3.712,-0.0,5.726,2.228,0.999,-0.001,0.0,0.54,0.002,0.0,0.004,0.001,2.43,1.336,0.002,0.001,0.234,0.232,0.232,0.757,0.001,-0.754,-0.757,-0.759,0.231,0.0,0.0,0.0,0.001,0.002,0.001,0.003,0.015,0.001,0.017,-0.01,0.001,0.001,1.598,0.0,0.014,0.0,-0.017,0.002,0.002,-0.016,0.001,-0.015,0.001,0.001,0.475,0.001,-0.014,-0.019,0.026,0.001,0.002,0.018,0.045,-0.005,0.014,0.012,0.001,0.002,0.001,0.014,0.002,0.0,0.0,-0.0,0.0
0.608,-0.608,-0.61,-0.606,3.702,-0.0,5.744,2.226,0.999,-0.001,-0.0,0.538,0.001,0.0,0.0,-0.011,2.431,1.336,0.001,0.001,0.233,0.232,0.232,0.758,0.0,-0.756,-0.758,-0.761,0.23,0.0,0.0,0.0,0.0,0.003,0.001,0.003,0.016,0.001,0.018,-0.012,0.001,0.003,1.598,0.0,0.014,0.0,-0.018,0.004,0.002,-0.016,0.001,-0.015,0.001,0.001,0.475,0.001,-0.014,-0.019,0.028,-0.002,0.001,0.026,0.049,0.0,0.018,0.014,0.002,0.001,0.001,0.017,0.003,0.0,0.0,0.0,-0.0
0.606,-0.606,-0.609,-0.604,3.669,0.0,5.771,2.222,0.999,0.0,-0.0,0.538,0.004,0.0,0.016,0.002,2.436,1.336,0.003,0.002,0.233,0.232,0.232,0.76,0.003,-0.758,-0.76,-0.762,0.231,0.0,0.0,0.0,0.002,0.004,0.001,0.003,0.014,0.001,0.017,-0.011,0.001,0.003,1.597,0.0,0.016,0.0,-0.017,0.005,0.003,-0.02,0.001,-0.015,0.002,0.001,0.474,0.0,-0.016,-0.02,0.026,0.009,0.0,0.019,0.045,0.001,0.013,0.007,0.001,0.002,0.001,0.012,0.002,0.0,0.0,0.0,0.0
0.607,-0.607,-0.609,-0.604,3.688,0.0,5.746,2.225,0.999,-0.001,0.0,0.544,0.003,0.0,-0.007,0.002,2.432,1.335,0.001,0.001,0.235,0.233,0.233,0.758,-0.001,-0.756,-0.758,-0.761,0.232,0.0,0.0,0.0,0.001,0.001,0.001,0.003,0.014,0.001,0.017,-0.011,0.001,0.001,1.599,0.0,0.013,0.0,-0.017,0.002,0.002,-0.015,0.001,-0.016,0.001,0.001,0.475,0.001,-0.013,-0.018,0.025,-0.001,0.001,0.014,0.042,-0.002,0.012,0.01,0.001,0.002,0.001,0.012,0.001,0.0,0.0,0.0,0.0
0.608,-0.608,-0.611,-0.604,3.691,-0.0,5.732,2.225,0.998,-0.001,-0.0,0.544,0.002,0.0,-0.001,0.001,2.432,1.335,0.002,0.001,0.234,0.233,0.233,0.757,0.001,-0.754,-0.757,-0.76,0.233,0.0,0.0,0.0,0.002,0.002,0.002,0.003,0.015,0.002,0.017,-0.011,0.002,0.002,1.598,0.0,0.014,0.0,-0.017,0.003,0.002,-0.016,0.001,-0.015,0.001,0.0,0.475,0.0,-0.014,-0.019,0.026,-0.002,0.001,0.017,0.045,0.001,0.014,0.01,0.002,0.002,0.001,0.014,0.002,0.0,0.0,0.0,0.0
0.606,-0.606,-0.608,-0.604,3.672,0.0,5.768,2.222,0.999,0.003,0.0,0.545,0.004,0.0,0.001,0.009,2.434,1.335,0.003,0.002,0.235,0.233,0.233,0.76,-0.002,-0.758,-0.76,-0.763,0.232,0.0,-0.0,0.0,0.001,0.003,0.001,0.003,0.015,0.001,0.018,-0.012,0.001,0.003,1.599,0.0,0.016,0.0,-0.018,0.004,0.003,-0.021,0.001,-0.016,0.001,0.001,0.475,0.001,-0.016,-0.021,0.027,-0.003,0.002,0.021,0.047,-0.001,0.014,0.009,0.002,0.002,0.001,0.013,0.002,0.0,0.0,0.0,-0.0
0.606,-0.606,-0.61,-0.604,3.671,0.0,5.761,2.222,0.999,-0.0,0.0,0.555,0.005,0.0,-0.015,-0.002,2.434,1.333,0.003,0.003,0.238,0.236,0.236,0.759,-0.001,-0.758,-0.759,-0.761,0.234,0.0,0.0,0.0,0.002,0.003,0.002,0.003,0.013,0.001,0.017,-0.01,0.001,0.002,1.6,0.0,0.014,0.0,-0.017,0.003,0.002,-0.02,0.002,-0.012,0.002,0.001,0.477,0.001,-0.014,-0.021,0.024,0.001,0.001,0.02,0.044,0.001,0.013,0.008,0.001,0.001,0.001,0.013,0.002,0.0,-0.0,0.0,0.0
0.606,-0.606,-0.608,-0.604,3.671,0.0,5.746,2.222,0.999,-0.001,0.0,0.552,0.002,0.0,-0.005,0.003,2.433,1.333,0.001,0.001,0.236,0.235,0.235,0.758,-0.001,-0.755,-0.758,-0.76,0.234,0.0,0.0,0.0,0.001,0.002,0.001,0.003,0.015,0.001,0.018,-0.012,0.002,0.002,1.599,0.0,0.014,0.0,-0.018,0.002,0.002,-0.016,0.001,-0.017,0.001,0.001,0.476,0.001,-0.014,-0.019,0.026,-0.001,0.001,0.018,0.045,0.002,0.014,0.01,0.002,0.002,0.001,0.013,0.002,0.0,-0.0,-0.0,0.0
0.604,-0.604,-0.606,-0.602,3.648,0.0,5.793,2.22,1.0,0.001,0.0,0.551,0.004,0.0,0.004,0.017,2.436,1.334,0.002,0.002,0.236,0.235,0.235,0.761,-0.004,-0.759,-0.761,-0.764,0.233,0.0,0.0,0.0,0.0,0.004,0.001,0.003,0.014,0.001,0.017,-0.011,0.002,0.004,1.6,0.0,0.014,0.0,-0.017,0.007,0.002,-0.016,0.0,-0.017,0.0,0.001,0.476,0.001,-0.014,-0.018,0.026,-0.002,0.0,0.02,0.044,0.003,0.014,0.005,0.002,0.002,0.001,0.013,0.002,0.0,0.0,0.0,-0.0
0.604,-0.604,-0.606,-0.602,3.646,0.0,5.778,2.22,0.999,0.002,0.0,0.559,0.002,0.0,-0.001,-0.006,2.435,1.332,0.001,0.001,0.238,0.237,0.236,0.76,-0.001,-0.759,-0.76,-0.762,0.235,0.0,0.0,0.0,0.002,0.003,0.001,0.003,0.015,0.001,0.016,-0.013,0.001,0.002,1.6,0.0,0.014,0.0,-0.016,0.003,0.002,-0.017,0.001,-0.014,0.002,0.001,0.477,0.001,-0.014,-0.019,0.026,0.004,0.001,0.019,0.044,0.004,0.013,0.009,0.001,0.002,0.001,0.013,0.002,0.0,0.0,0.0,0.0
0.603,-0.603,-0.605,-0.599,3.637,-0.0,5.773,2.22,0.998,-0.001,0.0,0.556,0.004,0.0,0.003,0.005,2.436,1.333,0.002,0.002,0.239,0.236,0.236,0.76,-0.003,-0.758,-0.76,-0.762,0.234,0.0,-0.0,0.0,0.001,0.003,0.002,0.003,0.015,0.002,0.017,-0.011,0.002,0.002,1.599,0.0,0.013,0.0,-0.017,0.002,0.002,-0.016,0.001,-0.014,0.001,0.001,0.476,0.001,-0.013,-0.019,0.026,-0.001,0.002,0.023,0.045,0.002,0.015,0.011,0.001,0.002,0.001,0.015,0.002,0.0,-0.0,-0.0,0.0
