accl_x,ag_x_max,ag_x_mean,RMS_ag_x,ag_x_min,FFT_g_x,FFT_ag_y,FFT_g_z,E_ag_x,E_ag_z,th_x,SVM_a,FFT_ag_x,IQR_g_z,accl_z,th_z,FFT_g_y,accl_y,th_y,RMS_ag_y,ag_y_mean,ag_y_max,ag_y_min,CM_a,SMA_a,STD_g_y,VAR_g_y,ag_z_min,RMS_ag_z,g_x_max,ag_z_max,ag_z_mean,CM_g,MAD_g_y,VAR_g_x,VAR_ag_y,IQR_g_x,IQR_ag_x,IQR_g_y,g_z_max,MAD_g_z,VAR_ag_x,MAD_ag_y,g_y_max,g_z_mean,STD_ag_y,g_x_min,STD_g_z,STD_g_x,IQR_ag_y,VAR_g_z,g_x_mean,MAD_g_x,MAD_ag_x,E_ag_y,E_g_x,STD_ag_x,RMS_g_x,SVM_g,RMS_g_z,g_z_min,g_y_min,E_g_z,FFT_ag_z,RMS_g_y,SMA_g,IQR_ag_z,g_y_mean,STD_ag_z,MAD_ag_z,E_g_y,jerk_z,VAR_ag_z,jerk_x,jerk_y
-0.0,-0.884,-0.891,0.891,-0.9,-0.007,-0.014,0.002,7.935,1.476,2.662,1.004,0.022,0.007,-0.0,1.965,-0.036,-0.0,1.314,0.256,0.256,0.267,0.244,0.444,1.53,0.027,0.001,-0.398,0.384,0.016,-0.366,-0.384,0.01,0.026,0.0,0.0,0.019,0.006,0.05,0.014,0.008,0.0,0.004,0.044,-0.0,0.006,-0.035,0.01,0.016,0.004,0.0,-0.009,0.013,0.004,0.653,0.003,0.005,0.018,0.032,0.01,-0.025,-0.032,0.001,-0.046,0.027,0.048,0.011,0.0,0.009,0.008,0.008,0.0,0.0,-0.0,-0.0
-0.0,-0.881,-0.886,0.886,-0.892,-0.104,-0.091,0.008,7.847,1.487,2.654,1.002,-0.004,0.032,-0.0,1.966,0.006,-0.0,1.307,0.268,0.267,0.309,0.242,0.448,1.539,0.013,0.0,-0.398,0.386,0.051,-0.364,-0.386,0.03,0.009,0.002,0.0,0.07,0.003,0.012,0.034,0.025,0.0,0.014,0.037,-0.022,0.018,-0.079,0.031,0.042,0.019,0.001,-0.024,0.038,0.002,0.718,0.023,0.003,0.048,0.064,0.038,-0.073,-0.011,0.014,-0.046,0.023,0.097,0.012,0.019,0.009,0.007,0.005,0.0,0.0,-0.0,0.0
-0.0,-0.881,-0.886,0.886,-0.888,-0.006,-0.008,-0.022,7.846,1.486,2.655,1.002,-0.007,0.004,0.0,1.965,0.046,0.0,1.302,0.267,0.267,0.274,0.259,0.45,1.538,0.008,0.0,-0.392,0.386,-0.003,-0.381,-0.386,0.008,0.008,0.0,0.0,0.014,0.002,0.014,0.01,0.004,0.0,0.004,0.027,-0.006,0.005,-0.026,0.007,0.008,0.009,0.0,-0.016,0.008,0.001,0.713,0.003,0.002,0.018,0.026,0.009,-0.019,0.0,0.001,0.005,0.013,0.034,0.008,0.01,0.004,0.004,0.002,0.0,0.0,-0.0,0.0
-0.0,-0.878,-0.883,0.883,-0.886,0.071,-0.003,-0.051,7.802,1.496,2.649,1.002,0.001,0.009,-0.0,1.967,0.014,-0.0,1.294,0.275,0.274,0.292,0.263,0.454,1.544,0.01,0.0,-0.395,0.387,0.0,-0.378,-0.387,0.016,0.008,0.0,0.0,0.015,0.003,0.012,0.0,0.008,0.0,0.007,0.039,-0.02,0.009,-0.06,0.011,0.02,0.007,0.0,-0.021,0.015,0.002,0.754,0.009,0.002,0.029,0.038,0.022,-0.038,0.007,0.005,-0.003,0.021,0.059,0.004,0.018,0.005,0.003,0.004,-0.0,0.0,0.0,0.0
0.0,-0.871,-0.883,0.883,-0.894,-0.116,-0.06,0.055,7.796,1.502,2.651,1.002,-0.015,0.036,0.0,1.966,0.068,0.0,1.298,0.273,0.273,0.301,0.257,0.452,1.544,0.029,0.001,-0.398,0.388,0.071,-0.376,-0.388,0.013,0.023,0.001,0.0,0.023,0.008,0.038,0.012,0.026,0.0,0.011,0.067,-0.022,0.013,-0.035,0.031,0.029,0.017,0.001,0.005,0.021,0.005,0.748,0.009,0.007,0.03,0.033,0.038,-0.091,-0.028,0.015,-0.016,0.036,0.076,0.007,0.023,0.006,0.005,0.013,0.0,0.0,-0.0,-0.0
0.0,-0.862,-0.881,0.881,-0.897,-0.085,0.035,0.03,7.768,1.676,2.649,1.002,0.013,0.027,-0.0,1.992,0.131,0.001,1.327,0.242,0.242,0.261,0.222,0.443,1.533,0.046,0.002,-0.428,0.409,0.071,-0.394,-0.409,0.034,0.036,0.003,0.0,0.034,0.011,0.048,-0.002,0.016,0.0,0.01,0.101,-0.032,0.012,-0.099,0.019,0.053,0.015,0.0,0.009,0.04,0.008,0.588,0.029,0.01,0.054,0.074,0.037,-0.066,-0.074,0.014,-0.005,0.046,0.113,0.018,0.008,0.011,0.009,0.022,-0.0,0.0,0.0,-0.0
0.0,-0.882,-0.89,0.89,-0.897,-0.037,-0.006,0.035,7.918,1.516,2.662,1.002,0.001,0.018,-0.0,1.971,0.002,-0.0,1.32,0.248,0.248,0.255,0.241,0.442,1.527,0.012,0.0,-0.405,0.389,-0.013,-0.374,-0.389,0.016,0.01,0.0,0.0,0.011,0.009,0.019,0.008,0.012,0.0,0.003,0.007,-0.02,0.004,-0.07,0.014,0.015,0.004,0.0,-0.03,0.01,0.005,0.617,0.011,0.005,0.033,0.04,0.025,-0.043,-0.028,0.006,-0.008,0.018,0.067,0.01,-0.014,0.009,0.007,0.003,0.0,0.0,0.0,0.0
0.0,-0.891,-0.898,0.898,-0.902,0.019,-0.001,0.026,8.062,1.416,2.682,1.002,-0.014,0.005,0.0,1.955,-0.073,0.0,1.328,0.24,0.24,0.245,0.232,0.433,1.514,0.014,0.0,-0.385,0.376,-0.007,-0.369,-0.376,0.02,0.01,0.0,0.0,0.008,0.003,0.012,-0.019,0.004,0.0,0.004,0.051,-0.028,0.004,-0.023,0.005,0.005,0.007,0.0,-0.017,0.004,0.003,0.577,0.003,0.003,0.018,0.038,0.029,-0.039,-0.006,0.008,0.022,0.022,0.063,0.006,0.016,0.005,0.004,0.005,0.0,0.0,-0.0,-0.0
0.0,-0.888,-0.896,0.896,-0.902,-0.026,0.006,0.033,8.019,1.465,2.677,1.002,-0.001,0.008,0.0,1.964,0.042,0.0,1.334,0.236,0.236,0.24,0.23,0.432,1.514,0.007,0.0,-0.391,0.383,-0.003,-0.37,-0.383,0.016,0.006,0.0,0.0,0.003,0.004,0.012,-0.012,0.005,0.0,0.003,0.033,-0.019,0.003,-0.025,0.006,0.005,0.005,0.0,-0.012,0.003,0.004,0.556,0.002,0.004,0.013,0.032,0.02,-0.031,0.011,0.004,0.013,0.021,0.051,0.008,0.02,0.006,0.005,0.005,0.0,0.0,-0.0,0.0
-0.0,-0.89,-0.893,0.893,-0.897,0.002,0.01,-0.013,7.978,1.509,2.67,1.002,0.003,0.008,-0.0,1.972,0.01,-0.0,1.335,0.235,0.235,0.239,0.232,0.433,1.516,0.016,0.0,-0.392,0.388,-0.016,-0.377,-0.388,0.016,0.014,0.0,0.0,0.003,0.004,0.029,-0.008,0.004,0.0,0.002,0.028,-0.016,0.002,-0.023,0.005,0.002,0.002,0.0,-0.019,0.002,0.002,0.551,0.004,0.002,0.019,0.03,0.016,-0.021,-0.019,0.003,0.008,0.018,0.05,0.005,0.007,0.005,0.004,0.003,-0.0,0.0,0.0,0.0
0.0,-0.893,-0.901,0.901,-0.909,-0.027,0.011,0.003,8.109,1.38,2.686,1.003,0.022,0.008,-0.0,1.953,0.17,0.0,1.332,0.238,0.238,0.243,0.233,0.43,1.509,0.028,0.001,-0.386,0.371,-0.009,-0.357,-0.371,0.018,0.025,0.0,0.0,0.008,0.011,0.044,-0.011,0.004,0.0,0.003,0.034,-0.021,0.003,-0.028,0.005,0.006,0.005,0.0,-0.014,0.005,0.005,0.565,0.002,0.006,0.015,0.04,0.022,-0.029,-0.06,0.005,-0.023,0.03,0.059,0.018,-0.008,0.01,0.009,0.009,-0.0,0.0,0.0,0.0
0.0,-0.902,-0.908,0.908,-0.917,-0.024,0.015,0.012,8.239,1.285,2.704,1.003,0.016,0.015,-0.0,1.937,0.004,0.0,1.339,0.231,0.231,0.238,0.225,0.422,1.497,0.009,0.0,-0.365,0.359,-0.004,-0.35,-0.358,0.016,0.008,0.0,0.0,0.014,0.004,0.014,-0.003,0.009,0.0,0.003,0.026,-0.023,0.004,-0.027,0.011,0.008,0.005,0.0,-0.016,0.007,0.003,0.532,0.003,0.004,0.018,0.036,0.025,-0.039,-0.002,0.006,-0.027,0.017,0.054,0.008,0.014,0.005,0.004,0.003,0.0,0.0,-0.0,0.0
-0.0,-0.897,-0.904,0.905,-0.911,0.044,0.007,0.034,8.181,1.337,2.696,1.002,0.0,0.019,-0.0,1.946,-0.024,-0.0,1.342,0.228,0.228,0.235,0.225,0.423,1.498,0.011,0.0,-0.375,0.366,0.005,-0.352,-0.366,0.018,0.009,0.0,0.0,0.018,0.004,0.02,-0.013,0.009,0.0,0.002,0.039,-0.024,0.003,-0.029,0.009,0.011,0.004,0.0,-0.012,0.01,0.003,0.52,0.003,0.004,0.016,0.041,0.025,-0.037,0.009,0.006,0.008,0.029,0.063,0.011,0.027,0.007,0.006,0.008,-0.0,0.0,0.0,0.0
-0.0,-0.898,-0.903,0.903,-0.913,0.014,-0.006,-0.003,8.152,1.412,2.69,1.002,-0.019,0.004,-0.0,1.957,0.009,0.0,1.346,0.223,0.223,0.226,0.219,0.423,1.501,0.01,0.0,-0.384,0.376,-0.005,-0.363,-0.376,0.014,0.007,0.0,0.0,0.006,0.003,0.008,-0.009,0.003,0.0,0.001,0.038,-0.017,0.002,-0.02,0.004,0.004,0.002,0.0,-0.014,0.004,0.003,0.496,0.002,0.004,0.015,0.028,0.017,-0.026,0.0,0.003,0.029,0.02,0.048,0.006,0.017,0.006,0.004,0.004,-0.0,0.0,-0.0,-0.0
-0.0,-0.895,-0.901,0.901,-0.907,-0.01,-0.005,-0.001,8.111,1.427,2.688,1.002,-0.004,0.005,-0.0,1.958,0.012,0.0,1.346,0.223,0.223,0.226,0.221,0.424,1.502,0.006,0.0,-0.384,0.378,-0.011,-0.371,-0.378,0.016,0.004,0.0,0.0,0.003,0.004,0.003,-0.013,0.003,0.0,0.001,0.033,-0.019,0.001,-0.029,0.003,0.005,0.001,0.0,-0.018,0.003,0.003,0.499,0.003,0.004,0.018,0.03,0.019,-0.023,0.009,0.004,0.006,0.017,0.053,0.002,0.016,0.004,0.003,0.003,-0.0,0.0,0.0,0.0
0.0,-0.893,-0.9,0.9,-0.904,0.025,0.015,0.049,8.093,1.443,2.687,1.002,-0.013,0.012,0.0,1.957,0.012,-0.0,1.342,0.226,0.226,0.229,0.22,0.426,1.505,0.011,0.0,-0.393,0.38,-0.001,-0.375,-0.38,0.013,0.009,0.0,0.0,0.012,0.002,0.014,0.0,0.008,0.0,0.003,0.031,-0.019,0.003,-0.026,0.01,0.008,0.004,0.0,-0.015,0.007,0.002,0.509,0.003,0.003,0.017,0.03,0.021,-0.039,-0.006,0.005,0.021,0.016,0.047,0.004,0.012,0.006,0.004,0.003,-0.0,0.0,0.0,0.0
-0.0,-0.888,-0.898,0.898,-0.903,0.005,0.001,-0.01,8.066,1.472,2.683,1.003,0.001,0.005,-0.0,1.964,-0.011,0.0,1.344,0.225,0.225,0.23,0.222,0.426,1.507,0.01,0.0,-0.395,0.384,0.005,-0.376,-0.384,0.015,0.008,0.0,0.0,0.009,0.004,0.014,-0.011,0.003,0.0,0.002,0.043,-0.015,0.002,-0.019,0.003,0.007,0.003,0.0,-0.012,0.006,0.003,0.507,0.002,0.004,0.014,0.03,0.015,-0.022,0.011,0.002,0.005,0.024,0.05,0.003,0.022,0.005,0.003,0.006,-0.0,0.0,0.0,-0.0
0.0,-0.89,-0.896,0.896,-0.904,0.006,0.002,0.004,8.032,1.498,2.677,1.002,-0.002,0.006,0.0,1.967,-0.021,0.0,1.344,0.226,0.226,0.229,0.222,0.428,1.509,0.012,0.0,-0.395,0.387,0.015,-0.378,-0.387,0.014,0.01,0.0,0.0,0.006,0.006,0.012,0.008,0.006,0.0,0.002,0.022,-0.015,0.002,-0.017,0.008,0.009,0.003,0.0,-0.009,0.007,0.003,0.51,0.002,0.004,0.013,0.027,0.017,-0.023,-0.016,0.003,0.004,0.014,0.042,0.005,0.008,0.004,0.003,0.002,0.0,0.0,-0.0,-0.0
-0.0,-0.891,-0.897,0.897,-0.903,-0.038,-0.002,-0.006,8.041,1.478,2.681,1.001,-0.004,0.007,-0.0,1.964,0.007,0.0,1.343,0.226,0.226,0.232,0.222,0.427,1.507,0.007,0.0,-0.393,0.384,-0.012,-0.377,-0.384,0.018,0.006,0.0,0.0,0.008,0.003,0.01,-0.01,0.004,0.0,0.002,0.025,-0.02,0.003,-0.04,0.005,0.008,0.003,0.0,-0.019,0.006,0.003,0.511,0.004,0.004,0.021,0.032,0.021,-0.027,0.001,0.004,0.007,0.018,0.055,0.006,0.016,0.005,0.004,0.003,0.0,0.0,0.0,0.0
0.0,-0.892,-0.897,0.897,-0.9,-0.028,-0.006,0.019,8.046,1.495,2.678,1.003,-0.002,0.011,0.0,1.967,0.009,-0.0,1.342,0.226,0.226,0.23,0.22,0.428,1.509,0.006,0.0,-0.396,0.387,0.0,-0.379,-0.387,0.016,0.005,0.0,0.0,0.012,0.003,0.006,-0.012,0.006,0.0,0.002,0.032,-0.021,0.003,-0.021,0.006,0.007,0.003,0.0,-0.013,0.007,0.002,0.51,0.002,0.002,0.015,0.034,0.022,-0.031,0.009,0.005,0.003,0.018,0.051,0.002,0.017,0.004,0.002,0.003,0.0,0.0,0.0,0.0
-0.0,-0.887,-0.896,0.896,-0.906,-0.025,0.001,-0.006,8.025,1.518,2.676,1.003,-0.013,0.005,0.0,1.97,-0.012,-0.0,1.344,0.225,0.225,0.229,0.221,0.428,1.511,0.013,0.0,-0.399,0.39,-0.003,-0.377,-0.39,0.012,0.01,0.0,0.0,0.014,0.005,0.012,-0.008,0.003,0.0,0.002,0.035,-0.015,0.002,-0.047,0.004,0.013,0.002,0.0,-0.015,0.009,0.004,0.507,0.004,0.005,0.02,0.027,0.015,-0.022,-0.008,0.002,0.011,0.018,0.044,0.005,0.013,0.006,0.004,0.003,-0.0,0.0,0.0,0.0
0.0,-0.891,-0.895,0.895,-0.9,0.021,-0.003,0.054,8.005,1.524,2.673,1.002,-0.007,0.015,0.0,1.972,0.006,-0.0,1.344,0.226,0.226,0.23,0.224,0.43,1.511,0.01,0.0,-0.395,0.39,0.011,-0.379,-0.39,0.015,0.008,0.0,0.0,0.017,0.004,0.015,0.001,0.008,0.0,0.002,0.036,-0.013,0.002,-0.037,0.009,0.013,0.005,0.0,-0.015,0.011,0.002,0.513,0.004,0.003,0.02,0.03,0.016,-0.021,0.002,0.003,0.015,0.02,0.048,0.007,0.017,0.005,0.004,0.004,-0.0,0.0,0.0,-0.0
0.0,-0.884,-0.894,0.894,-0.9,0.013,0.017,-0.021,7.998,1.517,2.678,1.003,0.028,0.011,-0.0,1.969,-0.013,-0.0,1.344,0.227,0.227,0.238,0.222,0.428,1.51,0.011,0.0,-0.402,0.39,0.002,-0.382,-0.39,0.014,0.007,0.0,0.0,0.011,0.006,0.004,-0.013,0.006,0.0,0.003,0.021,-0.024,0.004,-0.026,0.006,0.009,0.004,0.0,-0.012,0.007,0.004,0.514,0.002,0.005,0.015,0.03,0.025,-0.032,-0.022,0.006,-0.028,0.012,0.048,0.004,0.006,0.005,0.004,0.002,-0.0,0.0,0.0,-0.0
-0.0,-0.897,-0.899,0.899,-0.902,-0.033,0.006,-0.044,8.087,1.475,2.684,1.002,0.003,0.01,0.0,1.965,-0.001,-0.0,1.35,0.22,0.22,0.223,0.217,0.423,1.503,0.009,0.0,-0.386,0.384,-0.001,-0.38,-0.384,0.011,0.008,0.0,0.0,0.01,0.002,0.015,-0.01,0.006,0.0,0.002,0.024,-0.022,0.002,-0.031,0.007,0.009,0.003,0.0,-0.014,0.007,0.001,0.483,0.003,0.002,0.017,0.031,0.023,-0.03,-0.001,0.005,0.0,0.015,0.048,0.002,0.012,0.002,0.002,0.002,0.0,0.0,-0.0,-0.0
0.0,-0.89,-0.897,0.897,-0.905,0.023,-0.011,-0.004,8.039,1.522,2.678,1.002,-0.011,0.004,0.0,1.97,0.029,0.0,1.351,0.219,0.219,0.223,0.216,0.425,1.506,0.011,0.0,-0.398,0.39,0.006,-0.383,-0.39,0.012,0.007,0.0,0.0,0.005,0.003,0.006,-0.002,0.004,0.0,0.002,0.05,-0.013,0.002,-0.02,0.005,0.007,0.004,0.0,-0.01,0.005,0.003,0.48,0.001,0.004,0.012,0.024,0.013,-0.017,0.006,0.002,0.011,0.022,0.042,0.005,0.019,0.005,0.004,0.005,-0.0,0.0,-0.0,-0.0
0.0,-0.887,-0.893,0.893,-0.9,0.012,-0.012,0.006,7.971,1.559,2.672,1.002,-0.015,0.01,0.0,1.976,0.034,0.0,1.344,0.224,0.224,0.227,0.219,0.43,1.512,0.009,0.0,-0.402,0.395,-0.011,-0.388,-0.395,0.014,0.008,0.0,0.0,0.003,0.003,0.014,-0.003,0.006,0.0,0.002,0.031,-0.012,0.003,-0.019,0.006,0.002,0.003,0.0,-0.015,0.002,0.003,0.502,0.002,0.003,0.015,0.028,0.014,-0.022,0.003,0.002,0.019,0.02,0.046,0.003,0.018,0.003,0.003,0.004,-0.0,0.0,0.0,0.0
0.0,-0.884,-0.891,0.891,-0.897,-0.003,-0.007,-0.021,7.932,1.595,2.665,1.002,-0.004,0.009,0.0,1.982,0.023,0.0,1.342,0.226,0.226,0.228,0.224,0.432,1.516,0.006,0.0,-0.407,0.399,-0.012,-0.392,-0.399,0.017,0.005,0.0,0.0,0.003,0.004,0.009,-0.011,0.004,0.0,0.001,0.027,-0.017,0.001,-0.018,0.005,0.002,0.002,0.0,-0.015,0.002,0.003,0.511,0.002,0.004,0.015,0.031,0.018,-0.023,0.01,0.003,0.003,0.019,0.05,0.003,0.018,0.004,0.003,0.003,-0.0,0.0,0.0,-0.0
0.0,-0.886,-0.891,0.891,-0.894,-0.005,0.0,0.009,7.939,1.598,2.667,1.002,-0.002,0.002,0.0,1.981,-0.026,-0.0,1.345,0.225,0.224,0.227,0.222,0.431,1.515,0.009,0.0,-0.404,0.4,-0.007,-0.393,-0.4,0.015,0.007,0.0,0.0,0.004,0.003,0.009,-0.015,0.002,0.0,0.001,0.034,-0.019,0.002,-0.019,0.002,0.003,0.001,0.0,-0.012,0.003,0.002,0.504,0.002,0.002,0.013,0.027,0.019,-0.024,0.002,0.004,-0.006,0.017,0.046,0.006,0.014,0.004,0.003,0.003,0.0,0.0,-0.0,0.0
0.0,-0.883,-0.888,0.888,-0.892,0.038,0.003,-0.016,7.88,1.666,2.658,1.002,-0.008,0.005,0.0,1.99,0.029,0.0,1.345,0.225,0.224,0.229,0.221,0.432,1.52,0.012,0.0,-0.415,0.408,0.007,-0.4,-0.408,0.016,0.009,0.0,0.0,0.009,0.004,0.011,-0.01,0.003,0.0,0.002,0.062,-0.017,0.002,-0.02,0.004,0.008,0.003,0.0,-0.01,0.006,0.002,0.504,0.002,0.002,0.013,0.036,0.018,-0.023,0.02,0.003,0.003,0.033,0.06,0.007,0.031,0.005,0.004,0.011,-0.0,0.0,0.0,0.0
-0.0,-0.874,-0.885,0.885,-0.893,-0.006,0.004,-0.017,7.825,1.716,2.654,1.002,0.004,0.01,0.0,1.998,0.065,-0.0,1.348,0.221,0.221,0.227,0.217,0.432,1.52,0.012,0.0,-0.424,0.414,-0.011,-0.402,-0.414,0.012,0.01,0.0,0.0,0.004,0.006,0.01,-0.005,0.006,0.0,0.002,0.02,-0.016,0.003,-0.022,0.007,0.003,0.001,0.0,-0.016,0.002,0.004,0.488,0.003,0.005,0.016,0.028,0.017,-0.03,-0.023,0.003,-0.003,0.013,0.042,0.013,-0.002,0.007,0.006,0.002,-0.0,0.0,0.0,-0.0
0.0,-0.883,-0.888,0.888,-0.893,0.048,0.003,0.008,7.889,1.636,2.66,1.003,0.005,0.006,0.0,1.987,-0.062,0.0,1.342,0.228,0.228,0.232,0.225,0.434,1.521,0.012,0.0,-0.411,0.404,0.0,-0.396,-0.404,0.018,0.011,0.0,0.0,0.012,0.003,0.015,0.0,0.005,0.0,0.002,0.028,-0.013,0.003,-0.027,0.007,0.009,0.004,0.0,-0.016,0.008,0.002,0.519,0.004,0.003,0.019,0.034,0.015,-0.023,-0.01,0.002,0.001,0.021,0.048,0.007,0.016,0.005,0.004,0.004,0.0,0.0,0.0,-0.0
0.0,-0.882,-0.886,0.886,-0.891,-0.016,0.007,-0.014,7.857,1.66,2.656,1.002,0.002,0.007,0.0,1.989,-0.056,0.0,1.34,0.229,0.229,0.231,0.226,0.436,1.523,0.011,0.0,-0.413,0.407,-0.008,-0.403,-0.407,0.013,0.008,0.0,0.0,0.006,0.003,0.01,-0.01,0.004,0.0,0.001,0.04,-0.016,0.002,-0.022,0.004,0.004,0.002,0.0,-0.015,0.003,0.002,0.524,0.002,0.003,0.016,0.027,0.017,-0.023,-0.001,0.003,-0.003,0.017,0.045,0.006,0.013,0.003,0.003,0.003,0.0,0.0,-0.0,-0.0
0.0,-0.881,-0.886,0.886,-0.89,0.004,-0.004,0.009,7.854,1.654,2.656,1.002,-0.009,0.003,0.0,1.989,0.003,0.0,1.338,0.232,0.232,0.234,0.231,0.437,1.525,0.006,0.0,-0.409,0.407,-0.002,-0.403,-0.407,0.014,0.004,0.0,0.0,0.006,0.002,0.006,-0.009,0.003,0.0,0.001,0.024,-0.016,0.001,-0.018,0.003,0.005,0.001,0.0,-0.013,0.004,0.002,0.537,0.002,0.002,0.014,0.026,0.017,-0.022,0.001,0.003,0.008,0.014,0.042,0.002,0.013,0.002,0.001,0.002,0.0,0.0,-0.0,0.0
-0.0,-0.883,-0.887,0.887,-0.89,-0.017,-0.006,-0.001,7.859,1.652,2.657,1.002,0.002,0.005,-0.0,1.989,-0.022,-0.0,1.34,0.229,0.229,0.232,0.227,0.436,1.522,0.006,0.0,-0.41,0.406,-0.005,-0.399,-0.406,0.015,0.004,0.0,0.0,0.012,0.003,0.003,-0.014,0.003,0.0,0.001,0.019,-0.019,0.002,-0.02,0.003,0.006,0.003,0.0,-0.013,0.006,0.002,0.526,0.002,0.002,0.014,0.028,0.019,-0.022,-0.004,0.004,-0.01,0.013,0.044,0.002,0.011,0.003,0.002,0.002,-0.0,0.0,-0.0,-0.0
0.0,-0.881,-0.887,0.887,-0.894,0.002,0.002,0.002,7.862,1.657,2.657,1.002,-0.012,0.005,0.0,1.989,0.021,-0.0,1.342,0.227,0.227,0.23,0.224,0.434,1.521,0.009,0.0,-0.413,0.407,-0.003,-0.402,-0.407,0.015,0.007,0.0,0.0,0.005,0.004,0.008,-0.016,0.003,0.0,0.001,0.035,-0.02,0.001,-0.027,0.004,0.006,0.001,0.0,-0.014,0.005,0.003,0.517,0.002,0.004,0.016,0.03,0.02,-0.026,0.009,0.004,0.014,0.02,0.053,0.005,0.018,0.004,0.003,0.004,0.0,0.0,-0.0,0.0
0.0,-0.878,-0.883,0.883,-0.888,-0.006,-0.004,0.015,7.804,1.707,2.651,1.002,0.003,0.006,0.0,1.996,0.004,-0.0,1.34,0.229,0.229,0.23,0.226,0.437,1.526,0.003,0.0,-0.419,0.413,-0.011,-0.406,-0.413,0.014,0.002,0.0,0.0,0.002,0.003,0.003,-0.011,0.003,0.0,0.001,0.02,-0.017,0.001,-0.018,0.004,0.002,0.001,0.0,-0.014,0.002,0.002,0.524,0.002,0.003,0.014,0.026,0.017,-0.023,0.012,0.003,-0.009,0.015,0.046,0.004,0.015,0.003,0.003,0.002,-0.0,0.0,0.0,0.0
0.0,-0.879,-0.883,0.883,-0.886,-0.011,0.005,0.015,7.799,1.72,2.65,1.002,-0.004,0.005,0.0,1.997,-0.026,-0.0,1.342,0.227,0.227,0.229,0.225,0.436,1.525,0.008,0.0,-0.422,0.415,-0.006,-0.41,-0.415,0.014,0.005,0.0,0.0,0.004,0.002,0.004,-0.013,0.003,0.0,0.001,0.035,-0.018,0.001,-0.018,0.003,0.003,0.002,0.0,-0.012,0.003,0.001,0.514,0.002,0.002,0.013,0.026,0.018,-0.023,0.006,0.003,0.012,0.016,0.044,0.004,0.014,0.003,0.002,0.003,0.0,0.0,-0.0,0.0
0.0,-0.88,-0.882,0.882,-0.886,-0.015,-0.004,-0.008,7.786,1.732,2.648,1.002,-0.002,0.004,0.0,2.0,0.039,0.0,1.342,0.227,0.227,0.229,0.226,0.437,1.526,0.007,0.0,-0.42,0.416,-0.01,-0.411,-0.416,0.012,0.006,0.0,0.0,0.003,0.004,0.008,-0.012,0.002,0.0,0.001,0.03,-0.016,0.001,-0.023,0.003,0.003,0.002,0.0,-0.015,0.003,0.002,0.516,0.002,0.002,0.015,0.022,0.016,-0.022,0.006,0.003,-0.004,0.015,0.044,0.001,0.014,0.002,0.001,0.002,0.0,0.0,-0.0,0.0
0.0,-0.874,-0.881,0.881,-0.884,0.015,-0.004,0.018,7.763,1.746,2.647,1.002,0.003,0.004,0.0,2.0,-0.021,-0.0,1.34,0.229,0.229,0.23,0.228,0.438,1.528,0.007,0.0,-0.424,0.418,-0.007,-0.413,-0.418,0.013,0.006,0.0,0.0,0.007,0.003,0.011,-0.008,0.003,0.0,0.001,0.029,-0.015,0.001,-0.021,0.004,0.004,0.002,0.0,-0.013,0.004,0.002,0.524,0.002,0.003,0.014,0.025,0.016,-0.02,0.003,0.002,-0.006,0.015,0.042,0.002,0.013,0.003,0.002,0.002,0.0,0.0,-0.0,0.0
-0.0,-0.88,-0.883,0.883,-0.885,0.01,0.008,0.011,7.799,1.719,2.65,1.002,-0.004,0.004,-0.0,1.997,-0.042,0.0,1.34,0.229,0.229,0.231,0.225,0.438,1.527,0.009,0.0,-0.419,0.415,-0.01,-0.412,-0.415,0.014,0.006,0.0,0.0,0.008,0.001,0.005,-0.008,0.003,0.0,0.001,0.032,-0.016,0.002,-0.028,0.003,0.006,0.002,0.0,-0.017,0.005,0.001,0.524,0.003,0.002,0.019,0.027,0.016,-0.02,-0.004,0.003,0.008,0.012,0.042,0.002,0.009,0.002,0.002,0.002,0.0,0.0,-0.0,0.0
0.0,-0.878,-0.884,0.884,-0.886,-0.002,-0.0,0.024,7.816,1.676,2.652,1.002,0.001,0.004,-0.0,1.992,0.008,0.0,1.336,0.233,0.233,0.235,0.23,0.439,1.527,0.005,0.0,-0.414,0.409,-0.011,-0.405,-0.409,0.013,0.004,0.0,0.0,0.002,0.001,0.008,-0.007,0.003,0.0,0.001,0.015,-0.016,0.001,-0.017,0.004,0.002,0.001,0.0,-0.014,0.002,0.001,0.544,0.002,0.002,0.015,0.024,0.016,-0.022,0.002,0.003,0.001,0.009,0.038,0.001,0.008,0.002,0.001,0.001,0.0,0.0,-0.0,0.0
0.0,-0.881,-0.89,0.89,-0.901,0.062,-0.016,0.024,7.925,1.546,2.667,1.001,0.008,0.011,0.0,1.972,0.016,-0.0,1.332,0.237,0.237,0.241,0.23,0.436,1.52,0.004,0.0,-0.409,0.393,-0.003,-0.38,-0.393,0.02,0.004,0.0,0.0,0.014,0.007,0.008,-0.003,0.006,0.0,0.003,-0.013,-0.017,0.004,-0.036,0.007,0.01,0.006,0.0,-0.022,0.008,0.005,0.56,0.006,0.006,0.024,0.035,0.018,-0.025,-0.025,0.003,-0.032,0.019,0.057,0.021,-0.019,0.011,0.01,0.004,0.0,0.0,0.0,0.0
-0.0,-0.863,-0.899,0.899,-0.914,0.061,-0.071,0.071,8.081,1.349,2.689,1.004,0.051,0.025,0.0,1.945,-0.066,0.0,1.326,0.242,0.241,0.262,0.217,0.43,1.507,0.048,0.002,-0.397,0.367,0.025,-0.349,-0.367,0.013,0.036,0.001,0.0,0.044,0.018,0.043,0.011,0.015,0.0,0.011,0.116,-0.018,0.013,-0.067,0.018,0.028,0.016,0.0,-0.023,0.024,0.012,0.584,0.013,0.015,0.036,0.056,0.026,-0.048,-0.056,0.007,-0.081,0.049,0.083,0.016,0.01,0.014,0.011,0.024,0.0,0.0,0.0,-0.0
0.0,-0.876,-0.898,0.898,-0.918,0.008,-0.039,0.0,8.066,1.414,2.686,1.002,-0.001,0.026,0.0,1.949,-0.007,0.0,1.33,0.238,0.238,0.25,0.221,0.43,1.511,0.029,0.001,-0.399,0.376,0.042,-0.352,-0.376,0.022,0.023,0.001,0.0,0.039,0.022,0.043,0.005,0.015,0.0,0.007,0.067,-0.021,0.009,-0.05,0.018,0.026,0.011,0.0,0.001,0.022,0.012,0.565,0.007,0.013,0.026,0.046,0.028,-0.055,-0.034,0.008,-0.028,0.038,0.077,0.022,0.024,0.014,0.012,0.014,0.0,0.0,0.0,-0.0
0.0,-0.879,-0.893,0.893,-0.9,-0.072,0.003,0.036,7.97,1.547,2.67,1.002,-0.01,0.028,0.0,1.97,-0.058,-0.0,1.342,0.229,0.229,0.24,0.22,0.43,1.515,0.017,0.0,-0.408,0.393,0.026,-0.382,-0.393,0.019,0.014,0.001,0.0,0.034,0.01,0.026,0.002,0.016,0.0,0.005,0.051,-0.025,0.007,-0.056,0.019,0.024,0.007,0.0,-0.007,0.02,0.006,0.523,0.006,0.007,0.025,0.046,0.031,-0.06,-0.007,0.01,0.014,0.032,0.074,0.014,0.027,0.009,0.008,0.01,0.0,0.0,-0.0,0.0
0.0,-0.874,-0.887,0.887,-0.898,-0.043,0.002,-0.072,7.872,1.686,2.657,1.001,-0.029,0.019,0.0,1.996,0.003,0.0,1.352,0.217,0.217,0.222,0.212,0.429,1.515,0.021,0.0,-0.421,0.411,-0.002,-0.397,-0.411,0.014,0.019,0.0,0.0,0.019,0.011,0.028,0.001,0.012,0.0,0.002,0.051,-0.021,0.003,-0.029,0.014,0.01,0.002,0.0,-0.013,0.01,0.006,0.473,0.003,0.007,0.017,0.038,0.026,-0.051,-0.019,0.007,0.036,0.027,0.057,0.008,0.017,0.007,0.006,0.007,0.0,0.0,-0.0,-0.0
0.0,-0.883,-0.891,0.891,-0.896,0.019,-0.012,-0.002,7.943,1.62,2.669,1.002,-0.003,0.009,0.0,1.984,-0.088,0.0,1.35,0.218,0.218,0.223,0.214,0.427,1.512,0.014,0.0,-0.412,0.403,-0.007,-0.395,-0.402,0.016,0.012,0.0,0.0,0.014,0.005,0.023,-0.008,0.005,0.0,0.002,0.029,-0.015,0.003,-0.033,0.006,0.009,0.004,0.0,-0.019,0.008,0.003,0.477,0.004,0.004,0.021,0.029,0.016,-0.027,-0.017,0.003,0.001,0.019,0.051,0.007,0.013,0.005,0.004,0.004,0.0,0.0,-0.0,-0.0
0.0,-0.881,-0.887,0.887,-0.901,-0.028,-0.002,-0.014,7.872,1.664,2.654,1.001,-0.009,0.01,0.0,1.994,-0.057,-0.0,1.346,0.223,0.223,0.227,0.22,0.433,1.518,0.012,0.0,-0.415,0.408,-0.002,-0.392,-0.408,0.014,0.011,0.0,0.0,0.012,0.007,0.019,-0.007,0.005,0.0,0.002,0.036,-0.015,0.002,-0.031,0.006,0.009,0.003,0.0,-0.017,0.007,0.005,0.499,0.004,0.006,0.019,0.034,0.016,-0.026,-0.004,0.003,0.007,0.02,0.049,0.007,0.016,0.007,0.006,0.004,0.0,0.0,-0.0,0.0
0.0,-0.883,-0.888,0.888,-0.891,-0.019,-0.008,-0.005,7.891,1.633,2.662,1.002,0.01,0.003,0.0,1.986,0.008,0.0,1.344,0.225,0.225,0.227,0.223,0.433,1.518,0.01,0.0,-0.411,0.404,-0.007,-0.398,-0.404,0.012,0.007,0.0,0.0,0.006,0.004,0.011,-0.011,0.002,0.0,0.001,0.022,-0.016,0.001,-0.027,0.002,0.005,0.003,0.0,-0.014,0.004,0.002,0.507,0.002,0.002,0.015,0.023,0.016,-0.019,-0.01,0.002,-0.02,0.012,0.039,0.006,0.007,0.004,0.004,0.001,0.0,0.0,-0.0,0.0
-0.0,-0.882,-0.887,0.887,-0.892,-0.043,0.007,0.023,7.862,1.655,2.66,1.002,0.001,0.009,0.0,1.986,-0.023,-0.0,1.342,0.227,0.227,0.239,0.211,0.434,1.52,0.02,0.0,-0.419,0.407,0.007,-0.4,-0.407,0.014,0.012,0.0,0.0,0.007,0.002,0.008,0.011,0.008,0.0,0.004,0.073,-0.013,0.007,-0.034,0.01,0.011,0.003,0.0,-0.015,0.008,0.002,0.514,0.004,0.003,0.019,0.027,0.016,-0.023,-0.001,0.003,0.003,0.026,0.049,0.005,0.017,0.005,0.004,0.007,0.0,0.0,-0.0,0.0
0.0,-0.88,-0.885,0.885,-0.889,0.029,-0.01,0.044,7.834,1.665,2.656,1.002,0.012,0.02,0.0,1.99,0.02,0.0,1.34,0.23,0.23,0.236,0.225,0.436,1.523,0.013,0.0,-0.417,0.408,0.01,-0.401,-0.408,0.012,0.011,0.0,0.0,0.014,0.002,0.017,0.001,0.01,0.0,0.003,0.045,-0.015,0.003,-0.026,0.01,0.01,0.006,0.0,-0.013,0.008,0.002,0.529,0.003,0.003,0.017,0.034,0.018,-0.025,-0.002,0.003,-0.017,0.024,0.051,0.003,0.02,0.005,0.004,0.006,0.0,0.0,-0.0,-0.0
-0.0,-0.879,-0.884,0.884,-0.888,-0.006,-0.006,0.037,7.809,1.683,2.652,1.002,0.009,0.006,-0.0,1.991,-0.006,-0.0,1.334,0.234,0.234,0.238,0.231,0.439,1.528,0.008,0.0,-0.416,0.41,-0.009,-0.406,-0.41,0.01,0.007,0.0,0.0,0.008,0.004,0.008,-0.001,0.005,0.0,0.002,0.029,-0.014,0.002,-0.024,0.006,0.005,0.002,0.0,-0.016,0.005,0.003,0.549,0.003,0.003,0.017,0.024,0.016,-0.023,-0.002,0.002,-0.015,0.012,0.039,0.005,0.008,0.003,0.003,0.001,0.0,0.0,-0.0,0.0
-0.0,-0.879,-0.884,0.884,-0.891,-0.049,0.011,0.008,7.82,1.662,2.653,1.002,-0.008,0.005,-0.0,1.99,-0.017,0.0,1.336,0.234,0.234,0.24,0.231,0.439,1.526,0.007,0.0,-0.414,0.408,-0.002,-0.401,-0.408,0.014,0.006,0.0,0.0,0.009,0.005,0.007,-0.012,0.004,0.0,0.002,0.027,-0.02,0.003,-0.039,0.005,0.011,0.003,0.0,-0.016,0.008,0.003,0.55,0.004,0.003,0.019,0.032,0.021,-0.031,0.003,0.004,0.012,0.016,0.05,0.003,0.014,0.004,0.003,0.002,0.0,0.0,-0.0,0.0
0.0,-0.882,-0.886,0.886,-0.892,0.036,0.009,0.007,7.854,1.646,2.657,1.002,-0.008,0.011,0.0,1.989,0.003,-0.0,1.337,0.232,0.232,0.237,0.229,0.437,1.524,0.009,0.0,-0.411,0.406,0.005,-0.392,-0.406,0.01,0.006,0.0,0.0,0.019,0.004,0.006,-0.011,0.007,0.0,0.002,0.031,-0.022,0.003,-0.028,0.008,0.011,0.004,0.0,-0.01,0.01,0.002,0.538,0.002,0.003,0.015,0.032,0.024,-0.038,-0.003,0.006,0.017,0.012,0.042,0.002,0.008,0.005,0.003,0.002,0.0,0.0,-0.0,0.0
-0.0,-0.879,-0.886,0.886,-0.89,0.023,-0.004,0.026,7.847,1.675,2.657,1.002,0.007,0.007,0.0,1.99,-0.008,0.0,1.342,0.227,0.227,0.23,0.222,0.436,1.522,0.007,0.0,-0.418,0.409,0.013,-0.404,-0.409,0.016,0.006,0.0,0.0,0.008,0.003,0.009,-0.009,0.004,0.0,0.002,0.029,-0.016,0.002,-0.026,0.005,0.011,0.003,0.0,-0.017,0.007,0.003,0.516,0.004,0.003,0.02,0.032,0.017,-0.024,0.003,0.003,-0.014,0.018,0.052,0.006,0.016,0.005,0.004,0.003,-0.0,0.0,0.0,-0.0
0.0,-0.88,-0.885,0.885,-0.891,-0.007,-0.002,0.006,7.838,1.655,2.656,1.001,-0.002,0.003,-0.0,1.989,-0.016,-0.0,1.338,0.231,0.231,0.233,0.229,0.436,1.523,0.006,0.0,-0.412,0.407,-0.011,-0.399,-0.407,0.014,0.005,0.0,0.0,0.006,0.001,0.006,-0.013,0.002,0.0,0.001,0.022,-0.016,0.001,-0.019,0.002,0.003,0.001,0.0,-0.014,0.002,0.002,0.533,0.002,0.003,0.015,0.026,0.016,-0.02,0.001,0.003,0.01,0.013,0.042,0.006,0.012,0.004,0.003,0.002,0.0,0.0,0.0,0.0
0.0,-0.877,-0.886,0.886,-0.89,-0.012,0.004,0.004,7.843,1.662,2.656,1.002,0.009,0.007,0.0,1.989,-0.043,0.0,1.338,0.231,0.23,0.233,0.228,0.436,1.524,0.011,0.0,-0.416,0.408,-0.002,-0.402,-0.408,0.013,0.009,0.0,0.0,0.005,0.004,0.016,-0.006,0.005,0.0,0.002,0.03,-0.016,0.002,-0.025,0.006,0.006,0.003,0.0,-0.011,0.004,0.002,0.531,0.002,0.003,0.013,0.028,0.017,-0.03,-0.007,0.003,-0.009,0.019,0.045,0.006,0.016,0.004,0.003,0.004,0.0,0.0,-0.0,0.0
0.0,-0.88,-0.886,0.886,-0.891,0.033,0.003,0.002,7.847,1.666,2.654,1.003,-0.007,0.015,0.0,1.99,-0.002,-0.0,1.338,0.23,0.23,0.237,0.219,0.436,1.524,0.007,0.0,-0.422,0.408,-0.002,-0.4,-0.408,0.01,0.006,0.0,0.0,0.014,0.005,0.006,-0.007,0.007,0.0,0.004,0.021,-0.02,0.005,-0.028,0.009,0.009,0.005,0.0,-0.012,0.008,0.003,0.531,0.002,0.003,0.015,0.028,0.022,-0.031,-0.006,0.005,0.003,0.011,0.041,0.004,0.008,0.006,0.004,0.001,0.0,0.0,-0.0,0.0
-0.0,-0.881,-0.887,0.887,-0.891,0.026,-0.009,-0.015,7.866,1.654,2.659,1.002,-0.006,0.01,-0.0,1.988,0.024,0.0,1.344,0.225,0.225,0.229,0.22,0.434,1.519,0.008,0.0,-0.41,0.407,-0.008,-0.403,-0.407,0.014,0.007,0.0,0.0,0.005,0.002,0.012,-0.01,0.005,0.0,0.002,0.027,-0.018,0.002,-0.022,0.006,0.004,0.003,0.0,-0.014,0.004,0.002,0.506,0.002,0.003,0.015,0.03,0.019,-0.028,0.003,0.004,-0.002,0.017,0.048,0.004,0.016,0.002,0.002,0.003,0.0,0.0,0.0,-0.0
0.001,-0.901,-0.921,0.921,-0.938,-0.001,-0.001,0.023,8.491,0.938,2.738,1.003,0.017,0.036,-0.0,1.876,0.153,-0.0,1.318,0.25,0.25,0.264,0.235,0.412,1.477,0.034,0.001,-0.35,0.306,0.051,-0.273,-0.305,0.041,0.027,0.003,0.0,0.107,0.016,0.043,0.02,0.024,0.0,0.007,0.044,-0.039,0.009,-0.1,0.029,0.055,0.009,0.001,-0.035,0.051,0.01,0.627,0.043,0.011,0.066,0.078,0.049,-0.08,-0.072,0.024,-0.068,0.044,0.14,0.041,-0.029,0.025,0.023,0.02,0.0,0.001,-0.0,-0.0
-0.0,-0.921,-0.925,0.925,-0.93,-0.026,0.002,0.024,8.564,0.913,2.748,1.003,-0.001,0.008,0.0,1.878,0.059,0.0,1.33,0.24,0.24,0.243,0.236,0.406,1.467,0.017,0.0,-0.308,0.302,0.013,-0.295,-0.302,0.01,0.015,0.0,0.0,0.012,0.004,0.025,0.001,0.006,0.0,0.002,0.061,-0.014,0.002,-0.035,0.007,0.013,0.003,0.0,-0.008,0.01,0.002,0.575,0.002,0.003,0.015,0.028,0.016,-0.023,0.008,0.003,0.012,0.03,0.051,0.007,0.025,0.004,0.004,0.009,-0.0,0.0,0.0,0.0
-0.0,-0.92,-0.924,0.924,-0.927,-0.017,-0.01,0.005,8.53,0.932,2.744,1.002,-0.007,0.011,0.0,1.879,-0.001,-0.0,1.328,0.242,0.242,0.246,0.238,0.408,1.471,0.006,0.0,-0.313,0.305,0.001,-0.301,-0.305,0.011,0.005,0.0,0.0,0.008,0.003,0.007,-0.006,0.007,0.0,0.002,0.025,-0.016,0.003,-0.023,0.009,0.007,0.004,0.0,-0.012,0.006,0.002,0.585,0.002,0.002,0.014,0.025,0.019,-0.034,0.005,0.003,0.005,0.016,0.043,0.004,0.014,0.004,0.003,0.002,0.0,0.0,-0.0,0.0
0.0,-0.92,-0.924,0.924,-0.927,-0.013,-0.012,0.004,8.538,0.92,2.742,1.003,-0.006,0.006,0.0,1.878,-0.032,-0.0,1.322,0.246,0.246,0.25,0.242,0.41,1.473,0.007,0.0,-0.308,0.303,-0.006,-0.299,-0.303,0.011,0.006,0.0,0.0,0.006,0.002,0.008,-0.001,0.005,0.0,0.002,0.023,-0.013,0.002,-0.022,0.007,0.005,0.002,0.0,-0.013,0.004,0.002,0.605,0.002,0.002,0.014,0.025,0.015,-0.028,-0.002,0.002,-0.004,0.011,0.036,0.004,0.009,0.003,0.002,0.001,0.0,0.0,-0.0,0.0
0.0,-0.92,-0.928,0.928,-0.936,0.008,-0.001,-0.01,8.618,0.844,2.754,1.003,-0.006,0.005,-0.0,1.866,0.018,0.0,1.324,0.245,0.245,0.248,0.243,0.404,1.464,0.024,0.001,-0.306,0.29,-0.014,-0.269,-0.29,0.022,0.02,0.0,0.0,0.012,0.005,0.033,-0.013,0.005,0.0,0.001,0.008,-0.024,0.002,-0.033,0.007,0.007,0.002,0.0,-0.024,0.006,0.004,0.601,0.006,0.005,0.025,0.04,0.025,-0.038,-0.074,0.006,0.008,0.035,0.076,0.019,-0.026,0.012,0.01,0.012,0.0,0.0,-0.0,-0.0
0.0,-0.936,-0.941,0.941,-0.946,-0.003,-0.004,0.038,8.853,0.634,2.783,1.004,-0.0,0.014,0.0,1.828,-0.007,0.0,1.328,0.243,0.242,0.248,0.239,0.388,1.435,0.028,0.001,-0.261,0.252,-0.008,-0.233,-0.252,0.027,0.024,0.0,0.0,0.006,0.005,0.045,-0.002,0.01,0.0,0.002,0.035,-0.024,0.003,-0.025,0.012,0.005,0.003,0.0,-0.02,0.004,0.003,0.588,0.004,0.003,0.021,0.05,0.027,-0.042,-0.046,0.007,0.021,0.032,0.073,0.009,-0.016,0.009,0.007,0.01,0.0,0.0,-0.0,-0.0
0.0,-0.942,-0.951,0.951,-0.956,0.022,0.01,-0.038,9.039,0.484,2.818,1.004,0.015,0.008,-0.0,1.788,0.062,0.0,1.335,0.235,0.235,0.242,0.228,0.364,1.405,0.017,0.0,-0.238,0.22,0.013,-0.207,-0.22,0.018,0.014,0.0,0.0,0.008,0.007,0.022,-0.014,0.006,0.0,0.003,0.027,-0.024,0.004,-0.021,0.007,0.009,0.003,0.0,-0.012,0.007,0.004,0.551,0.002,0.005,0.015,0.035,0.025,-0.037,-0.033,0.006,-0.032,0.019,0.054,0.02,-0.009,0.011,0.011,0.004,-0.0,0.0,0.0,-0.0
-0.0,-0.949,-0.952,0.952,-0.955,-0.014,-0.015,0.004,9.061,0.462,2.818,1.004,-0.002,0.007,0.0,1.787,0.015,-0.0,1.334,0.235,0.235,0.238,0.228,0.364,1.402,0.004,0.0,-0.22,0.215,-0.009,-0.208,-0.215,0.015,0.003,0.0,0.0,0.006,0.002,0.005,-0.009,0.004,0.0,0.002,0.024,-0.014,0.003,-0.02,0.005,0.004,0.004,0.0,-0.014,0.003,0.002,0.552,0.002,0.002,0.015,0.028,0.015,-0.023,0.01,0.002,0.003,0.018,0.046,0.003,0.018,0.003,0.002,0.003,-0.0,0.0,0.0,0.0
-0.0,-0.947,-0.949,0.949,-0.952,0.013,0.002,0.043,9.01,0.496,2.81,1.004,0.001,0.014,0.0,1.794,0.019,0.0,1.33,0.238,0.238,0.241,0.234,0.369,1.41,0.006,0.0,-0.23,0.223,-0.004,-0.218,-0.223,0.015,0.005,0.0,0.0,0.004,0.001,0.004,-0.002,0.007,0.0,0.002,0.035,-0.014,0.002,-0.016,0.008,0.003,0.003,0.0,-0.011,0.003,0.001,0.568,0.001,0.001,0.012,0.031,0.016,-0.024,0.014,0.002,0.0,0.023,0.047,0.005,0.022,0.004,0.003,0.005,-0.0,0.0,0.0,0.0
-0.0,-0.939,-0.944,0.944,-0.949,-0.008,-0.006,-0.023,8.911,0.558,2.798,1.003,-0.005,0.006,-0.0,1.804,-0.057,0.0,1.324,0.246,0.246,0.254,0.24,0.378,1.426,0.012,0.0,-0.248,0.236,-0.003,-0.227,-0.236,0.014,0.009,0.0,0.0,0.005,0.007,0.01,0.003,0.005,0.0,0.004,0.059,-0.008,0.005,-0.015,0.006,0.004,0.009,0.0,-0.011,0.003,0.003,0.605,0.001,0.004,0.012,0.037,0.01,-0.019,0.015,0.001,0.008,0.035,0.053,0.015,0.033,0.008,0.008,0.012,0.0,0.0,-0.0,0.0
-0.0,-0.935,-0.94,0.94,-0.945,0.016,-0.009,0.011,8.829,0.639,2.784,1.004,0.001,0.006,-0.0,1.826,0.091,0.0,1.323,0.246,0.246,0.25,0.24,0.388,1.438,0.018,0.0,-0.262,0.253,-0.007,-0.244,-0.253,0.014,0.014,0.0,0.0,0.009,0.005,0.017,-0.016,0.005,0.0,0.003,0.052,-0.025,0.003,-0.027,0.006,0.006,0.005,0.0,-0.015,0.005,0.003,0.603,0.003,0.003,0.016,0.035,0.025,-0.035,-0.003,0.006,-0.003,0.023,0.055,0.005,0.014,0.006,0.005,0.005,-0.0,0.0,0.0,-0.0
-0.0,-0.932,-0.939,0.939,-0.946,-0.023,-0.007,-0.013,8.81,0.658,2.78,1.003,-0.02,0.02,0.0,1.83,0.002,0.0,1.325,0.245,0.244,0.253,0.239,0.389,1.44,0.019,0.0,-0.267,0.257,0.0,-0.244,-0.256,0.012,0.017,0.0,0.0,0.007,0.003,0.028,0.0,0.01,0.0,0.003,0.06,-0.017,0.004,-0.021,0.012,0.006,0.003,0.0,-0.012,0.005,0.003,0.598,0.002,0.004,0.013,0.036,0.021,-0.039,-0.003,0.005,0.047,0.028,0.05,0.013,0.02,0.008,0.007,0.008,-0.0,0.0,0.0,0.0
-0.0,-0.937,-0.94,0.94,-0.946,-0.051,-0.015,-0.052,8.84,0.651,2.784,1.004,-0.006,0.012,0.0,1.828,-0.01,0.0,1.327,0.242,0.242,0.248,0.236,0.387,1.438,0.012,0.0,-0.26,0.255,-0.001,-0.249,-0.255,0.016,0.009,0.0,0.0,0.008,0.003,0.012,0.015,0.012,0.0,0.003,0.034,-0.017,0.003,-0.035,0.015,0.011,0.004,0.0,-0.016,0.009,0.002,0.587,0.004,0.002,0.019,0.028,0.023,-0.042,-0.012,0.005,-0.001,0.018,0.052,0.005,0.013,0.004,0.003,0.003,-0.0,0.0,-0.0,-0.0
0.0,-0.934,-0.938,0.938,-0.94,0.032,-0.01,-0.011,8.802,0.663,2.78,1.003,0.002,0.009,0.0,1.83,-0.022,0.0,1.325,0.244,0.244,0.25,0.241,0.39,1.44,0.006,0.0,-0.262,0.258,-0.005,-0.255,-0.258,0.014,0.005,0.0,0.0,0.003,0.002,0.006,-0.009,0.005,0.0,0.002,0.029,-0.017,0.003,-0.029,0.005,0.008,0.003,0.0,-0.014,0.006,0.002,0.597,0.002,0.002,0.016,0.029,0.018,-0.025,0.006,0.003,0.001,0.019,0.049,0.002,0.018,0.002,0.002,0.004,0.0,0.0,-0.0,-0.0
-0.0,-0.933,-0.936,0.936,-0.938,-0.015,-0.011,0.018,8.767,0.692,2.774,1.003,-0.005,0.007,0.0,1.836,0.022,-0.0,1.323,0.246,0.246,0.25,0.242,0.393,1.445,0.008,0.0,-0.265,0.263,-0.006,-0.261,-0.263,0.014,0.006,0.0,0.0,0.003,0.002,0.008,-0.005,0.005,0.0,0.002,0.029,-0.018,0.003,-0.027,0.006,0.005,0.004,0.0,-0.014,0.004,0.001,0.604,0.002,0.001,0.015,0.028,0.019,-0.024,0.0,0.004,0.007,0.016,0.046,0.002,0.013,0.001,0.001,0.002,-0.0,0.0,-0.0,-0.0
0.0,-0.933,-0.937,0.937,-0.939,-0.001,0.009,-0.001,8.778,0.686,2.776,1.004,0.002,0.007,0.0,1.834,0.032,0.0,1.324,0.246,0.246,0.25,0.243,0.392,1.445,0.007,0.0,-0.27,0.262,-0.004,-0.257,-0.262,0.014,0.006,0.0,0.0,0.01,0.002,0.012,-0.01,0.004,0.0,0.002,0.02,-0.017,0.002,-0.021,0.005,0.006,0.003,0.0,-0.014,0.005,0.002,0.607,0.002,0.002,0.015,0.028,0.017,-0.025,0.001,0.003,0.001,0.015,0.043,0.002,0.013,0.003,0.002,0.002,0.0,0.0,-0.0,0.0
-0.0,-0.934,-0.936,0.937,-0.94,-0.016,0.017,-0.04,8.77,0.691,2.776,1.003,0.005,0.014,-0.0,1.836,0.041,0.0,1.322,0.247,0.247,0.252,0.242,0.392,1.446,0.007,0.0,-0.266,0.263,-0.009,-0.26,-0.263,0.015,0.005,0.0,0.0,0.01,0.001,0.007,-0.005,0.008,0.0,0.003,0.029,-0.017,0.004,-0.037,0.008,0.009,0.007,0.0,-0.017,0.007,0.001,0.608,0.004,0.001,0.019,0.03,0.019,-0.028,0.007,0.004,-0.002,0.017,0.05,0.004,0.015,0.002,0.002,0.003,0.0,0.0,-0.0,-0.0
0.0,-0.932,-0.935,0.935,-0.937,0.004,0.009,-0.038,8.744,0.692,2.771,1.003,0.01,0.006,-0.0,1.836,0.023,-0.0,1.32,0.249,0.249,0.254,0.244,0.394,1.447,0.006,0.0,-0.269,0.263,-0.006,-0.257,-0.263,0.013,0.005,0.0,0.0,0.008,0.003,0.005,-0.004,0.006,0.0,0.004,0.019,-0.017,0.004,-0.018,0.007,0.004,0.007,0.0,-0.012,0.004,0.002,0.621,0.002,0.002,0.013,0.026,0.018,-0.029,-0.004,0.003,-0.01,0.013,0.041,0.004,0.011,0.003,0.003,0.002,-0.0,0.0,0.0,-0.0
-0.0,-0.931,-0.935,0.935,-0.939,-0.031,-0.023,0.001,8.748,0.69,2.772,1.003,-0.006,0.017,0.0,1.835,-0.024,-0.0,1.318,0.251,0.251,0.258,0.246,0.395,1.449,0.01,0.0,-0.271,0.263,0.037,-0.254,-0.263,0.016,0.008,0.0,0.0,0.027,0.003,0.015,0.008,0.012,0.0,0.003,0.03,-0.022,0.004,-0.023,0.016,0.019,0.007,0.0,-0.001,0.018,0.002,0.631,0.004,0.003,0.019,0.033,0.027,-0.055,0.001,0.008,-0.003,0.019,0.058,0.007,0.016,0.005,0.004,0.004,0.0,0.0,-0.0,-0.0
-0.0,-0.931,-0.935,0.935,-0.938,0.008,-0.016,-0.076,8.733,0.744,2.771,1.002,0.003,0.015,0.0,1.847,0.005,0.0,1.329,0.239,0.239,0.246,0.231,0.394,1.447,0.007,0.0,-0.279,0.273,0.001,-0.267,-0.273,0.018,0.006,0.0,0.0,0.012,0.002,0.008,0.001,0.011,0.0,0.004,0.028,-0.02,0.005,-0.039,0.013,0.011,0.008,0.0,-0.021,0.008,0.002,0.573,0.005,0.002,0.023,0.037,0.024,-0.047,0.006,0.006,-0.01,0.02,0.06,0.004,0.019,0.003,0.003,0.004,-0.0,0.0,0.0,-0.0
0.0,-0.932,-0.935,0.935,-0.937,0.062,0.012,0.014,8.746,0.728,2.774,1.003,0.007,0.006,0.0,1.841,0.026,0.0,1.326,0.242,0.242,0.247,0.238,0.392,1.447,0.01,0.0,-0.279,0.27,-0.003,-0.264,-0.27,0.016,0.009,0.0,0.0,0.022,0.004,0.017,-0.011,0.004,0.0,0.002,0.023,-0.022,0.002,-0.062,0.006,0.017,0.003,0.0,-0.023,0.014,0.002,0.588,0.008,0.002,0.029,0.033,0.022,-0.031,-0.007,0.005,-0.012,0.014,0.057,0.008,0.01,0.005,0.004,0.002,0.0,0.0,-0.0,0.0
0.0,-0.933,-0.935,0.935,-0.938,-0.016,-0.01,-0.028,8.75,0.731,2.772,1.003,0.002,0.007,-0.0,1.843,-0.02,-0.0,1.326,0.242,0.242,0.247,0.238,0.394,1.448,0.005,0.0,-0.278,0.27,0.008,-0.263,-0.27,0.015,0.005,0.0,0.0,0.007,0.003,0.008,-0.006,0.004,0.0,0.002,0.03,-0.015,0.003,-0.024,0.005,0.01,0.003,0.0,-0.01,0.008,0.001,0.586,0.002,0.002,0.014,0.03,0.016,-0.022,0.012,0.003,-0.008,0.022,0.05,0.004,0.022,0.004,0.003,0.005,-0.0,0.0,0.0,-0.0
0.0,-0.93,-0.932,0.932,-0.934,0.001,-0.01,-0.0,8.69,0.779,2.762,1.003,-0.001,0.002,-0.0,1.854,-0.006,-0.0,1.324,0.245,0.245,0.248,0.24,0.399,1.456,0.004,0.0,-0.285,0.279,0.009,-0.275,-0.279,0.012,0.004,0.0,0.0,0.01,0.003,0.006,-0.012,0.003,0.0,0.002,0.021,-0.017,0.002,-0.022,0.004,0.009,0.003,0.0,-0.008,0.007,0.001,0.598,0.001,0.001,0.012,0.026,0.018,-0.029,0.009,0.003,-0.008,0.016,0.043,0.003,0.016,0.003,0.002,0.003,0.0,0.0,-0.0,-0.0
-0.0,-0.93,-0.936,0.936,-0.942,0.146,0.015,0.098,8.763,0.743,2.771,1.002,0.007,0.027,-0.0,1.848,0.034,-0.0,1.331,0.236,0.236,0.24,0.227,0.394,1.444,0.017,0.0,-0.284,0.273,-0.004,-0.261,-0.272,0.028,0.014,0.001,0.0,0.051,0.005,0.025,-0.006,0.016,0.0,0.004,0.023,-0.036,0.005,-0.086,0.018,0.029,0.007,0.0,-0.053,0.026,0.003,0.555,0.037,0.004,0.06,0.078,0.04,-0.066,-0.033,0.016,0.002,0.017,0.103,0.014,0.001,0.008,0.007,0.003,0.0,0.0,-0.0,-0.0
0.0,-0.931,-0.936,0.936,-0.942,-0.138,-0.016,0.02,8.761,0.721,2.771,1.003,-0.002,0.014,0.0,1.84,-0.02,0.0,1.326,0.242,0.242,0.249,0.236,0.394,1.446,0.017,0.0,-0.283,0.269,0.057,-0.255,-0.268,0.017,0.013,0.001,0.0,0.048,0.005,0.016,0.023,0.01,0.0,0.004,0.053,0.003,0.005,-0.025,0.013,0.028,0.009,0.0,0.007,0.025,0.003,0.586,0.008,0.004,0.029,0.044,0.013,-0.017,-0.001,0.002,-0.016,0.034,0.063,0.013,0.029,0.008,0.007,0.011,0.0,0.0,-0.0,-0.0
0.0,-0.92,-0.927,0.927,-0.932,-0.101,-0.01,0.008,8.595,0.831,2.752,1.003,-0.007,0.02,-0.0,1.861,-0.073,-0.0,1.32,0.25,0.25,0.26,0.244,0.405,1.465,0.015,0.0,-0.307,0.288,0.045,-0.27,-0.288,0.014,0.013,0.001,0.0,0.013,0.005,0.021,0.01,0.012,0.0,0.003,0.053,-0.016,0.004,-0.035,0.014,0.023,0.003,0.0,0.008,0.017,0.003,0.626,0.006,0.004,0.024,0.047,0.021,-0.038,0.009,0.004,0.001,0.036,0.068,0.016,0.033,0.011,0.009,0.013,0.0,0.0,-0.0,-0.0
-0.0,-0.917,-0.922,0.922,-0.926,-0.006,-0.003,-0.08,8.497,0.952,2.735,1.002,0.008,0.017,0.0,1.883,0.012,-0.0,1.322,0.246,0.246,0.255,0.235,0.413,1.477,0.009,0.0,-0.313,0.309,0.004,-0.302,-0.308,0.016,0.008,0.0,0.0,0.023,0.005,0.013,0.019,0.012,0.0,0.005,0.037,-0.011,0.006,-0.05,0.015,0.015,0.008,0.0,-0.025,0.013,0.003,0.607,0.008,0.003,0.029,0.043,0.019,-0.036,0.007,0.003,-0.003,0.022,0.062,0.004,0.02,0.003,0.003,0.005,-0.0,0.0,0.0,0.0
0.0,-0.92,-0.921,0.921,-0.922,0.001,0.004,0.011,8.486,0.928,2.735,1.003,0.001,0.007,0.0,1.88,-0.016,0.0,1.317,0.253,0.253,0.257,0.251,0.414,1.479,0.01,0.0,-0.309,0.305,-0.003,-0.301,-0.305,0.01,0.008,0.0,0.0,0.007,0.001,0.015,-0.006,0.006,0.0,0.002,0.025,-0.015,0.002,-0.025,0.008,0.007,0.004,0.0,-0.017,0.006,0.001,0.64,0.004,0.001,0.019,0.027,0.017,-0.034,-0.005,0.003,0.011,0.013,0.042,0.005,0.008,0.003,0.003,0.002,0.0,0.0,-0.0,-0.0
-0.0,-0.917,-0.92,0.92,-0.922,-0.003,0.014,0.009,8.468,0.925,2.734,1.003,0.001,0.002,-0.0,1.878,0.008,0.0,1.312,0.257,0.257,0.262,0.252,0.416,1.481,0.006,0.0,-0.31,0.304,0.0,-0.3,-0.304,0.016,0.005,0.0,0.0,0.006,0.001,0.007,-0.013,0.002,0.0,0.002,0.027,-0.02,0.002,-0.027,0.004,0.007,0.003,0.0,-0.014,0.005,0.001,0.659,0.002,0.001,0.015,0.031,0.021,-0.027,0.006,0.004,0.003,0.018,0.051,0.002,0.017,0.003,0.002,0.003,-0.0,0.0,0.0,0.0
-0.0,-0.918,-0.921,0.921,-0.923,-0.03,0.004,-0.015,8.481,0.957,2.734,1.003,0.004,0.007,0.0,1.884,-0.003,0.0,1.318,0.251,0.25,0.254,0.245,0.415,1.481,0.009,0.0,-0.313,0.309,-0.002,-0.305,-0.309,0.012,0.008,0.0,0.0,0.012,0.003,0.013,-0.01,0.005,0.0,0.002,0.032,-0.02,0.003,-0.028,0.005,0.008,0.003,0.0,-0.009,0.007,0.002,0.628,0.001,0.002,0.012,0.03,0.021,-0.029,0.001,0.004,-0.001,0.019,0.046,0.004,0.016,0.003,0.002,0.004,-0.0,0.0,0.0,-0.0
0.0,-0.917,-0.92,0.92,-0.923,-0.033,0.012,-0.024,8.455,0.97,2.732,1.002,0.005,0.009,-0.0,1.886,-0.018,-0.0,1.319,0.25,0.25,0.254,0.245,0.415,1.481,0.007,0.0,-0.314,0.312,0.007,-0.309,-0.312,0.014,0.005,0.0,0.0,0.018,0.003,0.006,-0.01,0.005,0.0,0.002,0.027,-0.018,0.002,-0.029,0.006,0.011,0.002,0.0,-0.01,0.01,0.002,0.624,0.002,0.002,0.015,0.028,0.019,-0.027,0.004,0.004,-0.003,0.017,0.045,0.002,0.015,0.001,0.001,0.003,-0.0,0.0,0.0,0.0
-0.0,-0.916,-0.92,0.92,-0.922,-0.047,0.007,-0.018,8.455,0.993,2.732,1.003,0.002,0.014,-0.0,1.89,0.049,0.0,1.323,0.246,0.246,0.249,0.243,0.414,1.48,0.008,0.0,-0.321,0.315,0.004,-0.31,-0.315,0.014,0.008,0.0,0.0,0.011,0.003,0.015,-0.008,0.007,0.0,0.002,0.025,-0.019,0.002,-0.022,0.007,0.009,0.003,0.0,-0.012,0.008,0.002,0.604,0.002,0.002,0.015,0.028,0.02,-0.029,0.001,0.004,0.002,0.016,0.045,0.005,0.014,0.003,0.003,0.003,0.0,0.0,-0.0,0.0
0.0,-0.915,-0.92,0.92,-0.923,0.008,0.003,0.027,8.455,0.995,2.732,1.003,-0.001,0.006,-0.0,1.89,0.046,0.0,1.323,0.246,0.246,0.252,0.242,0.414,1.481,0.007,0.0,-0.321,0.315,-0.006,-0.309,-0.315,0.014,0.006,0.0,0.0,0.01,0.003,0.012,-0.008,0.005,0.0,0.002,0.026,-0.018,0.003,-0.023,0.006,0.006,0.003,0.0,-0.013,0.005,0.002,0.607,0.002,0.002,0.014,0.028,0.019,-0.029,0.006,0.004,0.002,0.016,0.046,0.005,0.014,0.004,0.003,0.003,-0.0,0.0,0.0,0.0
-0.0,-0.916,-0.918,0.918,-0.92,0.006,-0.008,0.021,8.435,1.005,2.73,1.002,0.008,0.005,0.0,1.892,0.001,-0.0,1.322,0.246,0.246,0.248,0.242,0.415,1.482,0.005,0.0,-0.323,0.317,-0.005,-0.314,-0.317,0.014,0.004,0.0,0.0,0.006,0.002,0.007,-0.011,0.003,0.0,0.002,0.02,-0.018,0.002,-0.017,0.004,0.004,0.002,0.0,-0.013,0.003,0.001,0.606,0.002,0.001,0.013,0.027,0.018,-0.023,0.002,0.003,-0.014,0.015,0.045,0.004,0.014,0.003,0.002,0.002,-0.0,0.0,0.0,0.0
-0.0,-0.917,-0.92,0.92,-0.922,-0.014,-0.006,0.022,8.46,0.991,2.731,1.003,0.004,0.003,0.0,1.89,-0.005,-0.0,1.324,0.246,0.246,0.249,0.242,0.415,1.48,0.006,0.0,-0.318,0.315,-0.009,-0.309,-0.315,0.015,0.006,0.0,0.0,0.006,0.001,0.012,-0.013,0.003,0.0,0.002,0.022,-0.02,0.002,-0.019,0.005,0.003,0.004,0.0,-0.016,0.003,0.001,0.603,0.003,0.001,0.016,0.028,0.02,-0.029,0.004,0.004,-0.01,0.014,0.047,0.003,0.012,0.003,0.002,0.002,0.0,0.0,-0.0,0.0
0.0,-0.916,-0.919,0.919,-0.921,-0.01,-0.002,-0.012,8.442,1.002,2.732,1.002,0.001,0.004,0.0,1.892,-0.027,-0.0,1.323,0.246,0.246,0.248,0.242,0.414,1.481,0.008,0.0,-0.32,0.317,-0.008,-0.313,-0.316,0.013,0.006,0.0,0.0,0.006,0.002,0.008,-0.011,0.003,0.0,0.001,0.034,-0.016,0.002,-0.019,0.003,0.004,0.003,0.0,-0.014,0.003,0.001,0.603,0.002,0.001,0.014,0.025,0.016,-0.021,0.007,0.003,-0.0,0.016,0.044,0.004,0.014,0.002,0.002,0.003,0.0,0.0,0.0,0.0
-0.0,-0.915,-0.918,0.918,-0.922,-0.017,-0.001,-0.004,8.433,1.009,2.73,1.002,-0.003,0.002,0.0,1.894,-0.027,0.0,1.324,0.245,0.245,0.247,0.244,0.415,1.481,0.006,0.0,-0.322,0.318,-0.009,-0.312,-0.318,0.014,0.006,0.0,0.0,0.007,0.003,0.01,-0.011,0.002,0.0,0.001,0.024,-0.017,0.001,-0.023,0.003,0.004,0.001,0.0,-0.014,0.004,0.002,0.601,0.002,0.002,0.015,0.028,0.018,-0.023,0.007,0.003,0.003,0.015,0.046,0.004,0.014,0.003,0.002,0.002,0.0,0.0,-0.0,-0.0
0.0,-0.917,-0.919,0.919,-0.92,-0.014,0.007,-0.005,8.442,1.014,2.729,1.003,-0.002,0.006,-0.0,1.894,-0.02,0.0,1.324,0.245,0.245,0.248,0.243,0.415,1.482,0.008,0.0,-0.323,0.318,-0.004,-0.313,-0.318,0.014,0.007,0.0,0.0,0.012,0.001,0.011,-0.013,0.004,0.0,0.001,0.033,-0.019,0.001,-0.025,0.004,0.007,0.002,0.0,-0.013,0.006,0.001,0.601,0.002,0.001,0.015,0.031,0.02,-0.028,0.003,0.004,0.007,0.018,0.048,0.002,0.016,0.003,0.002,0.003,0.0,0.0,-0.0,0.0
-0.0,-0.914,-0.917,0.917,-0.92,-0.009,-0.001,0.014,8.414,1.034,2.726,1.002,0.007,0.006,0.0,1.898,0.042,-0.0,1.324,0.245,0.245,0.247,0.242,0.417,1.483,0.009,0.0,-0.326,0.322,-0.007,-0.315,-0.322,0.014,0.007,0.0,0.0,0.008,0.003,0.01,-0.012,0.003,0.0,0.001,0.035,-0.018,0.001,-0.024,0.004,0.006,0.001,0.0,-0.014,0.005,0.001,0.598,0.002,0.002,0.015,0.028,0.018,-0.023,0.004,0.003,-0.014,0.017,0.046,0.004,0.014,0.003,0.003,0.003,-0.0,0.0,0.0,0.0
-0.0,-0.914,-0.917,0.917,-0.92,-0.004,0.009,-0.004,8.413,1.032,2.727,1.002,0.005,0.007,-0.0,1.897,-0.018,-0.0,1.324,0.245,0.245,0.248,0.242,0.416,1.484,0.005,0.0,-0.33,0.321,-0.004,-0.318,-0.321,0.016,0.003,0.0,0.0,0.005,0.001,0.001,-0.007,0.005,0.0,0.002,0.031,-0.016,0.002,-0.022,0.005,0.005,0.003,0.0,-0.016,0.004,0.001,0.601,0.003,0.001,0.016,0.028,0.016,-0.022,0.009,0.003,-0.006,0.017,0.047,0.003,0.016,0.003,0.002,0.003,0.0,0.0,0.0,0.0
-0.0,-0.911,-0.915,0.915,-0.919,0.054,-0.01,-0.018,8.378,1.043,2.721,1.003,-0.004,0.022,-0.0,1.898,0.017,0.0,1.316,0.253,0.253,0.259,0.248,0.421,1.491,0.008,0.0,-0.327,0.323,0.003,-0.319,-0.323,0.012,0.007,0.0,0.0,0.033,0.003,0.012,-0.001,0.013,0.0,0.004,0.026,-0.019,0.004,-0.055,0.015,0.018,0.007,0.0,-0.021,0.016,0.002,0.641,0.008,0.002,0.028,0.036,0.024,-0.044,0.001,0.006,-0.002,0.016,0.055,0.006,0.014,0.003,0.003,0.003,-0.0,0.0,0.0,0.0
-0.0,-0.912,-0.916,0.916,-0.92,0.064,-0.008,-0.011,8.389,1.049,2.722,1.002,-0.011,0.01,0.0,1.9,-0.004,0.0,1.322,0.247,0.247,0.251,0.244,0.419,1.487,0.011,0.0,-0.332,0.324,0.016,-0.317,-0.324,0.012,0.009,0.0,0.0,0.022,0.004,0.014,-0.008,0.005,0.0,0.002,0.03,-0.016,0.002,-0.03,0.005,0.015,0.004,0.0,-0.002,0.012,0.002,0.611,0.002,0.003,0.015,0.028,0.017,-0.024,-0.009,0.003,0.011,0.018,0.044,0.008,0.014,0.005,0.004,0.003,-0.0,0.0,0.0,-0.0
-0.0,-0.906,-0.914,0.914,-0.928,-0.004,-0.006,0.021,8.358,1.057,2.718,1.002,0.017,0.006,-0.0,1.904,-0.067,-0.0,1.319,0.25,0.25,0.256,0.24,0.42,1.489,0.019,0.0,-0.336,0.325,0.019,-0.305,-0.325,0.019,0.015,0.0,0.0,0.034,0.005,0.018,0.0,0.008,0.0,0.004,0.039,-0.02,0.005,-0.053,0.011,0.022,0.006,0.0,-0.019,0.019,0.004,0.626,0.009,0.006,0.029,0.042,0.022,-0.037,-0.029,0.005,-0.03,0.027,0.068,0.012,0.019,0.009,0.008,0.007,-0.0,0.0,0.0,0.0
-0.0,-0.91,-0.914,0.914,-0.918,0.004,-0.02,-0.019,8.356,1.096,2.721,1.002,-0.005,0.013,-0.0,1.906,0.025,0.0,1.324,0.244,0.244,0.252,0.238,0.419,1.489,0.013,0.0,-0.34,0.331,0.013,-0.326,-0.331,0.016,0.011,0.0,0.0,0.016,0.003,0.023,-0.002,0.008,0.0,0.004,0.038,-0.02,0.004,-0.023,0.01,0.011,0.007,0.0,-0.01,0.009,0.002,0.596,0.002,0.002,0.015,0.032,0.022,-0.041,0.0,0.005,-0.004,0.022,0.051,0.004,0.017,0.004,0.003,0.005,0.0,0.0,-0.0,-0.0
0.001,-0.904,-0.912,0.912,-0.919,-0.026,-0.02,-0.045,8.323,1.093,2.715,1.002,-0.034,0.008,0.0,1.907,0.047,0.0,1.319,0.249,0.249,0.26,0.23,0.422,1.492,0.027,0.001,-0.345,0.331,0.044,-0.311,-0.33,0.018,0.022,0.001,0.0,0.051,0.007,0.029,0.005,0.009,0.0,0.007,0.034,-0.012,0.008,-0.079,0.013,0.037,0.009,0.0,-0.022,0.029,0.004,0.62,0.019,0.005,0.043,0.05,0.018,-0.042,-0.055,0.003,0.049,0.03,0.076,0.008,-0.012,0.01,0.007,0.009,0.0,0.0,-0.0,0.0
-0.0,-0.92,-0.928,0.928,-0.936,-0.008,0.005,-0.02,8.618,0.816,2.754,1.003,0.021,0.008,0.0,1.857,-0.037,-0.0,1.318,0.251,0.25,0.254,0.246,0.404,1.464,0.023,0.001,-0.311,0.286,-0.011,-0.268,-0.285,0.02,0.02,0.0,0.0,0.009,0.005,0.031,-0.017,0.006,0.0,0.002,0.001,-0.028,0.002,-0.043,0.008,0.009,0.004,0.0,-0.022,0.007,0.004,0.628,0.006,0.005,0.024,0.04,0.029,-0.043,-0.07,0.008,-0.059,0.036,0.077,0.016,-0.028,0.013,0.011,0.013,0.0,0.0,-0.0,0.0
0.0,-0.928,-0.935,0.935,-0.948,0.003,-0.011,-0.047,8.748,0.732,2.767,1.004,-0.012,0.008,0.0,1.847,-0.034,0.0,1.324,0.243,0.243,0.247,0.236,0.396,1.449,0.013,0.0,-0.281,0.271,0.003,-0.253,-0.27,0.008,0.01,0.0,0.0,0.009,0.004,0.011,-0.003,0.008,0.0,0.003,0.046,-0.014,0.004,-0.019,0.011,0.006,0.005,0.0,-0.007,0.006,0.004,0.592,0.001,0.005,0.009,0.032,0.017,-0.042,-0.003,0.003,0.023,0.026,0.044,0.007,0.023,0.008,0.007,0.007,0.0,0.0,-0.0,-0.0
-0.0,-0.924,-0.929,0.929,-0.937,-0.012,-0.003,-0.016,8.629,0.802,2.754,1.002,-0.017,0.022,0.0,1.859,-0.051,0.0,1.32,0.251,0.25,0.258,0.244,0.404,1.462,0.012,0.0,-0.293,0.283,0.049,-0.269,-0.283,0.021,0.01,0.001,0.0,0.045,0.005,0.02,-0.001,0.011,0.0,0.004,0.038,-0.016,0.004,-0.063,0.013,0.034,0.005,0.0,-0.021,0.029,0.004,0.628,0.016,0.004,0.04,0.051,0.02,-0.039,0.005,0.004,0.043,0.025,0.074,0.011,0.022,0.008,0.006,0.006,0.0,0.0,-0.0,-0.0
0.0,-0.925,-0.928,0.928,-0.931,-0.006,0.004,-0.023,8.616,0.817,2.753,1.003,0.002,0.009,0.0,1.86,-0.055,-0.0,1.318,0.251,0.251,0.254,0.247,0.405,1.465,0.01,0.0,-0.292,0.286,-0.006,-0.28,-0.286,0.014,0.007,0.0,0.0,0.006,0.003,0.008,-0.01,0.004,0.0,0.002,0.046,-0.017,0.002,-0.028,0.005,0.006,0.004,0.0,-0.012,0.005,0.002,0.629,0.002,0.002,0.014,0.028,0.018,-0.024,0.007,0.003,0.006,0.022,0.048,0.008,0.02,0.004,0.004,0.005,-0.0,0.0,-0.0,-0.0
-0.0,-0.921,-0.925,0.925,-0.929,0.005,0.005,-0.018,8.551,0.883,2.744,1.003,-0.004,0.003,-0.0,1.871,-0.045,0.0,1.319,0.25,0.25,0.253,0.248,0.41,1.472,0.014,0.0,-0.305,0.297,-0.005,-0.291,-0.297,0.016,0.011,0.0,0.0,0.003,0.004,0.016,-0.01,0.003,0.0,0.001,0.049,-0.021,0.001,-0.015,0.004,0.003,0.001,0.0,-0.011,0.003,0.002,0.624,0.001,0.002,0.012,0.034,0.021,-0.024,-0.001,0.005,0.011,0.025,0.053,0.007,0.02,0.005,0.004,0.006,-0.0,0.0,-0.0,-0.0
-0.0,-0.922,-0.926,0.926,-0.931,-0.005,0.003,-0.022,8.566,0.876,2.746,1.002,-0.004,0.006,0.0,1.87,-0.003,0.0,1.321,0.248,0.248,0.251,0.245,0.408,1.47,0.005,0.0,-0.303,0.296,-0.011,-0.287,-0.296,0.014,0.004,0.0,0.0,0.002,0.003,0.005,-0.011,0.004,0.0,0.002,0.022,-0.015,0.002,-0.018,0.004,0.002,0.003,0.0,-0.015,0.002,0.002,0.616,0.002,0.002,0.015,0.024,0.016,-0.023,0.004,0.002,0.017,0.012,0.041,0.004,0.011,0.004,0.003,0.002,0.0,0.0,-0.0,-0.0
0.0,-0.918,-0.922,0.922,-0.925,0.042,-0.048,-0.048,8.495,0.88,2.736,1.003,-0.006,0.036,0.0,1.871,0.003,0.0,1.305,0.261,0.261,0.272,0.245,0.415,1.479,0.013,0.0,-0.303,0.297,0.003,-0.292,-0.297,0.014,0.012,0.0,0.0,0.01,0.004,0.023,0.022,0.02,0.0,0.009,0.039,-0.005,0.01,-0.036,0.022,0.01,0.02,0.0,-0.013,0.007,0.002,0.682,0.003,0.003,0.016,0.032,0.022,-0.038,0.001,0.005,-0.019,0.024,0.054,0.005,0.02,0.004,0.003,0.006,-0.0,0.0,0.0,-0.0
0.0,-0.914,-0.918,0.918,-0.921,0.008,0.025,-0.058,8.425,0.961,2.73,1.002,0.006,0.019,0.0,1.886,0.003,-0.0,1.314,0.256,0.256,0.263,0.25,0.417,1.484,0.005,0.0,-0.316,0.31,0.004,-0.304,-0.31,0.016,0.004,0.0,0.0,0.012,0.003,0.005,-0.01,0.01,0.0,0.003,0.035,-0.025,0.004,-0.025,0.011,0.008,0.006,0.0,-0.011,0.007,0.002,0.657,0.002,0.002,0.014,0.036,0.027,-0.041,0.018,0.007,-0.0,0.025,0.062,0.007,0.025,0.004,0.004,0.006,-0.0,0.0,0.0,-0.0
0.0,-0.91,-0.916,0.916,-0.922,0.044,0.003,-0.137,8.398,0.977,2.728,1.003,0.0,0.034,0.0,1.888,-0.048,-0.0,1.31,0.261,0.26,0.278,0.247,0.419,1.489,0.009,0.0,-0.317,0.313,-0.002,-0.306,-0.312,0.018,0.008,0.0,0.0,0.01,0.009,0.014,0.022,0.018,0.0,0.01,0.023,-0.008,0.011,-0.035,0.02,0.009,0.02,0.0,-0.018,0.008,0.004,0.679,0.004,0.004,0.021,0.034,0.022,-0.041,-0.005,0.005,-0.002,0.014,0.05,0.002,0.012,0.003,0.002,0.002,0.0,0.0,-0.0,-0.0
0.0,-0.914,-0.917,0.917,-0.921,0.011,0.016,-0.034,8.416,0.972,2.726,1.003,0.004,0.024,0.0,1.887,-0.008,0.0,1.311,0.259,0.259,0.268,0.255,0.42,1.488,0.006,0.0,-0.313,0.312,-0.003,-0.31,-0.312,0.012,0.004,0.0,0.0,0.003,0.002,0.004,-0.005,0.011,0.0,0.002,0.029,-0.022,0.003,-0.021,0.013,0.005,0.002,0.0,-0.012,0.004,0.001,0.67,0.002,0.002,0.013,0.028,0.025,-0.043,0.007,0.006,0.005,0.013,0.046,0.001,0.012,0.001,0.001,0.002,0.0,0.0,-0.0,-0.0
0.0,-0.907,-0.911,0.911,-0.918,-0.009,-0.066,0.016,8.305,0.998,2.708,1.003,-0.02,0.072,0.0,1.892,0.016,0.0,1.292,0.274,0.274,0.287,0.26,0.431,1.501,0.005,0.0,-0.321,0.316,0.003,-0.311,-0.316,0.014,0.004,0.0,0.0,0.008,0.003,0.006,0.03,0.031,0.0,0.009,0.028,-0.01,0.01,-0.023,0.034,0.007,0.016,0.001,-0.006,0.006,0.003,0.751,0.001,0.003,0.009,0.038,0.036,-0.054,0.014,0.013,0.004,0.023,0.06,0.003,0.023,0.003,0.003,0.005,0.0,0.0,0.0,0.0
-0.0,-0.903,-0.91,0.91,-0.918,0.052,0.014,-0.102,8.283,1.075,2.716,1.002,0.009,0.034,0.0,1.902,0.015,-0.0,1.312,0.263,0.263,0.278,0.251,0.424,1.501,0.012,0.0,-0.337,0.328,-0.003,-0.322,-0.328,0.015,0.01,0.0,0.0,0.012,0.01,0.01,0.022,0.02,0.0,0.009,0.044,-0.008,0.01,-0.033,0.024,0.01,0.019,0.001,-0.015,0.008,0.005,0.691,0.003,0.005,0.018,0.034,0.025,-0.05,0.005,0.006,-0.008,0.026,0.059,0.008,0.023,0.005,0.004,0.007,-0.0,0.0,-0.0,-0.0
0.0,-0.902,-0.908,0.908,-0.915,-0.006,0.018,0.046,8.239,1.07,2.706,1.002,0.006,0.009,-0.0,1.903,0.016,-0.0,1.297,0.271,0.271,0.282,0.263,0.43,1.506,0.005,0.0,-0.335,0.327,0.0,-0.318,-0.327,0.01,0.005,0.0,0.0,0.008,0.006,0.008,-0.015,0.006,0.0,0.005,0.012,-0.028,0.006,-0.022,0.008,0.006,0.009,0.0,-0.013,0.005,0.003,0.737,0.002,0.004,0.014,0.03,0.03,-0.041,-0.005,0.009,-0.01,0.006,0.046,0.009,0.002,0.006,0.005,0.0,0.0,0.0,0.0,0.0
0.0,-0.903,-0.91,0.91,-0.914,0.004,-0.012,-0.007,8.285,1.054,2.71,1.002,-0.009,0.007,0.0,1.9,0.019,0.0,1.301,0.267,0.267,0.27,0.262,0.428,1.501,0.007,0.0,-0.332,0.325,-0.004,-0.321,-0.325,0.013,0.007,0.0,0.0,0.005,0.003,0.013,-0.006,0.004,0.0,0.002,0.026,-0.015,0.002,-0.017,0.005,0.004,0.004,0.0,-0.011,0.004,0.002,0.711,0.001,0.003,0.011,0.026,0.016,-0.022,0.005,0.002,0.012,0.017,0.041,0.003,0.016,0.003,0.003,0.003,-0.0,0.0,0.0,-0.0
0.0,-0.916,-0.918,0.918,-0.921,-0.004,0.004,0.01,8.427,0.887,2.729,1.002,0.004,0.005,0.0,1.872,0.016,0.0,1.297,0.27,0.27,0.273,0.267,0.42,1.486,0.005,0.0,-0.301,0.298,-0.008,-0.296,-0.298,0.015,0.004,0.0,0.0,0.001,0.002,0.005,-0.01,0.004,0.0,0.002,0.025,-0.022,0.002,-0.019,0.005,0.003,0.004,0.0,-0.014,0.002,0.001,0.729,0.002,0.001,0.014,0.03,0.022,-0.028,0.005,0.005,-0.004,0.014,0.049,0.002,0.013,0.002,0.001,0.002,-0.0,0.0,-0.0,-0.0
0.0,-0.914,-0.917,0.917,-0.92,-0.0,0.001,0.018,8.405,0.906,2.726,1.002,0.001,0.003,-0.0,1.876,0.022,0.0,1.297,0.27,0.27,0.272,0.268,0.421,1.488,0.005,0.0,-0.307,0.301,-0.01,-0.292,-0.301,0.015,0.004,0.0,0.0,0.001,0.002,0.005,-0.009,0.002,0.0,0.001,0.03,-0.017,0.001,-0.014,0.003,0.001,0.001,0.0,-0.012,0.001,0.001,0.731,0.002,0.002,0.012,0.028,0.017,-0.021,0.011,0.003,0.0,0.019,0.048,0.003,0.018,0.004,0.003,0.004,-0.0,0.0,0.0,0.0
0.0,-0.914,-0.915,0.915,-0.917,-0.017,0.013,-0.005,8.38,0.941,2.722,1.002,-0.0,0.006,-0.0,1.882,-0.007,0.0,1.3,0.268,0.268,0.271,0.265,0.422,1.49,0.005,0.0,-0.311,0.307,0.007,-0.301,-0.307,0.015,0.004,0.0,0.0,0.006,0.001,0.005,-0.013,0.004,0.0,0.002,0.03,-0.019,0.002,-0.016,0.004,0.006,0.005,0.0,-0.01,0.005,0.001,0.719,0.001,0.001,0.012,0.028,0.019,-0.026,0.011,0.004,0.007,0.019,0.048,0.004,0.018,0.003,0.003,0.003,-0.0,0.0,0.0,0.0
0.0,-0.909,-0.913,0.913,-0.916,-0.001,-0.014,-0.04,8.33,0.977,2.717,1.002,-0.004,0.006,-0.0,1.888,0.034,0.0,1.3,0.27,0.27,0.283,0.266,0.425,1.495,0.016,0.0,-0.316,0.313,-0.012,-0.307,-0.312,0.017,0.013,0.0,0.0,0.005,0.002,0.017,-0.013,0.009,0.0,0.004,0.062,-0.022,0.005,-0.027,0.012,0.005,0.006,0.0,-0.018,0.004,0.001,0.73,0.003,0.002,0.018,0.03,0.024,-0.05,0.009,0.006,0.0,0.029,0.063,0.005,0.024,0.003,0.002,0.008,-0.0,0.0,0.0,-0.0
0.0,-0.913,-0.919,0.919,-0.927,-0.009,-0.001,0.015,8.437,0.988,2.734,1.002,-0.004,0.031,0.0,1.892,0.051,-0.0,1.324,0.247,0.247,0.262,0.236,0.413,1.48,0.023,0.001,-0.328,0.314,0.061,-0.302,-0.314,0.024,0.019,0.001,0.0,0.061,0.008,0.034,-0.014,0.016,0.0,0.008,0.038,-0.041,0.009,-0.037,0.018,0.035,0.015,0.0,0.001,0.031,0.004,0.61,0.013,0.005,0.035,0.056,0.045,-0.069,-0.039,0.02,-0.002,0.023,0.091,0.008,-0.004,0.007,0.006,0.005,-0.0,0.0,0.0,-0.0
0.0,-0.914,-0.921,0.921,-0.925,0.075,-0.03,-0.038,8.481,0.957,2.738,1.002,-0.007,0.019,0.0,1.885,-0.125,-0.0,1.326,0.245,0.245,0.263,0.237,0.41,1.476,0.043,0.002,-0.316,0.309,0.055,-0.303,-0.309,0.014,0.033,0.001,0.0,0.031,0.004,0.039,-0.003,0.015,0.0,0.006,0.039,-0.018,0.007,-0.047,0.018,0.028,0.009,0.0,-0.004,0.022,0.003,0.602,0.008,0.003,0.029,0.038,0.025,-0.051,-0.109,0.006,0.002,0.043,0.073,0.009,-0.002,0.005,0.004,0.019,-0.0,0.0,0.0,-0.0
-0.0,-0.933,-0.942,0.942,-0.955,-0.035,-0.102,-0.139,8.878,0.579,2.792,1.002,-0.006,0.093,0.001,1.806,-0.153,-0.0,1.325,0.241,0.241,0.258,0.214,0.38,1.422,0.027,0.001,-0.288,0.241,0.086,-0.192,-0.239,0.06,0.021,0.001,0.0,0.032,0.008,0.03,0.075,0.049,0.0,0.014,-0.065,-0.003,0.016,-0.007,0.054,0.026,0.028,0.003,0.044,0.02,0.005,0.582,0.026,0.006,0.051,0.137,0.054,-0.083,-0.161,0.029,-0.061,0.111,0.202,0.034,-0.107,0.029,0.024,0.122,0.0,0.001,-0.0,-0.0
0.001,-0.957,-0.965,0.965,-0.972,0.252,0.073,-0.193,9.314,0.278,2.859,1.003,0.02,0.068,-0.0,1.736,-0.271,0.001,1.346,0.219,0.219,0.237,0.197,0.333,1.35,0.059,0.003,-0.179,0.167,0.048,-0.147,-0.166,0.037,0.052,0.003,0.0,0.085,0.007,0.092,0.051,0.036,0.0,0.012,0.086,-0.035,0.013,-0.14,0.044,0.055,0.02,0.002,-0.037,0.045,0.004,0.481,0.044,0.005,0.066,0.09,0.056,-0.091,-0.093,0.032,-0.053,0.059,0.156,0.015,-0.001,0.01,0.008,0.035,0.0,0.0,-0.0,-0.0
-0.0,-0.958,-0.963,0.963,-0.97,-0.015,0.002,-0.027,9.272,0.316,2.858,1.003,-0.003,0.02,0.0,1.748,-0.01,0.0,1.35,0.221,0.221,0.228,0.214,0.334,1.362,0.007,0.0,-0.189,0.178,-0.002,-0.17,-0.178,0.018,0.006,0.0,0.0,0.015,0.006,0.007,0.001,0.011,0.0,0.005,0.046,-0.012,0.005,-0.063,0.012,0.016,0.009,0.0,-0.024,0.012,0.003,0.49,0.008,0.004,0.029,0.04,0.017,-0.035,0.02,0.003,-0.002,0.033,0.068,0.01,0.032,0.006,0.005,0.011,0.0,0.0,-0.0,-0.0
0.001,-0.887,-0.937,0.938,-0.959,0.208,0.052,-0.354,8.792,0.591,2.814,1.002,0.044,0.107,0.001,1.782,-0.671,0.002,1.324,0.263,0.26,0.327,0.202,0.366,1.434,0.133,0.018,-0.326,0.243,0.007,-0.186,-0.237,0.064,0.123,0.003,0.002,0.033,0.035,0.229,0.167,0.059,0.001,0.034,0.385,0.054,0.039,-0.169,0.069,0.053,0.054,0.005,-0.062,0.041,0.022,0.69,0.067,0.025,0.082,0.14,0.088,-0.026,0.03,0.077,-0.036,0.221,0.308,0.079,0.177,0.053,0.047,0.489,-0.0,0.003,0.0,-0.0
0.001,-0.893,-0.898,0.898,-0.902,0.199,0.0,0.048,8.055,1.108,2.682,1.002,0.016,0.018,-0.0,1.908,-0.007,-0.0,1.273,0.295,0.295,0.318,0.284,0.444,1.525,0.02,0.0,-0.349,0.333,0.066,-0.318,-0.333,0.027,0.015,0.002,0.0,0.059,0.005,0.021,-0.003,0.012,0.0,0.008,0.049,-0.034,0.01,-0.081,0.015,0.043,0.015,0.0,0.01,0.035,0.003,0.869,0.019,0.003,0.044,0.059,0.037,-0.053,-0.03,0.014,-0.028,0.026,0.092,0.011,0.017,0.009,0.008,0.007,-0.0,0.0,-0.0,-0.0
-0.0,-0.893,-0.898,0.898,-0.901,0.057,-0.008,-0.047,8.068,1.191,2.686,1.001,0.004,0.009,-0.0,1.922,-0.009,0.0,1.29,0.276,0.276,0.284,0.269,0.44,1.519,0.009,0.0,-0.353,0.345,0.067,-0.339,-0.345,0.02,0.007,0.001,0.0,0.013,0.002,0.009,-0.02,0.008,0.0,0.004,0.04,-0.031,0.005,-0.045,0.01,0.028,0.006,0.0,-0.007,0.017,0.002,0.762,0.008,0.002,0.029,0.047,0.033,-0.054,0.004,0.011,-0.008,0.021,0.071,0.003,0.019,0.004,0.003,0.005,-0.0,0.0,-0.0,-0.0
0.0,-0.898,-0.902,0.902,-0.906,-0.067,0.04,-0.02,8.134,1.163,2.692,1.002,-0.007,0.019,0.0,1.916,-0.157,-0.0,1.297,0.27,0.27,0.288,0.237,0.436,1.513,0.025,0.001,-0.37,0.341,0.053,-0.326,-0.341,0.02,0.022,0.008,0.0,0.137,0.005,0.044,0.035,0.016,0.0,0.009,0.041,-0.018,0.013,-0.223,0.022,0.088,0.01,0.0,-0.063,0.08,0.003,0.73,0.117,0.003,0.108,0.06,0.029,-0.042,-0.039,0.008,0.036,0.027,0.126,0.008,0.009,0.011,0.008,0.007,0.0,0.0,-0.0,-0.0
-0.0,-0.903,-0.907,0.907,-0.917,-0.198,-0.018,0.013,8.221,0.911,2.7,1.002,0.003,0.021,0.0,1.878,-0.112,0.0,1.26,0.307,0.307,0.324,0.29,0.436,1.515,0.023,0.001,-0.318,0.302,-0.025,-0.28,-0.302,0.024,0.016,0.001,0.0,0.022,0.002,0.02,0.016,0.012,0.0,0.008,0.036,-0.002,0.009,-0.143,0.014,0.036,0.012,0.0,-0.066,0.027,0.002,0.942,0.057,0.004,0.076,0.065,0.014,-0.023,-0.056,0.002,0.009,0.027,0.1,0.018,-0.015,0.011,0.009,0.007,0.0,0.0,-0.0,0.0
0.0,-0.904,-0.91,0.91,-0.917,0.23,0.034,0.067,8.288,0.662,2.708,1.002,0.013,0.033,-0.0,1.832,0.034,0.0,1.238,0.333,0.333,0.351,0.324,0.427,1.5,0.016,0.0,-0.275,0.257,0.018,-0.229,-0.257,0.018,0.014,0.002,0.0,0.086,0.006,0.027,0.018,0.018,0.0,0.007,0.008,-0.014,0.008,-0.114,0.021,0.049,0.012,0.0,-0.044,0.045,0.003,1.109,0.043,0.004,0.066,0.056,0.025,-0.045,-0.041,0.006,-0.017,0.023,0.092,0.026,-0.017,0.015,0.013,0.005,0.0,0.0,-0.0,0.0
0.001,-0.911,-0.915,0.915,-0.918,0.063,-0.001,-0.016,8.372,0.627,2.72,1.003,-0.0,0.013,-0.0,1.82,0.004,0.0,1.239,0.324,0.324,0.342,0.293,0.42,1.489,0.035,0.001,-0.29,0.25,0.293,-0.232,-0.25,0.04,0.027,0.009,0.0,0.087,0.003,0.042,-0.02,0.009,0.0,0.012,0.12,-0.039,0.015,-0.031,0.011,0.095,0.015,0.0,0.082,0.073,0.002,1.051,0.157,0.002,0.125,0.08,0.04,-0.056,0.002,0.016,-0.012,0.055,0.17,0.02,0.043,0.016,0.013,0.031,0.0,0.0,-0.0,0.0
-0.0,-0.893,-0.907,0.907,-0.912,0.042,0.15,-0.031,8.223,1.287,2.705,1.002,0.006,0.06,-0.0,1.942,0.07,-0.0,1.354,0.228,0.226,0.287,0.186,0.416,1.491,0.028,0.001,-0.39,0.359,0.24,-0.308,-0.358,0.093,0.024,0.01,0.001,0.166,0.004,0.045,0.042,0.045,0.0,0.029,0.094,-0.064,0.033,-0.064,0.056,0.098,0.046,0.003,0.097,0.088,0.003,0.521,0.191,0.005,0.138,0.175,0.085,-0.157,0.004,0.073,0.079,0.067,0.256,0.032,0.061,0.025,0.021,0.046,-0.0,0.001,0.0,-0.0
0.0,-0.896,-0.903,0.903,-0.907,-0.173,0.005,-0.057,8.156,1.341,2.698,1.0,0.004,0.025,0.0,1.945,0.023,-0.0,1.342,0.228,0.227,0.252,0.212,0.421,1.497,0.011,0.0,-0.377,0.366,0.003,-0.359,-0.366,0.014,0.01,0.001,0.0,0.035,0.005,0.02,0.043,0.019,0.0,0.009,0.023,0.012,0.012,-0.127,0.022,0.036,0.01,0.0,-0.035,0.026,0.003,0.519,0.025,0.003,0.05,0.039,0.025,-0.027,-0.007,0.006,-0.013,0.015,0.07,0.004,0.009,0.005,0.004,0.002,0.0,0.0,-0.0,0.0
0.0,-0.89,-0.896,0.896,-0.9,0.022,0.009,0.004,8.032,1.386,2.683,1.0,0.011,0.006,-0.0,1.952,0.033,-0.0,1.328,0.241,0.241,0.245,0.237,0.431,1.51,0.008,0.0,-0.381,0.372,-0.002,-0.366,-0.372,0.016,0.006,0.0,0.0,0.006,0.005,0.008,-0.014,0.004,0.0,0.002,0.032,-0.022,0.002,-0.02,0.005,0.005,0.002,0.0,-0.01,0.004,0.002,0.581,0.001,0.003,0.011,0.032,0.022,-0.03,0.009,0.005,-0.017,0.02,0.05,0.01,0.019,0.005,0.005,0.004,-0.0,0.0,0.0,-0.0
-0.0,-0.895,-0.897,0.897,-0.902,0.006,0.002,0.025,8.041,1.41,2.681,1.0,0.003,0.01,-0.0,1.957,-0.019,-0.0,1.332,0.238,0.238,0.24,0.235,0.43,1.51,0.009,0.0,-0.379,0.376,-0.003,-0.367,-0.376,0.016,0.008,0.0,0.0,0.01,0.002,0.015,-0.009,0.006,0.0,0.002,0.027,-0.02,0.002,-0.022,0.007,0.006,0.005,0.0,-0.014,0.005,0.001,0.565,0.002,0.002,0.016,0.031,0.022,-0.032,-0.002,0.005,-0.004,0.017,0.049,0.003,0.014,0.003,0.002,0.003,0.0,0.0,-0.0,-0.0
0.0,-0.885,-0.896,0.896,-0.907,0.062,0.028,-0.019,8.027,1.408,2.68,1.0,0.017,0.01,0.0,1.956,-0.103,0.0,1.33,0.241,0.241,0.252,0.228,0.431,1.512,0.024,0.001,-0.39,0.375,-0.005,-0.36,-0.375,0.017,0.018,0.0,0.0,0.034,0.008,0.021,0.014,0.009,0.0,0.006,0.066,-0.014,0.007,-0.075,0.012,0.022,0.008,0.0,-0.028,0.019,0.006,0.581,0.013,0.007,0.036,0.036,0.019,-0.034,-0.011,0.004,-0.022,0.03,0.067,0.011,0.019,0.009,0.007,0.009,0.0,0.0,-0.0,0.0
-0.0,-0.887,-0.925,0.926,-0.956,-0.005,0.029,0.034,8.569,0.933,2.756,1.003,0.056,0.023,-0.0,1.868,0.274,0.001,1.336,0.235,0.235,0.25,0.223,0.4,1.46,0.051,0.003,-0.385,0.305,-0.032,-0.22,-0.3,0.076,0.04,0.0,0.0,0.025,0.036,0.05,-0.03,0.014,0.0,0.009,-0.049,-0.055,0.01,-0.095,0.015,0.018,0.018,0.0,-0.063,0.016,0.019,0.552,0.043,0.022,0.066,0.15,0.057,-0.076,-0.235,0.032,-0.127,0.149,0.258,0.102,-0.14,0.057,0.052,0.223,0.0,0.003,-0.0,-0.0
0.0,-0.952,-0.962,0.962,-0.967,-0.064,0.024,0.002,9.259,0.311,2.864,1.004,0.022,0.021,0.0,1.735,-0.171,0.001,1.344,0.225,0.225,0.234,0.218,0.328,1.363,0.058,0.003,-0.22,0.176,0.026,-0.155,-0.175,0.017,0.053,0.0,0.0,0.021,0.006,0.094,-0.003,0.012,0.0,0.004,0.023,-0.023,0.005,-0.06,0.014,0.022,0.006,0.0,-0.023,0.016,0.004,0.508,0.01,0.005,0.031,0.044,0.027,-0.048,-0.155,0.007,-0.094,0.074,0.104,0.024,-0.046,0.022,0.019,0.055,0.0,0.0,0.0,0.0
-0.0,-0.928,-0.953,0.953,-0.966,-0.205,-0.024,0.002,9.082,0.477,2.832,1.003,-0.001,0.008,0.0,1.769,-0.374,0.001,1.34,0.23,0.23,0.244,0.222,0.354,1.396,0.084,0.007,-0.295,0.218,0.074,-0.158,-0.213,0.013,0.075,0.001,0.0,0.043,0.021,0.115,0.024,0.006,0.0,0.004,0.282,0.003,0.006,-0.019,0.008,0.032,0.006,0.0,0.017,0.028,0.011,0.528,0.013,0.012,0.037,0.151,0.009,-0.009,0.026,0.001,0.039,0.174,0.184,0.087,0.153,0.047,0.042,0.304,-0.0,0.002,0.0,-0.0
0.0,-0.897,-0.906,0.906,-0.921,-0.087,0.018,0.139,8.213,1.254,2.702,1.0,-0.021,0.032,-0.0,1.936,-0.007,-0.0,1.334,0.233,0.233,0.243,0.222,0.423,1.492,0.043,0.002,-0.379,0.354,0.045,-0.31,-0.353,0.018,0.037,0.001,0.0,0.033,0.009,0.057,0.008,0.021,0.0,0.006,0.136,-0.014,0.007,-0.037,0.025,0.027,0.013,0.001,0.007,0.021,0.006,0.542,0.007,0.007,0.027,0.112,0.028,-0.064,0.01,0.008,0.083,0.096,0.127,0.036,0.085,0.024,0.021,0.091,-0.0,0.001,0.0,0.0
0.0,-0.894,-0.898,0.898,-0.903,0.008,-0.007,0.018,8.064,1.396,2.684,1.0,0.009,0.012,-0.0,1.954,0.014,-0.0,1.334,0.235,0.235,0.238,0.229,0.429,1.506,0.011,0.0,-0.382,0.374,0.01,-0.364,-0.374,0.012,0.01,0.0,0.0,0.009,0.004,0.015,0.002,0.006,0.0,0.002,0.019,-0.012,0.003,-0.021,0.007,0.009,0.003,0.0,-0.011,0.007,0.003,0.551,0.002,0.003,0.014,0.022,0.014,-0.02,-0.015,0.002,-0.022,0.013,0.038,0.011,0.007,0.006,0.005,0.002,-0.0,0.0,0.0,-0.0
0.0,-0.895,-0.897,0.897,-0.901,0.015,0.007,0.003,8.046,1.413,2.682,1.001,-0.007,0.002,-0.0,1.957,0.023,0.0,1.333,0.236,0.236,0.239,0.234,0.43,1.509,0.005,0.0,-0.379,0.376,-0.005,-0.369,-0.376,0.014,0.005,0.0,0.0,0.003,0.002,0.008,-0.011,0.002,0.0,0.001,0.026,-0.016,0.002,-0.018,0.004,0.004,0.002,0.0,-0.01,0.003,0.001,0.558,0.001,0.002,0.011,0.028,0.016,-0.025,0.009,0.003,0.017,0.021,0.046,0.003,0.02,0.003,0.002,0.004,0.0,0.0,-0.0,-0.0
-0.0,-0.893,-0.897,0.897,-0.901,0.027,-0.008,-0.011,8.044,1.416,2.684,1.001,0.005,0.006,-0.0,1.954,0.078,-0.0,1.332,0.236,0.236,0.238,0.228,0.43,1.509,0.014,0.0,-0.385,0.376,-0.001,-0.37,-0.376,0.014,0.011,0.0,0.0,0.005,0.004,0.013,-0.009,0.005,0.0,0.002,0.036,-0.021,0.003,-0.028,0.006,0.007,0.002,0.0,-0.018,0.004,0.002,0.557,0.004,0.002,0.019,0.031,0.022,-0.029,-0.018,0.005,-0.02,0.015,0.051,0.007,0.007,0.005,0.005,0.002,-0.0,0.0,0.0,-0.0
0.0,-0.892,-0.897,0.897,-0.904,-0.001,-0.006,-0.015,8.052,1.412,2.681,1.001,-0.005,0.008,0.0,1.958,-0.018,-0.0,1.334,0.235,0.234,0.237,0.232,0.43,1.508,0.005,0.0,-0.382,0.376,-0.003,-0.36,-0.376,0.015,0.004,0.0,0.0,0.003,0.004,0.006,-0.01,0.004,0.0,0.001,0.027,-0.017,0.002,-0.015,0.005,0.003,0.002,0.0,-0.008,0.002,0.003,0.55,0.001,0.004,0.009,0.03,0.017,-0.024,0.01,0.003,0.006,0.022,0.046,0.007,0.021,0.006,0.005,0.005,-0.0,0.0,0.0,-0.0
0.0,-0.89,-0.894,0.894,-0.899,-0.001,-0.009,0.01,7.994,1.466,2.678,1.0,-0.003,0.006,0.0,1.965,0.048,0.0,1.336,0.233,0.233,0.237,0.23,0.43,1.51,0.009,0.0,-0.388,0.383,-0.008,-0.378,-0.383,0.018,0.007,0.0,0.0,0.005,0.002,0.007,-0.013,0.004,0.0,0.001,0.037,-0.02,0.002,-0.023,0.006,0.004,0.002,0.0,-0.015,0.004,0.002,0.542,0.003,0.002,0.016,0.034,0.021,-0.034,0.007,0.004,0.001,0.021,0.054,0.005,0.019,0.003,0.003,0.004,0.0,0.0,-0.0,-0.0
-0.0,-0.887,-0.904,0.905,-0.933,-0.252,0.013,0.071,8.184,1.35,2.68,1.001,-0.01,0.05,0.0,1.962,0.416,0.0,1.344,0.22,0.22,0.24,0.184,0.428,1.49,0.101,0.01,-0.403,0.367,0.089,-0.3,-0.366,0.06,0.092,0.002,0.0,0.08,0.026,0.168,-0.004,0.029,0.0,0.015,0.067,-0.05,0.017,-0.043,0.032,0.045,0.027,0.001,0.015,0.039,0.014,0.485,0.022,0.016,0.047,0.129,0.059,-0.097,-0.231,0.035,0.035,0.134,0.204,0.05,-0.088,0.033,0.029,0.18,-0.0,0.001,0.0,0.0
0.0,-0.943,-0.949,0.95,-0.955,-0.014,0.017,-0.039,9.016,0.714,2.818,1.001,0.006,0.028,0.0,1.84,-0.068,0.0,1.4,0.173,0.173,0.188,0.163,0.352,1.389,0.035,0.001,-0.283,0.267,0.018,-0.254,-0.267,0.022,0.028,0.0,0.0,0.023,0.004,0.05,-0.001,0.018,0.0,0.007,0.023,-0.037,0.008,-0.023,0.022,0.014,0.01,0.0,-0.005,0.012,0.003,0.298,0.002,0.003,0.015,0.048,0.043,-0.079,-0.092,0.019,-0.024,0.042,0.086,0.016,-0.023,0.009,0.008,0.018,0.0,0.0,-0.0,-0.0
0.001,-0.907,-0.931,0.931,-0.955,-0.165,-0.053,-0.085,8.675,0.925,2.763,1.0,-0.019,0.028,-0.0,1.882,0.024,0.001,1.366,0.198,0.197,0.23,0.159,0.386,1.43,0.038,0.001,-0.358,0.304,0.006,-0.256,-0.302,0.042,0.033,0.003,0.0,0.064,0.023,0.061,0.094,0.028,0.0,0.019,0.177,0.019,0.022,-0.164,0.036,0.05,0.03,0.001,-0.062,0.04,0.013,0.392,0.064,0.015,0.08,0.146,0.041,-0.033,0.057,0.017,0.043,0.129,0.216,0.044,0.123,0.031,0.026,0.167,0.0,0.001,0.0,-0.0
0.0,-0.898,-0.901,0.901,-0.905,0.099,-0.013,-0.034,8.125,1.408,2.692,1.0,-0.011,0.026,-0.0,1.957,0.13,-0.0,1.351,0.218,0.218,0.231,0.201,0.42,1.494,0.031,0.001,-0.381,0.375,0.009,-0.361,-0.375,0.026,0.026,0.0,0.0,0.027,0.005,0.038,0.021,0.017,0.0,0.007,0.086,-0.018,0.008,-0.062,0.021,0.021,0.011,0.0,-0.027,0.017,0.003,0.475,0.012,0.003,0.034,0.057,0.027,-0.053,-0.017,0.007,0.024,0.047,0.091,0.006,0.036,0.006,0.005,0.022,-0.0,0.0,0.0,-0.0
0.0,-0.883,-0.895,0.895,-0.899,-0.004,-0.067,-0.038,8.003,1.425,2.682,1.0,0.006,0.037,-0.0,1.958,-0.015,0.0,1.326,0.241,0.241,0.257,0.222,0.436,1.513,0.019,0.0,-0.394,0.378,0.022,-0.361,-0.377,0.016,0.013,0.001,0.0,0.037,0.007,0.008,0.058,0.023,0.0,0.01,0.056,-0.002,0.012,-0.091,0.028,0.031,0.022,0.001,-0.015,0.023,0.004,0.581,0.012,0.005,0.035,0.042,0.028,-0.034,-0.005,0.008,-0.041,0.028,0.071,0.015,0.021,0.01,0.008,0.008,0.0,0.0,-0.0,0.0
0.0,-0.892,-0.896,0.896,-0.902,0.142,-0.056,-0.144,8.035,1.324,2.68,1.001,-0.005,0.028,0.0,1.941,0.055,-0.0,1.302,0.259,0.258,0.281,0.232,0.44,1.518,0.021,0.0,-0.386,0.364,-0.013,-0.339,-0.364,0.025,0.017,0.002,0.0,0.072,0.004,0.026,0.052,0.023,0.0,0.017,0.007,-0.001,0.018,-0.145,0.028,0.045,0.034,0.001,-0.083,0.041,0.003,0.668,0.089,0.003,0.094,0.092,0.028,-0.035,-0.062,0.008,-0.026,0.03,0.129,0.025,-0.021,0.016,0.015,0.009,0.0,0.0,-0.0,-0.0
0.001,-0.901,-0.913,0.913,-0.922,0.1,-0.029,0.011,8.329,0.78,2.722,1.002,0.014,0.018,-0.0,1.842,-0.045,0.001,1.257,0.306,0.306,0.318,0.285,0.423,1.497,0.052,0.003,-0.333,0.279,0.071,-0.252,-0.278,0.038,0.041,0.006,0.0,0.08,0.01,0.059,-0.001,0.011,0.0,0.007,0.065,-0.018,0.009,-0.201,0.012,0.08,0.009,0.0,-0.091,0.065,0.006,0.938,0.146,0.007,0.121,0.131,0.022,-0.039,-0.134,0.005,-0.097,0.063,0.178,0.025,-0.035,0.027,0.021,0.04,0.0,0.001,-0.0,0.0
0.001,-0.877,-0.895,0.895,-0.915,0.024,0.031,0.153,8.019,1.354,2.676,1.0,0.0,0.045,-0.0,1.95,0.125,0.001,1.31,0.253,0.249,0.303,0.177,0.429,1.508,0.056,0.003,-0.439,0.368,0.314,-0.257,-0.364,0.105,0.046,0.007,0.002,0.092,0.015,0.055,0.005,0.029,0.0,0.037,0.259,-0.056,0.042,0.042,0.035,0.085,0.076,0.001,0.197,0.071,0.01,0.639,0.461,0.012,0.215,0.261,0.066,-0.122,0.078,0.043,0.115,0.15,0.394,0.071,0.14,0.056,0.047,0.226,-0.0,0.003,0.0,-0.0
-0.0,-0.863,-0.876,0.876,-0.882,0.02,0.004,-0.008,7.681,1.925,2.641,1.0,0.029,0.008,0.0,2.023,0.16,-0.0,1.373,0.196,0.196,0.2,0.184,0.422,1.511,0.036,0.001,-0.458,0.439,0.021,-0.427,-0.439,0.02,0.025,0.0,0.0,0.016,0.004,0.034,0.0,0.007,0.0,0.003,0.105,-0.019,0.004,-0.038,0.01,0.016,0.004,0.0,-0.021,0.011,0.004,0.382,0.007,0.005,0.026,0.041,0.021,-0.037,-0.029,0.005,-0.05,0.039,0.072,0.014,0.014,0.009,0.008,0.015,-0.0,0.0,0.0,0.0
-0.0,-0.876,-0.878,0.878,-0.882,-0.01,-0.002,-0.002,7.714,1.897,2.644,1.0,0.004,0.005,-0.0,2.022,-0.049,-0.0,1.374,0.196,0.196,0.198,0.194,0.421,1.509,0.011,0.0,-0.441,0.436,-0.001,-0.431,-0.436,0.014,0.008,0.0,0.0,0.004,0.002,0.013,-0.005,0.004,0.0,0.001,0.021,-0.018,0.001,-0.022,0.005,0.005,0.001,0.0,-0.014,0.004,0.002,0.383,0.002,0.002,0.015,0.028,0.018,-0.025,-0.017,0.003,-0.004,0.014,0.045,0.002,0.01,0.003,0.002,0.002,0.0,0.0,-0.0,-0.0
0.0,-0.868,-0.879,0.879,-0.887,-0.018,0.023,0.081,7.73,1.859,2.649,1.0,-0.034,0.019,-0.0,2.015,-0.224,0.0,1.372,0.197,0.197,0.209,0.179,0.422,1.507,0.088,0.008,-0.464,0.431,0.008,-0.397,-0.431,0.032,0.079,0.004,0.0,0.085,0.011,0.147,-0.005,0.02,0.0,0.005,0.1,-0.029,0.007,-0.178,0.029,0.064,0.004,0.001,-0.06,0.059,0.006,0.389,0.076,0.006,0.087,0.085,0.041,-0.11,-0.154,0.017,0.082,0.091,0.166,0.011,-0.023,0.017,0.012,0.082,0.0,0.0,-0.0,0.0
0.001,-0.901,-0.957,0.958,-0.984,0.093,0.033,-0.031,9.171,0.503,2.864,1.006,0.091,0.032,-0.0,1.761,-0.062,0.001,1.372,0.202,0.202,0.214,0.194,0.33,1.358,0.117,0.014,-0.397,0.224,-0.044,-0.074,-0.199,0.11,0.093,0.001,0.0,0.044,0.039,0.123,-0.03,0.019,0.001,0.005,-0.161,-0.055,0.006,-0.18,0.021,0.038,0.008,0.0,-0.11,0.032,0.022,0.408,0.134,0.027,0.116,0.32,0.059,-0.095,-0.521,0.034,-0.276,0.339,0.482,0.151,-0.318,0.103,0.085,1.15,0.001,0.011,-0.0,0.0
-0.0,-0.98,-0.988,0.988,-0.993,-0.038,-0.026,-0.1,9.76,0.004,2.942,1.008,-0.015,0.028,0.0,1.562,-0.273,0.001,1.372,0.197,0.197,0.206,0.183,0.131,1.2,0.081,0.007,-0.043,0.02,0.009,0.027,0.006,0.015,0.067,0.001,0.0,0.031,0.005,0.096,0.001,0.014,0.0,0.006,0.06,-0.02,0.007,-0.077,0.016,0.027,0.009,0.0,-0.032,0.021,0.003,0.387,0.018,0.004,0.042,0.054,0.025,-0.047,-0.235,0.006,-0.051,0.096,0.118,0.02,-0.05,0.019,0.014,0.091,0.0,0.0,-0.0,-0.0
0.001,-0.933,-0.97,0.97,-0.997,-0.029,-0.046,0.029,9.414,0.343,2.882,1.008,-0.011,0.035,0.001,1.723,-0.411,0.001,1.371,0.198,0.198,0.212,0.179,0.314,1.322,0.077,0.006,-0.297,0.185,0.147,0.025,-0.149,0.084,0.065,0.001,0.0,0.037,0.036,0.105,0.059,0.027,0.0,0.011,0.428,0.008,0.012,0.034,0.032,0.033,0.021,0.001,0.089,0.028,0.019,0.393,0.091,0.021,0.095,0.343,0.033,-0.059,0.181,0.011,0.237,0.322,0.43,0.18,0.312,0.109,0.098,1.034,-0.0,0.012,-0.0,-0.0
0.0,-0.883,-0.898,0.898,-0.934,0.038,0.015,0.062,8.061,1.522,2.676,0.999,-0.075,0.027,-0.0,1.981,0.36,0.0,1.362,0.205,0.205,0.215,0.193,0.418,1.491,0.112,0.012,-0.416,0.39,0.041,-0.318,-0.389,0.034,0.1,0.001,0.0,0.069,0.009,0.201,0.057,0.021,0.0,0.006,0.287,-0.01,0.007,-0.06,0.028,0.038,0.011,0.001,-0.006,0.034,0.011,0.42,0.015,0.014,0.038,0.088,0.03,-0.05,-0.03,0.009,0.157,0.154,0.173,0.015,0.106,0.03,0.023,0.238,-0.0,0.001,0.0,0.0
0.0,-0.883,-0.889,0.889,-0.902,0.019,-0.007,0.021,7.898,1.626,2.665,1.0,-0.024,0.016,0.0,1.988,0.048,0.0,1.353,0.216,0.216,0.22,0.212,0.426,1.508,0.016,0.0,-0.411,0.403,0.008,-0.382,-0.403,0.012,0.011,0.0,0.0,0.007,0.004,0.01,0.01,0.009,0.0,0.003,0.061,-0.005,0.003,-0.023,0.009,0.008,0.006,0.0,-0.014,0.006,0.003,0.466,0.003,0.005,0.016,0.024,0.011,-0.017,0.003,0.001,0.036,0.025,0.044,0.005,0.019,0.008,0.005,0.006,-0.0,0.0,0.0,0.0
0.0,-0.88,-0.885,0.885,-0.887,-0.014,0.001,0.018,7.829,1.674,2.658,1.0,0.003,0.004,-0.0,1.991,0.031,0.0,1.346,0.222,0.222,0.224,0.219,0.432,1.516,0.012,0.0,-0.417,0.409,-0.003,-0.405,-0.409,0.015,0.008,0.0,0.0,0.006,0.002,0.005,-0.009,0.004,0.0,0.002,0.04,-0.016,0.002,-0.014,0.005,0.004,0.003,0.0,-0.01,0.003,0.002,0.492,0.001,0.002,0.01,0.028,0.016,-0.026,-0.003,0.003,-0.007,0.021,0.043,0.003,0.017,0.004,0.003,0.004,-0.0,0.0,0.0,0.0
0.0,-0.877,-0.883,0.883,-0.888,0.005,-0.011,0.035,7.793,1.716,2.652,1.0,-0.01,0.008,0.0,1.998,-0.021,0.0,1.348,0.222,0.222,0.226,0.219,0.434,1.519,0.005,0.0,-0.421,0.414,-0.003,-0.407,-0.414,0.016,0.004,0.0,0.0,0.003,0.002,0.007,-0.005,0.006,0.0,0.002,0.028,-0.017,0.002,-0.017,0.007,0.004,0.003,0.0,-0.012,0.003,0.002,0.491,0.002,0.003,0.012,0.03,0.018,-0.028,0.011,0.003,0.01,0.02,0.048,0.005,0.02,0.004,0.003,0.004,-0.0,0.0,0.0,-0.0
0.0,-0.876,-0.88,0.88,-0.884,0.018,-0.025,-0.019,7.742,1.754,2.646,1.0,-0.002,0.01,0.0,2.002,-0.014,-0.0,1.344,0.224,0.224,0.229,0.217,0.435,1.523,0.007,0.0,-0.426,0.419,0.028,-0.412,-0.419,0.011,0.006,0.0,0.0,0.004,0.004,0.007,0.0,0.005,0.0,0.004,0.03,-0.008,0.004,-0.034,0.006,0.015,0.009,0.0,-0.012,0.008,0.002,0.502,0.003,0.002,0.019,0.026,0.01,-0.015,0.006,0.001,-0.011,0.016,0.04,0.004,0.015,0.004,0.003,0.003,-0.0,0.0,0.0,-0.0
0.0,-0.876,-0.879,0.879,-0.885,-0.079,0.014,0.036,7.723,1.712,2.644,1.0,0.006,0.023,0.0,1.998,-0.056,-0.0,1.333,0.236,0.236,0.25,0.23,0.44,1.529,0.013,0.0,-0.418,0.414,0.005,-0.405,-0.414,0.012,0.009,0.0,0.0,0.017,0.004,0.006,0.018,0.016,0.0,0.004,0.026,-0.016,0.005,-0.072,0.02,0.021,0.004,0.0,-0.016,0.016,0.002,0.558,0.007,0.003,0.026,0.033,0.026,-0.043,-0.019,0.007,0.011,0.015,0.054,0.005,0.008,0.004,0.003,0.002,0.0,0.0,-0.0,0.0
0.0,-0.872,-0.878,0.878,-0.886,-0.017,-0.031,0.025,7.716,1.765,2.641,1.0,-0.007,0.023,0.0,2.002,-0.107,-0.0,1.337,0.229,0.229,0.237,0.215,0.439,1.528,0.018,0.0,-0.437,0.42,0.027,-0.404,-0.42,0.02,0.016,0.0,0.0,0.024,0.008,0.029,0.002,0.014,0.0,0.006,0.057,-0.022,0.008,-0.026,0.016,0.017,0.009,0.0,0.002,0.015,0.004,0.526,0.003,0.005,0.017,0.048,0.027,-0.049,0.002,0.007,-0.008,0.035,0.067,0.018,0.03,0.011,0.009,0.012,0.0,0.0,-0.0,-0.0
-0.0,-0.862,-0.871,0.872,-0.875,0.027,-0.006,0.015,7.595,1.892,2.633,0.999,-0.009,0.008,-0.0,2.019,0.063,0.0,1.346,0.223,0.223,0.229,0.217,0.438,1.529,0.015,0.0,-0.448,0.435,-0.001,-0.427,-0.435,0.012,0.014,0.0,0.0,0.007,0.002,0.029,-0.007,0.004,0.0,0.002,0.033,-0.013,0.003,-0.03,0.005,0.008,0.002,0.0,-0.02,0.006,0.003,0.497,0.005,0.004,0.022,0.032,0.014,-0.02,-0.007,0.002,0.008,0.018,0.047,0.006,0.009,0.006,0.005,0.003,0.0,0.0,-0.0,0.0
0.0,-0.87,-0.874,0.875,-0.879,0.01,-0.005,-0.004,7.648,1.809,2.635,1.0,-0.003,0.004,0.0,2.01,0.003,0.0,1.336,0.232,0.232,0.236,0.23,0.442,1.532,0.005,0.0,-0.431,0.425,-0.008,-0.417,-0.425,0.01,0.004,0.0,0.0,0.003,0.004,0.002,-0.004,0.002,0.0,0.002,0.021,-0.009,0.002,-0.019,0.003,0.003,0.004,0.0,-0.015,0.002,0.002,0.54,0.002,0.003,0.015,0.02,0.01,-0.013,0.002,0.001,0.002,0.009,0.032,0.004,0.008,0.004,0.003,0.001,0.0,0.0,-0.0,0.0
0.0,-0.869,-0.873,0.873,-0.876,0.022,0.006,0.021,7.621,1.791,2.634,1.0,0.0,0.009,0.0,2.008,-0.012,0.0,1.328,0.241,0.241,0.251,0.237,0.446,1.537,0.006,0.0,-0.429,0.423,-0.004,-0.419,-0.423,0.012,0.004,0.0,0.0,0.007,0.002,0.004,0.008,0.006,0.0,0.003,0.031,-0.004,0.004,-0.02,0.007,0.005,0.004,0.0,-0.013,0.004,0.002,0.58,0.002,0.002,0.014,0.022,0.008,-0.011,0.007,0.001,-0.01,0.017,0.036,0.006,0.016,0.003,0.003,0.003,-0.0,0.0,0.0,0.0
0.0,-0.865,-0.868,0.869,-0.872,-0.007,0.008,0.042,7.543,1.848,2.624,1.0,0.004,0.008,-0.0,2.013,-0.061,-0.0,1.322,0.246,0.246,0.254,0.239,0.452,1.545,0.01,0.0,-0.438,0.43,-0.005,-0.424,-0.43,0.016,0.008,0.0,0.0,0.004,0.003,0.013,0.002,0.007,0.0,0.004,0.044,-0.022,0.005,-0.014,0.009,0.003,0.008,0.0,-0.009,0.002,0.002,0.606,0.001,0.002,0.009,0.037,0.024,-0.031,0.012,0.006,0.004,0.026,0.056,0.012,0.024,0.006,0.005,0.007,0.0,0.0,0.0,0.0
-0.0,-0.861,-0.867,0.867,-0.872,-0.012,-0.018,0.025,7.512,1.877,2.618,0.999,-0.006,0.017,0.0,2.021,-0.007,-0.0,1.324,0.244,0.244,0.249,0.239,0.452,1.544,0.007,0.0,-0.437,0.433,-0.011,-0.427,-0.433,0.011,0.006,0.0,0.0,0.005,0.004,0.009,-0.008,0.008,0.0,0.003,0.017,-0.018,0.003,-0.019,0.01,0.003,0.005,0.0,-0.016,0.003,0.002,0.597,0.002,0.003,0.016,0.024,0.021,-0.034,-0.01,0.004,-0.003,0.008,0.04,0.007,0.004,0.004,0.003,0.001,0.0,0.0,0.0,0.0
-0.0,-0.871,-0.881,0.881,-0.891,0.037,-0.002,-0.001,7.76,1.647,2.652,1.0,0.031,0.01,-0.0,1.982,0.038,-0.0,1.325,0.244,0.244,0.251,0.238,0.442,1.53,0.045,0.002,-0.429,0.406,-0.01,-0.388,-0.406,0.017,0.038,0.0,0.0,0.01,0.011,0.066,-0.006,0.006,0.0,0.003,0.038,-0.018,0.003,-0.033,0.007,0.007,0.003,0.0,-0.02,0.006,0.006,0.594,0.005,0.007,0.021,0.038,0.019,-0.028,-0.107,0.004,-0.062,0.048,0.075,0.019,-0.018,0.013,0.012,0.023,-0.0,0.0,0.0,0.0
-0.0,-0.88,-0.885,0.885,-0.888,0.012,0.026,-0.062,7.827,1.589,2.656,1.001,0.006,0.018,-0.0,1.982,-0.005,-0.0,1.325,0.244,0.244,0.251,0.237,0.441,1.527,0.016,0.0,-0.406,0.399,0.0,-0.388,-0.399,0.016,0.012,0.0,0.0,0.026,0.005,0.017,-0.008,0.01,0.0,0.005,0.052,-0.024,0.005,-0.054,0.012,0.018,0.009,0.0,-0.024,0.016,0.003,0.593,0.009,0.003,0.03,0.046,0.027,-0.042,-0.001,0.007,0.016,0.024,0.067,0.008,0.019,0.005,0.004,0.006,0.0,0.0,0.0,-0.0
0.0,-0.869,-0.877,0.877,-0.882,-0.117,0.004,0.001,7.684,1.69,2.646,0.998,0.015,0.02,0.0,1.994,-0.04,-0.0,1.331,0.237,0.237,0.245,0.227,0.442,1.525,0.022,0.0,-0.424,0.411,0.052,-0.402,-0.411,0.021,0.019,0.001,0.0,0.031,0.004,0.028,-0.006,0.011,0.0,0.005,0.048,-0.026,0.006,-0.026,0.013,0.025,0.007,0.0,0.008,0.021,0.003,0.562,0.007,0.004,0.026,0.052,0.029,-0.044,-0.018,0.008,0.001,0.031,0.075,0.007,0.022,0.007,0.006,0.01,-0.0,0.0,0.0,-0.0
-0.0,-0.4,-0.403,0.403,-0.406,-0.006,-0.0,-0.008,1.627,8.111,1.99,0.99,0.002,0.004,-0.0,2.714,-0.003,0.0,1.493,0.078,0.078,0.079,0.076,0.304,1.382,0.004,0.0,-0.904,0.901,-0.011,-0.899,-0.901,0.018,0.003,0.0,0.0,0.006,0.004,0.005,-0.015,0.002,0.0,0.001,0.023,-0.018,0.001,-0.023,0.002,0.004,0.002,0.0,-0.018,0.003,0.002,0.061,0.004,0.002,0.019,0.032,0.019,-0.022,0.012,0.003,0.003,0.017,0.053,0.001,0.016,0.001,0.001,0.003,-0.0,0.0,0.0,-0.0
-0.0,-0.397,-0.401,0.401,-0.405,-0.006,0.002,-0.017,1.609,8.127,1.988,0.99,-0.001,0.004,0.0,2.716,-0.007,-0.0,1.491,0.079,0.078,0.081,0.076,0.306,1.381,0.003,0.0,-0.904,0.902,-0.011,-0.9,-0.902,0.016,0.002,0.0,0.0,0.008,0.002,0.004,-0.011,0.003,0.0,0.001,0.02,-0.017,0.002,-0.025,0.003,0.004,0.003,0.0,-0.017,0.004,0.002,0.062,0.003,0.002,0.018,0.03,0.018,-0.022,0.01,0.003,-0.004,0.014,0.048,0.003,0.014,0.001,0.001,0.002,0.0,0.0,-0.0,0.0
0.0,-0.398,-0.4,0.4,-0.404,0.009,-0.004,0.001,1.596,8.12,1.986,0.99,-0.003,0.003,0.0,2.717,-0.007,0.0,1.49,0.08,0.08,0.082,0.077,0.308,1.381,0.003,0.0,-0.903,0.901,-0.013,-0.898,-0.901,0.016,0.002,0.0,0.0,0.003,0.002,0.003,-0.015,0.001,0.0,0.001,0.019,-0.017,0.001,-0.023,0.002,0.003,0.001,0.0,-0.017,0.002,0.001,0.065,0.003,0.002,0.018,0.028,0.017,-0.019,0.009,0.003,0.004,0.014,0.049,0.002,0.014,0.002,0.001,0.002,0.0,0.0,-0.0,-0.0
0.0,-0.394,-0.398,0.398,-0.401,-0.007,-0.005,-0.001,1.581,8.15,1.985,0.99,-0.005,0.003,0.0,2.718,0.003,0.0,1.487,0.083,0.083,0.085,0.08,0.31,1.383,0.002,0.0,-0.905,0.903,-0.013,-0.901,-0.903,0.016,0.002,0.0,0.0,0.002,0.003,0.003,-0.015,0.001,0.0,0.001,0.018,-0.018,0.002,-0.024,0.002,0.003,0.002,0.0,-0.017,0.002,0.002,0.068,0.003,0.002,0.018,0.029,0.018,-0.02,0.011,0.003,0.006,0.015,0.049,0.003,0.014,0.001,0.001,0.002,0.0,0.0,-0.0,-0.0
0.0,-0.394,-0.396,0.396,-0.399,-0.004,-0.003,0.003,1.571,8.17,1.982,0.991,-0.005,0.002,0.0,2.721,0.001,-0.0,1.486,0.084,0.084,0.086,0.083,0.312,1.384,0.003,0.0,-0.906,0.904,-0.011,-0.902,-0.904,0.015,0.002,0.0,0.0,0.002,0.002,0.003,-0.015,0.001,0.0,0.001,0.022,-0.018,0.001,-0.02,0.002,0.002,0.001,0.0,-0.016,0.002,0.001,0.071,0.003,0.001,0.016,0.027,0.018,-0.021,0.01,0.003,0.001,0.014,0.047,0.002,0.013,0.001,0.001,0.002,-0.0,0.0,0.0,0.0
-0.0,-0.392,-0.395,0.395,-0.397,0.008,-0.007,-0.005,1.559,8.176,1.982,0.991,-0.006,0.003,0.0,2.721,-0.013,0.0,1.485,0.086,0.086,0.089,0.083,0.312,1.385,0.005,0.0,-0.907,0.904,-0.011,-0.9,-0.904,0.017,0.004,0.0,0.0,0.007,0.002,0.007,-0.013,0.002,0.0,0.001,0.023,-0.018,0.001,-0.025,0.003,0.004,0.001,0.0,-0.017,0.004,0.001,0.073,0.003,0.002,0.018,0.03,0.018,-0.023,0.009,0.003,-0.001,0.015,0.05,0.001,0.015,0.002,0.001,0.002,-0.0,0.0,0.0,0.0
0.0,-0.394,-0.396,0.396,-0.4,0.007,0.003,-0.009,1.57,8.158,1.982,0.99,0.001,0.002,0.0,2.721,-0.008,-0.0,1.487,0.083,0.083,0.084,0.081,0.31,1.382,0.004,0.0,-0.907,0.903,-0.009,-0.899,-0.903,0.013,0.003,0.0,0.0,0.005,0.002,0.003,-0.016,0.002,0.0,0.001,0.019,-0.018,0.001,-0.019,0.002,0.003,0.002,0.0,-0.014,0.003,0.001,0.069,0.002,0.002,0.014,0.026,0.019,-0.022,0.002,0.003,-0.002,0.011,0.042,0.001,0.01,0.002,0.001,0.001,0.0,0.0,0.0,-0.0
-0.0,-0.394,-0.402,0.402,-0.415,0.001,-0.001,0.009,1.615,8.14,1.988,0.99,-0.011,0.035,0.0,2.716,-0.018,0.0,1.49,0.079,0.079,0.085,0.07,0.308,1.383,0.029,0.001,-0.907,0.902,0.048,-0.896,-0.902,0.014,0.023,0.0,0.0,0.028,0.006,0.032,0.052,0.021,0.0,0.004,0.015,0.007,0.004,-0.022,0.024,0.021,0.005,0.001,0.002,0.017,0.004,0.063,0.005,0.005,0.021,0.027,0.025,-0.019,-0.081,0.006,0.001,0.033,0.062,0.005,-0.015,0.003,0.003,0.011,-0.0,0.0,0.0,-0.0
0.002,-0.425,-0.448,0.448,-0.465,0.102,-0.091,0.189,2.009,7.708,2.044,0.99,0.064,0.1,0.001,2.661,-0.296,0.001,1.493,0.081,0.079,0.111,0.056,0.312,1.405,0.054,0.003,-0.893,0.878,0.181,-0.859,-0.878,0.052,0.046,0.009,0.0,0.101,0.014,0.077,0.079,0.048,0.0,0.013,0.055,0.001,0.016,-0.167,0.056,0.093,0.02,0.003,0.006,0.07,0.01,0.065,0.087,0.012,0.093,0.124,0.056,-0.089,-0.12,0.032,-0.055,0.061,0.163,0.012,-0.028,0.011,0.009,0.038,0.0,0.0,-0.0,-0.0
0.0,-0.457,-0.465,0.465,-0.474,-0.214,0.057,-0.135,2.165,7.627,2.06,0.99,0.029,0.068,-0.0,2.652,-0.001,0.0,1.543,0.035,0.026,0.061,-0.003,0.222,1.365,0.021,0.0,-0.882,0.873,0.108,-0.864,-0.873,0.024,0.019,0.001,0.001,0.049,0.01,0.038,0.039,0.04,0.0,0.021,0.042,-0.009,0.023,-0.014,0.046,0.036,0.037,0.002,0.042,0.029,0.005,0.012,0.03,0.006,0.055,0.066,0.047,-0.102,-0.017,0.022,-0.013,0.023,0.104,0.007,0.01,0.005,0.004,0.005,0.0,0.0,-0.0,-0.0
-0.0,-0.449,-0.471,0.471,-0.494,0.173,-0.021,0.256,2.217,7.575,2.068,0.99,0.046,0.045,-0.0,2.643,0.183,-0.0,1.546,0.025,0.024,0.036,0.011,0.216,1.365,0.033,0.001,-0.884,0.87,0.009,-0.855,-0.87,0.029,0.03,0.002,0.0,0.029,0.03,0.054,0.038,0.031,0.0,0.005,0.026,-0.036,0.006,-0.13,0.039,0.04,0.006,0.002,-0.043,0.03,0.015,0.006,0.035,0.016,0.059,0.058,0.053,-0.092,-0.064,0.028,-0.027,0.034,0.12,0.012,-0.01,0.009,0.008,0.012,-0.0,0.0,0.0,0.0
-0.0,-0.457,-0.469,0.469,-0.481,-0.008,-0.011,0.01,2.198,7.597,2.063,0.99,-0.019,0.006,0.0,2.649,-0.036,0.0,1.543,0.029,0.028,0.036,0.023,0.224,1.369,0.012,0.0,-0.878,0.872,-0.005,-0.863,-0.872,0.028,0.01,0.0,0.0,0.01,0.01,0.017,-0.024,0.004,0.0,0.003,0.055,-0.029,0.004,-0.047,0.005,0.013,0.004,0.0,-0.023,0.01,0.006,0.008,0.007,0.008,0.027,0.05,0.029,-0.041,0.012,0.008,0.016,0.038,0.087,0.009,0.036,0.005,0.004,0.014,0.0,0.0,-0.0,0.0
-0.0,-0.453,-0.458,0.458,-0.463,-0.033,-0.003,-0.026,2.1,7.691,2.052,0.989,0.006,0.011,0.0,2.658,-0.044,-0.0,1.539,0.031,0.031,0.034,0.028,0.233,1.366,0.007,0.0,-0.882,0.877,-0.012,-0.872,-0.877,0.021,0.006,0.0,0.0,0.016,0.004,0.008,-0.012,0.006,0.0,0.002,0.033,-0.023,0.002,-0.039,0.007,0.009,0.004,0.0,-0.025,0.008,0.003,0.01,0.007,0.003,0.027,0.04,0.024,-0.032,0.007,0.006,-0.001,0.02,0.067,0.002,0.019,0.002,0.002,0.004,0.0,0.0,0.0,0.0
0.0,-0.452,-0.457,0.457,-0.461,-0.012,0.002,0.003,2.088,7.691,2.051,0.99,0.002,0.001,0.0,2.66,0.003,0.0,1.537,0.033,0.033,0.035,0.032,0.237,1.367,0.006,0.0,-0.879,0.877,-0.012,-0.873,-0.877,0.015,0.006,0.0,0.0,0.007,0.002,0.009,-0.017,0.001,0.0,0.001,0.026,-0.019,0.001,-0.024,0.001,0.004,0.001,0.0,-0.017,0.004,0.002,0.011,0.003,0.002,0.018,0.029,0.019,-0.021,0.007,0.004,-0.005,0.015,0.05,0.001,0.014,0.002,0.001,0.002,0.0,0.0,-0.0,0.0
0.0,-0.445,-0.451,0.451,-0.454,0.017,-0.002,0.012,2.031,7.758,2.045,0.99,0.002,0.004,0.0,2.666,-0.005,0.0,1.535,0.035,0.035,0.038,0.033,0.24,1.367,0.005,0.0,-0.885,0.881,-0.01,-0.878,-0.881,0.019,0.004,0.0,0.0,0.006,0.005,0.008,-0.014,0.003,0.0,0.001,0.029,-0.019,0.001,-0.022,0.003,0.004,0.002,0.0,-0.017,0.003,0.003,0.012,0.003,0.003,0.017,0.033,0.019,-0.025,0.012,0.004,0.001,0.022,0.056,0.002,0.021,0.002,0.002,0.005,-0.0,0.0,0.0,0.0
-0.0,-0.437,-0.446,0.446,-0.449,-0.002,-0.001,-0.0,1.986,7.799,2.039,0.99,0.011,0.002,0.0,2.672,0.012,0.0,1.534,0.035,0.035,0.036,0.034,0.242,1.364,0.009,0.0,-0.889,0.883,-0.009,-0.879,-0.883,0.016,0.008,0.0,0.0,0.001,0.002,0.016,-0.014,0.001,0.0,0.001,0.035,-0.016,0.001,-0.017,0.002,0.002,0.001,0.0,-0.015,0.002,0.002,0.013,0.002,0.003,0.015,0.028,0.017,-0.019,0.012,0.003,-0.01,0.023,0.052,0.002,0.021,0.003,0.002,0.005,-0.0,0.0,0.0,0.0
-0.0,-0.427,-0.433,0.433,-0.439,-0.001,-0.007,0.003,1.878,7.918,2.024,0.99,-0.019,0.002,-0.0,2.687,0.033,-0.0,1.533,0.037,0.037,0.04,0.035,0.243,1.36,0.011,0.0,-0.895,0.89,-0.014,-0.886,-0.89,0.019,0.011,0.0,0.0,0.005,0.007,0.02,-0.017,0.001,0.0,0.001,0.034,-0.02,0.001,-0.026,0.002,0.004,0.001,0.0,-0.018,0.003,0.004,0.014,0.003,0.004,0.018,0.034,0.02,-0.023,0.006,0.004,0.009,0.023,0.058,0.004,0.02,0.003,0.002,0.005,0.0,0.0,0.0,0.0
0.0,-0.429,-0.432,0.432,-0.435,0.0,0.002,-0.003,1.863,7.935,2.021,0.99,-0.007,0.002,0.0,2.69,-0.009,0.0,1.534,0.036,0.036,0.037,0.035,0.24,1.358,0.003,0.0,-0.893,0.891,-0.01,-0.889,-0.891,0.016,0.003,0.0,0.0,0.004,0.002,0.004,-0.014,0.001,0.0,0.0,0.023,-0.018,0.001,-0.017,0.002,0.002,0.001,0.0,-0.015,0.002,0.002,0.013,0.002,0.002,0.015,0.027,0.018,-0.019,0.011,0.003,0.004,0.016,0.047,0.002,0.015,0.001,0.001,0.002,0.0,0.0,-0.0,0.0
0.0,-0.42,-0.426,0.426,-0.435,0.02,-0.007,-0.028,1.818,7.978,2.016,0.991,-0.004,0.005,-0.0,2.696,-0.044,-0.0,1.534,0.036,0.036,0.04,0.031,0.238,1.355,0.008,0.0,-0.897,0.893,-0.008,-0.887,-0.893,0.017,0.007,0.0,0.0,0.006,0.007,0.013,-0.009,0.005,0.0,0.002,0.03,-0.02,0.002,-0.026,0.008,0.005,0.002,0.0,-0.016,0.004,0.004,0.013,0.003,0.005,0.017,0.034,0.022,-0.041,0.007,0.005,-0.001,0.022,0.057,0.006,0.021,0.003,0.003,0.005,-0.0,0.0,0.0,-0.0
0.0,-0.423,-0.426,0.426,-0.43,0.003,0.009,-0.013,1.818,7.975,2.015,0.99,-0.001,0.003,0.0,2.696,0.008,0.0,1.536,0.034,0.034,0.04,0.03,0.234,1.353,0.003,0.0,-0.894,0.893,-0.01,-0.89,-0.893,0.014,0.002,0.0,0.0,0.004,0.002,0.003,-0.015,0.004,0.0,0.002,0.017,-0.022,0.003,-0.023,0.007,0.004,0.003,0.0,-0.016,0.003,0.001,0.011,0.003,0.002,0.017,0.026,0.023,-0.04,0.005,0.005,0.002,0.01,0.047,0.002,0.009,0.001,0.001,0.001,0.0,0.0,-0.0,0.0
0.0,-0.423,-0.431,0.431,-0.435,-0.023,0.003,0.007,1.854,7.953,2.022,0.991,0.009,0.004,0.0,2.69,0.028,0.0,1.538,0.032,0.032,0.035,0.028,0.232,1.355,0.006,0.0,-0.894,0.892,-0.009,-0.89,-0.892,0.011,0.004,0.0,0.0,0.004,0.003,0.005,-0.014,0.002,0.0,0.002,0.02,-0.019,0.002,-0.031,0.003,0.006,0.004,0.0,-0.014,0.004,0.002,0.01,0.002,0.003,0.016,0.024,0.019,-0.024,-0.001,0.004,-0.005,0.009,0.04,0.003,0.007,0.001,0.001,0.001,-0.0,0.0,0.0,0.0
0.0,-0.43,-0.432,0.432,-0.434,0.004,-0.003,-0.006,1.868,7.935,2.023,0.99,-0.0,0.002,0.0,2.689,-0.006,0.0,1.54,0.031,0.03,0.032,0.029,0.228,1.354,0.003,0.0,-0.894,0.891,-0.015,-0.888,-0.891,0.017,0.002,0.0,0.0,0.002,0.002,0.004,-0.017,0.001,0.0,0.001,0.019,-0.019,0.001,-0.021,0.002,0.002,0.001,0.0,-0.018,0.002,0.001,0.009,0.003,0.001,0.018,0.03,0.019,-0.024,0.009,0.004,0.002,0.015,0.051,0.002,0.014,0.002,0.001,0.002,0.0,0.0,0.0,-0.0
0.0,-0.428,-0.431,0.431,-0.434,-0.003,0.001,0.0,1.855,7.946,2.021,0.99,-0.005,0.002,0.0,2.69,-0.016,0.0,1.539,0.031,0.031,0.032,0.03,0.228,1.353,0.003,0.0,-0.894,0.891,-0.011,-0.889,-0.891,0.016,0.003,0.0,0.0,0.001,0.003,0.003,-0.016,0.001,0.0,0.001,0.023,-0.018,0.001,-0.017,0.001,0.002,0.002,0.0,-0.015,0.001,0.002,0.01,0.002,0.002,0.015,0.028,0.018,-0.02,0.011,0.003,0.001,0.015,0.047,0.001,0.015,0.001,0.001,0.002,0.0,0.0,-0.0,0.0
0.0,-0.427,-0.43,0.431,-0.434,-0.002,-0.001,-0.005,1.853,7.948,2.021,0.99,0.004,0.002,-0.0,2.69,-0.01,-0.0,1.54,0.03,0.03,0.032,0.028,0.226,1.352,0.004,0.0,-0.894,0.892,-0.009,-0.888,-0.892,0.014,0.003,0.0,0.0,0.003,0.004,0.004,-0.015,0.001,0.0,0.001,0.022,-0.017,0.001,-0.017,0.001,0.002,0.001,0.0,-0.013,0.002,0.002,0.009,0.002,0.002,0.013,0.026,0.017,-0.02,0.009,0.003,-0.003,0.014,0.044,0.003,0.013,0.002,0.002,0.002,-0.0,0.0,0.0,0.0
-0.0,-0.424,-0.428,0.428,-0.43,0.01,-0.002,-0.001,1.834,7.985,2.018,0.992,0.006,0.002,0.0,2.693,-0.003,0.0,1.542,0.028,0.028,0.029,0.026,0.223,1.35,0.004,0.0,-0.897,0.894,-0.013,-0.892,-0.894,0.018,0.002,0.0,0.0,0.003,0.002,0.002,-0.016,0.001,0.0,0.001,0.027,-0.018,0.001,-0.026,0.002,0.003,0.001,0.0,-0.018,0.002,0.001,0.008,0.003,0.002,0.019,0.03,0.018,-0.021,0.012,0.003,-0.003,0.017,0.053,0.002,0.017,0.002,0.001,0.003,-0.0,0.0,0.0,-0.0
0.0,-0.423,-0.426,0.426,-0.429,-0.005,0.005,0.005,1.817,8.0,2.016,0.991,0.007,0.001,0.0,2.696,0.012,-0.0,1.54,0.031,0.031,0.032,0.029,0.226,1.351,0.005,0.0,-0.897,0.894,-0.015,-0.893,-0.894,0.015,0.004,0.0,0.0,0.001,0.003,0.007,-0.015,0.001,0.0,0.001,0.026,-0.018,0.001,-0.02,0.002,0.001,0.001,0.0,-0.017,0.001,0.002,0.009,0.003,0.002,0.018,0.029,0.018,-0.021,0.007,0.003,-0.006,0.015,0.049,0.002,0.014,0.001,0.001,0.002,0.0,0.0,0.0,0.0
-0.0,-0.421,-0.428,0.428,-0.432,-0.008,0.0,0.001,1.829,7.973,2.018,0.991,0.008,0.001,-0.0,2.694,0.013,-0.0,1.541,0.029,0.029,0.031,0.025,0.225,1.35,0.003,0.0,-0.897,0.893,-0.011,-0.889,-0.893,0.012,0.002,0.0,0.0,0.004,0.002,0.001,-0.019,0.001,0.0,0.001,0.016,-0.02,0.002,-0.018,0.001,0.002,0.001,0.0,-0.014,0.002,0.002,0.009,0.002,0.003,0.014,0.026,0.02,-0.021,0.005,0.004,-0.004,0.008,0.041,0.003,0.007,0.002,0.002,0.001,-0.0,0.0,-0.0,-0.0
-0.0,-0.429,-0.431,0.431,-0.434,0.0,0.005,-0.003,1.861,7.955,2.021,0.991,0.008,0.004,-0.0,2.69,-0.002,-0.0,1.545,0.026,0.026,0.027,0.024,0.216,1.349,0.004,0.0,-0.896,0.892,-0.011,-0.889,-0.892,0.015,0.003,0.0,0.0,0.005,0.002,0.005,-0.016,0.002,0.0,0.001,0.019,-0.019,0.001,-0.023,0.002,0.004,0.001,0.0,-0.017,0.003,0.001,0.007,0.003,0.001,0.017,0.028,0.019,-0.022,0.006,0.004,-0.006,0.012,0.048,0.002,0.012,0.002,0.002,0.002,0.0,0.0,-0.0,-0.0
-0.0,-0.429,-0.432,0.432,-0.436,0.004,-0.001,0.003,1.869,7.946,2.022,0.991,0.007,0.002,-0.0,2.689,0.008,-0.0,1.542,0.029,0.029,0.03,0.027,0.222,1.352,0.004,0.0,-0.893,0.891,-0.016,-0.89,-0.891,0.016,0.004,0.0,0.0,0.003,0.002,0.005,-0.017,0.001,0.0,0.001,0.022,-0.019,0.001,-0.025,0.002,0.003,0.001,0.0,-0.02,0.002,0.002,0.008,0.004,0.002,0.021,0.03,0.019,-0.022,0.007,0.004,-0.003,0.012,0.051,0.001,0.011,0.001,0.001,0.001,0.0,0.0,-0.0,-0.0
0.0,-0.432,-0.434,0.434,-0.436,0.001,-0.002,0.001,1.88,7.925,2.024,0.99,0.002,0.002,0.0,2.687,0.004,-0.0,1.54,0.03,0.03,0.032,0.028,0.226,1.354,0.003,0.0,-0.894,0.89,-0.011,-0.888,-0.89,0.015,0.002,0.0,0.0,0.002,0.001,0.003,-0.017,0.001,0.0,0.001,0.016,-0.019,0.001,-0.019,0.002,0.002,0.0,0.0,-0.015,0.002,0.001,0.009,0.002,0.001,0.015,0.026,0.019,-0.022,0.007,0.004,0.0,0.012,0.046,0.002,0.012,0.002,0.001,0.001,0.0,0.0,-0.0,0.0
-0.0,-0.431,-0.437,0.437,-0.442,-0.004,-0.0,0.006,1.908,7.907,2.027,0.991,0.01,0.003,-0.0,2.684,0.023,-0.0,1.544,0.027,0.027,0.029,0.024,0.218,1.353,0.005,0.0,-0.891,0.889,-0.01,-0.886,-0.889,0.014,0.004,0.0,0.0,0.003,0.002,0.008,-0.017,0.002,0.0,0.001,0.017,-0.021,0.001,-0.019,0.002,0.003,0.002,0.0,-0.016,0.002,0.002,0.007,0.002,0.003,0.016,0.028,0.021,-0.025,-0.0,0.004,-0.004,0.009,0.044,0.003,0.007,0.002,0.001,0.001,-0.0,0.0,-0.0,-0.0
0.0,-0.435,-0.439,0.439,-0.443,0.003,0.0,0.001,1.927,7.885,2.029,0.99,0.0,0.002,0.0,2.682,-0.026,-0.0,1.544,0.027,0.027,0.03,0.025,0.218,1.354,0.004,0.0,-0.89,0.888,-0.015,-0.886,-0.888,0.017,0.004,0.0,0.0,0.003,0.003,0.007,-0.014,0.002,0.0,0.001,0.022,-0.018,0.001,-0.023,0.002,0.002,0.002,0.0,-0.02,0.002,0.002,0.007,0.004,0.002,0.02,0.03,0.018,-0.022,0.009,0.003,0.001,0.015,0.052,0.002,0.014,0.001,0.001,0.002,0.0,0.0,-0.0,0.0
0.0,-0.432,-0.436,0.436,-0.44,0.0,-0.001,-0.004,1.904,7.91,2.027,0.991,-0.002,0.001,0.0,2.684,-0.016,0.0,1.542,0.029,0.029,0.03,0.028,0.224,1.355,0.003,0.0,-0.892,0.889,-0.016,-0.887,-0.889,0.017,0.002,0.0,0.0,0.002,0.002,0.003,-0.016,0.001,0.0,0.0,0.025,-0.018,0.001,-0.022,0.001,0.002,0.0,0.0,-0.018,0.001,0.002,0.008,0.003,0.002,0.018,0.03,0.018,-0.019,0.011,0.003,0.001,0.017,0.053,0.003,0.017,0.002,0.001,0.003,0.0,0.0,-0.0,-0.0
0.0,-0.432,-0.435,0.435,-0.439,-0.002,-0.004,-0.001,1.889,7.926,2.025,0.992,-0.001,0.003,0.0,2.686,0.012,0.0,1.541,0.03,0.03,0.032,0.027,0.226,1.355,0.003,0.0,-0.893,0.89,-0.013,-0.888,-0.89,0.016,0.003,0.0,0.0,0.002,0.002,0.005,-0.017,0.002,0.0,0.001,0.015,-0.019,0.001,-0.019,0.002,0.002,0.001,0.0,-0.016,0.001,0.001,0.009,0.003,0.002,0.016,0.028,0.019,-0.022,0.004,0.004,0.001,0.012,0.046,0.003,0.011,0.002,0.001,0.001,-0.0,0.0,0.0,-0.0
-0.0,-0.434,-0.436,0.436,-0.439,0.008,0.002,0.005,1.904,7.925,2.026,0.991,0.002,0.002,0.0,2.685,-0.002,0.0,1.542,0.03,0.03,0.032,0.029,0.224,1.356,0.003,0.0,-0.895,0.89,-0.015,-0.887,-0.89,0.018,0.003,0.0,0.0,0.004,0.002,0.005,-0.017,0.001,0.0,0.001,0.021,-0.018,0.001,-0.023,0.001,0.002,0.001,0.0,-0.019,0.002,0.001,0.009,0.004,0.001,0.019,0.031,0.018,-0.02,0.01,0.003,-0.002,0.015,0.053,0.002,0.015,0.002,0.002,0.002,0.0,0.0,-0.0,0.0
0.0,-0.431,-0.434,0.434,-0.437,-0.002,0.001,-0.003,1.882,7.933,2.024,0.992,0.002,0.001,-0.0,2.687,-0.004,-0.0,1.539,0.031,0.031,0.032,0.03,0.229,1.356,0.002,0.0,-0.892,0.891,-0.015,-0.889,-0.891,0.016,0.002,0.0,0.0,0.002,0.001,0.003,-0.017,0.002,0.0,0.001,0.014,-0.019,0.001,-0.019,0.003,0.001,0.001,0.0,-0.017,0.001,0.001,0.01,0.003,0.001,0.017,0.028,0.02,-0.026,0.009,0.004,0.002,0.012,0.048,0.001,0.012,0.001,0.001,0.001,-0.0,0.0,0.0,0.0
0.0,-0.433,-0.436,0.436,-0.438,-0.005,-0.002,0.006,1.898,7.923,2.026,0.991,0.001,0.002,0.0,2.686,0.018,0.0,1.542,0.029,0.029,0.032,0.027,0.223,1.355,0.004,0.0,-0.893,0.89,-0.011,-0.888,-0.89,0.014,0.003,0.0,0.0,0.002,0.003,0.004,-0.015,0.001,0.0,0.002,0.016,-0.018,0.002,-0.015,0.001,0.001,0.003,0.0,-0.012,0.001,0.002,0.008,0.002,0.002,0.013,0.025,0.018,-0.02,0.003,0.003,0.002,0.011,0.041,0.002,0.01,0.002,0.001,0.001,-0.0,0.0,0.0,-0.0
0.0,-0.434,-0.435,0.435,-0.438,0.014,-0.001,0.002,1.895,7.926,2.024,0.992,-0.001,0.001,0.0,2.687,0.014,0.0,1.542,0.029,0.029,0.031,0.027,0.223,1.354,0.003,0.0,-0.893,0.89,-0.015,-0.886,-0.89,0.017,0.002,0.0,0.0,0.003,0.002,0.003,-0.017,0.001,0.0,0.001,0.02,-0.018,0.001,-0.022,0.001,0.002,0.002,0.0,-0.019,0.002,0.001,0.008,0.004,0.001,0.019,0.031,0.018,-0.02,0.011,0.003,0.001,0.016,0.053,0.003,0.016,0.002,0.002,0.003,0.0,0.0,-0.0,0.0
0.0,-0.432,-0.434,0.434,-0.436,0.005,-0.003,0.001,1.881,7.944,2.024,0.992,-0.002,0.001,0.0,2.688,0.001,0.0,1.541,0.03,0.03,0.031,0.029,0.226,1.355,0.003,0.0,-0.893,0.891,-0.016,-0.889,-0.891,0.016,0.002,0.0,0.0,0.002,0.001,0.003,-0.017,0.001,0.0,0.001,0.022,-0.018,0.001,-0.022,0.001,0.002,0.001,0.0,-0.018,0.002,0.001,0.009,0.003,0.001,0.018,0.028,0.018,-0.02,0.009,0.003,0.003,0.014,0.049,0.001,0.013,0.001,0.001,0.002,0.0,0.0,0.0,-0.0
0.0,-0.434,-0.436,0.436,-0.44,-0.002,0.005,-0.002,1.9,7.914,2.027,0.991,0.002,0.001,0.0,2.685,-0.024,-0.0,1.542,0.029,0.029,0.032,0.027,0.224,1.354,0.005,0.0,-0.892,0.89,-0.013,-0.887,-0.89,0.015,0.004,0.0,0.0,0.003,0.002,0.007,-0.017,0.001,0.0,0.001,0.02,-0.019,0.001,-0.019,0.001,0.002,0.002,0.0,-0.016,0.002,0.001,0.008,0.003,0.002,0.016,0.028,0.019,-0.021,0.006,0.003,-0.003,0.013,0.046,0.001,0.012,0.001,0.001,0.002,0.0,0.0,-0.0,0.0
0.0,-0.431,-0.435,0.435,-0.436,-0.001,-0.0,0.001,1.89,7.941,2.025,0.992,-0.001,0.001,-0.0,2.686,-0.007,0.0,1.541,0.03,0.03,0.031,0.029,0.226,1.356,0.003,0.0,-0.894,0.891,-0.015,-0.89,-0.891,0.017,0.002,0.0,0.0,0.001,0.002,0.002,-0.017,0.001,0.0,0.001,0.022,-0.019,0.001,-0.019,0.001,0.001,0.001,0.0,-0.017,0.001,0.001,0.009,0.003,0.002,0.018,0.03,0.019,-0.02,0.01,0.003,0.003,0.015,0.05,0.002,0.014,0.001,0.001,0.002,-0.0,0.0,0.0,0.0
0.0,-0.431,-0.434,0.434,-0.437,0.0,-0.001,-0.002,1.886,7.928,2.024,0.992,0.004,0.0,0.0,2.686,0.004,0.0,1.541,0.03,0.03,0.031,0.029,0.226,1.355,0.002,0.0,-0.893,0.89,-0.011,-0.886,-0.89,0.015,0.002,0.0,0.0,0.003,0.001,0.003,-0.017,0.001,0.0,0.0,0.015,-0.018,0.001,-0.019,0.001,0.002,0.0,0.0,-0.016,0.002,0.001,0.009,0.002,0.001,0.016,0.026,0.018,-0.02,0.009,0.003,-0.003,0.012,0.046,0.002,0.012,0.002,0.002,0.001,-0.0,0.0,0.0,-0.0
0.0,-0.434,-0.436,0.436,-0.439,0.004,0.005,0.002,1.9,7.914,2.026,0.991,0.005,0.003,0.0,2.686,0.002,0.0,1.542,0.029,0.029,0.03,0.027,0.224,1.354,0.005,0.0,-0.892,0.89,-0.014,-0.888,-0.89,0.016,0.004,0.0,0.0,0.003,0.002,0.006,-0.016,0.002,0.0,0.001,0.022,-0.019,0.001,-0.02,0.002,0.002,0.002,0.0,-0.016,0.002,0.001,0.008,0.003,0.002,0.016,0.029,0.019,-0.023,0.006,0.004,-0.003,0.014,0.048,0.003,0.013,0.001,0.001,0.002,0.0,0.0,-0.0,0.0
0.0,-0.432,-0.434,0.435,-0.437,0.001,-0.002,0.002,1.888,7.953,2.024,0.992,-0.0,0.001,0.0,2.688,-0.002,-0.0,1.541,0.03,0.03,0.031,0.027,0.226,1.356,0.001,0.0,-0.894,0.892,-0.014,-0.89,-0.892,0.017,0.001,0.0,0.0,0.002,0.002,0.001,-0.018,0.001,0.0,0.001,0.017,-0.018,0.001,-0.021,0.001,0.002,0.001,0.0,-0.019,0.002,0.001,0.009,0.004,0.002,0.019,0.03,0.018,-0.02,0.013,0.003,-0.003,0.015,0.052,0.001,0.015,0.001,0.001,0.002,-0.0,0.0,-0.0,-0.0
-0.0,-0.432,-0.434,0.434,-0.436,0.0,-0.003,-0.001,1.884,7.941,2.023,0.992,0.002,0.002,-0.0,2.688,-0.0,-0.0,1.54,0.031,0.031,0.033,0.03,0.229,1.356,0.004,0.0,-0.893,0.891,-0.016,-0.889,-0.891,0.016,0.002,0.0,0.0,0.002,0.002,0.001,-0.016,0.001,0.0,0.001,0.023,-0.018,0.001,-0.019,0.001,0.001,0.001,0.0,-0.017,0.001,0.001,0.01,0.003,0.001,0.017,0.028,0.018,-0.019,0.007,0.003,0.002,0.014,0.049,0.002,0.013,0.001,0.001,0.002,-0.0,0.0,-0.0,0.0
-0.0,-0.431,-0.434,0.434,-0.436,-0.001,-0.001,-0.003,1.886,7.95,2.025,0.992,0.002,0.001,-0.0,2.686,0.001,-0.0,1.54,0.031,0.031,0.032,0.03,0.229,1.357,0.002,0.0,-0.894,0.892,-0.013,-0.89,-0.892,0.016,0.001,0.0,0.0,0.001,0.001,0.002,-0.017,0.001,0.0,0.001,0.014,-0.019,0.001,-0.019,0.001,0.002,0.002,0.0,-0.016,0.001,0.001,0.01,0.003,0.001,0.016,0.028,0.019,-0.02,0.008,0.003,-0.005,0.011,0.046,0.003,0.011,0.001,0.001,0.001,-0.0,0.0,-0.0,0.0
-0.0,-0.43,-0.434,0.435,-0.438,0.003,0.005,-0.006,1.888,7.944,2.025,0.992,0.002,0.002,-0.0,2.687,-0.009,-0.0,1.542,0.03,0.03,0.032,0.029,0.224,1.356,0.005,0.0,-0.896,0.891,-0.014,-0.887,-0.891,0.017,0.004,0.0,0.0,0.002,0.002,0.008,-0.016,0.001,0.0,0.001,0.021,-0.019,0.001,-0.023,0.001,0.002,0.001,0.0,-0.018,0.002,0.002,0.009,0.003,0.002,0.019,0.03,0.019,-0.021,0.007,0.003,-0.005,0.016,0.052,0.004,0.015,0.003,0.002,0.002,0.0,0.0,0.0,-0.0
0.0,-0.428,-0.435,0.435,-0.44,-0.008,-0.003,0.009,1.896,7.934,2.026,0.992,0.008,0.002,0.0,2.684,0.031,-0.0,1.538,0.033,0.033,0.037,0.03,0.234,1.359,0.009,0.0,-0.895,0.891,-0.016,-0.886,-0.891,0.015,0.007,0.0,0.0,0.003,0.005,0.009,-0.014,0.002,0.0,0.002,0.026,-0.019,0.002,-0.029,0.002,0.004,0.005,0.0,-0.022,0.003,0.003,0.011,0.005,0.004,0.022,0.03,0.019,-0.022,-0.004,0.004,-0.008,0.014,0.052,0.003,0.01,0.003,0.002,0.002,-0.0,0.0,0.0,0.0
-0.0,-0.432,-0.436,0.436,-0.439,-0.006,0.001,-0.011,1.897,7.928,2.026,0.992,0.005,0.004,-0.0,2.685,-0.014,-0.0,1.534,0.037,0.037,0.039,0.035,0.242,1.363,0.004,0.0,-0.892,0.89,-0.016,-0.886,-0.89,0.016,0.004,0.0,0.0,0.005,0.003,0.006,-0.014,0.002,0.0,0.001,0.023,-0.018,0.001,-0.024,0.002,0.003,0.001,0.0,-0.02,0.002,0.002,0.013,0.004,0.002,0.02,0.03,0.019,-0.022,0.009,0.003,-0.003,0.014,0.052,0.003,0.014,0.002,0.002,0.002,0.0,0.0,-0.0,0.0
