#pragma once
#include <cstdarg>
namespace Eloquent {
    namespace ML {
        namespace Port {
            class RandomForest {
                public:
                    /**
                    * Predict class for features vector
                    */
                    int predict(float *x) {
                        uint8_t votes[5] = { 0 };
                        // tree #1
                        if (x[20] <= -0.9825000166893005) {
                            votes[4] += 1;
                        }

                        else {
                            if (x[27] <= 0.007500000298023224) {
                                if (x[71] <= 0.4325000047683716) {
                                    if (x[3] <= 0.00849999999627471) {
                                        votes[4] += 1;
                                    }

                                    else {
                                        if (x[24] <= -0.012000000104308128) {
                                            votes[2] += 1;
                                        }

                                        else {
                                            votes[1] += 1;
                                        }
                                    }
                                }

                                else {
                                    if (x[21] <= 0.09549999795854092) {
                                        if (x[31] <= 1.2944999933242798) {
                                            votes[1] += 1;
                                        }

                                        else {
                                            votes[3] += 1;
                                        }
                                    }

                                    else {
                                        if (x[31] <= 1.2300000190734863) {
                                            votes[1] += 1;
                                        }

                                        else {
                                            votes[3] += 1;
                                        }
                                    }
                                }
                            }

                            else {
                                if (x[25] <= 0.010499999858438969) {
                                    votes[0] += 1;
                                }

                                else {
                                    if (x[12] <= 2.9494999647140503) {
                                        if (x[36] <= 0.007500000298023224) {
                                            votes[1] += 1;
                                        }

                                        else {
                                            votes[3] += 1;
                                        }
                                    }

                                    else {
                                        if (x[33] <= 0.12250000238418579) {
                                            votes[1] += 1;
                                        }

                                        else {
                                            votes[0] += 1;
                                        }
                                    }
                                }
                            }
                        }

                        // tree #2
                        if (x[26] <= 0.009499999694526196) {
                            if (x[32] <= 0.05350000038743019) {
                                votes[4] += 1;
                            }

                            else {
                                if (x[27] <= 0.0029999997932463884) {
                                    votes[4] += 1;
                                }

                                else {
                                    votes[0] += 1;
                                }
                            }
                        }

                        else {
                            if (x[15] <= -0.12350000068545341) {
                                if (x[12] <= 1.3924999833106995) {
                                    if (x[23] <= -0.005499999970197678) {
                                        if (x[1] <= 0.02650000061839819) {
                                            votes[2] += 1;
                                        }

                                        else {
                                            votes[3] += 1;
                                        }
                                    }

                                    else {
                                        if (x[3] <= 0.007999999914318323) {
                                            votes[4] += 1;
                                        }

                                        else {
                                            votes[1] += 1;
                                        }
                                    }
                                }

                                else {
                                    if (x[61] <= 0.001500000071246177) {
                                        if (x[16] <= -0.001500000071246177) {
                                            votes[0] += 1;
                                        }

                                        else {
                                            votes[1] += 1;
                                        }
                                    }

                                    else {
                                        if (x[38] <= 0.013500000350177288) {
                                            votes[4] += 1;
                                        }

                                        else {
                                            votes[1] += 1;
                                        }
                                    }
                                }
                            }

                            else {
                                if (x[23] <= -0.009499999694526196) {
                                    if (x[10] <= 1.5649999976158142) {
                                        if (x[27] <= 0.013500000350177288) {
                                            votes[2] += 1;
                                        }

                                        else {
                                            votes[3] += 1;
                                        }
                                    }

                                    else {
                                        if (x[18] <= 0.13899999856948853) {
                                            votes[1] += 1;
                                        }

                                        else {
                                            votes[2] += 1;
                                        }
                                    }
                                }

                                else {
                                    if (x[10] <= 1.6200000047683716) {
                                        if (x[32] <= 0.09200000017881393) {
                                            votes[3] += 1;
                                        }

                                        else {
                                            votes[4] += 1;
                                        }
                                    }

                                    else {
                                        if (x[35] <= 0.9629999995231628) {
                                            votes[3] += 1;
                                        }

                                        else {
                                            votes[1] += 1;
                                        }
                                    }
                                }
                            }
                        }

                        // tree #3
                        if (x[29] <= -0.014500000048428774) {
                            if (x[2] <= 0.13749999552965164) {
                                if (x[2] <= 0.10649999976158142) {
                                    if (x[28] <= -0.015500000212341547) {
                                        if (x[12] <= 1.2944999933242798) {
                                            votes[2] += 1;
                                        }

                                        else {
                                            votes[1] += 1;
                                        }
                                    }

                                    else {
                                        if (x[21] <= -0.9774999916553497) {
                                            votes[4] += 1;
                                        }

                                        else {
                                            votes[0] += 1;
                                        }
                                    }
                                }

                                else {
                                    if (x[38] <= 0.02199999988079071) {
                                        if (x[35] <= 1.015500009059906) {
                                            votes[2] += 1;
                                        }

                                        else {
                                            votes[4] += 1;
                                        }
                                    }

                                    else {
                                        if (x[25] <= 0.04149999935179949) {
                                            votes[0] += 1;
                                        }

                                        else {
                                            votes[1] += 1;
                                        }
                                    }
                                }
                            }

                            else {
                                if (x[32] <= 0.04649999924004078) {
                                    if (x[17] <= 0.016500000841915607) {
                                        if (x[28] <= -0.018499999307096004) {
                                            votes[2] += 1;
                                        }

                                        else {
                                            votes[3] += 1;
                                        }
                                    }

                                    else {
                                        if (x[21] <= 0.7269999980926514) {
                                            votes[3] += 1;
                                        }

                                        else {
                                            votes[2] += 1;
                                        }
                                    }
                                }

                                else {
                                    if (x[19] <= -0.9634999930858612) {
                                        if (x[36] <= 0.011500000022351742) {
                                            votes[2] += 1;
                                        }

                                        else {
                                            votes[1] += 1;
                                        }
                                    }

                                    else {
                                        if (x[11] <= 1.4295000433921814) {
                                            votes[2] += 1;
                                        }

                                        else {
                                            votes[1] += 1;
                                        }
                                    }
                                }
                            }
                        }

                        else {
                            if (x[31] <= 1.2285000085830688) {
                                if (x[0] <= 0.9855000078678131) {
                                    if (x[43] <= 0.001500000071246177) {
                                        if (x[13] <= -0.09549999795854092) {
                                            votes[0] += 1;
                                        }

                                        else {
                                            votes[3] += 1;
                                        }
                                    }

                                    else {
                                        if (x[69] <= 5.144999980926514) {
                                            votes[1] += 1;
                                        }

                                        else {
                                            votes[4] += 1;
                                        }
                                    }
                                }

                                else {
                                    if (x[20] <= 0.2199999988079071) {
                                        if (x[13] <= -0.9950000047683716) {
                                            votes[3] += 1;
                                        }

                                        else {
                                            votes[4] += 1;
                                        }
                                    }

                                    else {
                                        if (x[10] <= 2.9294999837875366) {
                                            votes[1] += 1;
                                        }

                                        else {
                                            votes[1] += 1;
                                        }
                                    }
                                }
                            }

                            else {
                                if (x[25] <= 0.013500000350177288) {
                                    if (x[36] <= 0.011500000022351742) {
                                        if (x[43] <= 0.03350000083446503) {
                                            votes[2] += 1;
                                        }

                                        else {
                                            votes[3] += 1;
                                        }
                                    }

                                    else {
                                        if (x[35] <= 0.9695000052452087) {
                                            votes[3] += 1;
                                        }

                                        else {
                                            votes[4] += 1;
                                        }
                                    }
                                }

                                else {
                                    if (x[31] <= 1.3044999837875366) {
                                        if (x[0] <= 0.9754999876022339) {
                                            votes[3] += 1;
                                        }

                                        else {
                                            votes[1] += 1;
                                        }
                                    }

                                    else {
                                        if (x[68] <= -0.013500000350177288) {
                                            votes[3] += 1;
                                        }

                                        else {
                                            votes[3] += 1;
                                        }
                                    }
                                }
                            }
                        }

                        // tree #4
                        if (x[37] <= 0.00849999999627471) {
                            votes[4] += 1;
                        }

                        else {
                            if (x[31] <= 1.2294999957084656) {
                                if (x[3] <= 0.015500000212341547) {
                                    if (x[15] <= 0.01000000024214387) {
                                        if (x[31] <= 1.203499972820282) {
                                            votes[0] += 1;
                                        }

                                        else {
                                            votes[1] += 1;
                                        }
                                    }

                                    else {
                                        if (x[69] <= 0.0025000000605359674) {
                                            votes[3] += 1;
                                        }

                                        else {
                                            votes[2] += 1;
                                        }
                                    }
                                }

                                else {
                                    if (x[14] <= -0.11899999901652336) {
                                        if (x[28] <= -0.02199999988079071) {
                                            votes[0] += 1;
                                        }

                                        else {
                                            votes[3] += 1;
                                        }
                                    }

                                    else {
                                        if (x[18] <= 0.1394999995827675) {
                                            votes[1] += 1;
                                        }

                                        else {
                                            votes[2] += 1;
                                        }
                                    }
                                }
                            }

                            else {
                                if (x[25] <= 0.012500000186264515) {
                                    if (x[55] <= 0.006500000134110451) {
                                        votes[3] += 1;
                                    }

                                    else {
                                        if (x[33] <= 0.4325000047683716) {
                                            votes[1] += 1;
                                        }

                                        else {
                                            votes[3] += 1;
                                        }
                                    }
                                }

                                else {
                                    if (x[27] <= 0.012500000186264515) {
                                        if (x[30] <= -0.02350000012665987) {
                                            votes[3] += 1;
                                        }

                                        else {
                                            votes[3] += 1;
                                        }
                                    }

                                    else {
                                        if (x[16] <= 0.08999999798834324) {
                                            votes[3] += 1;
                                        }

                                        else {
                                            votes[2] += 1;
                                        }
                                    }
                                }
                            }
                        }

                        // tree #5
                        if (x[30] <= -0.015500000212341547) {
                            if (x[29] <= -0.02800000086426735) {
                                votes[0] += 1;
                            }

                            else {
                                if (x[23] <= -0.005499999970197678) {
                                    if (x[15] <= -0.12350000068545341) {
                                        if (x[31] <= 1.1169999837875366) {
                                            votes[0] += 1;
                                        }

                                        else {
                                            votes[2] += 1;
                                        }
                                    }

                                    else {
                                        if (x[10] <= 1.6875) {
                                            votes[2] += 1;
                                        }

                                        else {
                                            votes[1] += 1;
                                        }
                                    }
                                }

                                else {
                                    if (x[38] <= 0.019499999471008778) {
                                        if (x[27] <= 0.009000000078231096) {
                                            votes[4] += 1;
                                        }

                                        else {
                                            votes[3] += 1;
                                        }
                                    }

                                    else {
                                        if (x[19] <= -0.9990000128746033) {
                                            votes[4] += 1;
                                        }

                                        else {
                                            votes[1] += 1;
                                        }
                                    }
                                }
                            }
                        }

                        else {
                            if (x[28] <= -0.014500000048428774) {
                                if (x[70] <= 0.0005000000237487257) {
                                    if (x[18] <= -0.0025000000605359674) {
                                        if (x[15] <= -0.13650000095367432) {
                                            votes[0] += 1;
                                        }

                                        else {
                                            votes[1] += 1;
                                        }
                                    }

                                    else {
                                        if (x[33] <= 0.14999999850988388) {
                                            votes[0] += 1;
                                        }

                                        else {
                                            votes[1] += 1;
                                        }
                                    }
                                }

                                else {
                                    if (x[23] <= -0.019000000320374966) {
                                        votes[4] += 1;
                                    }

                                    else {
                                        if (x[33] <= 0.7464999854564667) {
                                            votes[2] += 1;
                                        }

                                        else {
                                            votes[3] += 1;
                                        }
                                    }
                                }
                            }

                            else {
                                if (x[18] <= 0.006500000134110451) {
                                    if (x[0] <= 0.9835000038146973) {
                                        if (x[13] <= -0.05850000120699406) {
                                            votes[1] += 1;
                                        }

                                        else {
                                            votes[3] += 1;
                                        }
                                    }

                                    else {
                                        votes[4] += 1;
                                    }
                                }

                                else {
                                    if (x[2] <= 0.19500000029802322) {
                                        if (x[22] <= -0.015999999828636646) {
                                            votes[4] += 1;
                                        }

                                        else {
                                            votes[1] += 1;
                                        }
                                    }

                                    else {
                                        if (x[38] <= 0.013500000350177288) {
                                            votes[3] += 1;
                                        }

                                        else {
                                            votes[3] += 1;
                                        }
                                    }
                                }
                            }
                        }

                        // tree #6
                        if (x[37] <= 0.00849999999627471) {
                            votes[4] += 1;
                        }

                        else {
                            if (x[3] <= 0.015500000212341547) {
                                if (x[72] <= 0.0005000000237487257) {
                                    if (x[74] <= 0.0035000001080334187) {
                                        if (x[3] <= 0.009000000078231096) {
                                            votes[4] += 1;
                                        }

                                        else {
                                            votes[1] += 1;
                                        }
                                    }

                                    else {
                                        if (x[1] <= 0.017500000074505806) {
                                            votes[4] += 1;
                                        }

                                        else {
                                            votes[1] += 1;
                                        }
                                    }
                                }

                                else {
                                    if (x[71] <= 9.279500007629395) {
                                        if (x[22] <= -0.010499999858438969) {
                                            votes[2] += 1;
                                        }

                                        else {
                                            votes[3] += 1;
                                        }
                                    }

                                    else {
                                        if (x[69] <= 0.15149999409914017) {
                                            votes[1] += 1;
                                        }

                                        else {
                                            votes[0] += 1;
                                        }
                                    }
                                }
                            }

                            else {
                                if (x[14] <= -0.12150000035762787) {
                                    if (x[38] <= 0.02199999988079071) {
                                        votes[3] += 1;
                                    }

                                    else {
                                        if (x[11] <= 1.5769999623298645) {
                                            votes[1] += 1;
                                        }

                                        else {
                                            votes[0] += 1;
                                        }
                                    }
                                }

                                else {
                                    if (x[15] <= -0.1145000010728836) {
                                        if (x[10] <= 1.6899999976158142) {
                                            votes[1] += 1;
                                        }

                                        else {
                                            votes[1] += 1;
                                        }
                                    }

                                    else {
                                        votes[2] += 1;
                                    }
                                }
                            }
                        }

                        // tree #7
                        if (x[27] <= 0.007500000298023224) {
                            if (x[25] <= -0.005499999970197678) {
                                if (x[55] <= 0.13350000232458115) {
                                    if (x[12] <= 1.36599999666214) {
                                        if (x[64] <= 0.001500000071246177) {
                                            votes[3] += 1;
                                        }

                                        else {
                                            votes[2] += 1;
                                        }
                                    }

                                    else {
                                        if (x[19] <= -0.9990000128746033) {
                                            votes[4] += 1;
                                        }

                                        else {
                                            votes[1] += 1;
                                        }
                                    }
                                }

                                else {
                                    if (x[34] <= 0.014500000048428774) {
                                        if (x[72] <= 0.0025000000605359674) {
                                            votes[1] += 1;
                                        }

                                        else {
                                            votes[1] += 1;
                                        }
                                    }

                                    else {
                                        if (x[52] <= 0.010499999858438969) {
                                            votes[4] += 1;
                                        }

                                        else {
                                            votes[1] += 1;
                                        }
                                    }
                                }
                            }

                            else {
                                if (x[3] <= 0.012500000186264515) {
                                    if (x[29] <= -0.016000000294297934) {
                                        votes[1] += 1;
                                    }

                                    else {
                                        votes[4] += 1;
                                    }
                                }

                                else {
                                    if (x[12] <= 2.099999964237213) {
                                        if (x[29] <= -0.006500000134110451) {
                                            votes[2] += 1;
                                        }

                                        else {
                                            votes[3] += 1;
                                        }
                                    }

                                    else {
                                        votes[1] += 1;
                                    }
                                }
                            }
                        }

                        else {
                            if (x[29] <= -0.02800000086426735) {
                                votes[0] += 1;
                            }

                            else {
                                if (x[22] <= -0.006500000134110451) {
                                    if (x[12] <= 2.9494999647140503) {
                                        if (x[23] <= -0.009499999694526196) {
                                            votes[2] += 1;
                                        }

                                        else {
                                            votes[3] += 1;
                                        }
                                    }

                                    else {
                                        if (x[0] <= 0.9814999997615814) {
                                            votes[1] += 1;
                                        }

                                        else {
                                            votes[0] += 1;
                                        }
                                    }
                                }

                                else {
                                    if (x[35] <= 0.9805000126361847) {
                                        votes[1] += 1;
                                    }

                                    else {
                                        votes[3] += 1;
                                    }
                                }
                            }
                        }

                        // tree #8
                        if (x[20] <= -0.9825000166893005) {
                            votes[4] += 1;
                        }

                        else {
                            if (x[22] <= -0.007500000298023224) {
                                if (x[3] <= 0.015500000212341547) {
                                    if (x[34] <= 0.0035000001080334187) {
                                        if (x[19] <= -0.9690000116825104) {
                                            votes[0] += 1;
                                        }

                                        else {
                                            votes[2] += 1;
                                        }
                                    }

                                    else {
                                        if (x[20] <= -0.9615000188350677) {
                                            votes[1] += 1;
                                        }

                                        else {
                                            votes[3] += 1;
                                        }
                                    }
                                }

                                else {
                                    if (x[34] <= 0.02000000048428774) {
                                        if (x[16] <= -0.009499999694526196) {
                                            votes[0] += 1;
                                        }

                                        else {
                                            votes[3] += 1;
                                        }
                                    }

                                    else {
                                        if (x[18] <= 0.1419999971985817) {
                                            votes[1] += 1;
                                        }

                                        else {
                                            votes[2] += 1;
                                        }
                                    }
                                }
                            }

                            else {
                                if (x[17] <= -0.005499999970197678) {
                                    if (x[34] <= 0.020999999716877937) {
                                        if (x[3] <= 0.00849999999627471) {
                                            votes[4] += 1;
                                        }

                                        else {
                                            votes[1] += 1;
                                        }
                                    }

                                    else {
                                        votes[1] += 1;
                                    }
                                }

                                else {
                                    if (x[27] <= 0.007500000298023224) {
                                        if (x[21] <= -0.28849999606609344) {
                                            votes[1] += 1;
                                        }

                                        else {
                                            votes[4] += 1;
                                        }
                                    }

                                    else {
                                        votes[1] += 1;
                                    }
                                }
                            }
                        }

                        // tree #9
                        if (x[26] <= 0.009499999694526196) {
                            if (x[33] <= 0.9970000088214874) {
                                votes[4] += 1;
                            }

                            else {
                                votes[0] += 1;
                            }
                        }

                        else {
                            if (x[2] <= 0.13749999552965164) {
                                if (x[32] <= 0.04749999940395355) {
                                    if (x[28] <= -0.015500000212341547) {
                                        if (x[12] <= 1.343500018119812) {
                                            votes[2] += 1;
                                        }

                                        else {
                                            votes[1] += 1;
                                        }
                                    }

                                    else {
                                        if (x[15] <= -0.13650000095367432) {
                                            votes[0] += 1;
                                        }

                                        else {
                                            votes[3] += 1;
                                        }
                                    }
                                }

                                else {
                                    if (x[51] <= 0.001500000071246177) {
                                        if (x[28] <= -0.02199999988079071) {
                                            votes[0] += 1;
                                        }

                                        else {
                                            votes[4] += 1;
                                        }
                                    }

                                    else {
                                        if (x[71] <= 10.176000118255615) {
                                            votes[1] += 1;
                                        }

                                        else {
                                            votes[4] += 1;
                                        }
                                    }
                                }
                            }

                            else {
                                if (x[19] <= -0.9634999930858612) {
                                    if (x[31] <= 1.203499972820282) {
                                        if (x[42] <= 0.00750000006519258) {
                                            votes[2] += 1;
                                        }

                                        else {
                                            votes[1] += 1;
                                        }
                                    }

                                    else {
                                        if (x[18] <= 0.12150000035762787) {
                                            votes[1] += 1;
                                        }

                                        else {
                                            votes[1] += 1;
                                        }
                                    }
                                }

                                else {
                                    if (x[38] <= 0.02350000012665987) {
                                        if (x[30] <= -0.019499999471008778) {
                                            votes[2] += 1;
                                        }

                                        else {
                                            votes[3] += 1;
                                        }
                                    }

                                    else {
                                        if (x[18] <= 0.0010000001639127731) {
                                            votes[1] += 1;
                                        }

                                        else {
                                            votes[3] += 1;
                                        }
                                    }
                                }
                            }
                        }

                        // tree #10
                        if (x[29] <= -0.014500000048428774) {
                            if (x[72] <= 0.0005000000237487257) {
                                votes[1] += 1;
                            }

                            else {
                                if (x[32] <= 0.048499999567866325) {
                                    if (x[20] <= -0.9615000188350677) {
                                        if (x[18] <= 0.12150000035762787) {
                                            votes[0] += 1;
                                        }

                                        else {
                                            votes[1] += 1;
                                        }
                                    }

                                    else {
                                        if (x[26] <= 0.013500000350177288) {
                                            votes[3] += 1;
                                        }

                                        else {
                                            votes[2] += 1;
                                        }
                                    }
                                }

                                else {
                                    if (x[14] <= -0.12150000035762787) {
                                        if (x[49] <= 0.0005000000237487257) {
                                            votes[0] += 1;
                                        }

                                        else {
                                            votes[1] += 1;
                                        }
                                    }

                                    else {
                                        if (x[15] <= -0.007999999914318323) {
                                            votes[1] += 1;
                                        }

                                        else {
                                            votes[3] += 1;
                                        }
                                    }
                                }
                            }
                        }

                        else {
                            if (x[3] <= 0.012500000186264515) {
                                if (x[25] <= -0.027999999932944775) {
                                    if (x[72] <= 0.0005000000237487257) {
                                        if (x[63] <= 0.023999999277293682) {
                                            votes[1] += 1;
                                        }

                                        else {
                                            votes[4] += 1;
                                        }
                                    }

                                    else {
                                        if (x[69] <= 9.791999816894531) {
                                            votes[4] += 1;
                                        }

                                        else {
                                            votes[1] += 1;
                                        }
                                    }
                                }

                                else {
                                    if (x[73] <= 0.001500000071246177) {
                                        votes[4] += 1;
                                    }

                                    else {
                                        if (x[26] <= 0.02650000061839819) {
                                            votes[4] += 1;
                                        }

                                        else {
                                            votes[4] += 1;
                                        }
                                    }
                                }
                            }

                            else {
                                if (x[19] <= -0.9090000092983246) {
                                    if (x[55] <= 0.006500000134110451) {
                                        if (x[70] <= 0.0005000000237487257) {
                                            votes[0] += 1;
                                        }

                                        else {
                                            votes[3] += 1;
                                        }
                                    }

                                    else {
                                        if (x[21] <= -0.9615000188350677) {
                                            votes[1] += 1;
                                        }

                                        else {
                                            votes[1] += 1;
                                        }
                                    }
                                }

                                else {
                                    if (x[31] <= 1.4955000281333923) {
                                        if (x[12] <= 0.7874999940395355) {
                                            votes[3] += 1;
                                        }

                                        else {
                                            votes[3] += 1;
                                        }
                                    }

                                    else {
                                        if (x[0] <= 1.0454999804496765) {
                                            votes[3] += 1;
                                        }

                                        else {
                                            votes[2] += 1;
                                        }
                                    }
                                }
                            }
                        }

                        // tree #11
                        if (x[29] <= -0.014500000048428774) {
                            if (x[35] <= 0.9634999930858612) {
                                if (x[26] <= 0.011500000022351742) {
                                    votes[0] += 1;
                                }

                                else {
                                    if (x[22] <= -0.00849999999627471) {
                                        if (x[36] <= 0.009499999694526196) {
                                            votes[3] += 1;
                                        }

                                        else {
                                            votes[2] += 1;
                                        }
                                    }

                                    else {
                                        if (x[69] <= 0.159000001847744) {
                                            votes[3] += 1;
                                        }

                                        else {
                                            votes[1] += 1;
                                        }
                                    }
                                }
                            }

                            else {
                                if (x[10] <= 1.6955000162124634) {
                                    if (x[13] <= 0.006999999983236194) {
                                        if (x[1] <= 0.031499999575316906) {
                                            votes[1] += 1;
                                        }

                                        else {
                                            votes[4] += 1;
                                        }
                                    }

                                    else {
                                        if (x[38] <= 0.016500000841915607) {
                                            votes[3] += 1;
                                        }

                                        else {
                                            votes[2] += 1;
                                        }
                                    }
                                }

                                else {
                                    if (x[14] <= -0.12150000035762787) {
                                        if (x[70] <= 0.004500000213738531) {
                                            votes[0] += 1;
                                        }

                                        else {
                                            votes[1] += 1;
                                        }
                                    }

                                    else {
                                        if (x[11] <= 1.578499972820282) {
                                            votes[1] += 1;
                                        }

                                        else {
                                            votes[0] += 1;
                                        }
                                    }
                                }
                            }
                        }

                        else {
                            if (x[27] <= 0.009000000078231096) {
                                if (x[25] <= -0.006500000134110451) {
                                    if (x[20] <= 0.33500000834465027) {
                                        if (x[23] <= -0.013499999884516) {
                                            votes[4] += 1;
                                        }

                                        else {
                                            votes[1] += 1;
                                        }
                                    }

                                    else {
                                        if (x[0] <= 1.0425000190734863) {
                                            votes[3] += 1;
                                        }

                                        else {
                                            votes[2] += 1;
                                        }
                                    }
                                }

                                else {
                                    if (x[1] <= 0.16449999436736107) {
                                        if (x[28] <= -0.015500000212341547) {
                                            votes[4] += 1;
                                        }

                                        else {
                                            votes[4] += 1;
                                        }
                                    }

                                    else {
                                        votes[1] += 1;
                                    }
                                }
                            }

                            else {
                                if (x[16] <= 0.013500000350177288) {
                                    if (x[71] <= 9.43149995803833) {
                                        if (x[41] <= 0.09349999949336052) {
                                            votes[1] += 1;
                                        }

                                        else {
                                            votes[2] += 1;
                                        }
                                    }

                                    else {
                                        if (x[69] <= 0.17350000143051147) {
                                            votes[3] += 1;
                                        }

                                        else {
                                            votes[0] += 1;
                                        }
                                    }
                                }

                                else {
                                    if (x[37] <= 0.013500000350177288) {
                                        if (x[11] <= 1.5544999837875366) {
                                            votes[3] += 1;
                                        }

                                        else {
                                            votes[2] += 1;
                                        }
                                    }

                                    else {
                                        if (x[21] <= -0.9620000123977661) {
                                            votes[1] += 1;
                                        }

                                        else {
                                            votes[3] += 1;
                                        }
                                    }
                                }
                            }
                        }

                        // tree #12
                        if (x[0] <= 1.046500027179718) {
                            if (x[27] <= 0.007500000298023224) {
                                if (x[27] <= 0.003999999957159162) {
                                    if (x[40] <= 0.001500000071246177) {
                                        if (x[72] <= 0.0025000000605359674) {
                                            votes[3] += 1;
                                        }

                                        else {
                                            votes[1] += 1;
                                        }
                                    }

                                    else {
                                        if (x[3] <= 0.00849999999627471) {
                                            votes[4] += 1;
                                        }

                                        else {
                                            votes[1] += 1;
                                        }
                                    }
                                }

                                else {
                                    if (x[23] <= -0.00849999999627471) {
                                        if (x[27] <= 0.005499999970197678) {
                                            votes[1] += 1;
                                        }

                                        else {
                                            votes[3] += 1;
                                        }
                                    }

                                    else {
                                        votes[4] += 1;
                                    }
                                }
                            }

                            else {
                                if (x[32] <= 0.048499999567866325) {
                                    if (x[24] <= -0.00849999999627471) {
                                        if (x[12] <= 2.9494999647140503) {
                                            votes[3] += 1;
                                        }

                                        else {
                                            votes[1] += 1;
                                        }
                                    }

                                    else {
                                        votes[1] += 1;
                                    }
                                }

                                else {
                                    if (x[29] <= -0.020999999716877937) {
                                        if (x[10] <= 1.6934999823570251) {
                                            votes[1] += 1;
                                        }

                                        else {
                                            votes[0] += 1;
                                        }
                                    }

                                    else {
                                        if (x[25] <= 0.06149999983608723) {
                                            votes[3] += 1;
                                        }

                                        else {
                                            votes[1] += 1;
                                        }
                                    }
                                }
                            }
                        }

                        else {
                            votes[4] += 1;
                        }

                        // tree #13
                        if (x[37] <= 0.00849999999627471) {
                            votes[4] += 1;
                        }

                        else {
                            if (x[3] <= 0.015500000212341547) {
                                if (x[24] <= -0.006500000134110451) {
                                    if (x[71] <= 9.276999950408936) {
                                        if (x[22] <= -0.010499999858438969) {
                                            votes[2] += 1;
                                        }

                                        else {
                                            votes[3] += 1;
                                        }
                                    }

                                    else {
                                        if (x[14] <= -0.12150000035762787) {
                                            votes[0] += 1;
                                        }

                                        else {
                                            votes[1] += 1;
                                        }
                                    }
                                }

                                else {
                                    if (x[28] <= -0.00849999999627471) {
                                        if (x[55] <= 0.5430000126361847) {
                                            votes[1] += 1;
                                        }

                                        else {
                                            votes[4] += 1;
                                        }
                                    }

                                    else {
                                        if (x[40] <= 0.0020000000367872417) {
                                            votes[4] += 1;
                                        }

                                        else {
                                            votes[1] += 1;
                                        }
                                    }
                                }
                            }

                            else {
                                if (x[31] <= 1.2005000114440918) {
                                    if (x[43] <= 0.0035000000498257577) {
                                        if (x[33] <= 0.12250000238418579) {
                                            votes[2] += 1;
                                        }

                                        else {
                                            votes[0] += 1;
                                        }
                                    }

                                    else {
                                        if (x[21] <= -0.41450000554323196) {
                                            votes[1] += 1;
                                        }

                                        else {
                                            votes[3] += 1;
                                        }
                                    }
                                }

                                else {
                                    if (x[18] <= 0.1419999971985817) {
                                        if (x[74] <= 0.004500000039115548) {
                                            votes[3] += 1;
                                        }

                                        else {
                                            votes[1] += 1;
                                        }
                                    }

                                    else {
                                        votes[2] += 1;
                                    }
                                }
                            }
                        }

                        // tree #14
                        if (x[27] <= 0.007500000298023224) {
                            if (x[0] <= 0.9824999868869781) {
                                if (x[19] <= -0.8790000081062317) {
                                    votes[1] += 1;
                                }

                                else {
                                    if (x[62] <= 0.009999999776482582) {
                                        votes[4] += 1;
                                    }

                                    else {
                                        votes[3] += 1;
                                    }
                                }
                            }

                            else {
                                if (x[31] <= 1.231000006198883) {
                                    if (x[33] <= 0.9914999902248383) {
                                        if (x[55] <= 0.8774999976158142) {
                                            votes[4] += 1;
                                        }

                                        else {
                                            votes[1] += 1;
                                        }
                                    }

                                    else {
                                        if (x[28] <= -0.01699999999254942) {
                                            votes[3] += 1;
                                        }

                                        else {
                                            votes[1] += 1;
                                        }
                                    }
                                }

                                else {
                                    if (x[12] <= 2.097499966621399) {
                                        if (x[30] <= -0.019499999471008778) {
                                            votes[3] += 1;
                                        }

                                        else {
                                            votes[3] += 1;
                                        }
                                    }

                                    else {
                                        votes[4] += 1;
                                    }
                                }
                            }
                        }

                        else {
                            if (x[31] <= 1.2294999957084656) {
                                if (x[22] <= -0.011500000022351742) {
                                    if (x[57] <= 0.0005000000237487257) {
                                        if (x[69] <= 0.14999999850988388) {
                                            votes[1] += 1;
                                        }

                                        else {
                                            votes[0] += 1;
                                        }
                                    }

                                    else {
                                        if (x[21] <= -0.9805000126361847) {
                                            votes[1] += 1;
                                        }

                                        else {
                                            votes[0] += 1;
                                        }
                                    }
                                }

                                else {
                                    if (x[17] <= -0.011500000022351742) {
                                        if (x[12] <= 1.4329999685287476) {
                                            votes[0] += 1;
                                        }

                                        else {
                                            votes[2] += 1;
                                        }
                                    }

                                    else {
                                        if (x[17] <= 0.05099999997764826) {
                                            votes[1] += 1;
                                        }

                                        else {
                                            votes[2] += 1;
                                        }
                                    }
                                }
                            }

                            else {
                                if (x[32] <= 0.04649999924004078) {
                                    if (x[10] <= 2.6095000505447388) {
                                        if (x[69] <= 0.6724999845027924) {
                                            votes[3] += 1;
                                        }

                                        else {
                                            votes[3] += 1;
                                        }
                                    }

                                    else {
                                        if (x[24] <= -0.012500000186264515) {
                                            votes[2] += 1;
                                        }

                                        else {
                                            votes[2] += 1;
                                        }
                                    }
                                }

                                else {
                                    if (x[17] <= 0.15850000083446503) {
                                        if (x[71] <= 8.444000244140625) {
                                            votes[3] += 1;
                                        }

                                        else {
                                            votes[1] += 1;
                                        }
                                    }

                                    else {
                                        if (x[23] <= -0.009499999694526196) {
                                            votes[2] += 1;
                                        }

                                        else {
                                            votes[3] += 1;
                                        }
                                    }
                                }
                            }
                        }

                        // tree #15
                        if (x[38] <= 0.014500000048428774) {
                            if (x[20] <= 0.47300000488758087) {
                                if (x[57] <= 0.09950000047683716) {
                                    if (x[43] <= 0.09149999916553497) {
                                        if (x[73] <= 0.001500000071246177) {
                                            votes[4] += 1;
                                        }

                                        else {
                                            votes[4] += 1;
                                        }
                                    }

                                    else {
                                        if (x[3] <= 0.012500000186264515) {
                                            votes[4] += 1;
                                        }

                                        else {
                                            votes[1] += 1;
                                        }
                                    }
                                }

                                else {
                                    if (x[14] <= -0.03499999991618097) {
                                        votes[4] += 1;
                                    }

                                    else {
                                        votes[1] += 1;
                                    }
                                }
                            }

                            else {
                                if (x[31] <= 1.4955000281333923) {
                                    if (x[0] <= 1.0444999933242798) {
                                        if (x[20] <= 0.7150000035762787) {
                                            votes[2] += 1;
                                        }

                                        else {
                                            votes[3] += 1;
                                        }
                                    }

                                    else {
                                        if (x[69] <= 5.219499826431274) {
                                            votes[3] += 1;
                                        }

                                        else {
                                            votes[2] += 1;
                                        }
                                    }
                                }

                                else {
                                    if (x[62] <= 0.0005000000237487257) {
                                        if (x[0] <= 1.0454999804496765) {
                                            votes[3] += 1;
                                        }

                                        else {
                                            votes[2] += 1;
                                        }
                                    }

                                    else {
                                        if (x[13] <= -0.7224999964237213) {
                                            votes[2] += 1;
                                        }

                                        else {
                                            votes[3] += 1;
                                        }
                                    }
                                }
                            }
                        }

                        else {
                            if (x[31] <= 1.2294999957084656) {
                                if (x[71] <= 10.156000137329102) {
                                    if (x[22] <= -0.011500000022351742) {
                                        if (x[31] <= 1.1994999647140503) {
                                            votes[0] += 1;
                                        }

                                        else {
                                            votes[1] += 1;
                                        }
                                    }

                                    else {
                                        if (x[10] <= 1.5625) {
                                            votes[2] += 1;
                                        }

                                        else {
                                            votes[1] += 1;
                                        }
                                    }
                                }

                                else {
                                    votes[4] += 1;
                                }
                            }

                            else {
                                if (x[22] <= -0.010499999858438969) {
                                    if (x[2] <= 0.273499995470047) {
                                        if (x[72] <= 0.001500000071246177) {
                                            votes[2] += 1;
                                        }

                                        else {
                                            votes[3] += 1;
                                        }
                                    }

                                    else {
                                        if (x[29] <= -0.014999999664723873) {
                                            votes[2] += 1;
                                        }

                                        else {
                                            votes[3] += 1;
                                        }
                                    }
                                }

                                else {
                                    if (x[13] <= -0.11749999970197678) {
                                        votes[1] += 1;
                                    }

                                    else {
                                        if (x[53] <= 0.0025000000605359674) {
                                            votes[3] += 1;
                                        }

                                        else {
                                            votes[3] += 1;
                                        }
                                    }
                                }
                            }
                        }

                        // tree #16
                        if (x[73] <= 0.0005000000237487257) {
                            votes[4] += 1;
                        }

                        else {
                            if (x[19] <= -0.9634999930858612) {
                                if (x[13] <= -0.12250000238418579) {
                                    if (x[70] <= 0.0035000000498257577) {
                                        if (x[11] <= 1.5724999904632568) {
                                            votes[1] += 1;
                                        }

                                        else {
                                            votes[0] += 1;
                                        }
                                    }

                                    else {
                                        if (x[73] <= 0.04650000063702464) {
                                            votes[1] += 1;
                                        }

                                        else {
                                            votes[4] += 1;
                                        }
                                    }
                                }

                                else {
                                    if (x[16] <= -0.012500000186264515) {
                                        if (x[29] <= -0.015500000212341547) {
                                            votes[2] += 1;
                                        }

                                        else {
                                            votes[3] += 1;
                                        }
                                    }

                                    else {
                                        if (x[15] <= 0.008000000147148967) {
                                            votes[1] += 1;
                                        }

                                        else {
                                            votes[2] += 1;
                                        }
                                    }
                                }
                            }

                            else {
                                if (x[15] <= -0.99549999833107) {
                                    if (x[23] <= -0.007499999832361937) {
                                        if (x[30] <= -0.029500000178813934) {
                                            votes[0] += 1;
                                        }

                                        else {
                                            votes[2] += 1;
                                        }
                                    }

                                    else {
                                        if (x[3] <= 0.00849999999627471) {
                                            votes[4] += 1;
                                        }

                                        else {
                                            votes[1] += 1;
                                        }
                                    }
                                }

                                else {
                                    if (x[37] <= 0.010999999940395355) {
                                        if (x[16] <= 0.005500000203028321) {
                                            votes[4] += 1;
                                        }

                                        else {
                                            votes[3] += 1;
                                        }
                                    }

                                    else {
                                        if (x[27] <= 0.012500000186264515) {
                                            votes[3] += 1;
                                        }

                                        else {
                                            votes[2] += 1;
                                        }
                                    }
                                }
                            }
                        }

                        // tree #17
                        if (x[27] <= 0.007500000298023224) {
                            if (x[3] <= 0.012500000186264515) {
                                if (x[13] <= -0.9909999966621399) {
                                    votes[1] += 1;
                                }

                                else {
                                    if (x[43] <= 0.5775000154972076) {
                                        votes[4] += 1;
                                    }

                                    else {
                                        votes[1] += 1;
                                    }
                                }
                            }

                            else {
                                if (x[20] <= -0.8455000221729279) {
                                    votes[1] += 1;
                                }

                                else {
                                    if (x[13] <= -0.949999988079071) {
                                        if (x[30] <= -0.019499999471008778) {
                                            votes[3] += 1;
                                        }

                                        else {
                                            votes[2] += 1;
                                        }
                                    }

                                    else {
                                        if (x[31] <= 1.3740000128746033) {
                                            votes[3] += 1;
                                        }

                                        else {
                                            votes[3] += 1;
                                        }
                                    }
                                }
                            }
                        }

                        else {
                            if (x[14] <= -0.12150000035762787) {
                                if (x[21] <= 0.18150000274181366) {
                                    if (x[71] <= 0.2800000011920929) {
                                        if (x[71] <= 0.22950000315904617) {
                                            votes[1] += 1;
                                        }

                                        else {
                                            votes[2] += 1;
                                        }
                                    }

                                    else {
                                        if (x[17] <= -0.0005000000237487257) {
                                            votes[0] += 1;
                                        }

                                        else {
                                            votes[1] += 1;
                                        }
                                    }
                                }

                                else {
                                    if (x[36] <= 0.00849999999627471) {
                                        votes[1] += 1;
                                    }

                                    else {
                                        if (x[29] <= -0.018499999307096004) {
                                            votes[3] += 1;
                                        }

                                        else {
                                            votes[2] += 1;
                                        }
                                    }
                                }
                            }

                            else {
                                if (x[35] <= 0.9634999930858612) {
                                    if (x[36] <= 0.009499999694526196) {
                                        votes[3] += 1;
                                    }

                                    else {
                                        if (x[27] <= 0.013500000350177288) {
                                            votes[2] += 1;
                                        }

                                        else {
                                            votes[3] += 1;
                                        }
                                    }
                                }

                                else {
                                    if (x[17] <= -0.011500000022351742) {
                                        if (x[24] <= -0.011500000022351742) {
                                            votes[3] += 1;
                                        }

                                        else {
                                            votes[2] += 1;
                                        }
                                    }

                                    else {
                                        if (x[38] <= 0.015500000212341547) {
                                            votes[3] += 1;
                                        }

                                        else {
                                            votes[1] += 1;
                                        }
                                    }
                                }
                            }
                        }

                        // tree #18
                        if (x[26] <= 0.009499999694526196) {
                            if (x[3] <= 0.013499999884516) {
                                votes[4] += 1;
                            }

                            else {
                                votes[0] += 1;
                            }
                        }

                        else {
                            if (x[31] <= 1.2294999957084656) {
                                if (x[69] <= 0.15049999952316284) {
                                    if (x[13] <= 0.004500000039115548) {
                                        if (x[24] <= -0.011500000022351742) {
                                            votes[1] += 1;
                                        }

                                        else {
                                            votes[3] += 1;
                                        }
                                    }

                                    else {
                                        if (x[31] <= 1.0645000338554382) {
                                            votes[2] += 1;
                                        }

                                        else {
                                            votes[3] += 1;
                                        }
                                    }
                                }

                                else {
                                    if (x[23] <= -0.005499999970197678) {
                                        if (x[0] <= 0.9805000126361847) {
                                            votes[2] += 1;
                                        }

                                        else {
                                            votes[0] += 1;
                                        }
                                    }

                                    else {
                                        if (x[3] <= 0.00849999999627471) {
                                            votes[4] += 1;
                                        }

                                        else {
                                            votes[1] += 1;
                                        }
                                    }
                                }
                            }

                            else {
                                if (x[32] <= 0.04649999924004078) {
                                    if (x[34] <= 0.11299999803304672) {
                                        if (x[29] <= -0.017500000074505806) {
                                            votes[2] += 1;
                                        }

                                        else {
                                            votes[3] += 1;
                                        }
                                    }

                                    else {
                                        votes[3] += 1;
                                    }
                                }

                                else {
                                    if (x[29] <= -0.021499999798834324) {
                                        if (x[18] <= -0.038999997079372406) {
                                            votes[1] += 1;
                                        }

                                        else {
                                            votes[2] += 1;
                                        }
                                    }

                                    else {
                                        if (x[21] <= -0.9514999985694885) {
                                            votes[1] += 1;
                                        }

                                        else {
                                            votes[3] += 1;
                                        }
                                    }
                                }
                            }
                        }

                        // tree #19
                        if (x[26] <= 0.00849999999627471) {
                            votes[4] += 1;
                        }

                        else {
                            if (x[3] <= 0.015500000212341547) {
                                if (x[20] <= -0.9625000059604645) {
                                    if (x[10] <= 1.6955000162124634) {
                                        if (x[28] <= -0.018499999307096004) {
                                            votes[1] += 1;
                                        }

                                        else {
                                            votes[1] += 1;
                                        }
                                    }

                                    else {
                                        if (x[36] <= 0.01549999974668026) {
                                            votes[0] += 1;
                                        }

                                        else {
                                            votes[1] += 1;
                                        }
                                    }
                                }

                                else {
                                    if (x[36] <= 0.00849999999627471) {
                                        if (x[3] <= 0.00849999999627471) {
                                            votes[4] += 1;
                                        }

                                        else {
                                            votes[1] += 1;
                                        }
                                    }

                                    else {
                                        if (x[1] <= 0.02850000001490116) {
                                            votes[3] += 1;
                                        }

                                        else {
                                            votes[2] += 1;
                                        }
                                    }
                                }
                            }

                            else {
                                if (x[19] <= 0.16749999672174454) {
                                    if (x[17] <= -0.007500000298023224) {
                                        if (x[2] <= 0.1184999980032444) {
                                            votes[0] += 1;
                                        }

                                        else {
                                            votes[3] += 1;
                                        }
                                    }

                                    else {
                                        if (x[21] <= -0.9614999890327454) {
                                            votes[1] += 1;
                                        }

                                        else {
                                            votes[2] += 1;
                                        }
                                    }
                                }

                                else {
                                    if (x[11] <= 1.581499993801117) {
                                        votes[3] += 1;
                                    }

                                    else {
                                        votes[0] += 1;
                                    }
                                }
                            }
                        }

                        // tree #20
                        if (x[71] <= 9.83650016784668) {
                            if (x[31] <= 1.2294999957084656) {
                                if (x[10] <= 1.6955000162124634) {
                                    if (x[11] <= 1.5834999680519104) {
                                        if (x[18] <= 0.1405000016093254) {
                                            votes[1] += 1;
                                        }

                                        else {
                                            votes[2] += 1;
                                        }
                                    }

                                    else {
                                        if (x[38] <= 0.016500000841915607) {
                                            votes[3] += 1;
                                        }

                                        else {
                                            votes[2] += 1;
                                        }
                                    }
                                }

                                else {
                                    if (x[25] <= 0.00849999999627471) {
                                        if (x[39] <= 0.0025000000605359674) {
                                            votes[4] += 1;
                                        }

                                        else {
                                            votes[1] += 1;
                                        }
                                    }

                                    else {
                                        if (x[32] <= 0.039499999955296516) {
                                            votes[1] += 1;
                                        }

                                        else {
                                            votes[0] += 1;
                                        }
                                    }
                                }
                            }

                            else {
                                if (x[36] <= 0.009499999694526196) {
                                    votes[3] += 1;
                                }

                                else {
                                    if (x[34] <= 0.17949999868869781) {
                                        if (x[22] <= -0.011500000022351742) {
                                            votes[3] += 1;
                                        }

                                        else {
                                            votes[2] += 1;
                                        }
                                    }

                                    else {
                                        if (x[52] <= 0.00849999999627471) {
                                            votes[2] += 1;
                                        }

                                        else {
                                            votes[3] += 1;
                                        }
                                    }
                                }
                            }
                        }

                        else {
                            votes[4] += 1;
                        }

                        // return argmax of votes
                        uint8_t classIdx = 0;
                        float maxVotes = votes[0];

                        for (uint8_t i = 1; i < 5; i++) {
                            if (votes[i] > maxVotes) {
                                classIdx = i;
                                maxVotes = votes[i];
                            }
                        }

                        return classIdx;
                    }

                protected:
                };
            }
        }
    }