#pragma once
#include <cstdarg>
namespace Eloquent {
    namespace ML {
        namespace Port {
            class RandomForest {
                public:
                    /**
                    * Predict class for features vector
                    */
                    int predict(float *x) {
                        uint8_t votes[3] = { 0 };
                        // tree #1
                        if (x[12] <= -0.7469633221626282) {
                            votes[0] += 1;
                        }

                        else {
                            if (x[10] <= -0.35620908439159393) {
                                if (x[34] <= -1.7812086343765259) {
                                    if (x[10] <= -1.1389349400997162) {
                                        votes[2] += 1;
                                    }

                                    else {
                                        votes[1] += 1;
                                    }
                                }

                                else {
                                    if (x[70] <= -1.271826982498169) {
                                        votes[2] += 1;
                                    }

                                    else {
                                        votes[2] += 1;
                                    }
                                }
                            }

                            else {
                                votes[1] += 1;
                            }
                        }

                        // tree #2
                        if (x[71] <= -0.8244670629501343) {
                            votes[0] += 1;
                        }

                        else {
                            if (x[33] <= -0.22162124142050743) {
                                if (x[2] <= -0.8872354626655579) {
                                    if (x[31] <= -1.6717740297317505) {
                                        votes[2] += 1;
                                    }

                                    else {
                                        votes[1] += 1;
                                    }
                                }

                                else {
                                    votes[2] += 1;
                                }
                            }

                            else {
                                votes[1] += 1;
                            }
                        }

                        // tree #3
                        if (x[21] <= 0.6387364119291306) {
                            if (x[20] <= -0.4576041102409363) {
                                if (x[18] <= -1.1308915615081787) {
                                    if (x[31] <= -1.6480351686477661) {
                                        votes[2] += 1;
                                    }

                                    else {
                                        votes[1] += 1;
                                    }
                                }

                                else {
                                    votes[2] += 1;
                                }
                            }

                            else {
                                votes[1] += 1;
                            }
                        }

                        else {
                            votes[0] += 1;
                        }

                        // tree #4
                        if (x[29] <= -0.4946177005767822) {
                            if (x[34] <= -1.2390928268432617) {
                                votes[1] += 1;
                            }

                            else {
                                if (x[69] <= -0.45947670191526413) {
                                    votes[2] += 1;
                                }

                                else {
                                    if (x[43] <= -0.6109694242477417) {
                                        votes[1] += 1;
                                    }

                                    else {
                                        votes[0] += 1;
                                    }
                                }
                            }
                        }

                        else {
                            if (x[35] <= -0.6727491617202759) {
                                votes[0] += 1;
                            }

                            else {
                                if (x[28] <= 0.01763145439326763) {
                                    if (x[14] <= 0.21880880743265152) {
                                        votes[1] += 1;
                                    }

                                    else {
                                        votes[2] += 1;
                                    }
                                }

                                else {
                                    if (x[19] <= -0.5766920894384384) {
                                        votes[2] += 1;
                                    }

                                    else {
                                        votes[1] += 1;
                                    }
                                }
                            }
                        }

                        // tree #5
                        if (x[12] <= -0.7469633221626282) {
                            votes[0] += 1;
                        }

                        else {
                            if (x[71] <= 0.42403897643089294) {
                                votes[1] += 1;
                            }

                            else {
                                if (x[16] <= -1.2246001362800598) {
                                    if (x[69] <= -1.121330738067627) {
                                        votes[2] += 1;
                                    }

                                    else {
                                        votes[1] += 1;
                                    }
                                }

                                else {
                                    if (x[71] <= 1.076490581035614) {
                                        votes[2] += 1;
                                    }

                                    else {
                                        votes[2] += 1;
                                    }
                                }
                            }
                        }

                        // tree #6
                        if (x[10] <= 0.8548894226551056) {
                            if (x[33] <= -0.21716731414198875) {
                                if (x[71] <= 1.0192492008209229) {
                                    if (x[23] <= -0.4995012730360031) {
                                        votes[1] += 1;
                                    }

                                    else {
                                        votes[2] += 1;
                                    }
                                }

                                else {
                                    if (x[69] <= -1.014552354812622) {
                                        votes[2] += 1;
                                    }

                                    else {
                                        votes[2] += 1;
                                    }
                                }
                            }

                            else {
                                votes[1] += 1;
                            }
                        }

                        else {
                            votes[0] += 1;
                        }

                        // tree #7
                        if (x[15] <= -0.9252701103687286) {
                            votes[0] += 1;
                        }

                        else {
                            if (x[35] <= 0.5252858102321625) {
                                votes[1] += 1;
                            }

                            else {
                                if (x[33] <= -0.9453936219215393) {
                                    if (x[13] <= 1.0742430686950684) {
                                        votes[2] += 1;
                                    }

                                    else {
                                        votes[2] += 1;
                                    }
                                }

                                else {
                                    if (x[34] <= -1.1697525382041931) {
                                        votes[1] += 1;
                                    }

                                    else {
                                        votes[2] += 1;
                                    }
                                }
                            }
                        }

                        // tree #8
                        if (x[15] <= -0.8919261991977692) {
                            votes[0] += 1;
                        }

                        else {
                            if (x[20] <= -0.4877684563398361) {
                                if (x[16] <= -1.7588181495666504) {
                                    if (x[60] <= 0.20196634531021118) {
                                        votes[1] += 1;
                                    }

                                    else {
                                        votes[2] += 1;
                                    }
                                }

                                else {
                                    if (x[2] <= -0.8872354626655579) {
                                        votes[2] += 1;
                                    }

                                    else {
                                        votes[2] += 1;
                                    }
                                }
                            }

                            else {
                                votes[1] += 1;
                            }
                        }

                        // tree #9
                        if (x[35] <= -0.6809549033641815) {
                            votes[0] += 1;
                        }

                        else {
                            if (x[21] <= -0.5061203688383102) {
                                if (x[18] <= -1.1937234997749329) {
                                    if (x[60] <= -0.31036847829818726) {
                                        votes[1] += 1;
                                    }

                                    else {
                                        votes[2] += 1;
                                    }
                                }

                                else {
                                    if (x[11] <= 1.2395750880241394) {
                                        votes[2] += 1;
                                    }

                                    else {
                                        votes[1] += 1;
                                    }
                                }
                            }

                            else {
                                votes[1] += 1;
                            }
                        }

                        // tree #10
                        if (x[15] <= -0.9341618418693542) {
                            votes[0] += 1;
                        }

                        else {
                            if (x[70] <= -1.2796937823295593) {
                                if (x[31] <= -1.7726622819900513) {
                                    votes[2] += 1;
                                }

                                else {
                                    votes[1] += 1;
                                }
                            }

                            else {
                                if (x[14] <= 0.21880880743265152) {
                                    votes[1] += 1;
                                }

                                else {
                                    votes[2] += 1;
                                }
                            }
                        }

                        // tree #11
                        if (x[71] <= -0.8070751130580902) {
                            votes[0] += 1;
                        }

                        else {
                            if (x[71] <= 0.4282604455947876) {
                                votes[1] += 1;
                            }

                            else {
                                if (x[10] <= -0.9231735467910767) {
                                    if (x[19] <= -0.9759537577629089) {
                                        votes[2] += 1;
                                    }

                                    else {
                                        votes[2] += 1;
                                    }
                                }

                                else {
                                    if (x[16] <= -1.2246001362800598) {
                                        votes[1] += 1;
                                    }

                                    else {
                                        votes[2] += 1;
                                    }
                                }
                            }
                        }

                        // tree #12
                        if (x[0] <= 0.6226966083049774) {
                            if (x[55] <= -0.6848499178886414) {
                                if (x[15] <= 0.9886718690395355) {
                                    if (x[57] <= -0.5481960475444794) {
                                        votes[1] += 1;
                                    }

                                    else {
                                        votes[2] += 1;
                                    }
                                }

                                else {
                                    if (x[34] <= -1.0562864243984222) {
                                        votes[1] += 1;
                                    }

                                    else {
                                        votes[2] += 1;
                                    }
                                }
                            }

                            else {
                                if (x[40] <= -0.34450043737888336) {
                                    if (x[14] <= 0.945858508348465) {
                                        votes[1] += 1;
                                    }

                                    else {
                                        votes[2] += 1;
                                    }
                                }

                                else {
                                    if (x[10] <= -0.2695898041129112) {
                                        votes[2] += 1;
                                    }

                                    else {
                                        votes[1] += 1;
                                    }
                                }
                            }
                        }

                        else {
                            if (x[20] <= 0.5398298129439354) {
                                votes[1] += 1;
                            }

                            else {
                                votes[0] += 1;
                            }
                        }

                        // tree #13
                        if (x[19] <= 0.6681855171918869) {
                            if (x[13] <= 0.22132302820682526) {
                                votes[1] += 1;
                            }

                            else {
                                if (x[11] <= 1.2271915078163147) {
                                    votes[2] += 1;
                                }

                                else {
                                    if (x[33] <= -1.2593994736671448) {
                                        votes[2] += 1;
                                    }

                                    else {
                                        votes[1] += 1;
                                    }
                                }
                            }
                        }

                        else {
                            votes[0] += 1;
                        }

                        // tree #14
                        if (x[35] <= -0.6727491617202759) {
                            votes[0] += 1;
                        }

                        else {
                            if (x[2] <= 0.8794168829917908) {
                                if (x[17] <= -1.410796344280243) {
                                    if (x[13] <= 1.1722286939620972) {
                                        votes[1] += 1;
                                    }

                                    else {
                                        votes[2] += 1;
                                    }
                                }

                                else {
                                    if (x[13] <= 0.22132302820682526) {
                                        votes[1] += 1;
                                    }

                                    else {
                                        votes[2] += 1;
                                    }
                                }
                            }

                            else {
                                votes[1] += 1;
                            }
                        }

                        // tree #15
                        if (x[15] <= -0.9030408263206482) {
                            votes[0] += 1;
                        }

                        else {
                            if (x[19] <= -0.4558897763490677) {
                                if (x[34] <= -1.2453965544700623) {
                                    if (x[31] <= -1.7667273879051208) {
                                        votes[2] += 1;
                                    }

                                    else {
                                        votes[1] += 1;
                                    }
                                }

                                else {
                                    votes[2] += 1;
                                }
                            }

                            else {
                                votes[1] += 1;
                            }
                        }

                        // tree #16
                        if (x[69] <= 0.8948870301246643) {
                            if (x[33] <= -0.21716731414198875) {
                                if (x[18] <= -1.664962887763977) {
                                    if (x[41] <= -0.31694766879081726) {
                                        votes[1] += 1;
                                    }

                                    else {
                                        votes[2] += 1;
                                    }
                                }

                                else {
                                    if (x[20] <= -0.9844745695590973) {
                                        votes[2] += 1;
                                    }

                                    else {
                                        votes[2] += 1;
                                    }
                                }
                            }

                            else {
                                votes[1] += 1;
                            }
                        }

                        else {
                            votes[0] += 1;
                        }

                        // tree #17
                        if (x[35] <= -0.6645434200763702) {
                            votes[0] += 1;
                        }

                        else {
                            if (x[33] <= -0.9498476386070251) {
                                if (x[12] <= 1.0778604745864868) {
                                    if (x[19] <= -0.9759537577629089) {
                                        votes[1] += 1;
                                    }

                                    else {
                                        votes[2] += 1;
                                    }
                                }

                                else {
                                    votes[2] += 1;
                                }
                            }

                            else {
                                if (x[10] <= -0.33416056632995605) {
                                    if (x[31] <= -0.8290586471557617) {
                                        votes[1] += 1;
                                    }

                                    else {
                                        votes[2] += 1;
                                    }
                                }

                                else {
                                    votes[1] += 1;
                                }
                            }
                        }

                        // tree #18
                        if (x[69] <= 0.8742202520370483) {
                            if (x[0] <= -0.30871471762657166) {
                                if (x[30] <= 0.3981444239616394) {
                                    if (x[67] <= -0.3444790244102478) {
                                        votes[2] += 1;
                                    }

                                    else {
                                        votes[2] += 1;
                                    }
                                }

                                else {
                                    if (x[69] <= -0.9501408338546753) {
                                        votes[2] += 1;
                                    }

                                    else {
                                        votes[1] += 1;
                                    }
                                }
                            }

                            else {
                                votes[1] += 1;
                            }
                        }

                        else {
                            votes[0] += 1;
                        }

                        // tree #19
                        if (x[19] <= 0.6436155140399933) {
                            if (x[21] <= -0.5061203688383102) {
                                if (x[34] <= -1.2390928268432617) {
                                    if (x[58] <= -0.04048742726445198) {
                                        votes[1] += 1;
                                    }

                                    else {
                                        votes[2] += 1;
                                    }
                                }

                                else {
                                    votes[2] += 1;
                                }
                            }

                            else {
                                votes[1] += 1;
                            }
                        }

                        else {
                            votes[0] += 1;
                        }

                        // tree #20
                        if (x[33] <= 0.9430952370166779) {
                            if (x[21] <= -0.5061203688383102) {
                                if (x[21] <= -0.8516589999198914) {
                                    if (x[17] <= -1.8430429697036743) {
                                        votes[1] += 1;
                                    }

                                    else {
                                        votes[2] += 1;
                                    }
                                }

                                else {
                                    votes[2] += 1;
                                }
                            }

                            else {
                                votes[1] += 1;
                            }
                        }

                        else {
                            votes[0] += 1;
                        }

                        // tree #21
                        if (x[71] <= -0.8244670629501343) {
                            votes[0] += 1;
                        }

                        else {
                            if (x[10] <= -0.3987317234277725) {
                                if (x[38] <= -0.3098573833703995) {
                                    if (x[24] <= 0.5134766697883606) {
                                        votes[2] += 1;
                                    }

                                    else {
                                        votes[2] += 1;
                                    }
                                }

                                else {
                                    if (x[33] <= -0.8028661608695984) {
                                        votes[2] += 1;
                                    }

                                    else {
                                        votes[2] += 1;
                                    }
                                }
                            }

                            else {
                                votes[1] += 1;
                            }
                        }

                        // tree #22
                        if (x[19] <= 0.6599953919649124) {
                            if (x[31] <= 0.9572616517543793) {
                                if (x[2] <= -0.7862838804721832) {
                                    if (x[21] <= -0.9952865242958069) {
                                        votes[2] += 1;
                                    }

                                    else {
                                        votes[1] += 1;
                                    }
                                }

                                else {
                                    if (x[38] <= -0.725785493850708) {
                                        votes[1] += 1;
                                    }

                                    else {
                                        votes[2] += 1;
                                    }
                                }
                            }

                            else {
                                if (x[33] <= -0.3908726843073964) {
                                    votes[2] += 1;
                                }

                                else {
                                    votes[1] += 1;
                                }
                            }
                        }

                        else {
                            votes[0] += 1;
                        }

                        // tree #23
                        if (x[31] <= 0.8445036113262177) {
                            if (x[15] <= -0.9341618418693542) {
                                votes[0] += 1;
                            }

                            else {
                                if (x[16] <= -1.243454933166504) {
                                    if (x[14] <= 1.2313258647918701) {
                                        votes[1] += 1;
                                    }

                                    else {
                                        votes[2] += 1;
                                    }
                                }

                                else {
                                    if (x[13] <= 0.09884103387594223) {
                                        votes[1] += 1;
                                    }

                                    else {
                                        votes[2] += 1;
                                    }
                                }
                            }
                        }

                        else {
                            if (x[12] <= 0.4739726185798645) {
                                votes[1] += 1;
                            }

                            else {
                                votes[2] += 1;
                            }
                        }

                        // tree #24
                        if (x[21] <= 0.6553887575864792) {
                            if (x[19] <= -0.5173147171735764) {
                                if (x[23] <= -0.4594249576330185) {
                                    if (x[69] <= -0.9673631489276886) {
                                        votes[2] += 1;
                                    }

                                    else {
                                        votes[1] += 1;
                                    }
                                }

                                else {
                                    if (x[11] <= 1.2519594430923462) {
                                        votes[2] += 1;
                                    }

                                    else {
                                        votes[2] += 1;
                                    }
                                }
                            }

                            else {
                                votes[1] += 1;
                            }
                        }

                        else {
                            votes[0] += 1;
                        }

                        // tree #25
                        if (x[53] <= -0.38787470757961273) {
                            if (x[34] <= -1.251700222492218) {
                                if (x[42] <= -0.25743043422698975) {
                                    votes[1] += 1;
                                }

                                else {
                                    votes[2] += 1;
                                }
                            }

                            else {
                                if (x[21] <= -0.5560777336359024) {
                                    votes[2] += 1;
                                }

                                else {
                                    if (x[10] <= 0.647002562880516) {
                                        votes[1] += 1;
                                    }

                                    else {
                                        votes[0] += 1;
                                    }
                                }
                            }
                        }

                        else {
                            if (x[70] <= -0.10360560566186905) {
                                if (x[33] <= -0.9431666135787964) {
                                    votes[2] += 1;
                                }

                                else {
                                    if (x[13] <= 0.13224530965089798) {
                                        votes[1] += 1;
                                    }

                                    else {
                                        votes[1] += 1;
                                    }
                                }
                            }

                            else {
                                if (x[21] <= 0.5783711224794388) {
                                    if (x[31] <= 1.129365086555481) {
                                        votes[2] += 1;
                                    }

                                    else {
                                        votes[1] += 1;
                                    }
                                }

                                else {
                                    votes[0] += 1;
                                }
                            }
                        }

                        // tree #26
                        if (x[40] <= -0.5084894448518753) {
                            if (x[18] <= -1.1497411131858826) {
                                votes[1] += 1;
                            }

                            else {
                                if (x[41] <= -0.31694766879081726) {
                                    if (x[0] <= -0.20522594079375267) {
                                        votes[2] += 1;
                                    }

                                    else {
                                        votes[1] += 1;
                                    }
                                }

                                else {
                                    votes[0] += 1;
                                }
                            }
                        }

                        else {
                            if (x[12] <= -0.7528120279312134) {
                                votes[0] += 1;
                            }

                            else {
                                if (x[3] <= 2.5907747745513916) {
                                    if (x[10] <= -0.33416056632995605) {
                                        votes[2] += 1;
                                    }

                                    else {
                                        votes[1] += 1;
                                    }
                                }

                                else {
                                    votes[1] += 1;
                                }
                            }
                        }

                        // tree #27
                        if (x[10] <= 0.8548894226551056) {
                            if (x[12] <= 0.45203980803489685) {
                                votes[1] += 1;
                            }

                            else {
                                if (x[33] <= -0.9476206004619598) {
                                    if (x[0] <= -1.0331484377384186) {
                                        votes[2] += 1;
                                    }

                                    else {
                                        votes[2] += 1;
                                    }
                                }

                                else {
                                    if (x[16] <= -1.2246001362800598) {
                                        votes[1] += 1;
                                    }

                                    else {
                                        votes[2] += 1;
                                    }
                                }
                            }
                        }

                        else {
                            votes[0] += 1;
                        }

                        // tree #28
                        if (x[31] <= 0.8504385054111481) {
                            if (x[0] <= 0.41571907699108124) {
                                if (x[16] <= -1.243454933166504) {
                                    if (x[31] <= -1.7489241361618042) {
                                        votes[2] += 1;
                                    }

                                    else {
                                        votes[1] += 1;
                                    }
                                }

                                else {
                                    if (x[20] <= -0.42140692472457886) {
                                        votes[2] += 1;
                                    }

                                    else {
                                        votes[1] += 1;
                                    }
                                }
                            }

                            else {
                                if (x[10] <= 0.48321271827444434) {
                                    votes[1] += 1;
                                }

                                else {
                                    votes[0] += 1;
                                }
                            }
                        }

                        else {
                            if (x[64] <= 0.48774194717407227) {
                                if (x[71] <= 0.5059331655502319) {
                                    votes[1] += 1;
                                }

                                else {
                                    votes[2] += 1;
                                }
                            }

                            else {
                                if (x[35] <= 0.5252856761217117) {
                                    votes[1] += 1;
                                }

                                else {
                                    votes[2] += 1;
                                }
                            }
                        }

                        // tree #29
                        if (x[13] <= -0.9300075471401215) {
                            votes[0] += 1;
                        }

                        else {
                            if (x[31] <= 0.8563733994960785) {
                                if (x[12] <= 0.31459300965070724) {
                                    votes[1] += 1;
                                }

                                else {
                                    if (x[17] <= -1.8059933185577393) {
                                        votes[1] += 1;
                                    }

                                    else {
                                        votes[2] += 1;
                                    }
                                }
                            }

                            else {
                                if (x[13] <= 0.46406008303165436) {
                                    votes[1] += 1;
                                }

                                else {
                                    votes[2] += 1;
                                }
                            }
                        }

                        // tree #30
                        if (x[14] <= -0.9453628659248352) {
                            votes[0] += 1;
                        }

                        else {
                            if (x[2] <= 0.8541789650917053) {
                                if (x[13] <= 0.25027334690093994) {
                                    votes[1] += 1;
                                }

                                else {
                                    if (x[58] <= -0.5545899271965027) {
                                        votes[2] += 1;
                                    }

                                    else {
                                        votes[2] += 1;
                                    }
                                }
                            }

                            else {
                                if (x[12] <= 0.41256053000688553) {
                                    votes[1] += 1;
                                }

                                else {
                                    votes[2] += 1;
                                }
                            }
                        }

                        // tree #31
                        if (x[33] <= 0.9430952370166779) {
                            if (x[0] <= -0.30871471762657166) {
                                if (x[71] <= 1.0788546800613403) {
                                    if (x[31] <= -0.7400388121604919) {
                                        votes[1] += 1;
                                    }

                                    else {
                                        votes[2] += 1;
                                    }
                                }

                                else {
                                    votes[2] += 1;
                                }
                            }

                            else {
                                votes[1] += 1;
                            }
                        }

                        else {
                            votes[0] += 1;
                        }

                        // tree #32
                        if (x[53] <= -0.38787470757961273) {
                            if (x[17] <= -1.3058221340179443) {
                                votes[1] += 1;
                            }

                            else {
                                if (x[69] <= -0.5357716232538223) {
                                    if (x[60] <= -0.43499045073986053) {
                                        votes[2] += 1;
                                    }

                                    else {
                                        votes[2] += 1;
                                    }
                                }

                                else {
                                    if (x[71] <= -0.68262979388237) {
                                        votes[0] += 1;
                                    }

                                    else {
                                        votes[1] += 1;
                                    }
                                }
                            }
                        }

                        else {
                            if (x[14] <= -0.9409023523330688) {
                                votes[0] += 1;
                            }

                            else {
                                if (x[13] <= 0.17455725278705359) {
                                    votes[1] += 1;
                                }

                                else {
                                    if (x[53] <= -0.2830330431461334) {
                                        votes[2] += 1;
                                    }

                                    else {
                                        votes[2] += 1;
                                    }
                                }
                            }
                        }

                        // tree #33
                        if (x[29] <= -0.4946177005767822) {
                            if (x[14] <= 0.9324771165847778) {
                                if (x[72] <= -0.301541805267334) {
                                    if (x[20] <= -0.5299984514713287) {
                                        votes[2] += 1;
                                    }

                                    else {
                                        votes[1] += 1;
                                    }
                                }

                                else {
                                    if (x[67] <= 0.15572501718997955) {
                                        votes[1] += 1;
                                    }

                                    else {
                                        votes[1] += 1;
                                    }
                                }
                            }

                            else {
                                if (x[65] <= 0.16508444398641586) {
                                    votes[2] += 1;
                                }

                                else {
                                    if (x[74] <= -0.33004315197467804) {
                                        votes[1] += 1;
                                    }

                                    else {
                                        votes[2] += 1;
                                    }
                                }
                            }
                        }

                        else {
                            if (x[19] <= 0.6681855171918869) {
                                if (x[13] <= 0.22132302820682526) {
                                    votes[1] += 1;
                                }

                                else {
                                    if (x[62] <= -0.5875363051891327) {
                                        votes[1] += 1;
                                    }

                                    else {
                                        votes[2] += 1;
                                    }
                                }
                            }

                            else {
                                votes[0] += 1;
                            }
                        }

                        // tree #34
                        if (x[12] <= -0.7484254240989685) {
                            votes[0] += 1;
                        }

                        else {
                            if (x[20] <= -0.4576041102409363) {
                                if (x[70] <= -1.4881641864776611) {
                                    if (x[69] <= -1.0841305255889893) {
                                        votes[2] += 1;
                                    }

                                    else {
                                        votes[1] += 1;
                                    }
                                }

                                else {
                                    if (x[70] <= -1.2796937823295593) {
                                        votes[2] += 1;
                                    }

                                    else {
                                        votes[2] += 1;
                                    }
                                }
                            }

                            else {
                                votes[1] += 1;
                            }
                        }

                        // tree #35
                        if (x[15] <= -0.9341618418693542) {
                            votes[0] += 1;
                        }

                        else {
                            if (x[28] <= -0.049481794238090515) {
                                if (x[12] <= 0.3189796321094036) {
                                    votes[1] += 1;
                                }

                                else {
                                    if (x[11] <= 1.7658843994140625) {
                                        votes[2] += 1;
                                    }

                                    else {
                                        votes[1] += 1;
                                    }
                                }
                            }

                            else {
                                if (x[21] <= -0.518609806895256) {
                                    if (x[11] <= 1.2271915078163147) {
                                        votes[2] += 1;
                                    }

                                    else {
                                        votes[1] += 1;
                                    }
                                }

                                else {
                                    votes[1] += 1;
                                }
                            }
                        }

                        // tree #36
                        if (x[69] <= 0.9002259969711304) {
                            if (x[14] <= 0.21880880743265152) {
                                votes[1] += 1;
                            }

                            else {
                                if (x[17] <= -1.8553929328918457) {
                                    if (x[70] <= -1.5392985343933105) {
                                        votes[2] += 1;
                                    }

                                    else {
                                        votes[1] += 1;
                                    }
                                }

                                else {
                                    if (x[0] <= -1.2401260137557983) {
                                        votes[2] += 1;
                                    }

                                    else {
                                        votes[2] += 1;
                                    }
                                }
                            }
                        }

                        else {
                            votes[0] += 1;
                        }

                        // tree #37
                        if (x[38] <= -0.4485001116991043) {
                            if (x[15] <= -0.7007543444633484) {
                                votes[0] += 1;
                            }

                            else {
                                if (x[31] <= 0.9157188236713409) {
                                    if (x[43] <= -0.2935848534107208) {
                                        votes[1] += 1;
                                    }

                                    else {
                                        votes[2] += 1;
                                    }
                                }

                                else {
                                    votes[1] += 1;
                                }
                            }
                        }

                        else {
                            if (x[19] <= 0.6620429903268814) {
                                if (x[11] <= 1.2395750880241394) {
                                    if (x[71] <= 0.4181291162967682) {
                                        votes[1] += 1;
                                    }

                                    else {
                                        votes[2] += 1;
                                    }
                                }

                                else {
                                    if (x[30] <= -1.0446395576000214) {
                                        votes[2] += 1;
                                    }

                                    else {
                                        votes[1] += 1;
                                    }
                                }
                            }

                            else {
                                votes[0] += 1;
                            }
                        }

                        // tree #38
                        if (x[12] <= -0.7469633221626282) {
                            votes[0] += 1;
                        }

                        else {
                            if (x[13] <= 0.172330342233181) {
                                votes[1] += 1;
                            }

                            else {
                                if (x[71] <= 0.8797758519649506) {
                                    votes[2] += 1;
                                }

                                else {
                                    if (x[16] <= -1.243454933166504) {
                                        votes[1] += 1;
                                    }

                                    else {
                                        votes[2] += 1;
                                    }
                                }
                            }
                        }

                        // tree #39
                        if (x[69] <= 0.8948870301246643) {
                            if (x[2] <= 0.8541789650917053) {
                                if (x[70] <= -1.2875605821609497) {
                                    if (x[40] <= 0.22946107387542725) {
                                        votes[1] += 1;
                                    }

                                    else {
                                        votes[2] += 1;
                                    }
                                }

                                else {
                                    if (x[12] <= 0.3906273990869522) {
                                        votes[1] += 1;
                                    }

                                    else {
                                        votes[2] += 1;
                                    }
                                }
                            }

                            else {
                                if (x[19] <= -0.5255046039819717) {
                                    votes[2] += 1;
                                }

                                else {
                                    votes[1] += 1;
                                }
                            }
                        }

                        else {
                            votes[0] += 1;
                        }

                        // tree #40
                        if (x[20] <= 0.6624980866909027) {
                            if (x[69] <= -0.37732622027397156) {
                                if (x[34] <= -1.251700222492218) {
                                    if (x[31] <= -1.7726622819900513) {
                                        votes[2] += 1;
                                    }

                                    else {
                                        votes[1] += 1;
                                    }
                                }

                                else {
                                    votes[2] += 1;
                                }
                            }

                            else {
                                votes[1] += 1;
                            }
                        }

                        else {
                            votes[0] += 1;
                        }

                        // tree #41
                        if (x[10] <= 0.8548894226551056) {
                            if (x[14] <= 0.21880880743265152) {
                                votes[1] += 1;
                            }

                            else {
                                if (x[40] <= -0.5084894448518753) {
                                    if (x[32] <= -0.5247514545917511) {
                                        votes[2] += 1;
                                    }

                                    else {
                                        votes[1] += 1;
                                    }
                                }

                                else {
                                    if (x[37] <= -0.5448228716850281) {
                                        votes[1] += 1;
                                    }

                                    else {
                                        votes[2] += 1;
                                    }
                                }
                            }
                        }

                        else {
                            votes[0] += 1;
                        }

                        // tree #42
                        if (x[21] <= 0.6428994685411453) {
                            if (x[12] <= 0.3906273990869522) {
                                votes[1] += 1;
                            }

                            else {
                                if (x[23] <= -0.4995012730360031) {
                                    if (x[20] <= -1.020671784877777) {
                                        votes[2] += 1;
                                    }

                                    else {
                                        votes[1] += 1;
                                    }
                                }

                                else {
                                    if (x[11] <= 1.7782687544822693) {
                                        votes[2] += 1;
                                    }

                                    else {
                                        votes[1] += 1;
                                    }
                                }
                            }
                        }

                        else {
                            votes[0] += 1;
                        }

                        // tree #43
                        if (x[10] <= 0.8643389046192169) {
                            if (x[19] <= -0.5173147171735764) {
                                if (x[16] <= -1.7588181495666504) {
                                    if (x[56] <= -0.13021675357595086) {
                                        votes[1] += 1;
                                    }

                                    else {
                                        votes[2] += 1;
                                    }
                                }

                                else {
                                    if (x[67] <= -0.057903802022337914) {
                                        votes[2] += 1;
                                    }

                                    else {
                                        votes[2] += 1;
                                    }
                                }
                            }

                            else {
                                votes[1] += 1;
                            }
                        }

                        else {
                            votes[0] += 1;
                        }

                        // tree #44
                        if (x[35] <= -0.6706977486610413) {
                            votes[0] += 1;
                        }

                        else {
                            if (x[21] <= -0.5061203688383102) {
                                if (x[21] <= -0.9848787188529968) {
                                    votes[2] += 1;
                                }

                                else {
                                    if (x[17] <= -0.9785496294498444) {
                                        votes[1] += 1;
                                    }

                                    else {
                                        votes[2] += 1;
                                    }
                                }
                            }

                            else {
                                votes[1] += 1;
                            }
                        }

                        // tree #45
                        if (x[10] <= 0.8643389046192169) {
                            if (x[33] <= -0.9476206004619598) {
                                if (x[2] <= -0.880925863981247) {
                                    if (x[2] <= -1.1585428714752197) {
                                        votes[2] += 1;
                                    }

                                    else {
                                        votes[1] += 1;
                                    }
                                }

                                else {
                                    votes[2] += 1;
                                }
                            }

                            else {
                                if (x[19] <= -0.5234572440385818) {
                                    if (x[18] <= -1.1937234103679657) {
                                        votes[1] += 1;
                                    }

                                    else {
                                        votes[2] += 1;
                                    }
                                }

                                else {
                                    votes[1] += 1;
                                }
                            }
                        }

                        else {
                            votes[0] += 1;
                        }

                        // tree #46
                        if (x[21] <= 0.6428994685411453) {
                            if (x[35] <= 0.5540058016777039) {
                                votes[1] += 1;
                            }

                            else {
                                if (x[31] <= -0.7697118520736694) {
                                    if (x[33] <= -1.0767861008644104) {
                                        votes[2] += 1;
                                    }

                                    else {
                                        votes[1] += 1;
                                    }
                                }

                                else {
                                    votes[2] += 1;
                                }
                            }
                        }

                        else {
                            votes[0] += 1;
                        }

                        // tree #47
                        if (x[14] <= -0.929751455783844) {
                            votes[0] += 1;
                        }

                        else {
                            if (x[69] <= -0.39472077786922455) {
                                if (x[11] <= 1.7658843994140625) {
                                    if (x[34] <= -1.2390928268432617) {
                                        votes[2] += 1;
                                    }

                                    else {
                                        votes[2] += 1;
                                    }
                                }

                                else {
                                    if (x[19] <= -1.0414736866950989) {
                                        votes[2] += 1;
                                    }

                                    else {
                                        votes[1] += 1;
                                    }
                                }
                            }

                            else {
                                votes[1] += 1;
                            }
                        }

                        // tree #48
                        if (x[0] <= 0.6226966083049774) {
                            if (x[10] <= -0.35620908439159393) {
                                if (x[16] <= -1.243454933166504) {
                                    if (x[69] <= -1.119436264038086) {
                                        votes[2] += 1;
                                    }

                                    else {
                                        votes[1] += 1;
                                    }
                                }

                                else {
                                    if (x[70] <= -1.271826982498169) {
                                        votes[1] += 1;
                                    }

                                    else {
                                        votes[2] += 1;
                                    }
                                }
                            }

                            else {
                                if (x[10] <= 0.8548894226551056) {
                                    votes[1] += 1;
                                }

                                else {
                                    votes[0] += 1;
                                }
                            }
                        }

                        else {
                            if (x[19] <= 0.6129030883312225) {
                                votes[1] += 1;
                            }

                            else {
                                votes[0] += 1;
                            }
                        }

                        // tree #49
                        if (x[71] <= -0.8118030726909637) {
                            votes[0] += 1;
                        }

                        else {
                            if (x[21] <= -0.5061203688383102) {
                                if (x[20] <= -1.0186607241630554) {
                                    votes[2] += 1;
                                }

                                else {
                                    if (x[34] <= -1.232789158821106) {
                                        votes[1] += 1;
                                    }

                                    else {
                                        votes[2] += 1;
                                    }
                                }
                            }

                            else {
                                votes[1] += 1;
                            }
                        }

                        // tree #50
                        if (x[13] <= -0.9411422610282898) {
                            votes[0] += 1;
                        }

                        else {
                            if (x[20] <= -0.491790309548378) {
                                if (x[23] <= -0.4794631153345108) {
                                    if (x[12] <= 1.1071047186851501) {
                                        votes[1] += 1;
                                    }

                                    else {
                                        votes[2] += 1;
                                    }
                                }

                                else {
                                    if (x[29] <= -0.7772373557090759) {
                                        votes[1] += 1;
                                    }

                                    else {
                                        votes[2] += 1;
                                    }
                                }
                            }

                            else {
                                votes[1] += 1;
                            }
                        }

                        // tree #51
                        if (x[19] <= 0.6436155140399933) {
                            if (x[24] <= 0.5134766697883606) {
                                if (x[19] <= -0.5234572440385818) {
                                    if (x[2] <= -1.789489984512329) {
                                        votes[1] += 1;
                                    }

                                    else {
                                        votes[2] += 1;
                                    }
                                }

                                else {
                                    votes[1] += 1;
                                }
                            }

                            else {
                                if (x[33] <= -0.7694612145423889) {
                                    if (x[20] <= -0.9462664127349854) {
                                        votes[2] += 1;
                                    }

                                    else {
                                        votes[2] += 1;
                                    }
                                }

                                else {
                                    if (x[57] <= 4.49928805232048) {
                                        votes[1] += 1;
                                    }

                                    else {
                                        votes[2] += 1;
                                    }
                                }
                            }
                        }

                        else {
                            votes[0] += 1;
                        }

                        // tree #52
                        if (x[34] <= 0.1288037858903408) {
                            if (x[2] <= -0.9314017593860626) {
                                if (x[10] <= -1.1578338742256165) {
                                    votes[2] += 1;
                                }

                                else {
                                    votes[1] += 1;
                                }
                            }

                            else {
                                if (x[33] <= -0.10359074175357819) {
                                    votes[2] += 1;
                                }

                                else {
                                    if (x[20] <= 0.9520756900310516) {
                                        votes[1] += 1;
                                    }

                                    else {
                                        votes[0] += 1;
                                    }
                                }
                            }
                        }

                        else {
                            if (x[72] <= -0.301541805267334) {
                                if (x[42] <= -0.559135377407074) {
                                    votes[2] += 1;
                                }

                                else {
                                    if (x[15] <= -0.7496587336063385) {
                                        votes[0] += 1;
                                    }

                                    else {
                                        votes[1] += 1;
                                    }
                                }
                            }

                            else {
                                if (x[31] <= 1.1174960136413574) {
                                    if (x[65] <= -0.24670575559139252) {
                                        votes[0] += 1;
                                    }

                                    else {
                                        votes[0] += 1;
                                    }
                                }

                                else {
                                    votes[1] += 1;
                                }
                            }
                        }

                        // tree #53
                        if (x[19] <= 0.6784229725599289) {
                            if (x[2] <= 0.8794168829917908) {
                                if (x[19] <= -0.5234571248292923) {
                                    if (x[2] <= -1.8021090030670166) {
                                        votes[1] += 1;
                                    }

                                    else {
                                        votes[2] += 1;
                                    }
                                }

                                else {
                                    votes[1] += 1;
                                }
                            }

                            else {
                                if (x[35] <= 0.5273372083902359) {
                                    votes[1] += 1;
                                }

                                else {
                                    votes[2] += 1;
                                }
                            }
                        }

                        else {
                            votes[0] += 1;
                        }

                        // tree #54
                        if (x[53] <= -0.38787470757961273) {
                            if (x[59] <= -0.3854347914457321) {
                                if (x[15] <= 0.4573917016386986) {
                                    if (x[13] <= -0.7095399647951126) {
                                        votes[0] += 1;
                                    }

                                    else {
                                        votes[1] += 1;
                                    }
                                }

                                else {
                                    if (x[23] <= -0.4794631153345108) {
                                        votes[2] += 1;
                                    }

                                    else {
                                        votes[2] += 1;
                                    }
                                }
                            }

                            else {
                                if (x[18] <= -1.11204195022583) {
                                    votes[1] += 1;
                                }

                                else {
                                    if (x[0] <= -0.20522592961788177) {
                                        votes[2] += 1;
                                    }

                                    else {
                                        votes[1] += 1;
                                    }
                                }
                            }
                        }

                        else {
                            if (x[12] <= -0.7484254240989685) {
                                votes[0] += 1;
                            }

                            else {
                                if (x[21] <= -0.47281551361083984) {
                                    if (x[29] <= -0.5652725994586945) {
                                        votes[1] += 1;
                                    }

                                    else {
                                        votes[2] += 1;
                                    }
                                }

                                else {
                                    votes[1] += 1;
                                }
                            }
                        }

                        // tree #55
                        if (x[18] <= 0.238844133913517) {
                            if (x[13] <= 0.9495341777801514) {
                                if (x[69] <= 0.932431697845459) {
                                    if (x[43] <= 2.1877856254577637) {
                                        votes[1] += 1;
                                    }

                                    else {
                                        votes[1] += 1;
                                    }
                                }

                                else {
                                    votes[0] += 1;
                                }
                            }

                            else {
                                if (x[18] <= -1.1308915615081787) {
                                    if (x[38] <= -0.3791787475347519) {
                                        votes[1] += 1;
                                    }

                                    else {
                                        votes[2] += 1;
                                    }
                                }

                                else {
                                    votes[2] += 1;
                                }
                            }
                        }

                        else {
                            if (x[31] <= 0.6249231696128845) {
                                if (x[35] <= -0.05321744084358215) {
                                    votes[0] += 1;
                                }

                                else {
                                    votes[2] += 1;
                                }
                            }

                            else {
                                if (x[21] <= -0.48946787416934967) {
                                    votes[2] += 1;
                                }

                                else {
                                    if (x[21] <= 0.6220838278532028) {
                                        votes[1] += 1;
                                    }

                                    else {
                                        votes[0] += 1;
                                    }
                                }
                            }
                        }

                        // tree #56
                        if (x[16] <= 0.46604256331920624) {
                            if (x[15] <= 1.017569899559021) {
                                if (x[20] <= 0.7328815907239914) {
                                    if (x[43] <= 1.4953103065490723) {
                                        votes[1] += 1;
                                    }

                                    else {
                                        votes[2] += 1;
                                    }
                                }

                                else {
                                    votes[0] += 1;
                                }
                            }

                            else {
                                if (x[12] <= 1.0778604745864868) {
                                    if (x[70] <= -1.081056833267212) {
                                        votes[1] += 1;
                                    }

                                    else {
                                        votes[2] += 1;
                                    }
                                }

                                else {
                                    votes[2] += 1;
                                }
                            }
                        }

                        else {
                            if (x[2] <= 0.6018001437187195) {
                                if (x[0] <= 0.10524654388427734) {
                                    votes[2] += 1;
                                }

                                else {
                                    votes[0] += 1;
                                }
                            }

                            else {
                                if (x[19] <= -0.4681747108697891) {
                                    votes[2] += 1;
                                }

                                else {
                                    if (x[71] <= -0.7675633281469345) {
                                        votes[0] += 1;
                                    }

                                    else {
                                        votes[1] += 1;
                                    }
                                }
                            }
                        }

                        // tree #57
                        if (x[17] <= 0.38611482083797455) {
                            if (x[10] <= -0.9310482442378998) {
                                if (x[17] <= -1.2255477905273438) {
                                    if (x[1] <= -0.3644251376390457) {
                                        votes[1] += 1;
                                    }

                                    else {
                                        votes[2] += 1;
                                    }
                                }

                                else {
                                    votes[2] += 1;
                                }
                            }

                            else {
                                if (x[55] <= 2.85669207572937) {
                                    if (x[19] <= 0.6620429903268814) {
                                        votes[1] += 1;
                                    }

                                    else {
                                        votes[0] += 1;
                                    }
                                }

                                else {
                                    if (x[62] <= 0.0700172632932663) {
                                        votes[2] += 1;
                                    }

                                    else {
                                        votes[0] += 1;
                                    }
                                }
                            }
                        }

                        else {
                            if (x[31] <= 0.690203458070755) {
                                if (x[42] <= 2.85245144367218) {
                                    if (x[10] <= 0.1194106936454773) {
                                        votes[2] += 1;
                                    }

                                    else {
                                        votes[0] += 1;
                                    }
                                }

                                else {
                                    if (x[70] <= 0.4864052087068558) {
                                        votes[2] += 1;
                                    }

                                    else {
                                        votes[0] += 1;
                                    }
                                }
                            }

                            else {
                                if (x[33] <= -0.36860278248786926) {
                                    votes[2] += 1;
                                }

                                else {
                                    if (x[73] <= -0.22160732001066208) {
                                        votes[0] += 1;
                                    }

                                    else {
                                        votes[1] += 1;
                                    }
                                }
                            }
                        }

                        // tree #58
                        if (x[23] <= -0.4594249576330185) {
                            if (x[11] <= 1.2829187512397766) {
                                if (x[43] <= -0.46670372784137726) {
                                    if (x[13] <= 0.3638475239276886) {
                                        votes[1] += 1;
                                    }

                                    else {
                                        votes[2] += 1;
                                    }
                                }

                                else {
                                    if (x[12] <= -0.5481044128537178) {
                                        votes[0] += 1;
                                    }

                                    else {
                                        votes[1] += 1;
                                    }
                                }
                            }

                            else {
                                if (x[15] <= 1.2376399040222168) {
                                    votes[1] += 1;
                                }

                                else {
                                    votes[2] += 1;
                                }
                            }
                        }

                        else {
                            if (x[14] <= -0.9409023523330688) {
                                votes[0] += 1;
                            }

                            else {
                                if (x[10] <= -0.2884887456893921) {
                                    if (x[7] <= 3.960849404335022) {
                                        votes[2] += 1;
                                    }

                                    else {
                                        votes[1] += 1;
                                    }
                                }

                                else {
                                    votes[1] += 1;
                                }
                            }
                        }

                        // tree #59
                        if (x[12] <= -0.7469633221626282) {
                            votes[0] += 1;
                        }

                        else {
                            if (x[69] <= -0.3807706832885742) {
                                if (x[29] <= -0.3886353224515915) {
                                    if (x[18] <= -1.1308915615081787) {
                                        votes[1] += 1;
                                    }

                                    else {
                                        votes[2] += 1;
                                    }
                                }

                                else {
                                    if (x[63] <= 2.648172616958618) {
                                        votes[2] += 1;
                                    }

                                    else {
                                        votes[1] += 1;
                                    }
                                }
                            }

                            else {
                                votes[1] += 1;
                            }
                        }

                        // tree #60
                        if (x[10] <= 0.8485898971557617) {
                            if (x[20] <= -0.4877684563398361) {
                                if (x[31] <= -0.8765349984169006) {
                                    if (x[18] <= -1.1308915615081787) {
                                        votes[1] += 1;
                                    }

                                    else {
                                        votes[2] += 1;
                                    }
                                }

                                else {
                                    votes[2] += 1;
                                }
                            }

                            else {
                                votes[1] += 1;
                            }
                        }

                        else {
                            votes[0] += 1;
                        }

                        // tree #61
                        if (x[13] <= -0.9322344362735748) {
                            votes[0] += 1;
                        }

                        else {
                            if (x[35] <= 0.5150286704301834) {
                                votes[1] += 1;
                            }

                            else {
                                if (x[70] <= -1.29542738199234) {
                                    if (x[10] <= -1.1546839475631714) {
                                        votes[2] += 1;
                                    }

                                    else {
                                        votes[1] += 1;
                                    }
                                }

                                else {
                                    if (x[15] <= 1.0842577815055847) {
                                        votes[2] += 1;
                                    }

                                    else {
                                        votes[2] += 1;
                                    }
                                }
                            }
                        }

                        // tree #62
                        if (x[10] <= 0.8643389046192169) {
                            if (x[13] <= 0.23691171407699585) {
                                votes[1] += 1;
                            }

                            else {
                                if (x[16] <= -1.180605709552765) {
                                    if (x[10] <= -1.03184175491333) {
                                        votes[2] += 1;
                                    }

                                    else {
                                        votes[1] += 1;
                                    }
                                }

                                else {
                                    votes[2] += 1;
                                }
                            }
                        }

                        else {
                            votes[0] += 1;
                        }

                        // tree #63
                        if (x[35] <= -0.6624918878078461) {
                            votes[0] += 1;
                        }

                        else {
                            if (x[71] <= 0.4186357259750366) {
                                votes[1] += 1;
                            }

                            else {
                                if (x[42] <= -0.4663030803203583) {
                                    if (x[69] <= -0.9499686062335968) {
                                        votes[2] += 1;
                                    }

                                    else {
                                        votes[1] += 1;
                                    }
                                }

                                else {
                                    if (x[18] <= -1.866024911403656) {
                                        votes[1] += 1;
                                    }

                                    else {
                                        votes[2] += 1;
                                    }
                                }
                            }
                        }

                        // tree #64
                        if (x[33] <= 0.9364143908023834) {
                            if (x[12] <= 0.4067114591598511) {
                                votes[1] += 1;
                            }

                            else {
                                if (x[31] <= -1.315696656703949) {
                                    if (x[15] <= 1.1731749176979065) {
                                        votes[1] += 1;
                                    }

                                    else {
                                        votes[2] += 1;
                                    }
                                }

                                else {
                                    if (x[0] <= -1.2401260137557983) {
                                        votes[2] += 1;
                                    }

                                    else {
                                        votes[2] += 1;
                                    }
                                }
                            }
                        }

                        else {
                            votes[0] += 1;
                        }

                        // tree #65
                        if (x[11] <= -0.4322303682565689) {
                            if (x[19] <= 0.5535256192088127) {
                                if (x[10] <= -0.43022970110177994) {
                                    votes[2] += 1;
                                }

                                else {
                                    votes[1] += 1;
                                }
                            }

                            else {
                                votes[0] += 1;
                            }
                        }

                        else {
                            if (x[0] <= -0.30871471762657166) {
                                if (x[10] <= -0.932623028755188) {
                                    if (x[11] <= 1.1466978192329407) {
                                        votes[2] += 1;
                                    }

                                    else {
                                        votes[2] += 1;
                                    }
                                }

                                else {
                                    if (x[18] <= -1.1937234103679657) {
                                        votes[1] += 1;
                                    }

                                    else {
                                        votes[2] += 1;
                                    }
                                }
                            }

                            else {
                                if (x[14] <= -0.934211790561676) {
                                    votes[0] += 1;
                                }

                                else {
                                    votes[1] += 1;
                                }
                            }
                        }

                        // tree #66
                        if (x[11] <= -0.14121205359697342) {
                            if (x[13] <= -0.7073129713535309) {
                                votes[0] += 1;
                            }

                            else {
                                if (x[3] <= -0.3950788974761963) {
                                    if (x[13] <= 0.3571667708456516) {
                                        votes[1] += 1;
                                    }

                                    else {
                                        votes[2] += 1;
                                    }
                                }

                                else {
                                    if (x[33] <= -0.33519787387922406) {
                                        votes[2] += 1;
                                    }

                                    else {
                                        votes[1] += 1;
                                    }
                                }
                            }
                        }

                        else {
                            if (x[15] <= 0.9553279280662537) {
                                if (x[49] <= 0.9640879034996033) {
                                    if (x[22] <= -0.2315956950187683) {
                                        votes[1] += 1;
                                    }

                                    else {
                                        votes[1] += 1;
                                    }
                                }

                                else {
                                    if (x[26] <= 0.7599567770957947) {
                                        votes[1] += 1;
                                    }

                                    else {
                                        votes[2] += 1;
                                    }
                                }
                            }

                            else {
                                if (x[14] <= 1.0618295669555664) {
                                    if (x[0] <= -1.0331484377384186) {
                                        votes[1] += 1;
                                    }

                                    else {
                                        votes[2] += 1;
                                    }
                                }

                                else {
                                    votes[2] += 1;
                                }
                            }
                        }

                        // tree #67
                        if (x[18] <= 0.1131802350282669) {
                            if (x[14] <= 0.934707373380661) {
                                if (x[55] <= 2.3926279544830322) {
                                    if (x[60] <= 0.00810994510538876) {
                                        votes[1] += 1;
                                    }

                                    else {
                                        votes[1] += 1;
                                    }
                                }

                                else {
                                    if (x[0] <= 0.10524654388427734) {
                                        votes[2] += 1;
                                    }

                                    else {
                                        votes[0] += 1;
                                    }
                                }
                            }

                            else {
                                if (x[17] <= -1.219372808933258) {
                                    if (x[71] <= 1.1783096194267273) {
                                        votes[1] += 1;
                                    }

                                    else {
                                        votes[2] += 1;
                                    }
                                }

                                else {
                                    votes[2] += 1;
                                }
                            }
                        }

                        else {
                            if (x[10] <= 0.5997555702924728) {
                                if (x[69] <= -0.46102676540613174) {
                                    votes[2] += 1;
                                }

                                else {
                                    votes[1] += 1;
                                }
                            }

                            else {
                                votes[0] += 1;
                            }
                        }

                        // tree #68
                        if (x[69] <= 0.8921314179897308) {
                            if (x[14] <= 0.9324771165847778) {
                                if (x[61] <= -0.5251133143901825) {
                                    if (x[3] <= -0.3950788974761963) {
                                        votes[2] += 1;
                                    }

                                    else {
                                        votes[1] += 1;
                                    }
                                }

                                else {
                                    if (x[20] <= -0.4576041102409363) {
                                        votes[1] += 1;
                                    }

                                    else {
                                        votes[1] += 1;
                                    }
                                }
                            }

                            else {
                                if (x[16] <= -1.243454933166504) {
                                    if (x[54] <= -0.40137597918510437) {
                                        votes[1] += 1;
                                    }

                                    else {
                                        votes[2] += 1;
                                    }
                                }

                                else {
                                    votes[2] += 1;
                                }
                            }
                        }

                        else {
                            votes[0] += 1;
                        }

                        // tree #69
                        if (x[14] <= -0.9431326985359192) {
                            votes[0] += 1;
                        }

                        else {
                            if (x[69] <= -0.39472077786922455) {
                                if (x[22] <= 0.005392855033278465) {
                                    if (x[34] <= -1.7622976303100586) {
                                        votes[1] += 1;
                                    }

                                    else {
                                        votes[2] += 1;
                                    }
                                }

                                else {
                                    if (x[64] <= -2.348136782646179) {
                                        votes[1] += 1;
                                    }

                                    else {
                                        votes[2] += 1;
                                    }
                                }
                            }

                            else {
                                votes[1] += 1;
                            }
                        }

                        // tree #70
                        if (x[20] <= 0.6303228437900543) {
