#pragma once
#include <cstdarg>
namespace Eloquent {
    namespace ML {
        namespace Port {
            class DecisionTree {
                public:
                    /**
                    * Predict class for features vector
                    */
                    int predict(float *x) {
                        if (x[15] <= -0.4854999855160713) {
                            if (x[72] <= 0.0005000000237487257) {
                                if (x[13] <= -0.8919999897480011) {
                                    return 3;
                                }

                                else {
                                    return 6;
                                }
                            }

                            else {
                                if (x[49] <= 0.026499999687075615) {
                                    if (x[37] <= 0.012500000186264515) {
                                        if (x[31] <= 1.2470000386238098) {
                                            return 3;
                                        }

                                        else {
                                            return 6;
                                        }
                                    }

                                    else {
                                        return 6;
                                    }
                                }

                                else {
                                    return 3;
                                }
                            }
                        }

                        else {
                            if (x[14] <= 0.7014999985694885) {
                                if (x[19] <= 0.17099997401237488) {
                                    if (x[74] <= 0.0025000000605359674) {
                                        if (x[14] <= -0.03650000039488077) {
                                            if (x[62] <= 0.0005000000237487257) {
                                                if (x[23] <= -0.004500000039115548) {
                                                    if (x[16] <= -0.5489999949932098) {
                                                        return 8;
                                                    }

                                                    else {
                                                        if (x[1] <= 0.013750000391155481) {
                                                            if (x[0] <= 0.9667499959468842) {
                                                                return 8;
                                                            }

                                                            else {
                                                                if (x[63] <= 0.001500000071246177) {
                                                                    if (x[61] <= 0.0005000000237487257) {
                                                                        return 8;
                                                                    }

                                                                    else {
                                                                        if (x[67] <= -0.0025000000605359674) {
                                                                            return 8;
                                                                        }

                                                                        else {
                                                                            if (x[29] <= -0.005499999970197678) {
                                                                                return 8;
                                                                            }

                                                                            else {
                                                                                if (x[30] <= -0.006500000134110451) {
                                                                                    return 8;
                                                                                }

                                                                                else {
                                                                                    return 5;
                                                                                }
                                                                            }
                                                                        }
                                                                    }
                                                                }

                                                                else {
                                                                    return 8;
                                                                }
                                                            }
                                                        }

                                                        else {
                                                            if (x[12] <= 158.30599975585938) {
                                                                if (x[29] <= -0.005499999970197678) {
                                                                    if (x[58] <= 0.0005000000237487257) {
                                                                        return 8;
                                                                    }

                                                                    else {
                                                                        return 5;
                                                                    }
                                                                }

                                                                else {
                                                                    if (x[65] <= -0.0035000001080334187) {
                                                                        if (x[10] <= 94.77300262451172) {
                                                                            return 8;
                                                                        }

                                                                        else {
                                                                            if (x[67] <= -0.001500000071246177) {
                                                                                return 8;
                                                                            }

                                                                            else {
                                                                                return 5;
                                                                            }
                                                                        }
                                                                    }

                                                                    else {
                                                                        if (x[14] <= -0.08449999988079071) {
                                                                            if (x[34] <= 0.5174999833106995) {
                                                                                return 8;
                                                                            }

                                                                            else {
                                                                                return 5;
                                                                            }
                                                                        }

                                                                        else {
                                                                            return 5;
                                                                        }
                                                                    }
                                                                }
                                                            }

                                                            else {
                                                                if (x[31] <= 1.3169999718666077) {
                                                                    if (x[65] <= 0.001500000071246177) {
                                                                        return 5;
                                                                    }

                                                                    else {
                                                                        return 5;
                                                                    }
                                                                }

                                                                else {
                                                                    return 8;
                                                                }
                                                            }
                                                        }
                                                    }
                                                }

                                                else {
                                                    if (x[1] <= 0.013750000391155481) {
                                                        if (x[34] <= 0.01699999999254942) {
                                                            return 5;
                                                        }

                                                        else {
                                                            if (x[74] <= 0.0005000000237487257) {
                                                                return 5;
                                                            }

                                                            else {
                                                                if (x[68] <= 0.009000000078231096) {
                                                                    if (x[25] <= 0.011500000022351742) {
                                                                        if (x[0] <= 0.9677499830722809) {
                                                                            if (x[64] <= -0.0025000000605359674) {
                                                                                if (x[51] <= 0.0005000000237487257) {
                                                                                    return 8;
                                                                                }

                                                                                else {
                                                                                    return 8;
                                                                                }
                                                                            }

                                                                            else {
                                                                                return 8;
                                                                            }
                                                                        }

                                                                        else {
                                                                            if (x[29] <= -0.005499999970197678) {
                                                                                return 8;
                                                                            }

                                                                            else {
                                                                                if (x[67] <= -0.001500000071246177) {
                                                                                    return 5;
                                                                                }

                                                                                else {
                                                                                    if (x[53] <= 0.0005000000237487257) {
                                                                                        return 5;
                                                                                    }

                                                                                    else {
                                                                                        if (x[18] <= -0.4455000013113022) {
                                                                                            return 8;
                                                                                        }

                                                                                        else {
                                                                                            if (x[35] <= 0.8655000030994415) {
                                                                                                return 5;
                                                                                            }

                                                                                            else {
                                                                                                if (x[52] <= 0.0005000000237487257) {
                                                                                                    return 5;
                                                                                                }

                                                                                                else {
                                                                                                    return 8;
                                                                                                }
                                                                                            }
                                                                                        }
                                                                                    }
                                                                                }
                                                                            }
                                                                        }
                                                                    }

                                                                    else {
                                                                        if (x[68] <= -0.001500000071246177) {
                                                                            return 5;
                                                                        }

                                                                        else {
                                                                            if (x[58] <= 0.0005000000237487257) {
                                                                                if (x[57] <= 0.0005000000237487257) {
                                                                                    if (x[29] <= -0.005499999970197678) {
                                                                                        return 8;
                                                                                    }

                                                                                    else {
                                                                                        return 5;
                                                                                    }
                                                                                }

                                                                                else {
                                                                                    if (x[10] <= 95.05949783325195) {
                                                                                        return 8;
                                                                                    }

                                                                                    else {
                                                                                        return 5;
                                                                                    }
                                                                                }
                                                                            }

                                                                            else {
                                                                                if (x[63] <= -0.004500000039115548) {
                                                                                    return 5;
                                                                                }

                                                                                else {
                                                                                    if (x[64] <= 0.0035000001080334187) {
                                                                                        if (x[63] <= 0.001500000071246177) {
                                                                                            return 8;
                                                                                        }

                                                                                        else {
                                                                                            if (x[12] <= 148.14450073242188) {
                                                                                                return 5;
                                                                                            }

                                                                                            else {
                                                                                                if (x[16] <= -0.23399999737739563) {
                                                                                                    return 8;
                                                                                                }

                                                                                                else {
                                                                                                    return 8;
                                                                                                }
                                                                                            }
                                                                                        }
                                                                                    }

                                                                                    else {
                                                                                        return 8;
                                                                                    }
                                                                                }
                                                                            }
                                                                        }
                                                                    }
                                                                }

                                                                else {
                                                                    return 5;
                                                                }
                                                            }
                                                        }
                                                    }

                                                    else {
                                                        if (x[61] <= 0.0005000000237487257) {
                                                            if (x[16] <= -0.5489999949932098) {
                                                                return 8;
                                                            }

                                                            else {
                                                                if (x[0] <= 0.9672499895095825) {
                                                                    if (x[16] <= -0.26500000059604645) {
                                                                        if (x[38] <= 0.005499999970197678) {
                                                                            return 5;
                                                                        }

                                                                        else {
                                                                            return 8;
                                                                        }
                                                                    }

                                                                    else {
                                                                        if (x[0] <= 0.9657500088214874) {
                                                                            return 8;
                                                                        }

                                                                        else {
                                                                            if (x[29] <= -0.005499999970197678) {
                                                                                return 8;
                                                                            }

                                                                            else {
                                                                                if (x[31] <= 1.1634999513626099) {
                                                                                    return 5;
                                                                                }

                                                                                else {
                                                                                    return 5;
                                                                                }
                                                                            }
                                                                        }
                                                                    }
                                                                }

                                                                else {
                                                                    if (x[29] <= -0.005499999970197678) {
                                                                        if (x[40] <= 0.0005000000237487257) {
                                                                            return 5;
                                                                        }

                                                                        else {
                                                                            if (x[57] <= 0.0005000000237487257) {
                                                                                return 5;
                                                                            }

                                                                            else {
                                                                                return 8;
                                                                            }
                                                                        }
                                                                    }

                                                                    else {
                                                                        if (x[0] <= 0.96875) {
                                                                            if (x[69] <= 0.11100000143051147) {
                                                                                return 5;
                                                                            }

                                                                            else {
                                                                                return 8;
                                                                            }
                                                                        }

                                                                        else {
                                                                            return 5;
                                                                        }
                                                                    }
                                                                }
                                                            }
                                                        }

                                                        else {
                                                            if (x[29] <= -0.005499999970197678) {
                                                                return 8;
                                                            }

                                                            else {
                                                                if (x[0] <= 0.9667499959468842) {
                                                                    if (x[71] <= 14.72599983215332) {
                                                                        if (x[38] <= 0.005499999970197678) {
                                                                            return 5;
                                                                        }

                                                                        else {
                                                                            if (x[64] <= -0.0035000001080334187) {
                                                                                if (x[0] <= 0.9662500023841858) {
                                                                                    return 8;
                                                                                }

                                                                                else {
                                                                                    return 5;
                                                                                }
                                                                            }

                                                                            else {
                                                                                return 8;
                                                                            }
                                                                        }
                                                                    }

                                                                    else {
                                                                        return 5;
                                                                    }
                                                                }

                                                                else {
                                                                    if (x[71] <= 13.506499767303467) {
                                                                        if (x[0] <= 0.9677499830722809) {
                                                                            if (x[10] <= 94.6245002746582) {
                                                                                if (x[70] <= 1.6899999976158142) {
                                                                                    return 8;
                                                                                }

                                                                                else {
                                                                                    return 5;
                                                                                }
                                                                            }

                                                                            else {
                                                                                return 8;
                                                                            }
                                                                        }

                                                                        else {
                                                                            if (x[10] <= 95.03499984741211) {
                                                                                if (x[20] <= -0.8135000169277191) {
                                                                                    if (x[71] <= 11.458499908447266) {
                                                                                        if (x[41] <= 0.0005000000237487257) {
                                                                                            return 5;
                                                                                        }

                                                                                        else {
                                                                                            if (x[64] <= 0.0025000000605359674) {
                                                                                                return 8;
                                                                                            }

                                                                                            else {
                                                                                                return 5;
                                                                                            }
                                                                                        }
                                                                                    }

                                                                                    else {
                                                                                        if (x[11] <= 115.79850006103516) {
                                                                                            if (x[12] <= 154.61000061035156) {
                                                                                                return 8;
                                                                                            }

                                                                                            else {
                                                                                                if (x[66] <= -0.001500000071246177) {
                                                                                                    return 8;
                                                                                                }

                                                                                                else {
                                                                                                    return 5;
                                                                                                }
                                                                                            }
                                                                                        }

                                                                                        else {
                                                                                            if (x[63] <= -0.0025000000605359674) {
                                                                                                return 5;
                                                                                            }

                                                                                            else {
                                                                                                return 5;
                                                                                            }
                                                                                        }
                                                                                    }
                                                                                }

                                                                                else {
                                                                                    return 5;
                                                                                }
                                                                            }

                                                                            else {
                                                                                if (x[54] <= 0.06350000016391277) {
                                                                                    if (x[41] <= 0.0005000000237487257) {
                                                                                        return 5;
                                                                                    }

                                                                                    else {
                                                                                        return 8;
                                                                                    }
                                                                                }

                                                                                else {
                                                                                    return 5;
                                                                                }
                                                                            }
                                                                        }
                                                                    }

                                                                    else {
                                                                        if (x[67] <= 0.001500000071246177) {
                                                                            return 5;
                                                                        }

                                                                        else {
                                                                            return 8;
                                                                        }
                                                                    }
                                                                }
                                                            }
                                                        }
                                                    }
                                                }
                                            }

                                            else {
                                                if (x[66] <= -0.0025000000605359674) {
                                                    if (x[68] <= 0.0005000000237487257) {
                                                        return 5;
                                                    }

                                                    else {
                                                        return 5;
                                                    }
                                                }

                                                else {
                                                    if (x[30] <= -0.006500000134110451) {
                                                        return 5;
                                                    }

                                                    else {
                                                        if (x[65] <= -0.0035000001080334187) {
                                                            if (x[63] <= -0.0005000000237487257) {
                                                                if (x[25] <= 0.011500000022351742) {
                                                                    return 5;
                                                                }

                                                                else {
                                                                    if (x[51] <= 0.0005000000237487257) {
                                                                        if (x[21] <= -0.9150000214576721) {
                                                                            return 5;
                                                                        }

                                                                        else {
                                                                            return 5;
                                                                        }
                                                                    }

                                                                    else {
                                                                        return 5;
                                                                    }
                                                                }
                                                            }

                                                            else {
                                                                return 5;
                                                            }
                                                        }

                                                        else {
                                                            if (x[59] <= 0.001500000071246177) {
                                                                return 5;
                                                            }

                                                            else {
                                                                if (x[43] <= 0.0005000000237487257) {
                                                                    return 5;
                                                                }

                                                                else {
                                                                    return 5;
                                                                }
                                                            }
                                                        }
                                                    }
                                                }
                                            }
                                        }

                                        else {
                                            return 2;
                                        }
                                    }

                                    else {
                                        if (x[1] <= 0.019999999552965164) {
                                            return 7;
                                        }

                                        else {
                                            if (x[3] <= 0.010499999858438969) {
                                                return 1;
                                            }

                                            else {
                                                if (x[14] <= -0.035500000230968) {
                                                    if (x[49] <= 0.0050000002374872565) {
                                                        return 11;
                                                    }

                                                    else {
                                                        return 10;
                                                    }
                                                }

                                                else {
                                                    if (x[37] <= 0.011500000022351742) {
                                                        if (x[1] <= 0.02350000012665987) {
                                                            return 10;
                                                        }

                                                        else {
                                                            return 4;
                                                        }
                                                    }

                                                    else {
                                                        if (x[15] <= 0.17500000447034836) {
                                                            if (x[11] <= 90.68399810791016) {
                                                                return 4;
                                                            }

                                                            else {
                                                                return 10;
                                                            }
                                                        }

                                                        else {
                                                            return 4;
                                                        }
                                                    }
                                                }
                                            }
                                        }
                                    }
                                }

                                else {
                                    return 0;
                                }
                            }

                            else {
                                if (x[1] <= 0.010749999899417162) {
                                    if (x[13] <= 0.9245000183582306) {
                                        return 9;
                                    }

                                    else {
                                        return 12;
                                    }
                                }

                                else {
                                    if (x[11] <= 90.80550003051758) {
                                        if (x[30] <= 0.007499999832361937) {
                                            return 12;
                                        }

                                        else {
                                            return 9;
                                        }
                                    }

                                    else {
                                        if (x[69] <= 15.299000263214111) {
                                            return 9;
                                        }

                                        else {
                                            if (x[74] <= 0.001500000071246177) {
                                                return 12;
                                            }

                                            else {
                                                return 9;
                                            }
                                        }
                                    }
                                }
                            }
                        }
                    }

                protected:
                };
            }
        }
    }