#pragma once
#include <cstdarg>
namespace Eloquent {
    namespace ML {
        namespace Port {
            class DecisionTree {
                public:
                    /**
                    * Predict class for features vector
                    */
                    int predict(float *x) {
                        if (x[1] <= -0.006500000134110451) {
                            if (x[0] <= 0.07100000232458115) {
                                return 2;
                            }

                            else {
                                if (x[0] <= 0.12449999898672104) {
                                    if (x[7] <= -0.007500000298023224) {
                                        return 7;
                                    }

                                    else {
                                        return 1;
                                    }
                                }

                                else {
                                    if (x[0] <= 0.15850000083446503) {
                                        if (x[5] <= 0.011500000022351742) {
                                            if (x[3] <= 0.030500000342726707) {
                                                return 1;
                                            }

                                            else {
                                                return 8;
                                            }
                                        }

                                        else {
                                            if (x[2] <= 0.2355000004172325) {
                                                return 3;
                                            }

                                            else {
                                                if (x[0] <= 0.14149999618530273) {
                                                    return 8;
                                                }

                                                else {
                                                    if (x[1] <= -0.019999999552965164) {
                                                        return 9;
                                                    }

                                                    else {
                                                        return 0;
                                                    }
                                                }
                                            }
                                        }
                                    }

                                    else {
                                        if (x[7] <= -0.004500000039115548) {
                                            if (x[5] <= 0.012500000186264515) {
                                                if (x[7] <= -0.006500000134110451) {
                                                    if (x[8] <= 0.12699999660253525) {
                                                        if (x[1] <= -0.013000000268220901) {
                                                            return 3;
                                                        }

                                                        else {
                                                            return 3;
                                                        }
                                                    }

                                                    else {
                                                        if (x[3] <= 1.1615000367164612) {
                                                            return 7;
                                                        }

                                                        else {
                                                            return 0;
                                                        }
                                                    }
                                                }

                                                else {
                                                    if (x[8] <= 0.0010000000474974513) {
                                                        if (x[7] <= -0.005499999970197678) {
                                                            return 3;
                                                        }

                                                        else {
                                                            return 8;
                                                        }
                                                    }

                                                    else {
                                                        if (x[1] <= -0.016000000294297934) {
                                                            return 8;
                                                        }

                                                        else {
                                                            return 9;
                                                        }
                                                    }
                                                }
                                            }

                                            else {
                                                if (x[3] <= 0.015500000212341547) {
                                                    if (x[7] <= -0.005499999970197678) {
                                                        if (x[2] <= 0.08950000256299973) {
                                                            return 3;
                                                        }

                                                        else {
                                                            return 9;
                                                        }
                                                    }

                                                    else {
                                                        return 0;
                                                    }
                                                }

                                                else {
                                                    if (x[1] <= -0.017500000074505806) {
                                                        if (x[7] <= -0.009000000078231096) {
                                                            return 8;
                                                        }

                                                        else {
                                                            return 3;
                                                        }
                                                    }

                                                    else {
                                                        if (x[1] <= -0.012000000104308128) {
                                                            return 1;
                                                        }

                                                        else {
                                                            return 2;
                                                        }
                                                    }
                                                }
                                            }
                                        }

                                        else {
                                            return 0;
                                        }
                                    }
                                }
                            }
                        }

                        else {
                            if (x[1] <= -0.004500000039115548) {
                                if (x[1] <= -0.005499999970197678) {
                                    if (x[3] <= 0.009499999694526196) {
                                        return 5;
                                    }

                                    else {
                                        if (x[7] <= -0.005499999970197678) {
                                            if (x[8] <= 0.00450000015553087) {
                                                return 5;
                                            }

                                            else {
                                                if (x[2] <= 0.38500000536441803) {
                                                    return 6;
                                                }

                                                else {
                                                    return 2;
                                                }
                                            }
                                        }

                                        else {
                                            if (x[8] <= 0.0010000000474974513) {
                                                if (x[2] <= 0.15299999713897705) {
                                                    if (x[2] <= 0.11400000005960464) {
                                                        if (x[2] <= 0.10649999976158142) {
                                                            return 6;
                                                        }

                                                        else {
                                                            return 5;
                                                        }
                                                    }

                                                    else {
                                                        return 6;
                                                    }
                                                }

                                                else {
                                                    if (x[5] <= 0.011500000022351742) {
                                                        return 6;
                                                    }

                                                    else {
                                                        return 5;
                                                    }
                                                }
                                            }

                                            else {
                                                return 6;
                                            }
                                        }
                                    }
                                }

                                else {
                                    if (x[8] <= 0.004500000039115548) {
                                        if (x[5] <= 0.011500000022351742) {
                                            if (x[8] <= 0.003000000142492354) {
                                                if (x[2] <= 0.13450000435113907) {
                                                    if (x[0] <= 0.1510000005364418) {
                                                        return 6;
                                                    }

                                                    else {
                                                        return 5;
                                                    }
                                                }

                                                else {
                                                    if (x[0] <= 0.153499998152256) {
                                                        if (x[9] <= 0.009499999694526196) {
                                                            return 6;
                                                        }

                                                        else {
                                                            return 5;
                                                        }
                                                    }

                                                    else {
                                                        if (x[9] <= 0.012500000186264515) {
                                                            return 6;
                                                        }

                                                        else {
                                                            return 5;
                                                        }
                                                    }
                                                }
                                            }

                                            else {
                                                if (x[2] <= 0.13100000470876694) {
                                                    if (x[3] <= 0.014000000432133675) {
                                                        return 6;
                                                    }

                                                    else {
                                                        return 5;
                                                    }
                                                }

                                                else {
                                                    if (x[0] <= 0.1614999994635582) {
                                                        if (x[7] <= -0.005499999970197678) {
                                                            return 5;
                                                        }

                                                        else {
                                                            return 6;
                                                        }
                                                    }

                                                    else {
                                                        return 5;
                                                    }
                                                }
                                            }
                                        }

                                        else {
                                            if (x[0] <= 0.15450000017881393) {
                                                if (x[9] <= 0.009499999694526196) {
                                                    if (x[2] <= 0.15200000256299973) {
                                                        return 5;
                                                    }

                                                    else {
                                                        if (x[2] <= 0.159000001847744) {
                                                            return 6;
                                                        }

                                                        else {
                                                            return 5;
                                                        }
                                                    }
                                                }

                                                else {
                                                    if (x[8] <= 0.003000000142492354) {
                                                        if (x[9] <= 0.016000000294297934) {
                                                            return 5;
                                                        }

                                                        else {
                                                            return 6;
                                                        }
                                                    }

                                                    else {
                                                        if (x[2] <= 0.1574999988079071) {
                                                            return 6;
                                                        }

                                                        else {
                                                            return 5;
                                                        }
                                                    }
                                                }
                                            }

                                            else {
                                                if (x[8] <= 0.003000000142492354) {
                                                    if (x[0] <= 0.15650000423192978) {
                                                        if (x[8] <= 0.0010000000474974513) {
                                                            return 5;
                                                        }

                                                        else {
                                                            return 5;
                                                        }
                                                    }

                                                    else {
                                                        if (x[3] <= 0.016500000841915607) {
                                                            return 5;
                                                        }

                                                        else {
                                                            return 5;
                                                        }
                                                    }
                                                }

                                                else {
                                                    if (x[3] <= 0.013500000350177288) {
                                                        if (x[9] <= 0.011500000022351742) {
                                                            return 5;
                                                        }

                                                        else {
                                                            return 5;
                                                        }
                                                    }

                                                    else {
                                                        if (x[2] <= 0.1510000005364418) {
                                                            return 5;
                                                        }

                                                        else {
                                                            return 5;
                                                        }
                                                    }
                                                }
                                            }
                                        }
                                    }

                                    else {
                                        if (x[0] <= 0.15550000220537186) {
                                            if (x[3] <= 0.031499999575316906) {
                                                if (x[6] <= 0.0005000000237487257) {
                                                    if (x[5] <= 0.011500000022351742) {
                                                        if (x[0] <= 0.1289999969303608) {
                                                            return 5;
                                                        }

                                                        else {
                                                            return 6;
                                                        }
                                                    }

                                                    else {
                                                        if (x[2] <= 0.14649999886751175) {
                                                            return 6;
                                                        }

                                                        else {
                                                            return 6;
                                                        }
                                                    }
                                                }

                                                else {
                                                    if (x[9] <= 0.007500000298023224) {
                                                        if (x[5] <= 0.011500000022351742) {
                                                            return 5;
                                                        }

                                                        else {
                                                            return 6;
                                                        }
                                                    }

                                                    else {
                                                        if (x[9] <= 0.009499999694526196) {
                                                            return 6;
                                                        }

                                                        else {
                                                            return 6;
                                                        }
                                                    }
                                                }
                                            }

                                            else {
                                                if (x[0] <= 0.14649999886751175) {
                                                    if (x[6] <= 0.0005000000237487257) {
                                                        return 5;
                                                    }

                                                    else {
                                                        return 6;
                                                    }
                                                }

                                                else {
                                                    if (x[3] <= 0.04450000077486038) {
                                                        return 5;
                                                    }

                                                    else {
                                                        if (x[3] <= 0.05550000071525574) {
                                                            return 6;
                                                        }

                                                        else {
                                                            return 5;
                                                        }
                                                    }
                                                }
                                            }
                                        }

                                        else {
                                            if (x[3] <= 0.013500000350177288) {
                                                if (x[8] <= 0.009499999694526196) {
                                                    if (x[2] <= 0.18300000578165054) {
                                                        if (x[9] <= 0.010499999858438969) {
                                                            return 5;
                                                        }

                                                        else {
                                                            return 5;
                                                        }
                                                    }

                                                    else {
                                                        if (x[3] <= 0.011500000022351742) {
                                                            return 5;
                                                        }

                                                        else {
                                                            return 6;
                                                        }
                                                    }
                                                }

                                                else {
                                                    if (x[0] <= 0.1614999994635582) {
                                                        if (x[2] <= 0.13500000536441803) {
                                                            return 5;
                                                        }

                                                        else {
                                                            return 6;
                                                        }
                                                    }

                                                    else {
                                                        return 5;
                                                    }
                                                }
                                            }

                                            else {
                                                if (x[8] <= 0.006500000134110451) {
                                                    if (x[3] <= 0.015500000212341547) {
                                                        if (x[9] <= 0.009499999694526196) {
                                                            return 5;
                                                        }

                                                        else {
                                                            return 5;
                                                        }
                                                    }

                                                    else {
                                                        if (x[0] <= 0.1655000001192093) {
                                                            return 6;
                                                        }

                                                        else {
                                                            return 5;
                                                        }
                                                    }
                                                }

                                                else {
                                                    if (x[8] <= 0.6290000081062317) {
                                                        if (x[5] <= 0.011500000022351742) {
                                                            return 6;
                                                        }

                                                        else {
                                                            return 6;
                                                        }
                                                    }

                                                    else {
                                                        return 5;
                                                    }
                                                }
                                            }
                                        }
                                    }
                                }
                            }

                            else {
                                if (x[1] <= 0.0035000001080334187) {
                                    if (x[3] <= 0.5425000041723251) {
                                        if (x[7] <= -0.005499999970197678) {
                                            if (x[1] <= -0.0005000000237487257) {
                                                return 4;
                                            }

                                            else {
                                                if (x[9] <= 0.011999999638646841) {
                                                    return 7;
                                                }

                                                else {
                                                    return 4;
                                                }
                                            }
                                        }

                                        else {
                                            if (x[5] <= 0.010499999858438969) {
                                                return 4;
                                            }

                                            else {
                                                return 5;
                                            }
                                        }
                                    }

                                    else {
                                        if (x[6] <= 0.0005000000237487257) {
                                            return 3;
                                        }

                                        else {
                                            if (x[3] <= 3.216499924659729) {
                                                return 2;
                                            }

                                            else {
                                                return 0;
                                            }
                                        }
                                    }
                                }

                                else {
                                    if (x[0] <= 0.05650000087916851) {
                                        if (x[7] <= -0.006500000134110451) {
                                            if (x[8] <= 0.009499999694526196) {
                                                if (x[1] <= 0.005499999970197678) {
                                                    if (x[2] <= 0.18199999630451202) {
                                                        if (x[0] <= 0.05550000071525574) {
                                                            return 10;
                                                        }

                                                        else {
                                                            return 10;
                                                        }
                                                    }

                                                    else {
                                                        return 11;
                                                    }
                                                }

                                                else {
                                                    if (x[1] <= 0.007499999832361937) {
                                                        return 11;
                                                    }

                                                    else {
                                                        return 10;
                                                    }
                                                }
                                            }

                                            else {
                                                if (x[8] <= 0.013500000350177288) {
                                                    if (x[2] <= 0.14100000262260437) {
                                                        if (x[2] <= 0.13899999856948853) {
                                                            return 10;
                                                        }

                                                        else {
                                                            return 11;
                                                        }
                                                    }

                                                    else {
                                                        return 10;
                                                    }
                                                }

                                                else {
                                                    if (x[1] <= 0.005499999970197678) {
                                                        return 10;
                                                    }

                                                    else {
                                                        if (x[2] <= 0.15949999541044235) {
                                                            return 10;
                                                        }

                                                        else {
                                                            return 10;
                                                        }
                                                    }
                                                }
                                            }
                                        }

                                        else {
                                            if (x[8] <= 0.0024999999441206455) {
                                                return 10;
                                            }

                                            else {
                                                return 11;
                                            }
                                        }
                                    }

                                    else {
                                        if (x[8] <= 0.014500000048428774) {
                                            if (x[1] <= 0.006500000134110451) {
                                                if (x[1] <= 0.005499999970197678) {
                                                    if (x[0] <= 0.060499999672174454) {
                                                        if (x[0] <= 0.05849999934434891) {
                                                            return 11;
                                                        }

                                                        else {
                                                            return 10;
                                                        }
                                                    }

                                                    else {
                                                        if (x[6] <= 0.0005000000237487257) {
                                                            return 11;
                                                        }

                                                        else {
                                                            return 11;
                                                        }
                                                    }
                                                }

                                                else {
                                                    if (x[9] <= 0.012500000186264515) {
                                                        return 11;
                                                    }

                                                    else {
                                                        if (x[0] <= 0.05849999934434891) {
                                                            return 11;
                                                        }

                                                        else {
                                                            return 11;
                                                        }
                                                    }
                                                }
                                            }

                                            else {
                                                if (x[3] <= 0.014500000048428774) {
                                                    if (x[2] <= 0.18299999833106995) {
                                                        return 10;
                                                    }

                                                    else {
                                                        if (x[1] <= 0.00849999999627471) {
                                                            return 11;
                                                        }

                                                        else {
                                                            return 10;
                                                        }
                                                    }
                                                }

                                                else {
                                                    if (x[2] <= 0.773499995470047) {
                                                        if (x[0] <= 0.06149999983608723) {
                                                            return 10;
                                                        }

                                                        else {
                                                            return 11;
                                                        }
                                                    }

                                                    else {
                                                        return 10;
                                                    }
                                                }
                                            }
                                        }

                                        else {
                                            if (x[0] <= 0.06149999983608723) {
                                                if (x[1] <= 0.005499999970197678) {
                                                    if (x[8] <= 0.016500000841915607) {
                                                        if (x[3] <= 0.003000000142492354) {
                                                            return 10;
                                                        }

                                                        else {
                                                            return 10;
                                                        }
                                                    }

                                                    else {
                                                        if (x[7] <= -0.010500000324100256) {
                                                            return 11;
                                                        }

                                                        else {
                                                            return 10;
                                                        }
                                                    }
                                                }

                                                else {
                                                    if (x[1] <= 0.006500000134110451) {
                                                        if (x[8] <= 0.016500000841915607) {
                                                            return 11;
                                                        }

                                                        else {
                                                            return 10;
                                                        }
                                                    }

                                                    else {
                                                        if (x[2] <= 0.2019999995827675) {
                                                            return 10;
                                                        }

                                                        else {
                                                            return 10;
                                                        }
                                                    }
                                                }
                                            }

                                            else {
                                                if (x[8] <= 0.041999999433755875) {
                                                    if (x[7] <= -0.006500000134110451) {
                                                        if (x[3] <= 0.9805000126361847) {
                                                            return 11;
                                                        }

                                                        else {
                                                            return 11;
                                                        }
                                                    }

                                                    else {
                                                        if (x[2] <= 0.5755000114440918) {
                                                            return 11;
                                                        }

                                                        else {
                                                            return 8;
                                                        }
                                                    }
                                                }

                                                else {
                                                    if (x[8] <= 0.16049999743700027) {
                                                        return 8;
                                                    }

                                                    else {
                                                        if (x[1] <= 0.019500000402331352) {
                                                            return 4;
                                                        }

                                                        else {
                                                            return 7;
                                                        }
                                                    }
                                                }
                                            }
                                        }
                                    }
                                }
                            }
                        }
                    }

                protected:
                };
            }
        }
    }