#pragma once
#include <cstdarg>
namespace Eloquent {
    namespace ML {
        namespace Port {
            class RandomForest {
                public:
                    /**
                    * Predict class for features vector
                    */
                    int predict(float *x) {
                        uint8_t votes[13] = { 0 };
                        // tree #1
                        if (x[74] <= 3170.053466796875) {
                            if (x[7] <= 0.019499999471008778) {
                                if (x[2] <= -4.28549998998642) {
                                    if (x[9] <= 0.00849999999627471) {
                                        if (x[36] <= 0.3685000166296959) {
                                            votes[5] += 1;
                                        }

                                        else {
                                            if (x[7] <= 0.013500000350177288) {
                                                if (x[26] <= -0.004500000039115548) {
                                                    if (x[23] <= -7.073500156402588) {
                                                        if (x[38] <= 7.259500026702881) {
                                                            if (x[37] <= 6.2195000648498535) {
                                                                votes[7] += 1;
                                                            }

                                                            else {
                                                                votes[6] += 1;
                                                            }
                                                        }

                                                        else {
                                                            if (x[28] <= 0.011500000022351742) {
                                                                if (x[22] <= -8.8125) {
                                                                    if (x[38] <= 8.859000205993652) {
                                                                        votes[7] += 1;
                                                                    }

                                                                    else {
                                                                        votes[6] += 1;
                                                                    }
                                                                }

                                                                else {
                                                                    votes[6] += 1;
                                                                }
                                                            }

                                                            else {
                                                                if (x[38] <= 7.792999982833862) {
                                                                    if (x[36] <= 0.8490000069141388) {
                                                                        votes[7] += 1;
                                                                    }

                                                                    else {
                                                                        votes[6] += 1;
                                                                    }
                                                                }

                                                                else {
                                                                    votes[6] += 1;
                                                                }
                                                            }
                                                        }
                                                    }

                                                    else {
                                                        votes[7] += 1;
                                                    }
                                                }

                                                else {
                                                    if (x[31] <= -0.005499999970197678) {
                                                        if (x[8] <= 0.973499983549118) {
                                                            if (x[38] <= 9.440999984741211) {
                                                                if (x[60] <= 0.007500000298023224) {
                                                                    votes[7] += 1;
                                                                }

                                                                else {
                                                                    votes[6] += 1;
                                                                }
                                                            }

                                                            else {
                                                                votes[6] += 1;
                                                            }
                                                        }

                                                        else {
                                                            if (x[3] <= -0.004500000039115548) {
                                                                if (x[71] <= 0.001500000071246177) {
                                                                    if (x[64] <= 0.0005000000237487257) {
                                                                        if (x[40] <= 0.011500000022351742) {
                                                                            if (x[8] <= 1.7335000038146973) {
                                                                                if (x[65] <= 0.0005000000237487257) {
                                                                                    votes[7] += 1;
                                                                                }

                                                                                else {
                                                                                    votes[6] += 1;
                                                                                }
                                                                            }

                                                                            else {
                                                                                if (x[69] <= -0.15850000083446503) {
                                                                                    votes[6] += 1;
                                                                                }

                                                                                else {
                                                                                    if (x[38] <= 7.434500217437744) {
                                                                                        votes[6] += 1;
                                                                                    }

                                                                                    else {
                                                                                        if (x[65] <= 0.0005000000237487257) {
                                                                                            votes[7] += 1;
                                                                                        }

                                                                                        else {
                                                                                            votes[6] += 1;
                                                                                        }
                                                                                    }
                                                                                }
                                                                            }
                                                                        }

                                                                        else {
                                                                            if (x[8] <= 3.2785000801086426) {
                                                                                if (x[37] <= 1.0084999799728394) {
                                                                                    votes[7] += 1;
                                                                                }

                                                                                else {
                                                                                    if (x[18] <= -0.8465000092983246) {
                                                                                        if (x[21] <= -5.085500001907349) {
                                                                                            votes[6] += 1;
                                                                                        }

                                                                                        else {
                                                                                            votes[7] += 1;
                                                                                        }
                                                                                    }

                                                                                    else {
                                                                                        if (x[18] <= -0.7720000147819519) {
                                                                                            votes[6] += 1;
                                                                                        }

                                                                                        else {
                                                                                            if (x[21] <= -3.197499990463257) {
                                                                                                if (x[69] <= 0.001500000071246177) {
                                                                                                    votes[6] += 1;
                                                                                                }

                                                                                                else {
                                                                                                    votes[7] += 1;
                                                                                                }
                                                                                            }

                                                                                            else {
                                                                                                if (x[18] <= -0.7555000185966492) {
                                                                                                    votes[6] += 1;
                                                                                                }

                                                                                                else {
                                                                                                    votes[6] += 1;
                                                                                                }
                                                                                            }
                                                                                        }
                                                                                    }
                                                                                }
                                                                            }

                                                                            else {
                                                                                if (x[43] <= 0.004500000039115548) {
                                                                                    if (x[22] <= -7.552500009536743) {
                                                                                        if (x[24] <= -7.810999870300293) {
                                                                                            votes[6] += 1;
                                                                                        }

                                                                                        else {
                                                                                            if (x[70] <= -0.001500000071246177) {
                                                                                                votes[6] += 1;
                                                                                            }

                                                                                            else {
                                                                                                if (x[70] <= 0.0005000000237487257) {
                                                                                                    votes[7] += 1;
                                                                                                }

                                                                                                else {
                                                                                                    votes[7] += 1;
                                                                                                }
                                                                                            }
                                                                                        }
                                                                                    }

                                                                                    else {
                                                                                        votes[6] += 1;
                                                                                    }
                                                                                }

                                                                                else {
                                                                                    if (x[22] <= -7.793499946594238) {
                                                                                        votes[6] += 1;
                                                                                    }

                                                                                    else {
                                                                                        if (x[1] <= -6.218999862670898) {
                                                                                            votes[6] += 1;
                                                                                        }

                                                                                        else {
                                                                                            votes[7] += 1;
                                                                                        }
                                                                                    }
                                                                                }
                                                                            }
                                                                        }
                                                                    }

                                                                    else {
                                                                        if (x[74] <= 2814.573486328125) {
                                                                            if (x[65] <= 0.0005000000237487257) {
                                                                                if (x[21] <= -5.0924999713897705) {
                                                                                    if (x[38] <= 7.789999961853027) {
                                                                                        if (x[55] <= 0.005499999970197678) {
                                                                                            if (x[74] <= 1686.2489624023438) {
                                                                                                if (x[6] <= 9.53849983215332) {
                                                                                                    votes[7] += 1;
                                                                                                }

                                                                                                else {
                                                                                                    votes[7] += 1;
                                                                                                }
                                                                                            }

                                                                                            else {
                                                                                                if (x[37] <= 5.496000051498413) {
                                                                                                    votes[7] += 1;
                                                                                                }

                                                                                                else {
                                                                                                    votes[6] += 1;
                                                                                                }
                                                                                            }
                                                                                        }

                                                                                        else {
                                                                                            if (x[40] <= 0.011500000022351742) {
                                                                                                if (x[22] <= -7.648999929428101) {
                                                                                                    votes[7] += 1;
                                                                                                }

                                                                                                else {
                                                                                                    votes[7] += 1;
                                                                                                }
                                                                                            }

                                                                                            else {
                                                                                                if (x[38] <= 7.458499908447266) {
                                                                                                    votes[7] += 1;
                                                                                                }

                                                                                                else {
                                                                                                    votes[7] += 1;
                                                                                                }
                                                                                            }
                                                                                        }
                                                                                    }

                                                                                    else {
                                                                                        if (x[44] <= 0.026499999687075615) {
                                                                                            votes[6] += 1;
                                                                                        }

                                                                                        else {
                                                                                            if (x[33] <= -0.019000000320374966) {
                                                                                                votes[6] += 1;
                                                                                            }

                                                                                            else {
                                                                                                if (x[20] <= -5.070499897003174) {
                                                                                                    votes[6] += 1;
                                                                                                }

                                                                                                else {
                                                                                                    votes[7] += 1;
                                                                                                }
                                                                                            }
                                                                                        }
                                                                                    }
                                                                                }

                                                                                else {
                                                                                    if (x[34] <= 13.214499950408936) {
                                                                                        if (x[19] <= -2.5954999923706055) {
                                                                                            votes[7] += 1;
                                                                                        }

                                                                                        else {
                                                                                            if (x[22] <= -9.102999687194824) {
                                                                                                votes[7] += 1;
                                                                                            }

                                                                                            else {
                                                                                                votes[6] += 1;
                                                                                            }
                                                                                        }
                                                                                    }

                                                                                    else {
                                                                                        if (x[23] <= -8.563000202178955) {
                                                                                            votes[6] += 1;
                                                                                        }

                                                                                        else {
                                                                                            if (x[25] <= 0.006000000052154064) {
                                                                                                if (x[6] <= 9.48449993133545) {
                                                                                                    votes[7] += 1;
                                                                                                }

                                                                                                else {
                                                                                                    votes[7] += 1;
                                                                                                }
                                                                                            }

                                                                                            else {
                                                                                                if (x[44] <= 0.056000000797212124) {
                                                                                                    votes[6] += 1;
                                                                                                }

                                                                                                else {
                                                                                                    votes[7] += 1;
                                                                                                }
                                                                                            }
                                                                                        }
                                                                                    }
                                                                                }
                                                                            }

                                                                            else {
                                                                                votes[6] += 1;
                                                                            }
                                                                        }

                                                                        else {
                                                                            if (x[5] <= -0.005499999970197678) {
                                                                                if (x[16] <= -0.652999997138977) {
                                                                                    if (x[28] <= 0.011500000022351742) {
                                                                                        if (x[34] <= 11.187000274658203) {
                                                                                            votes[7] += 1;
                                                                                        }

                                                                                        else {
                                                                                            votes[6] += 1;
                                                                                        }
                                                                                    }

                                                                                    else {
                                                                                        votes[6] += 1;
                                                                                    }
                                                                                }

                                                                                else {
                                                                                    if (x[72] <= 13.20799970626831) {
                                                                                        if (x[20] <= -0.4990000054240227) {
                                                                                            if (x[73] <= 23.073500633239746) {
                                                                                                votes[6] += 1;
                                                                                            }

                                                                                            else {
                                                                                                votes[7] += 1;
                                                                                            }
                                                                                        }

                                                                                        else {
                                                                                            if (x[36] <= 0.6035000085830688) {
                                                                                                votes[6] += 1;
                                                                                            }

                                                                                            else {
                                                                                                votes[7] += 1;
                                                                                            }
                                                                                        }
                                                                                    }

                                                                                    else {
                                                                                        votes[7] += 1;
                                                                                    }
                                                                                }
                                                                            }

                                                                            else {
                                                                                if (x[57] <= 0.09049999713897705) {
                                                                                    if (x[63] <= 0.0005000000237487257) {
                                                                                        votes[6] += 1;
                                                                                    }

                                                                                    else {
                                                                                        if (x[20] <= -0.8389999866485596) {
                                                                                            if (x[8] <= 1.9204999804496765) {
                                                                                                votes[7] += 1;
                                                                                            }

                                                                                            else {
                                                                                                votes[6] += 1;
                                                                                            }
                                                                                        }

                                                                                        else {
                                                                                            if (x[74] <= 2830.740966796875) {
                                                                                                votes[7] += 1;
                                                                                            }

                                                                                            else {
                                                                                                votes[6] += 1;
                                                                                            }
                                                                                        }
                                                                                    }
                                                                                }

                                                                                else {
                                                                                    votes[7] += 1;
                                                                                }
                                                                            }
                                                                        }
                                                                    }
                                                                }

                                                                else {
                                                                    if (x[62] <= 0.019499999471008778) {
                                                                        if (x[40] <= 0.011500000022351742) {
                                                                            if (x[0] <= -0.6550000011920929) {
                                                                                if (x[71] <= 0.0025000000605359674) {
                                                                                    if (x[65] <= 0.0005000000237487257) {
                                                                                        if (x[22] <= -7.7174999713897705) {
                                                                                            votes[7] += 1;
                                                                                        }

                                                                                        else {
                                                                                            if (x[22] <= -7.455000162124634) {
                                                                                                votes[6] += 1;
                                                                                            }

                                                                                            else {
                                                                                                votes[7] += 1;
                                                                                            }
                                                                                        }
                                                                                    }

                                                                                    else {
                                                                                        votes[6] += 1;
                                                                                    }
                                                                                }

                                                                                else {
                                                                                    if (x[65] <= 0.0005000000237487257) {
                                                                                        if (x[22] <= -8.694999694824219) {
                                                                                            votes[7] += 1;
                                                                                        }

                                                                                        else {
                                                                                            if (x[21] <= -4.682999849319458) {
                                                                                                if (x[50] <= 0.004500000039115548) {
                                                                                                    votes[7] += 1;
                                                                                                }

                                                                                                else {
                                                                                                    votes[6] += 1;
                                                                                                }
                                                                                            }

                                                                                            else {
                                                                                                if (x[34] <= 13.213500022888184) {
                                                                                                    votes[7] += 1;
                                                                                                }

                                                                                                else {
                                                                                                    votes[6] += 1;
                                                                                                }
                                                                                            }
                                                                                        }
                                                                                    }

                                                                                    else {
                                                                                        votes[6] += 1;
                                                                                    }
                                                                                }
                                                                            }

                                                                            else {
                                                                                if (x[72] <= 13.219000339508057) {
                                                                                    if (x[18] <= -0.6525000035762787) {
                                                                                        if (x[6] <= 9.457499980926514) {
                                                                                            votes[7] += 1;
                                                                                        }

                                                                                        else {
                                                                                            votes[6] += 1;
                                                                                        }
                                                                                    }

                                                                                    else {
                                                                                        votes[6] += 1;
                                                                                    }
                                                                                }

                                                                                else {
                                                                                    if (x[73] <= 42.38050079345703) {
                                                                                        votes[7] += 1;
                                                                                    }

                                                                                    else {
                                                                                        votes[6] += 1;
                                                                                    }
                                                                                }
                                                                            }
                                                                        }

                                                                        else {
                                                                            if (x[65] <= 0.0005000000237487257) {
                                                                                if (x[23] <= -8.66349983215332) {
                                                                                    if (x[19] <= -2.5954999923706055) {
                                                                                        votes[7] += 1;
                                                                                    }

                                                                                    else {
                                                                                        if (x[19] <= -2.302999973297119) {
                                                                                            votes[6] += 1;
                                                                                        }

                                                                                        else {
                                                                                            if (x[0] <= -0.659500002861023) {
                                                                                                if (x[16] <= -0.6620000004768372) {
                                                                                                    votes[7] += 1;
                                                                                                }

                                                                                                else {
                                                                                                    votes[6] += 1;
                                                                                                }
                                                                                            }

                                                                                            else {
                                                                                                votes[7] += 1;
                                                                                            }
                                                                                        }
                                                                                    }
                                                                                }

                                                                                else {
                                                                                    if (x[55] <= 0.005499999970197678) {
                                                                                        if (x[38] <= 8.16450023651123) {
                                                                                            if (x[21] <= -5.090000152587891) {
                                                                                                if (x[22] <= -7.793999910354614) {
                                                                                                    votes[6] += 1;
                                                                                                }

                                                                                                else {
                                                                                                    votes[6] += 1;
                                                                                                }
                                                                                            }

                                                                                            else {
                                                                                                votes[7] += 1;
                                                                                            }
                                                                                        }

                                                                                        else {
                                                                                            if (x[22] <= -8.627500057220459) {
                                                                                                votes[7] += 1;
                                                                                            }

                                                                                            else {
                                                                                                if (x[6] <= 9.497499942779541) {
                                                                                                    votes[6] += 1;
                                                                                                }

                                                                                                else {
                                                                                                    votes[6] += 1;
                                                                                                }
                                                                                            }
                                                                                        }
                                                                                    }

                                                                                    else {
                                                                                        if (x[23] <= -8.60949993133545) {
                                                                                            votes[6] += 1;
                                                                                        }

                                                                                        else {
                                                                                            if (x[50] <= 0.0025000001187436283) {
                                                                                                if (x[55] <= 0.013999999966472387) {
                                                                                                    votes[7] += 1;
                                                                                                }

                                                                                                else {
                                                                                                    votes[6] += 1;
                                                                                                }
                                                                                            }

                                                                                            else {
                                                                                                votes[6] += 1;
                                                                                            }
                                                                                        }
                                                                                    }
                                                                                }
                                                                            }

                                                                            else {
                                                                                votes[6] += 1;
                                                                            }
                                                                        }
                                                                    }

                                                                    else {
                                                                        if (x[2] <= -8.950500011444092) {
                                                                            if (x[56] <= 0.030500000342726707) {
                                                                                votes[7] += 1;
                                                                            }

                                                                            else {
                                                                                if (x[72] <= 16.660500526428223) {
                                                                                    votes[6] += 1;
                                                                                }

                                                                                else {
                                                                                    votes[7] += 1;
                                                                                }
                                                                            }
                                                                        }

                                                                        else {
                                                                            if (x[74] <= 2385.176513671875) {
                                                                                if (x[6] <= 9.497000217437744) {
                                                                                    if (x[73] <= 652.2624816894531) {
                                                                                        votes[7] += 1;
                                                                                    }

                                                                                    else {
                                                                                        votes[7] += 1;
                                                                                    }
                                                                                }

                                                                                else {
                                                                                    if (x[38] <= 7.880499839782715) {
                                                                                        if (x[19] <= -5.71399998664856) {
                                                                                            votes[6] += 1;
                                                                                        }

                                                                                        else {
                                                                                            votes[7] += 1;
                                                                                        }
                                                                                    }

                                                                                    else {
                                                                                        if (x[19] <= -4.450999975204468) {
                                                                                            votes[6] += 1;
                                                                                        }

                                                                                        else {
                                                                                            votes[7] += 1;
                                                                                        }
                                                                                    }
                                                                                }
                                                                            }

                                                                            else {
                                                                                votes[6] += 1;
                                                                            }
                                                                        }
                                                                    }
                                                                }
                                                            }

                                                            else {
                                                                if (x[69] <= -0.15550000220537186) {
                                                                    if (x[62] <= 0.06300000101327896) {
                                                                        if (x[66] <= 0.013500000350177288) {
                                                                            if (x[18] <= -0.7840000092983246) {
                                                                                if (x[34] <= 13.372999668121338) {
                                                                                    votes[7] += 1;
                                                                                }

                                                                                else {
                                                                                    votes[6] += 1;
                                                                                }
                                                                            }

                                                                            else {
                                                                                if (x[58] <= 0.005000000121071935) {
                                                                                    if (x[63] <= 0.0005000000237487257) {
                                                                                        votes[6] += 1;
                                                                                    }

                                                                                    else {
                                                                                        votes[6] += 1;
                                                                                    }
                                                                                }

                                                                                else {
                                                                                    votes[7] += 1;
                                                                                }
                                                                            }
                                                                        }

                                                                        else {
                                                                            if (x[5] <= -0.005499999970197678) {
                                                                                if (x[72] <= 16.954999923706055) {
                                                                                    votes[7] += 1;
                                                                                }

                                                                                else {
                                                                                    votes[7] += 1;
                                                                                }
                                                                            }

                                                                            else {
                                                                                votes[6] += 1;
                                                                            }
                                                                        }
                                                                    }

                                                                    else {
                                                                        votes[7] += 1;
                                                                    }
                                                                }

                                                                else {
                                                                    if (x[19] <= -0.8485000133514404) {
                                                                        if (x[19] <= -1.1504999995231628) {
                                                                            if (x[34] <= 11.222000122070312) {
                                                                                votes[6] += 1;
                                                                            }

                                                                            else {
                                                                                if (x[63] <= 0.0005000000237487257) {
                                                                                    if (x[69] <= 0.11700000241398811) {
                                                                                        if (x[36] <= 0.6835000216960907) {
                                                                                            if (x[74] <= 2795.5865478515625) {
                                                                                                if (x[20] <= -1.375499963760376) {
                                                                                                    votes[6] += 1;
                                                                                                }

                                                                                                else {
                                                                                                    votes[7] += 1;
                                                                                                }
                                                                                            }

                                                                                            else {
                                                                                                votes[6] += 1;
                                                                                            }
                                                                                        }

                                                                                        else {
                                                                                            if (x[62] <= 0.015500000212341547) {
                                                                                                if (x[76] <= 0.004500000039115548) {
                                                                                                    votes[7] += 1;
                                                                                                }

                                                                                                else {
                                                                                                    votes[6] += 1;
                                                                                                }
                                                                                            }

                                                                                            else {
                                                                                                if (x[38] <= 8.523000240325928) {
                                                                                                    votes[7] += 1;
                                                                                                }

                                                                                                else {
                                                                                                    votes[6] += 1;
                                                                                                }
                                                                                            }
                                                                                        }
                                                                                    }

                                                                                    else {
                                                                                        if (x[9] <= 0.005499999970197678) {
                                                                                            votes[6] += 1;
                                                                                        }

                                                                                        else {
                                                                                            if (x[2] <= -8.492000102996826) {
                                                                                                votes[6] += 1;
                                                                                            }

                                                                                            else {
                                                                                                votes[7] += 1;
                                                                                            }
                                                                                        }
                                                                                    }
                                                                                }

                                                                                else {
                                                                                    votes[7] += 1;
                                                                                }
                                                                            }
                                                                        }

                                                                        else {
                                                                            if (x[24] <= -9.434499740600586) {
                                                                                votes[6] += 1;
                                                                            }

                                                                            else {
                                                                                votes[7] += 1;
                                                                            }
                                                                        }
                                                                    }

                                                                    else {
                                                                        if (x[17] <= -0.6129999756813049) {
                                                                            votes[6] += 1;
                                                                        }

                                                                        else {
                                                                            if (x[49] <= 0.10750000178813934) {
                                                                                if (x[34] <= 10.197999954223633) {
                                                                                    votes[6] += 1;
                                                                                }

                                                                                else {
                                                                                    votes[7] += 1;
                                                                                }
                                                                            }

                                                                            else {
                                                                                votes[6] += 1;
                                                                            }
                                                                        }
                                                                    }
                                                                }
                                                            }
                                                        }
                                                    }

                                                    else {
                                                        votes[6] += 1;
                                                    }
                                                }
                                            }

                                            else {
                                                if (x[40] <= 0.011500000022351742) {
                                                    if (x[65] <= 0.0005000000237487257) {
                                                        if (x[17] <= -0.824999988079071) {
                                                            if (x[21] <= -6.331500053405762) {
                                                                votes[6] += 1;
                                                            }

                                                            else {
                                                                if (x[18] <= -0.8774999976158142) {
                                                                    votes[7] += 1;
                                                                }

                                                                else {
                                                                    if (x[38] <= 7.434500217437744) {
                                                                        votes[6] += 1;
                                                                    }

                                                                    else {
                                                                        if (x[25] <= 0.003000000142492354) {
                                                                            if (x[2] <= -7.634000062942505) {
                                                                                if (x[18] <= -0.8655000030994415) {
                                                                                    votes[7] += 1;
                                                                                }

                                                                                else {
                                                                                    if (x[1] <= -5.083999872207642) {
                                                                                        if (x[24] <= -7.902000188827515) {
                                                                                            votes[6] += 1;
                                                                                        }

                                                                                        else {
                                                                                            if (x[61] <= 0.006500000134110451) {
                                                                                                if (x[2] <= -7.7164998054504395) {
                                                                                                    votes[7] += 1;
                                                                                                }

                                                                                                else {
                                                                                                    votes[6] += 1;
                                                                                                }
                                                                                            }

                                                                                            else {
                                                                                                if (x[43] <= 0.004500000039115548) {
                                                                                                    votes[7] += 1;
                                                                                                }

                                                                                                else {
                                                                                                    votes[7] += 1;
                                                                                                }
                                                                                            }
                                                                                        }
                                                                                    }

                                                                                    else {
                                                                                        votes[7] += 1;
                                                                                    }
                                                                                }
                                                                            }

                                                                            else {
                                                                                if (x[19] <= -5.85699987411499) {
                                                                                    if (x[38] <= 7.455499887466431) {
                                                                                        votes[7] += 1;
                                                                                    }

                                                                                    else {
                                                                                        votes[6] += 1;
                                                                                    }
                                                                                }

                                                                                else {
                                                                                    if (x[21] <= -5.739000082015991) {
                                                                                        votes[6] += 1;
                                                                                    }

                                                                                    else {
                                                                                        votes[7] += 1;
                                                                                    }
                                                                                }
                                                                            }
                                                                        }

                                                                        else {
                                                                            if (x[73] <= 976.2644958496094) {
                                                                                if (x[30] <= -0.007999999914318323) {
                                                                                    votes[7] += 1;
                                                                                }

                                                                                else {
                                                                                    votes[6] += 1;
                                                                                }
                                                                            }

                                                                            else {
                                                                                votes[7] += 1;
                                                                            }
                                                                        }
                                                                    }
                                                                }
                                                            }
                                                        }

                                                        else {
                                                            if (x[19] <= -0.16600000113248825) {
                                                                if (x[8] <= 0.9650000035762787) {
                                                                    votes[6] += 1;
                                                                }

                                                                else {
                                                                    if (x[45] <= 0.021499999798834324) {
                                                                        if (x[16] <= -0.6044999957084656) {
                                                                            if (x[19] <= -3.750499963760376) {
                                                                                if (x[74] <= 2410.8809814453125) {
                                                                                    if (x[60] <= 0.009499999694526196) {
                                                                                        if (x[56] <= 0.006500000134110451) {
                                                                                            if (x[36] <= 0.8050000071525574) {
                                                                                                votes[6] += 1;
                                                                                            }

                                                                                            else {
                                                                                                votes[7] += 1;
                                                                                            }
                                                                                        }

                                                                                        else {
                                                                                            votes[7] += 1;
                                                                                        }
                                                                                    }

                                                                                    else {
                                                                                        if (x[61] <= 0.006500000134110451) {
                                                                                            votes[6] += 1;
                                                                                        }

                                                                                        else {
                                                                                            votes[7] += 1;
                                                                                        }
                                                                                    }
                                                                                }

                                                                                else {
                                                                                    votes[6] += 1;
                                                                                }
                                                                            }

                                                                            else {
                                                                                votes[7] += 1;
                                                                            }
                                                                        }

                                                                        else {
                                                                            votes[6] += 1;
                                                                        }
                                                                    }

                                                                    else {
                                                                        if (x[51] <= 0.0025000000605359674) {
                                                                            votes[6] += 1;
                                                                        }

                                                                        else {
                                                                            votes[7] += 1;
                                                                        }
                                                                    }
                                                                }
                                                            }

                                                            else {
                                                                votes[6] += 1;
                                                            }
                                                        }
                                                    }

                                                    else {
                                                        if (x[31] <= -0.01000000024214387) {
                                                            votes[3] += 1;
                                                        }

                                                        else {
                                                            votes[6] += 1;
                                                        }
                                                    }
                                                }

                                                else {
                                                    if (x[65] <= 0.0005000000237487257) {
                                                        if (x[37] <= 3.4234999418258667) {
                                                            if (x[27] <= -0.005499999970197678) {
                                                                votes[6] += 1;
                                                            }

                                                            else {
                                                                if (x[64] <= 0.0005000000237487257) {
                                                                    if (x[23] <= -8.997499942779541) {
                                                                        if (x[21] <= -1.418500006198883) {
                                                                            votes[6] += 1;
                                                                        }

                                                                        else {
                                                                            votes[7] += 1;
                                                                        }
                                                                    }

                                                                    else {
                                                                        votes[7] += 1;
                                                                    }
                                                                }

                                                                else {
                                                                    if (x[36] <= 0.6060000061988831) {
                                                                        votes[6] += 1;
                                                                    }

                                                                    else {
                                                                        if (x[54] <= 0.007500000298023224) {
                                                                            if (x[56] <= 0.009499999694526196) {
                                                                                if (x[26] <= -0.004500000039115548) {
                                                                                    votes[6] += 1;
                                                                                }

                                                                                else {
                                                                                    if (x[16] <= -0.7304999828338623) {
                                                                                        votes[7] += 1;
                                                                                    }

                                                                                    else {
                                                                                        if (x[2] <= -9.157999992370605) {
                                                                                            votes[7] += 1;
                                                                                        }

                                                                                        else {
                                                                                            votes[6] += 1;
                                                                                        }
                                                                                    }
                                                                                }
                                                                            }

                                                                            else {
                                                                                if (x[37] <= 2.60699999332428) {
                                                                                    votes[7] += 1;
                                                                                }

                                                                                else {
                                                                                    votes[6] += 1;
                                                                                }
                                                                            }
                                                                        }

                                                                        else {
                                                                            if (x[35] <= 0.032999999821186066) {
                                                                                votes[6] += 1;
                                                                            }

                                                                            else {
                                                                                votes[7] += 1;
                                                                            }
                                                                        }
                                                                    }
                                                                }
                                                            }
                                                        }

                                                        else {
                                                            if (x[32] <= -0.005499999970197678) {
                                                                if (x[60] <= 0.010499999858438969) {
                                                                    if (x[1] <= -5.582000017166138) {
                                                                        if (x[36] <= 0.8544999957084656) {
                                                                            votes[6] += 1;
                                                                        }

                                                                        else {
                                                                            if (x[37] <= 6.108500003814697) {
                                                                                if (x[26] <= -0.004500000039115548) {
                                                                                    votes[6] += 1;
                                                                                }

                                                                                else {
                                                                                    if (x[34] <= 14.205000400543213) {
                                                                                        votes[7] += 1;
                                                                                    }

                                                                                    else {
                                                                                        votes[6] += 1;
                                                                                    }
                                                                                }
                                                                            }

                                                                            else {
                                                                                if (x[60] <= 0.007500000298023224) {
                                                                                    votes[7] += 1;
                                                                                }

                                                                                else {
                                                                                    if (x[73] <= 1238.1525268554688) {
                                                                                        votes[7] += 1;
                                                                                    }

                                                                                    else {
                                                                                        if (x[55] <= 0.005499999970197678) {
                                                                                            votes[6] += 1;
                                                                                        }

                                                                                        else {
                                                                                            if (x[60] <= 0.00849999999627471) {
                                                                                                if (x[23] <= -7.07699990272522) {
                                                                                                    votes[6] += 1;
                                                                                                }

                                                                                                else {
                                                                                                    votes[7] += 1;
                                                                                                }
                                                                                            }

                                                                                            else {
                                                                                                votes[7] += 1;
                                                                                            }
                                                                                        }
                                                                                    }
                                                                                }
                                                                            }
                                                                        }
                                                                    }

                                                                    else {
                                                                        votes[7] += 1;
                                                                    }
                                                                }

                                                                else {
                                                                    votes[6] += 1;
                                                                }
                                                            }

                                                            else {
                                                                if (x[64] <= 0.0005000000237487257) {
                                                                    if (x[72] <= 24.46250057220459) {
                                                                        if (x[55] <= 0.005499999970197678) {
                                                                            votes[6] += 1;
                                                                        }

                                                                        else {
                                                                            if (x[20] <= -5.374000072479248) {
                                                                                if (x[22] <= -7.718000173568726) {
                                                                                    votes[7] += 1;
                                                                                }

                                                                                else {
                                                                                    if (x[60] <= 0.004500000039115548) {
                                                                                        votes[7] += 1;
                                                                                    }

                                                                                    else {
                                                                                        if (x[54] <= 0.005499999970197678) {
                                                                                            votes[6] += 1;
                                                                                        }

                                                                                        else {
                                                                                            if (x[38] <= 7.551500082015991) {
                                                                                                votes[6] += 1;
                                                                                            }

                                                                                            else {
                                                                                                if (x[26] <= -0.004500000039115548) {
                                                                                                    votes[6] += 1;
                                                                                                }

                                                                                                else {
                                                                                                    votes[7] += 1;
                                                                                                }
                                                                                            }
                                                                                        }
                                                                                    }
                                                                                }
                                                                            }

                                                                            else {
                                                                                votes[6] += 1;
                                                                            }
                                                                        }
                                                                    }

                                                                    else {
                                                                        votes[7] += 1;
                                                                    }
                                                                }

                                                                else {
                                                                    if (x[18] <= -0.8414999842643738) {
                                                                        if (x[37] <= 5.078000068664551) {
                                                                            if (x[43] <= 0.03899999940767884) {
                                                                                votes[7] += 1;
                                                                            }

                                                                            else {
                                                                                votes[6] += 1;
                                                                            }
                                                                        }

                                                                        else {
                                                                            if (x[74] <= 1943.5390014648438) {
                                                                                if (x[38] <= 7.718500137329102) {
                                                                                    if (x[37] <= 5.5965001583099365) {
                                                                                        votes[6] += 1;
                                                                                    }

                                                                                    else {
                                                                                        if (x[1] <= -5.726999998092651) {
                                                                                            if (x[35] <= 0.022499999962747097) {
                                                                                                if (x[38] <= 7.45799994468689) {
                                                                                                    votes[7] += 1;
                                                                                                }

                                                                                                else {
                                                                                                    votes[6] += 1;
                                                                                                }
                                                                                            }

                                                                                            else {
                                                                                                if (x[36] <= 0.8745000064373016) {
                                                                                                    votes[6] += 1;
                                                                                                }

                                                                                                else {
                                                                                                    votes[7] += 1;
                                                                                                }
                                                                                            }
                                                                                        }

                                                                                        else {
