#pragma once
#include <cstdarg>
#include <cstdint>
namespace Eloquent {
    namespace ML {
        namespace Port {
            class RandomForest {
                public:
                    /**
                    * Predict class for features vector
                    */
                    int predict(float *x) {
                        uint8_t votes[13] = { 0 };
                        // tree #1
                        if (x[2] <= -4.791999936103821) {
                            if (x[4] <= 0.010499999858438969) {
                                if (x[4] <= 0.00849999999627471) {
                                    if (x[4] <= 0.005499999970197678) {
                                        if (x[4] <= -0.029000000096857548) {
                                            if (x[5] <= -0.006500000134110451) {
                                                if (x[1] <= -0.23799999803304672) {
                                                    if (x[3] <= 0.5349999745376408) {
                                                        votes[4] += 1;
                                                    }

                                                    else {
                                                        if (x[0] <= -0.5974999964237213) {
                                                            votes[8] += 1;
                                                        }

                                                        else {
                                                            votes[5] += 1;
                                                        }
                                                    }
                                                }

                                                else {
                                                    if (x[2] <= -9.378000259399414) {
                                                        if (x[1] <= -0.1459999978542328) {
                                                            votes[4] += 1;
                                                        }

                                                        else {
                                                            if (x[0] <= -1.222499966621399) {
                                                                votes[4] += 1;
                                                            }

                                                            else {
                                                                if (x[3] <= 1.0130000323988497) {
                                                                    votes[1] += 1;
                                                                }

                                                                else {
                                                                    votes[8] += 1;
                                                                }
                                                            }
                                                        }
                                                    }

                                                    else {
                                                        votes[1] += 1;
                                                    }
                                                }
                                            }

                                            else {
                                                if (x[3] <= 0.26099998503923416) {
                                                    votes[4] += 1;
                                                }

                                                else {
                                                    votes[5] += 1;
                                                }
                                            }
                                        }

                                        else {
                                            if (x[0] <= -0.9325000047683716) {
                                                if (x[3] <= 0.02099999994970858) {
                                                    votes[1] += 1;
                                                }

                                                else {
                                                    votes[8] += 1;
                                                }
                                            }

                                            else {
                                                if (x[3] <= 0.015500000910833478) {
                                                    if (x[1] <= -0.21800000220537186) {
                                                        votes[4] += 1;
                                                    }

                                                    else {
                                                        if (x[1] <= -0.1639999970793724) {
                                                            votes[1] += 1;
                                                        }

                                                        else {
                                                            votes[1] += 1;
                                                        }
                                                    }
                                                }

                                                else {
                                                    if (x[4] <= -0.012500000186264515) {
                                                        if (x[2] <= -9.382999897003174) {
                                                            if (x[5] <= -0.017499999841675162) {
                                                                votes[7] += 1;
                                                            }

                                                            else {
                                                                votes[5] += 1;
                                                            }
                                                        }

                                                        else {
                                                            votes[5] += 1;
                                                        }
                                                    }

                                                    else {
                                                        if (x[0] <= -0.3709999918937683) {
                                                            if (x[1] <= -1.1039999723434448) {
                                                                if (x[5] <= -0.017500000074505806) {
                                                                    votes[7] += 1;
                                                                }

                                                                else {
                                                                    if (x[3] <= 0.11499999836087227) {
                                                                        votes[7] += 1;
                                                                    }

                                                                    else {
                                                                        votes[6] += 1;
                                                                    }
                                                                }
                                                            }

                                                            else {
                                                                votes[6] += 1;
                                                            }
                                                        }

                                                        else {
                                                            votes[5] += 1;
                                                        }
                                                    }
                                                }
                                            }
                                        }
                                    }

                                    else {
                                        if (x[1] <= -0.49650001525878906) {
                                            if (x[0] <= -0.9695000052452087) {
                                                votes[8] += 1;
                                            }

                                            else {
                                                if (x[0] <= -0.4010000079870224) {
                                                    if (x[4] <= 0.007500000298023224) {
                                                        if (x[1] <= -3.4570000171661377) {
                                                            votes[7] += 1;
                                                        }

                                                        else {
                                                            votes[7] += 1;
                                                        }
                                                    }

                                                    else {
                                                        votes[6] += 1;
                                                    }
                                                }

                                                else {
                                                    votes[5] += 1;
                                                }
                                            }
                                        }

                                        else {
                                            if (x[0] <= 0.5399999916553497) {
                                                if (x[0] <= 0.26449999772012234) {
                                                    if (x[5] <= -0.011499999789521098) {
                                                        votes[8] += 1;
                                                    }

                                                    else {
                                                        votes[5] += 1;
                                                    }
                                                }

                                                else {
                                                    votes[4] += 1;
                                                }
                                            }

                                            else {
                                                if (x[3] <= -0.005000000121071935) {
                                                    votes[3] += 1;
                                                }

                                                else {
                                                    votes[1] += 1;
                                                }
                                            }
                                        }
                                    }
                                }

                                else {
                                    if (x[1] <= -1.6580000519752502) {
                                        if (x[5] <= -0.013999999966472387) {
                                            votes[8] += 1;
                                        }

                                        else {
                                            if (x[4] <= 0.009499999694526196) {
                                                if (x[5] <= -0.006500000134110451) {
                                                    votes[7] += 1;
                                                }

                                                else {
                                                    votes[7] += 1;
                                                }
                                            }

                                            else {
                                                votes[7] += 1;
                                            }
                                        }
                                    }

                                    else {
                                        if (x[5] <= -0.010999999940395355) {
                                            if (x[3] <= -0.007500000298023224) {
                                                if (x[5] <= -0.016499999910593033) {
                                                    votes[8] += 1;
                                                }

                                                else {
                                                    votes[3] += 1;
                                                }
                                            }

                                            else {
                                                if (x[4] <= 0.009499999694526196) {
                                                    if (x[5] <= -0.019499999471008778) {
                                                        if (x[1] <= -0.4129999950528145) {
                                                            votes[8] += 1;
                                                        }

                                                        else {
                                                            votes[8] += 1;
                                                        }
                                                    }

                                                    else {
                                                        if (x[2] <= -9.465499877929688) {
                                                            votes[4] += 1;
                                                        }

                                                        else {
                                                            if (x[0] <= 1.0370000302791595) {
                                                                votes[1] += 1;
                                                            }

                                                            else {
                                                                votes[4] += 1;
                                                            }
                                                        }
                                                    }
                                                }

                                                else {
                                                    if (x[2] <= -9.394999980926514) {
                                                        if (x[0] <= 0.8154999911785126) {
                                                            if (x[1] <= -0.12349999696016312) {
                                                                votes[4] += 1;
                                                            }

                                                            else {
                                                                votes[1] += 1;
                                                            }
                                                        }

                                                        else {
                                                            if (x[0] <= 1.0150000154972076) {
                                                                votes[2] += 1;
                                                            }

                                                            else {
                                                                votes[4] += 1;
                                                            }
                                                        }
                                                    }

                                                    else {
                                                        if (x[0] <= 0.21299999952316284) {
                                                            votes[8] += 1;
                                                        }

                                                        else {
                                                            if (x[1] <= -0.2224999964237213) {
                                                                if (x[0] <= 3.25600004196167) {
                                                                    votes[1] += 1;
                                                                }

                                                                else {
                                                                    votes[2] += 1;
                                                                }
                                                            }

                                                            else {
                                                                votes[2] += 1;
                                                            }
                                                        }
                                                    }
                                                }
                                            }
                                        }

                                        else {
                                            if (x[2] <= -9.422499656677246) {
                                                if (x[5] <= -0.005499999970197678) {
                                                    votes[7] += 1;
                                                }

                                                else {
                                                    if (x[5] <= -0.004500000039115548) {
                                                        if (x[2] <= -9.438999652862549) {
                                                            votes[5] += 1;
                                                        }

                                                        else {
                                                            votes[5] += 1;
                                                        }
                                                    }

                                                    else {
                                                        votes[5] += 1;
                                                    }
                                                }
                                            }

                                            else {
                                                if (x[0] <= -0.41199999302625656) {
                                                    votes[6] += 1;
                                                }

                                                else {
                                                    votes[5] += 1;
                                                }
                                            }
                                        }
                                    }
                                }
                            }

                            else {
                                if (x[3] <= -0.005499999970197678) {
                                    if (x[2] <= -9.311999797821045) {
                                        if (x[1] <= -0.11749999970197678) {
                                            if (x[1] <= -0.36650000512599945) {
                                                if (x[0] <= -0.6045000180602074) {
                                                    votes[8] += 1;
                                                }

                                                else {
                                                    votes[5] += 1;
                                                }
                                            }

                                            else {
                                                if (x[5] <= -0.013500000350177288) {
                                                    votes[4] += 1;
                                                }

                                                else {
                                                    votes[5] += 1;
                                                }
                                            }
                                        }

                                        else {
                                            if (x[4] <= 0.012500000186264515) {
                                                if (x[5] <= -0.015999999828636646) {
                                                    if (x[1] <= 0.607999995816499) {
                                                        votes[2] += 1;
                                                    }

                                                    else {
                                                        votes[8] += 1;
                                                    }
                                                }

                                                else {
                                                    votes[3] += 1;
                                                }
                                            }

                                            else {
                                                if (x[5] <= -0.012000000104308128) {
                                                    if (x[0] <= -0.08400002121925354) {
                                                        votes[8] += 1;
                                                    }

                                                    else {
                                                        if (x[1] <= -0.0430000014603138) {
                                                            votes[2] += 1;
                                                        }

                                                        else {
                                                            votes[3] += 1;
                                                        }
                                                    }
                                                }

                                                else {
                                                    if (x[5] <= 0.006500000134110451) {
                                                        if (x[2] <= -9.423499584197998) {
                                                            if (x[5] <= -0.0005000000237487257) {
                                                                votes[8] += 1;
                                                            }

                                                            else {
                                                                votes[5] += 1;
                                                            }
                                                        }

                                                        else {
                                                            if (x[3] <= -0.18599999696016312) {
                                                                votes[5] += 1;
                                                            }

                                                            else {
                                                                votes[8] += 1;
                                                            }
                                                        }
                                                    }

                                                    else {
                                                        votes[8] += 1;
                                                    }
                                                }
                                            }
                                        }
                                    }

                                    else {
                                        if (x[0] <= 1.7809999585151672) {
                                            if (x[5] <= -0.018499999307096004) {
                                                if (x[1] <= -1.3104999512434006) {
                                                    votes[8] += 1;
                                                }

                                                else {
                                                    votes[4] += 1;
                                                }
                                            }

                                            else {
                                                if (x[2] <= -9.006999969482422) {
                                                    if (x[2] <= -9.220000267028809) {
                                                        if (x[5] <= -0.003000000026077032) {
                                                            if (x[3] <= -0.012499999720603228) {
                                                                votes[5] += 1;
                                                            }

                                                            else {
                                                                votes[3] += 1;
                                                            }
                                                        }

                                                        else {
                                                            votes[8] += 1;
                                                        }
                                                    }

                                                    else {
                                                        if (x[0] <= -0.9364999830722809) {
                                                            votes[8] += 1;
                                                        }

                                                        else {
                                                            votes[6] += 1;
                                                        }
                                                    }
                                                }

                                                else {
                                                    votes[6] += 1;
                                                }
                                            }
                                        }

                                        else {
                                            if (x[3] <= -0.007500000298023224) {
                                                if (x[1] <= -0.25299999862909317) {
                                                    votes[2] += 1;
                                                }

                                                else {
                                                    if (x[2] <= -8.874000072479248) {
                                                        votes[3] += 1;
                                                    }

                                                    else {
                                                        votes[3] += 1;
                                                    }
                                                }
                                            }

                                            else {
                                                if (x[5] <= -0.016499999910593033) {
                                                    votes[2] += 1;
                                                }

                                                else {
                                                    votes[3] += 1;
                                                }
                                            }
                                        }
                                    }
                                }

                                else {
                                    if (x[0] <= -0.5384999960660934) {
                                        if (x[3] <= -0.004500000039115548) {
                                            if (x[1] <= -6.108999967575073) {
                                                if (x[1] <= -6.2209999561309814) {
                                                    if (x[2] <= -7.090500116348267) {
                                                        if (x[0] <= -0.8799999952316284) {
                                                            if (x[5] <= -0.006500000134110451) {
                                                                votes[7] += 1;
                                                            }

                                                            else {
                                                                if (x[1] <= -6.297999858856201) {
                                                                    if (x[4] <= 0.011500000022351742) {
                                                                        votes[7] += 1;
                                                                    }

                                                                    else {
                                                                        votes[7] += 1;
                                                                    }
                                                                }

                                                                else {
                                                                    votes[6] += 1;
                                                                }
                                                            }
                                                        }

                                                        else {
                                                            if (x[0] <= -0.8700000047683716) {
                                                                if (x[0] <= -0.8725000023841858) {
                                                                    if (x[2] <= -7.105000019073486) {
                                                                        votes[6] += 1;
                                                                    }

                                                                    else {
                                                                        votes[6] += 1;
                                                                    }
                                                                }

                                                                else {
                                                                    if (x[1] <= -6.302999973297119) {
                                                                        votes[6] += 1;
                                                                    }

                                                                    else {
                                                                        votes[7] += 1;
                                                                    }
                                                                }
                                                            }

                                                            else {
                                                                if (x[5] <= -0.005499999970197678) {
                                                                    if (x[4] <= 0.011500000022351742) {
                                                                        votes[6] += 1;
                                                                    }

                                                                    else {
                                                                        votes[6] += 1;
                                                                    }
                                                                }

                                                                else {
                                                                    votes[6] += 1;
                                                                }
                                                            }
                                                        }
                                                    }

                                                    else {
                                                        if (x[2] <= -7.080999851226807) {
                                                            if (x[2] <= -7.088000059127808) {
                                                                if (x[1] <= -6.3125) {
                                                                    if (x[4] <= 0.011500000022351742) {
                                                                        votes[7] += 1;
                                                                    }

                                                                    else {
                                                                        votes[7] += 1;
                                                                    }
                                                                }

                                                                else {
                                                                    if (x[5] <= -0.006500000134110451) {
                                                                        votes[7] += 1;
                                                                    }

                                                                    else {
                                                                        votes[7] += 1;
                                                                    }
                                                                }
                                                            }

                                                            else {
                                                                if (x[5] <= -0.005499999970197678) {
                                                                    if (x[4] <= 0.011500000022351742) {
                                                                        votes[7] += 1;
                                                                    }

                                                                    else {
                                                                        votes[6] += 1;
                                                                    }
                                                                }

                                                                else {
                                                                    votes[6] += 1;
                                                                }
                                                            }
                                                        }

                                                        else {
                                                            if (x[0] <= -0.8700000047683716) {
                                                                if (x[1] <= -6.305000066757202) {
                                                                    votes[7] += 1;
                                                                }

                                                                else {
                                                                    if (x[1] <= -6.302999973297119) {
                                                                        votes[6] += 1;
                                                                    }

                                                                    else {
                                                                        votes[7] += 1;
                                                                    }
                                                                }
                                                            }

                                                            else {
                                                                votes[6] += 1;
                                                            }
                                                        }
                                                    }
                                                }

                                                else {
                                                    votes[7] += 1;
                                                }
                                            }

                                            else {
                                                if (x[5] <= -0.005499999970197678) {
                                                    if (x[4] <= 0.011500000022351742) {
                                                        if (x[2] <= -7.364500045776367) {
                                                            if (x[2] <= -7.986000061035156) {
                                                                if (x[1] <= -4.781499862670898) {
                                                                    if (x[5] <= -0.006500000134110451) {
                                                                        votes[7] += 1;
                                                                    }

                                                                    else {
                                                                        votes[7] += 1;
                                                                    }
                                                                }

                                                                else {
                                                                    if (x[0] <= -0.80799999833107) {
                                                                        votes[7] += 1;
                                                                    }

                                                                    else {
                                                                        votes[7] += 1;
                                                                    }
                                                                }
                                                            }

                                                            else {
                                                                if (x[0] <= -0.8440000116825104) {
                                                                    if (x[0] <= -0.8560000061988831) {
                                                                        votes[7] += 1;
                                                                    }

                                                                    else {
                                                                        votes[7] += 1;
                                                                    }
                                                                }

                                                                else {
                                                                    if (x[1] <= -5.384500026702881) {
                                                                        votes[7] += 1;
                                                                    }

                                                                    else {
                                                                        votes[6] += 1;
                                                                    }
                                                                }
                                                            }
                                                        }

                                                        else {
                                                            votes[6] += 1;
                                                        }
                                                    }

                                                    else {
                                                        if (x[1] <= -5.97350001335144) {
                                                            votes[6] += 1;
                                                        }

                                                        else {
                                                            if (x[2] <= -7.796999931335449) {
                                                                if (x[1] <= -5.081500053405762) {
                                                                    if (x[4] <= 0.012500000186264515) {
                                                                        votes[6] += 1;
                                                                    }

                                                                    else {
                                                                        votes[6] += 1;
                                                                    }
                                                                }

                                                                else {
                                                                    if (x[0] <= -0.8319999873638153) {
                                                                        votes[7] += 1;
                                                                    }

                                                                    else {
                                                                        votes[6] += 1;
                                                                    }
                                                                }
                                                            }

                                                            else {
                                                                if (x[1] <= -5.494500160217285) {
                                                                    if (x[1] <= -5.596499919891357) {
                                                                        votes[6] += 1;
                                                                    }

                                                                    else {
                                                                        votes[6] += 1;
                                                                    }
                                                                }

                                                                else {
                                                                    if (x[1] <= -5.382500171661377) {
                                                                        votes[7] += 1;
                                                                    }

                                                                    else {
                                                                        votes[6] += 1;
                                                                    }
                                                                }
                                                            }
                                                        }
                                                    }
                                                }

                                                else {
                                                    if (x[1] <= -2.002499997615814) {
                                                        if (x[0] <= -0.7005000114440918) {
                                                            if (x[5] <= -0.004500000039115548) {
                                                                if (x[0] <= -0.7100000083446503) {
                                                                    if (x[2] <= -8.804500102996826) {
                                                                        votes[6] += 1;
                                                                    }

                                                                    else {
                                                                        votes[6] += 1;
                                                                    }
                                                                }

                                                                else {
                                                                    if (x[0] <= -0.7074999809265137) {
                                                                        votes[6] += 1;
                                                                    }

                                                                    else {
                                                                        votes[6] += 1;
                                                                    }
                                                                }
                                                            }

                                                            else {
                                                                votes[6] += 1;
                                                            }
                                                        }

                                                        else {
                                                            votes[7] += 1;
                                                        }
                                                    }

                                                    else {
                                                        if (x[1] <= -1.3920000195503235) {
                                                            if (x[2] <= -9.302499771118164) {
                                                                if (x[0] <= -0.676499992609024) {
                                                                    if (x[4] <= 0.011500000022351742) {
                                                                        votes[6] += 1;
                                                                    }

                                                                    else {
                                                                        votes[6] += 1;
                                                                    }
                                                                }

                                                                else {
                                                                    votes[6] += 1;
                                                                }
                                                            }

                                                            else {
                                                                if (x[2] <= -9.271499633789062) {
                                                                    if (x[4] <= 0.011500000022351742) {
                                                                        votes[6] += 1;
                                                                    }

                                                                    else {
                                                                        votes[6] += 1;
                                                                    }
                                                                }

                                                                else {
                                                                    votes[6] += 1;
                                                                }
                                                            }
                                                        }

                                                        else {
                                                            if (x[1] <= -1.2759999632835388) {
                                                                if (x[0] <= -0.6714999973773956) {
                                                                    votes[7] += 1;
                                                                }

                                                                else {
                                                                    if (x[1] <= -1.3865000009536743) {
                                                                        votes[6] += 1;
                                                                    }

                                                                    else {
                                                                        votes[7] += 1;
                                                                    }
                                                                }
                                                            }

                                                            else {
                                                                if (x[1] <= -0.8510000109672546) {
                                                                    if (x[4] <= 0.011500000022351742) {
                                                                        votes[6] += 1;
                                                                    }

                                                                    else {
                                                                        votes[6] += 1;
                                                                    }
                                                                }

                                                                else {
                                                                    if (x[2] <= -9.407999992370605) {
                                                                        votes[6] += 1;
                                                                    }

                                                                    else {
                                                                        votes[6] += 1;
                                                                    }
                                                                }
                                                            }
                                                        }
                                                    }
                                                }
                                            }
                                        }

                                        else {
                                            if (x[0] <= -0.640500009059906) {
                                                if (x[5] <= -0.005499999970197678) {
                                                    if (x[1] <= -0.044499999028630555) {
                                                        if (x[4] <= 0.011500000022351742) {
                                                            if (x[2] <= -9.419999599456787) {
                                                                if (x[2] <= -9.422499656677246) {
                                                                    votes[6] += 1;
                                                                }

                                                                else {
                                                                    votes[6] += 1;
                                                                }
                                                            }

                                                            else {
                                                                if (x[5] <= -0.006500000134110451) {
                                                                    if (x[2] <= -9.381999969482422) {
                                                                        votes[6] += 1;
                                                                    }

                                                                    else {
                                                                        votes[7] += 1;
                                                                    }
                                                                }

                                                                else {
                                                                    if (x[3] <= -0.0025000000605359674) {
                                                                        votes[7] += 1;
                                                                    }

                                                                    else {
                                                                        votes[7] += 1;
                                                                    }
                                                                }
                                                            }
                                                        }

                                                        else {
                                                            if (x[1] <= -1.1514999866485596) {
                                                                if (x[3] <= -0.0035000001080334187) {
                                                                    if (x[0] <= -0.6620000004768372) {
                                                                        votes[7] += 1;
                                                                    }

                                                                    else {
                                                                        votes[6] += 1;
                                                                    }
                                                                }

                                                                else {
                                                                    if (x[2] <= -8.849999904632568) {
                                                                        votes[7] += 1;
                                                                    }

                                                                    else {
                                                                        votes[6] += 1;
                                                                    }
                                                                }
                                                            }

                                                            else {
                                                                if (x[3] <= 0.009499999636318535) {
                                                                    if (x[2] <= -9.407999992370605) {
                                                                        votes[7] += 1;
                                                                    }

                                                                    else {
                                                                        votes[7] += 1;
                                                                    }
                                                                }

                                                                else {
                                                                    votes[4] += 1;
                                                                }
                                                            }
                                                        }
                                                    }

                                                    else {
                                                        votes[1] += 1;
                                                    }
                                                }

                                                else {
                                                    if (x[1] <= -2.0015000700950623) {
                                                        if (x[1] <= -2.1644999980926514) {
                                                            if (x[4] <= 0.011500000022351742) {
                                                                if (x[1] <= -4.679500102996826) {
                                                                    votes[7] += 1;
                                                                }

                                                                else {
                                                                    if (x[1] <= -2.846500039100647) {
                                                                        votes[6] += 1;
                                                                    }

                                                                    else {
                                                                        votes[7] += 1;
                                                                    }
                                                                }
                                                            }

                                                            else {
                                                                if (x[1] <= -5.384500026702881) {
                                                                    votes[7] += 1;
                                                                }

                                                                else {
                                                                    if (x[0] <= -0.7434999942779541) {
                                                                        votes[6] += 1;
                                                                    }

                                                                    else {
                                                                        votes[6] += 1;
                                                                    }
                                                                }
                                                            }
                                                        }

                                                        else {
                                                            votes[7] += 1;
                                                        }
                                                    }

                                                    else {
                                                        if (x[2] <= -9.407999992370605) {
                                                            if (x[2] <= -9.422499656677246) {
                                                                votes[6] += 1;
                                                            }

                                                            else {
                                                                if (x[0] <= -0.6430000066757202) {
                                                                    if (x[4] <= 0.011500000022351742) {
                                                                        votes[6] += 1;
                                                                    }

                                                                    else {
                                                                        votes[6] += 1;
                                                                    }
                                                                }

                                                                else {
                                                                    votes[6] += 1;
                                                                }
                                                            }
                                                        }

                                                        else {
                                                            if (x[4] <= 0.011500000022351742) {
                                                                if (x[0] <= -0.6809999942779541) {
                                                                    if (x[1] <= -1.821999967098236) {
                                                                        votes[6] += 1;
                                                                    }

                                                                    else {
                                                                        votes[7] += 1;
                                                                    }
                                                                }

                                                                else {
                                                                    if (x[0] <= -0.6714999973773956) {
                                                                        votes[6] += 1;
                                                                    }

                                                                    else {
                                                                        votes[6] += 1;
                                                                    }
                                                                }
                                                            }

                                                            else {
                                                                if (x[2] <= -9.398499965667725) {
                                                                    if (x[0] <= -0.6430000066757202) {
                                                                        votes[6] += 1;
                                                                    }

                                                                    else {
                                                                        votes[7] += 1;
                                                                    }
                                                                }

                                                                else {
                                                                    if (x[2] <= -9.369500160217285) {
                                                                        votes[6] += 1;
                                                                    }

                                                                    else {
                                                                        votes[6] += 1;
                                                                    }
                                                                }
                                                            }
                                                        }
                                                    }
                                                }
                                            }

                                            else {
                                                if (x[0] <= -0.5999999940395355) {
                                                    if (x[2] <= -9.443999767303467) {
                                                        if (x[1] <= -0.1655000001192093) {
                                                            votes[7] += 1;
                                                        }

                                                        else {
                                                            votes[6] += 1;
                                                        }
                                                    }

                                                    else {
                                                        if (x[2] <= -9.407999992370605) {
                                                            if (x[0] <= -0.6225000023841858) {
                                                                if (x[4] <= 0.011500000022351742) {
                                                                    if (x[5] <= -0.005499999970197678) {
                                                                        votes[7] += 1;
                                                                    }

                                                                    else {
                                                                        votes[6] += 1;
                                                                    }
                                                                }

                                                                else {
                                                                    if (x[1] <= -0.8490000069141388) {
                                                                        votes[6] += 1;
                                                                    }

                                                                    else {
                                                                        votes[6] += 1;
                                                                    }
                                                                }
                                                            }

                                                            else {
                                                                if (x[1] <= -0.1614999994635582) {
                                                                    if (x[4] <= 0.011500000022351742) {
                                                                        votes[7] += 1;
                                                                    }

                                                                    else {
                                                                        votes[7] += 1;
                                                                    }
                                                                }

                                                                else {
                                                                    if (x[5] <= -0.005499999970197678) {
                                                                        votes[6] += 1;
                                                                    }

                                                                    else {
                                                                        votes[6] += 1;
                                                                    }
                                                                }
                                                            }
                                                        }

                                                        else {
                                                            if (x[1] <= -0.8465000092983246) {
                                                                if (x[4] <= 0.011500000022351742) {
                                                                    if (x[2] <= -9.398499965667725) {
                                                                        votes[7] += 1;
                                                                    }

                                                                    else {
                                                                        votes[7] += 1;
                                                                    }
                                                                }

                                                                else {
                                                                    if (x[2] <= -9.396000385284424) {
                                                                        votes[7] += 1;
                                                                    }

                                                                    else {
                                                                        votes[7] += 1;
                                                                    }
                                                                }
                                                            }

                                                            else {
                                                                if (x[0] <= -0.6355000138282776) {
                                                                    if (x[4] <= 0.011500000022351742) {
                                                                        votes[6] += 1;
                                                                    }

                                                                    else {
                                                                        votes[7] += 1;
                                                                    }
                                                                }

                                                                else {
                                                                    votes[6] += 1;
                                                                }
                                                            }
                                                        }
                                                    }
                                                }

                                                else {
                                                    if (x[1] <= -0.1655000001192093) {
                                                        if (x[1] <= -0.16899999976158142) {
                                                            votes[7] += 1;
                                                        }

                                                        else {
                                                            votes[7] += 1;
                                                        }
                                                    }

                                                    else {
                                                        votes[6] += 1;
                                                    }
                                                }
                                            }
                                        }
                                    }

                                    else {
                                        if (x[3] <= -0.004500000039115548) {
                                            if (x[5] <= -0.01549999974668026) {
                                                if (x[0] <= 1.9345000386238098) {
                                                    votes[4] += 1;
                                                }

                                                else {
                                                    if (x[2] <= -8.569999933242798) {
                                                        votes[1] += 1;
                                                    }

                                                    else {
                                                        votes[2] += 1;
                                                    }
                                                }
                                            }

                                            else {
                                                if (x[2] <= -9.087500095367432) {
                                                    votes[5] += 1;
                                                }

                                                else {
                                                    votes[3] += 1;
                                                }
                                            }
                                        }

                                        else {
                                            if (x[4] <= 0.03399999998509884) {
                                                if (x[5] <= -0.011999999638646841) {
                                                    votes[1] += 1;
                                                }

                                                else {
                                                    votes[5] += 1;
                                                }
                                            }

                                            else {
                                                if (x[5] <= -0.012500000186264515) {
                                                    if (x[2] <= -9.32200002670288) {
                                                        if (x[4] <= 0.30000001192092896) {
                                                            votes[4] += 1;
                                                        }

                                                        else {
                                                            if (x[2] <= -9.425999641418457) {
                                                                votes[4] += 1;
                                                            }

                                                            else {
                                                                votes[2] += 1;
                                                            }
                                                        }
                                                    }

                                                    else {
                                                        if (x[0] <= 2.555500030517578) {
                                                            if (x[5] <= -0.015999999828636646) {
                                                                if (x[1] <= -0.08500000089406967) {
                                                                    votes[1] += 1;
                                                                }

                                                                else {
                                                                    votes[2] += 1;
                                                                }
                                                            }

                                                            else {
                                                                votes[2] += 1;
                                                            }
                                                        }

                                                        else {
                                                            if (x[0] <= 3.364000082015991) {
                                                                votes[2] += 1;
                                                            }

                                                            else {
                                                                votes[2] += 1;
                                                            }
                                                        }
                                                    }
                                                }

                                                else {
                                                    if (x[1] <= -0.17149999737739563) {
                                                        votes[3] += 1;
                                                    }

                                                    else {
                                                        if (x[2] <= -8.90850019454956) {
                                                            votes[3] += 1;
                                                        }

                                                        else {
                                                            votes[2] += 1;
                                                        }
                                                    }
                                                }
                                            }
                                        }
                                    }
                                }
                            }
                        }

                        else {
                            if (x[0] <= -3.4140000492334366) {
                                if (x[4] <= 0.012500000186264515) {
                                    if (x[1] <= -0.06599999964237213) {
                                        if (x[3] <= -0.005499999970197678) {
                                            if (x[5] <= -0.02049999963492155) {
                                                votes[10] += 1;
                                            }

                                            else {
                                                if (x[2] <= 1.50600004196167) {
                                                    votes[9] += 1;
                                                }

                                                else {
                                                    if (x[4] <= -0.8134999871253967) {
                                                        votes[9] += 1;
                                                    }

                                                    else {
                                                        votes[10] += 1;
                                                    }
                                                }
                                            }
                                        }

                                        else {
                                            if (x[5] <= -0.018000000156462193) {
                                                if (x[5] <= -0.02049999963492155) {
                                                    if (x[4] <= -0.004999999888241291) {
                                                        votes[10] += 1;
                                                    }

                                                    else {
                                                        if (x[4] <= 0.011500000022351742) {
                                                            votes[9] += 1;
                                                        }

                                                        else {
                                                            votes[10] += 1;
                                                        }
                                                    }
                                                }

                                                else {
                                                    if (x[3] <= -0.004500000039115548) {
                                                        if (x[4] <= 0.011500000022351742) {
                                                            votes[9] += 1;
                                                        }

                                                        else {
                                                            if (x[0] <= -9.33400011062622) {
                                                                votes[9] += 1;
                                                            }

                                                            else {
                                                                votes[10] += 1;
                                                            }
                                                        }
                                                    }

                                                    else {
                                                        if (x[2] <= 3.1135000586509705) {
                                                            votes[9] += 1;
                                                        }

                                                        else {
                                                            votes[10] += 1;
                                                        }
                                                    }
                                                }
                                            }

                                            else {
                                                if (x[3] <= 0.0) {
                                                    if (x[0] <= -9.694499969482422) {
                                                        votes[9] += 1;
                                                    }

                                                    else {
                                                        votes[10] += 1;
                                                    }
                                                }

                                                else {
                                                    votes[9] += 1;
                                                }
                                            }
                                        }
                                    }

                                    else {
                                        if (x[0] <= -9.100500106811523) {
                                            votes[9] += 1;
                                        }

                                        else {
                                            votes[10] += 1;
                                        }
                                    }
                                }

                                else {
                                    if (x[3] <= -0.005499999970197678) {
                                        if (x[4] <= 0.014500000048428774) {
                                            if (x[5] <= -0.019499999471008778) {
                                                if (x[1] <= -0.04400000162422657) {
                                                    if (x[0] <= -9.82450008392334) {
                                                        votes[9] += 1;
                                                    }

                                                    else {
                                                        if (x[1] <= -0.04900000058114529) {
                                                            if (x[0] <= -9.80049991607666) {
                                                                if (x[5] <= -0.02049999963492155) {
                                                                    votes[10] += 1;
                                                                }

                                                                else {
                                                                    if (x[1] <= -0.23000000417232513) {
                                                                        votes[9] += 1;
                                                                    }

                                                                    else {
                                                                        votes[10] += 1;
                                                                    }
                                                                }
                                                            }

                                                            else {
                                                                votes[10] += 1;
                                                            }
                                                        }

                                                        else {
                                                            if (x[5] <= -0.02049999963492155) {
                                                                votes[9] += 1;
                                                            }

                                                            else {
                                                                if (x[0] <= -9.100500106811523) {
                                                                    votes[9] += 1;
                                                                }

                                                                else {
                                                                    votes[10] += 1;
                                                                }
                                                            }
                                                        }
                                                    }
                                                }

                                                else {
                                                    if (x[1] <= -0.042000001296401024) {
                                                        if (x[2] <= 4.007999897003174) {
                                                            votes[9] += 1;
                                                        }

                                                        else {
                                                            votes[10] += 1;
                                                        }
                                                    }

                                                    else {
                                                        if (x[2] <= 4.125999927520752) {
                                                            votes[9] += 1;
                                                        }

                                                        else {
                                                            votes[10] += 1;
                                                        }
                                                    }
                                                }
                                            }

                                            else {
                                                if (x[1] <= -0.16250000149011612) {
                                                    votes[9] += 1;
                                                }

                                                else {
                                                    if (x[2] <= 2.6899999380111694) {
                                                        votes[9] += 1;
                                                    }

                                                    else {
                                                        votes[10] += 1;
                                                    }
                                                }
                                            }
                                        }

                                        else {
                                            votes[9] += 1;
                                        }
                                    }

                                    else {
                                        if (x[2] <= 2.696000099182129) {
                                            votes[9] += 1;
                                        }

                                        else {
                                            votes[10] += 1;
                                        }
                                    }
                                }
                            }

                            else {
                                if (x[4] <= 0.012500000186264515) {
                                    if (x[2] <= 2.196500062942505) {
                                        if (x[3] <= -0.006500000134110451) {
                                            if (x[1] <= -0.10399999842047691) {
                                                if (x[2] <= 1.6449999809265137) {
                                                    if (x[0] <= 9.647500038146973) {
                                                        if (x[4] <= 0.005499999970197678) {
                                                            votes[12] += 1;
                                                        }

                                                        else {
                                                            if (x[2] <= 1.5250000357627869) {
                                                                if (x[2] <= 1.3755000233650208) {
                                                                    votes[11] += 1;
                                                                }

                                                                else {
                                                                    votes[12] += 1;
                                                                }
                                                            }

                                                            else {
                                                                votes[11] += 1;
                                                            }
                                                        }
                                                    }

                                                    else {
                                                        if (x[5] <= 0.007999999914318323) {
                                                            votes[12] += 1;
                                                        }

                                                        else {
                                                            votes[11] += 1;
                                                        }
                                                    }
                                                }

                                                else {
                                                    if (x[0] <= 9.59499979019165) {
                                                        if (x[2] <= 1.9790000319480896) {
                                                            if (x[2] <= 1.9740000367164612) {
                                                                if (x[1] <= -0.1665000021457672) {
                                                                    if (x[1] <= -0.17599999904632568) {
                                                                        votes[11] += 1;
                                                                    }

                                                                    else {
                                                                        votes[11] += 1;
                                                                    }
                                                                }

                                                                else {
                                                                    votes[12] += 1;
                                                                }
                                                            }

                                                            else {
                                                                if (x[0] <= 9.589999675750732) {
                                                                    if (x[1] <= -0.1810000017285347) {
                                                                        votes[11] += 1;
                                                                    }

                                                                    else {
                                                                        votes[12] += 1;
                                                                    }
                                                                }

                                                                else {
                                                                    if (x[5] <= 0.007999999914318323) {
                                                                        votes[12] += 1;
                                                                    }

                                                                    else {
                                                                        votes[11] += 1;
                                                                    }
                                                                }
                                                            }
                                                        }

                                                        else {
                                                            if (x[4] <= 0.006500000134110451) {
                                                                votes[12] += 1;
                                                            }

                                                            else {
                                                                if (x[2] <= 1.9860000014305115) {
                                                                    if (x[2] <= 1.981000006198883) {
                                                                        votes[12] += 1;
                                                                    }

                                                                    else {
                                                                        votes[12] += 1;
                                                                    }
                                                                }

                                                                else {
                                                                    if (x[5] <= 0.00849999999627471) {
                                                                        votes[12] += 1;
                                                                    }

                                                                    else {
                                                                        votes[11] += 1;
                                                                    }
                                                                }
                                                            }
                                                        }
                                                    }

                                                    else {
                                                        if (x[0] <= 9.601999759674072) {
                                                            if (x[5] <= 0.007999999914318323) {
                                                                votes[12] += 1;
                                                            }

                                                            else {
                                                                votes[11] += 1;
                                                            }
                                                        }

                                                        else {
                                                            if (x[1] <= -0.19300000369548798) {
                                                                votes[12] += 1;
                                                            }

                                                            else {
                                                                if (x[5] <= 0.009000000078231096) {
                                                                    votes[12] += 1;
                                                                }

                                                                else {
                                                                    votes[11] += 1;
                                                                }
                                                            }
                                                        }
                                                    }
                                                }
                                            }

                                            else {
                                                if (x[5] <= 0.009000000078231096) {
                                                    votes[12] += 1;
                                                }

                                                else {
                                                    votes[11] += 1;
                                                }
                                            }
                                        }

                                        else {
                                            if (x[5] <= 0.009000000078231096) {
                                                votes[12] += 1;
                                            }

                                            else {
                                                votes[11] += 1;
                                            }
                                        }
                                    }

                                    else {
                                        if (x[3] <= -0.0025000000023283064) {
                                            if (x[3] <= -0.009000000078231096) {
                                                votes[12] += 1;
                                            }

                                            else {
                                                if (x[0] <= 9.772000312805176) {
                                                    votes[11] += 1;
                                                }

                                                else {
                                                    votes[12] += 1;
                                                }
                                            }
                                        }

                                        else {
                                            votes[12] += 1;
                                        }
                                    }
                                }

                                else {
                                    if (x[0] <= 3.8654999062418938) {
                                        votes[0] += 1;
                                    }

                                    else {
                                        if (x[0] <= 9.505000114440918) {
                                            if (x[2] <= 1.6554999351501465) {
                                                votes[12] += 1;
                                            }

                                            else {
                                                votes[11] += 1;
                                            }
                                        }

                                        else {
                                            if (x[5] <= 0.009499999694526196) {
                                                votes[12] += 1;
                                            }

                                            else {
                                                if (x[3] <= -0.007500000298023224) {
                                                    if (x[5] <= 0.021499999798834324) {
                                                        if (x[2] <= 1.1384999752044678) {
                                                            votes[11] += 1;
                                                        }

                                                        else {
