#pragma once
#include <cstdarg>
namespace Eloquent {
    namespace ML {
        namespace Port {
            class RandomForest {
                public:
                    /**
                    * Predict class for features vector
                    */
                    int predict(float *x) {
                        uint8_t votes[13] = { 0 };
                        // tree #1
                        if (x[9] <= 0.02850000001490116) {
                            if (x[9] <= -0.6319999992847443) {
                                if (x[1] <= 131.68099975585938) {
                                    if (x[8] <= 2773.676513671875) {
                                        if (x[0] <= 11.736500263214111) {
                                            if (x[1] <= 86.50400161743164) {
                                                votes[5] += 1;
                                            }

                                            else {
                                                if (x[1] <= 91.17049789428711) {
                                                    votes[6] += 1;
                                                }

                                                else {
                                                    if (x[8] <= 2766.6405029296875) {
                                                        if (x[3] <= 1.7115000486373901) {
                                                            votes[7] += 1;
                                                        }

                                                        else {
                                                            if (x[5] <= 9.260499954223633) {
                                                                votes[7] += 1;
                                                            }

                                                            else {
                                                                votes[6] += 1;
                                                            }
                                                        }
                                                    }

                                                    else {
                                                        votes[6] += 1;
                                                    }
                                                }
                                            }
                                        }

                                        else {
                                            if (x[9] <= -1.9629999995231628) {
                                                if (x[8] <= 2733.0460205078125) {
                                                    if (x[6] <= 0.01000000024214387) {
                                                        votes[8] += 1;
                                                    }

                                                    else {
                                                        votes[7] += 1;
                                                    }
                                                }

                                                else {
                                                    votes[6] += 1;
                                                }
                                            }

                                            else {
                                                votes[8] += 1;
                                            }
                                        }
                                    }

                                    else {
                                        if (x[1] <= 71.53049850463867) {
                                            if (x[0] <= 11.436500072479248) {
                                                if (x[3] <= 0.8479999899864197) {
                                                    if (x[3] <= 0.8344999849796295) {
                                                        if (x[0] <= 11.000499725341797) {
                                                            votes[7] += 1;
                                                        }

                                                        else {
                                                            votes[8] += 1;
                                                        }
                                                    }

                                                    else {
                                                        votes[6] += 1;
                                                    }
                                                }

                                                else {
                                                    if (x[1] <= 41.78750038146973) {
                                                        if (x[2] <= 0.0005000000237487257) {
                                                            if (x[4] <= 1.9954999685287476) {
                                                                if (x[6] <= 0.20650000125169754) {
                                                                    if (x[6] <= 0.031999999191612005) {
                                                                        votes[7] += 1;
                                                                    }

                                                                    else {
                                                                        if (x[8] <= 2820.7464599609375) {
                                                                            votes[5] += 1;
                                                                        }

                                                                        else {
                                                                            votes[7] += 1;
                                                                        }
                                                                    }
                                                                }

                                                                else {
                                                                    votes[8] += 1;
                                                                }
                                                            }

                                                            else {
                                                                votes[8] += 1;
                                                            }
                                                        }

                                                        else {
                                                            if (x[6] <= 0.07049999944865704) {
                                                                votes[8] += 1;
                                                            }

                                                            else {
                                                                votes[6] += 1;
                                                            }
                                                        }
                                                    }

                                                    else {
                                                        if (x[2] <= 0.0005000000237487257) {
                                                            if (x[0] <= 11.210999965667725) {
                                                                if (x[4] <= 1.6014999747276306) {
                                                                    votes[5] += 1;
                                                                }

                                                                else {
                                                                    votes[6] += 1;
                                                                }
                                                            }

                                                            else {
                                                                votes[7] += 1;
                                                            }
                                                        }

                                                        else {
                                                            if (x[0] <= 11.019499778747559) {
                                                                votes[5] += 1;
                                                            }

                                                            else {
                                                                if (x[5] <= 9.334500312805176) {
                                                                    votes[8] += 1;
                                                                }

                                                                else {
                                                                    votes[6] += 1;
                                                                }
                                                            }
                                                        }
                                                    }
                                                }
                                            }

                                            else {
                                                votes[8] += 1;
                                            }
                                        }

                                        else {
                                            if (x[4] <= 1.8065000176429749) {
                                                votes[5] += 1;
                                            }

                                            else {
                                                votes[6] += 1;
                                            }
                                        }
                                    }
                                }

                                else {
                                    if (x[0] <= 12.172500133514404) {
                                        if (x[0] <= 10.88700008392334) {
                                            votes[6] += 1;
                                        }

                                        else {
                                            if (x[7] <= 0.08500000089406967) {
                                                if (x[0] <= 12.105999946594238) {
                                                    votes[7] += 1;
                                                }

                                                else {
                                                    if (x[8] <= 2697.6480712890625) {
                                                        votes[7] += 1;
                                                    }

                                                    else {
                                                        votes[6] += 1;
                                                    }
                                                }
                                            }

                                            else {
                                                if (x[8] <= 2699.3394775390625) {
                                                    votes[7] += 1;
                                                }

                                                else {
                                                    if (x[5] <= 9.206500053405762) {
                                                        votes[6] += 1;
                                                    }

                                                    else {
                                                        votes[7] += 1;
                                                    }
                                                }
                                            }
                                        }
                                    }

                                    else {
                                        if (x[2] <= 0.0005000000237487257) {
                                            if (x[1] <= 569.0784912109375) {
                                                if (x[5] <= 9.177500247955322) {
                                                    if (x[1] <= 450.32000732421875) {
                                                        if (x[0] <= 13.214499950408936) {
                                                            if (x[3] <= 2.5954999923706055) {
                                                                if (x[9] <= -2.527999997138977) {
                                                                    votes[6] += 1;
                                                                }

                                                                else {
                                                                    votes[7] += 1;
                                                                }
                                                            }

                                                            else {
                                                                if (x[3] <= 2.8489999771118164) {
                                                                    votes[7] += 1;
                                                                }

                                                                else {
                                                                    if (x[8] <= 2534.197509765625) {
                                                                        if (x[5] <= 8.809999942779541) {
                                                                            if (x[3] <= 3.5425000190734863) {
                                                                                votes[6] += 1;
                                                                            }

                                                                            else {
                                                                                votes[7] += 1;
                                                                            }
                                                                        }

                                                                        else {
                                                                            votes[7] += 1;
                                                                        }
                                                                    }

                                                                    else {
                                                                        if (x[6] <= 0.02549999998882413) {
                                                                            votes[6] += 1;
                                                                        }

                                                                        else {
                                                                            votes[7] += 1;
                                                                        }
                                                                    }
                                                                }
                                                            }
                                                        }

                                                        else {
                                                            votes[6] += 1;
                                                        }
                                                    }

                                                    else {
                                                        if (x[3] <= 3.9835000038146973) {
                                                            if (x[0] <= 13.31850004196167) {
                                                                if (x[3] <= 3.8070000410079956) {
                                                                    votes[6] += 1;
                                                                }

                                                                else {
                                                                    votes[7] += 1;
                                                                }
                                                            }

                                                            else {
                                                                votes[6] += 1;
                                                            }
                                                        }

                                                        else {
                                                            votes[7] += 1;
                                                        }
                                                    }
                                                }

                                                else {
                                                    votes[8] += 1;
                                                }
                                            }

                                            else {
                                                if (x[5] <= 7.990499973297119) {
                                                    if (x[5] <= 7.790499925613403) {
                                                        if (x[8] <= 1892.2545166015625) {
                                                            if (x[5] <= 7.648999929428101) {
                                                                if (x[5] <= 7.563499927520752) {
                                                                    if (x[8] <= 1779.1300048828125) {
                                                                        if (x[8] <= 1767.614013671875) {
                                                                            if (x[8] <= 1689.3724975585938) {
                                                                                if (x[3] <= 6.263999938964844) {
                                                                                    votes[7] += 1;
                                                                                }

                                                                                else {
                                                                                    if (x[0] <= 14.274499893188477) {
                                                                                        if (x[1] <= 1273.4285278320312) {
                                                                                            if (x[8] <= 1615.8030395507812) {
                                                                                                votes[6] += 1;
                                                                                            }

                                                                                            else {
                                                                                                votes[7] += 1;
                                                                                            }
                                                                                        }

                                                                                        else {
                                                                                            votes[7] += 1;
                                                                                        }
                                                                                    }

                                                                                    else {
                                                                                        if (x[8] <= 1610.4110107421875) {
                                                                                            votes[7] += 1;
                                                                                        }

                                                                                        else {
                                                                                            votes[6] += 1;
                                                                                        }
                                                                                    }
                                                                                }
                                                                            }

                                                                            else {
                                                                                votes[6] += 1;
                                                                            }
                                                                        }

                                                                        else {
                                                                            votes[7] += 1;
                                                                        }
                                                                    }

                                                                    else {
                                                                        votes[6] += 1;
                                                                    }
                                                                }

                                                                else {
                                                                    votes[7] += 1;
                                                                }
                                                            }

                                                            else {
                                                                votes[6] += 1;
                                                            }
                                                        }

                                                        else {
                                                            votes[7] += 1;
                                                        }
                                                    }

                                                    else {
                                                        if (x[6] <= 0.14750000089406967) {
                                                            votes[6] += 1;
                                                        }

                                                        else {
                                                            votes[7] += 1;
                                                        }
                                                    }
                                                }

                                                else {
                                                    if (x[9] <= -4.7804999351501465) {
                                                        if (x[7] <= 0.33149999380111694) {
                                                            if (x[0] <= 13.897500038146973) {
                                                                votes[7] += 1;
                                                            }

                                                            else {
                                                                if (x[3] <= 5.059000015258789) {
                                                                    votes[6] += 1;
                                                                }

                                                                else {
                                                                    votes[7] += 1;
                                                                }
                                                            }
                                                        }

                                                        else {
                                                            if (x[3] <= 5.03849983215332) {
                                                                votes[7] += 1;
                                                            }

                                                            else {
                                                                votes[6] += 1;
                                                            }
                                                        }
                                                    }

                                                    else {
                                                        if (x[9] <= -4.66349983215332) {
                                                            votes[6] += 1;
                                                        }

                                                        else {
                                                            if (x[1] <= 661.6535034179688) {
                                                                if (x[1] <= 607.2630004882812) {
                                                                    votes[6] += 1;
                                                                }

                                                                else {
                                                                    if (x[0] <= 13.610000133514404) {
                                                                        votes[7] += 1;
                                                                    }

                                                                    else {
                                                                        if (x[9] <= -4.545500040054321) {
                                                                            if (x[5] <= 8.298500061035156) {
                                                                                votes[7] += 1;
                                                                            }

                                                                            else {
                                                                                votes[6] += 1;
                                                                            }
                                                                        }

                                                                        else {
                                                                            if (x[8] <= 2203.3204345703125) {
                                                                                votes[7] += 1;
                                                                            }

                                                                            else {
                                                                                votes[6] += 1;
                                                                            }
                                                                        }
                                                                    }
                                                                }
                                                            }

                                                            else {
                                                                votes[7] += 1;
                                                            }
                                                        }
                                                    }
                                                }
                                            }
                                        }

                                        else {
                                            if (x[3] <= 2.1785000562667847) {
                                                votes[8] += 1;
                                            }

                                            else {
                                                votes[6] += 1;
                                            }
                                        }
                                    }
                                }
                            }

                            else {
                                if (x[1] <= 1.26500004529953) {
                                    if (x[9] <= -0.1875) {
                                        if (x[5] <= 8.946000099182129) {
                                            if (x[8] <= 122.61849975585938) {
                                                votes[10] += 1;
                                            }

                                            else {
                                                if (x[5] <= 1.9785000085830688) {
                                                    votes[11] += 1;
                                                }

                                                else {
                                                    if (x[6] <= 0.006500000134110451) {
                                                        votes[12] += 1;
                                                    }

                                                    else {
                                                        if (x[2] <= 0.0005000000237487257) {
                                                            votes[11] += 1;
                                                        }

                                                        else {
                                                            votes[2] += 1;
                                                        }
                                                    }
                                                }
                                            }
                                        }

                                        else {
                                            votes[1] += 1;
                                        }
                                    }

                                    else {
                                        if (x[3] <= 0.04299999959766865) {
                                            if (x[1] <= 0.024500000290572643) {
                                                if (x[8] <= 2341.3909912109375) {
                                                    if (x[9] <= -0.02199999988079071) {
                                                        if (x[0] <= 13.259999752044678) {
                                                            votes[9] += 1;
                                                        }

                                                        else {
                                                            votes[10] += 1;
                                                        }
                                                    }

                                                    else {
                                                        votes[10] += 1;
                                                    }
                                                }

                                                else {
                                                    if (x[1] <= 0.0035000001080334187) {
                                                        if (x[5] <= 9.425000190734863) {
                                                            if (x[0] <= 10.335000038146973) {
                                                                votes[3] += 1;
                                                            }

                                                            else {
                                                                votes[2] += 1;
                                                            }
                                                        }

                                                        else {
                                                            votes[2] += 1;
                                                        }
                                                    }

                                                    else {
                                                        if (x[8] <= 2848.8060302734375) {
                                                            votes[3] += 1;
                                                        }

                                                        else {
                                                            if (x[3] <= 0.012500000186264515) {
                                                                votes[2] += 1;
                                                            }

                                                            else {
                                                                votes[3] += 1;
                                                            }
                                                        }
                                                    }
                                                }
                                            }

                                            else {
                                                if (x[0] <= 13.229499816894531) {
                                                    if (x[0] <= 11.345000267028809) {
                                                        if (x[2] <= 0.0005000000237487257) {
                                                            votes[3] += 1;
                                                        }

                                                        else {
                                                            votes[2] += 1;
                                                        }
                                                    }

                                                    else {
                                                        votes[9] += 1;
                                                    }
                                                }

                                                else {
                                                    votes[10] += 1;
                                                }
                                            }
                                        }

                                        else {
                                            if (x[8] <= 131.02000427246094) {
                                                if (x[0] <= 11.147500038146973) {
                                                    if (x[1] <= 0.5834999978542328) {
                                                        if (x[8] <= 20.20300006866455) {
                                                            if (x[1] <= 0.25349999964237213) {
                                                                votes[12] += 1;
                                                            }

                                                            else {
                                                                votes[11] += 1;
                                                            }
                                                        }

                                                        else {
                                                            if (x[7] <= 0.05250000022351742) {
                                                                if (x[6] <= 0.015000000596046448) {
                                                                    votes[12] += 1;
                                                                }

                                                                else {
                                                                    if (x[6] <= 0.023000000044703484) {
                                                                        if (x[1] <= 0.3854999989271164) {
                                                                            votes[12] += 1;
                                                                        }

                                                                        else {
                                                                            if (x[5] <= 1.209500014781952) {
                                                                                if (x[9] <= -0.11699999868869781) {
                                                                                    votes[11] += 1;
                                                                                }

                                                                                else {
                                                                                    if (x[3] <= 0.11749999970197678) {
                                                                                        votes[11] += 1;
                                                                                    }

                                                                                    else {
                                                                                        votes[9] += 1;
                                                                                    }
                                                                                }
                                                                            }

                                                                            else {
                                                                                votes[12] += 1;
                                                                            }
                                                                        }
                                                                    }

                                                                    else {
                                                                        if (x[1] <= 0.5610000193119049) {
                                                                            votes[12] += 1;
                                                                        }

                                                                        else {
                                                                            votes[9] += 1;
                                                                        }
                                                                    }
                                                                }
                                                            }

                                                            else {
                                                                if (x[3] <= 0.13350000232458115) {
                                                                    if (x[0] <= 11.098000049591064) {
                                                                        if (x[1] <= 0.419500008225441) {
                                                                            votes[12] += 1;
                                                                        }

                                                                        else {
                                                                            if (x[5] <= 1.152999997138977) {
                                                                                if (x[7] <= 0.08550000190734863) {
                                                                                    if (x[6] <= 0.017500000074505806) {
                                                                                        votes[12] += 1;
                                                                                    }

                                                                                    else {
                                                                                        votes[11] += 1;
                                                                                    }
                                                                                }

                                                                                else {
                                                                                    votes[12] += 1;
                                                                                }
                                                                            }

                                                                            else {
                                                                                if (x[0] <= 10.967499732971191) {
                                                                                    if (x[2] <= 0.0005000000237487257) {
                                                                                        votes[12] += 1;
                                                                                    }

                                                                                    else {
                                                                                        if (x[9] <= -0.11550000309944153) {
                                                                                            votes[11] += 1;
                                                                                        }

                                                                                        else {
                                                                                            votes[12] += 1;
                                                                                        }
                                                                                    }
                                                                                }

                                                                                else {
                                                                                    votes[12] += 1;
                                                                                }
                                                                            }
                                                                        }
                                                                    }

                                                                    else {
                                                                        if (x[8] <= 50.38750076293945) {
                                                                            votes[9] += 1;
                                                                        }

                                                                        else {
                                                                            votes[12] += 1;
                                                                        }
                                                                    }
                                                                }

                                                                else {
                                                                    votes[9] += 1;
                                                                }
                                                            }
                                                        }
                                                    }

                                                    else {
                                                        if (x[6] <= 0.01749999960884452) {
                                                            votes[11] += 1;
                                                        }

                                                        else {
                                                            if (x[5] <= 1.3920000195503235) {
                                                                votes[9] += 1;
                                                            }

                                                            else {
                                                                votes[12] += 1;
                                                            }
                                                        }
                                                    }
                                                }

                                                else {
                                                    if (x[1] <= 0.5444999933242798) {
                                                        votes[9] += 1;
                                                    }

                                                    else {
                                                        if (x[6] <= 0.08100000023841858) {
                                                            if (x[5] <= 1.6299999952316284) {
                                                                if (x[9] <= -0.15649999678134918) {
                                                                    votes[11] += 1;
                                                                }

                                                                else {
                                                                    if (x[1] <= 0.6879999935626984) {
                                                                        votes[12] += 1;
                                                                    }

                                                                    else {
                                                                        if (x[8] <= 71.15500259399414) {
                                                                            if (x[8] <= 67.3030014038086) {
                                                                                if (x[9] <= -0.14649999886751175) {
                                                                                    votes[12] += 1;
                                                                                }

                                                                                else {
                                                                                    votes[11] += 1;
                                                                                }
                                                                            }

                                                                            else {
                                                                                votes[11] += 1;
                                                                            }
                                                                        }

                                                                        else {
                                                                            votes[12] += 1;
                                                                        }
                                                                    }
                                                                }
                                                            }

                                                            else {
                                                                if (x[5] <= 1.7285000085830688) {
                                                                    if (x[3] <= 0.1679999977350235) {
                                                                        votes[12] += 1;
                                                                    }

                                                                    else {
                                                                        votes[11] += 1;
                                                                    }
                                                                }

                                                                else {
                                                                    votes[12] += 1;
                                                                }
                                                            }
                                                        }

                                                        else {
                                                            if (x[6] <= 0.1394999995827675) {
                                                                if (x[4] <= 1.4894999861717224) {
                                                                    if (x[8] <= 86.55049896240234) {
                                                                        if (x[1] <= 0.8650000095367432) {
                                                                            votes[12] += 1;
                                                                        }

                                                                        else {
                                                                            votes[9] += 1;
                                                                        }
                                                                    }

                                                                    else {
                                                                        votes[9] += 1;
                                                                    }
                                                                }

                                                                else {
                                                                    if (x[8] <= 98.73849868774414) {
                                                                        votes[12] += 1;
                                                                    }

                                                                    else {
                                                                        votes[9] += 1;
                                                                    }
                                                                }
                                                            }

                                                            else {
                                                                votes[12] += 1;
                                                            }
                                                        }
                                                    }
                                                }
                                            }

                                            else {
                                                if (x[0] <= 12.43049955368042) {
                                                    if (x[5] <= 9.407000064849854) {
                                                        if (x[1] <= 0.8754999935626984) {
                                                            if (x[2] <= 0.0005000000237487257) {
                                                                if (x[6] <= 0.012500000186264515) {
                                                                    if (x[0] <= 12.064499855041504) {
                                                                        if (x[5] <= 9.060999870300293) {
                                                                            votes[3] += 1;
                                                                        }

                                                                        else {
                                                                            if (x[5] <= 9.083499908447266) {
                                                                                votes[2] += 1;
                                                                            }

                                                                            else {
                                                                                if (x[9] <= -0.08900000154972076) {
                                                                                    if (x[0] <= 11.628000259399414) {
                                                                                        if (x[5] <= 9.254000186920166) {
                                                                                            votes[3] += 1;
                                                                                        }

                                                                                        else {
                                                                                            votes[1] += 1;
                                                                                        }
                                                                                    }

                                                                                    else {
                                                                                        if (x[9] <= -0.11050000041723251) {
                                                                                            votes[3] += 1;
                                                                                        }

                                                                                        else {
                                                                                            votes[2] += 1;
                                                                                        }
                                                                                    }
                                                                                }

                                                                                else {
                                                                                    if (x[0] <= 10.894500255584717) {
                                                                                        votes[3] += 1;
                                                                                    }

                                                                                    else {
                                                                                        if (x[1] <= 0.14099999517202377) {
                                                                                            votes[2] += 1;
                                                                                        }

                                                                                        else {
                                                                                            if (x[1] <= 0.17350000143051147) {
                                                                                                votes[3] += 1;
                                                                                            }

                                                                                            else {
                                                                                                votes[2] += 1;
                                                                                            }
                                                                                        }
                                                                                    }
                                                                                }
                                                                            }
                                                                        }
                                                                    }

                                                                    else {
                                                                        votes[2] += 1;
                                                                    }
                                                                }

                                                                else {
                                                                    if (x[9] <= -0.0860000029206276) {
                                                                        votes[1] += 1;
                                                                    }

                                                                    else {
                                                                        if (x[1] <= 0.36150000989437103) {
                                                                            votes[9] += 1;
                                                                        }

                                                                        else {
                                                                            if (x[8] <= 2664.33203125) {
                                                                                votes[2] += 1;
                                                                            }

                                                                            else {
                                                                                votes[3] += 1;
                                                                            }
                                                                        }
                                                                    }
                                                                }
                                                            }

                                                            else {
                                                                if (x[6] <= 0.013999999966472387) {
                                                                    if (x[5] <= 9.061500072479248) {
                                                                        if (x[0] <= 11.976999759674072) {
                                                                            votes[3] += 1;
                                                                        }

                                                                        else {
                                                                            votes[2] += 1;
                                                                        }
                                                                    }

                                                                    else {
                                                                        votes[2] += 1;
                                                                    }
                                                                }

                                                                else {
                                                                    votes[1] += 1;
                                                                }
                                                            }
                                                        }

                                                        else {
                                                            if (x[4] <= 1.6279999613761902) {
                                                                if (x[5] <= 9.090999603271484) {
                                                                    if (x[9] <= -0.11400000005960464) {
                                                                        votes[10] += 1;
                                                                    }

                                                                    else {
                                                                        votes[3] += 1;
                                                                    }
                                                                }

                                                                else {
                                                                    votes[1] += 1;
                                                                }
                                                            }

                                                            else {
                                                                if (x[2] <= 0.0005000000237487257) {
                                                                    if (x[5] <= 9.105499744415283) {
                                                                        votes[3] += 1;
                                                                    }

                                                                    else {
                                                                        votes[1] += 1;
                                                                    }
                                                                }

                                                                else {
                                                                    if (x[6] <= 0.007999999914318323) {
                                                                        votes[3] += 1;
                                                                    }

                                                                    else {
                                                                        votes[10] += 1;
                                                                    }
                                                                }
                                                            }
                                                        }
                                                    }

                                                    else {
                                                        if (x[3] <= 0.16499999910593033) {
                                                            if (x[1] <= 0.4350000023841858) {
                                                                votes[1] += 1;
                                                            }

                                                            else {
                                                                votes[6] += 1;
                                                            }
                                                        }

                                                        else {
                                                            votes[7] += 1;
                                                        }
                                                    }
                                                }

                                                else {
                                                    if (x[8] <= 1821.8150024414062) {
                                                        votes[10] += 1;
                                                    }

                                                    else {
                                                        votes[2] += 1;
                                                    }
                                                }
                                            }
                                        }
                                    }
                                }

                                else {
                                    if (x[9] <= -0.41600000858306885) {
                                        if (x[5] <= 8.105499744415283) {
                                            votes[11] += 1;
                                        }

                                        else {
                                            if (x[5] <= 9.427500247955322) {
                                                if (x[0] <= 10.986000061035156) {
                                                    if (x[6] <= 0.3395000100135803) {
                                                        if (x[3] <= 0.5974999964237213) {
                                                            votes[5] += 1;
                                                        }

                                                        else {
                                                            votes[7] += 1;
                                                        }
                                                    }

                                                    else {
                                                        votes[5] += 1;
                                                    }
                                                }

                                                else {
                                                    votes[8] += 1;
                                                }
                                            }

                                            else {
                                                votes[6] += 1;
                                            }
                                        }
                                    }

                                    else {
                                        if (x[5] <= 9.3125) {
                                            if (x[8] <= 1028.3529968261719) {
                                                if (x[5] <= 1.9754999876022339) {
                                                    votes[9] += 1;
                                                }

                                                else {
                                                    votes[11] += 1;
                                                }
                                            }

                                            else {
                                                if (x[2] <= 0.0005000000237487257) {
                                                    if (x[3] <= 0.33949999511241913) {
                                                        if (x[3] <= 0.20000000298023224) {
                                                            votes[1] += 1;
                                                        }

                                                        else {
                                                            if (x[0] <= 12.832499980926514) {
                                                                if (x[9] <= -0.20499999821186066) {
                                                                    votes[3] += 1;
                                                                }

                                                                else {
                                                                    if (x[0] <= 12.653000354766846) {
                                                                        votes[3] += 1;
                                                                    }

                                                                    else {
                                                                        votes[2] += 1;
                                                                    }
                                                                }
                                                            }

                                                            else {
                                                                if (x[3] <= 0.2434999942779541) {
                                                                    if (x[6] <= 0.007999999914318323) {
                                                                        votes[2] += 1;
                                                                    }

                                                                    else {
                                                                        votes[3] += 1;
                                                                    }
                                                                }

                                                                else {
                                                                    if (x[0] <= 13.263999938964844) {
                                                                        votes[3] += 1;
                                                                    }

                                                                    else {
                                                                        if (x[8] <= 2007.77099609375) {
                                                                            votes[3] += 1;
                                                                        }

                                                                        else {
                                                                            votes[2] += 1;
                                                                        }
                                                                    }
                                                                }
                                                            }
                                                        }
                                                    }

                                                    else {
                                                        votes[2] += 1;
                                                    }
                                                }

                                                else {
                                                    if (x[8] <= 2180.4215087890625) {
                                                        if (x[5] <= 8.098499774932861) {
                                                            if (x[0] <= 13.744499683380127) {
                                                                if (x[3] <= 0.3084999918937683) {
                                                                    if (x[6] <= 0.006000000052154064) {
                                                                        if (x[0] <= 13.260499954223633) {
                                                                            votes[3] += 1;
                                                                        }

                                                                        else {
                                                                            votes[2] += 1;
                                                                        }
                                                                    }

                                                                    else {
                                                                        if (x[0] <= 13.353999614715576) {
                                                                            votes[3] += 1;
                                                                        }

                                                                        else {
                                                                            votes[2] += 1;
                                                                        }
                                                                    }
                                                                }

                                                                else {
                                                                    if (x[1] <= 3.965000033378601) {
                                                                        if (x[0] <= 13.570000171661377) {
                                                                            if (x[3] <= 0.30949999392032623) {
                                                                                if (x[7] <= 0.014500000048428774) {
                                                                                    if (x[5] <= 7.873500108718872) {
                                                                                        votes[2] += 1;
                                                                                    }

                                                                                    else {
                                                                                        votes[3] += 1;
                                                                                    }
                                                                                }

                                                                                else {
                                                                                    if (x[5] <= 7.873500108718872) {
                                                                                        votes[2] += 1;
                                                                                    }

                                                                                    else {
                                                                                        votes[3] += 1;
                                                                                    }
                                                                                }
                                                                            }

                                                                            else {
                                                                                votes[3] += 1;
                                                                            }
                                                                        }

                                                                        else {
                                                                            votes[2] += 1;
                                                                        }
                                                                    }

                                                                    else {
                                                                        votes[3] += 1;
                                                                    }
                                                                }
                                                            }

                                                            else {
                                                                votes[2] += 1;
                                                            }
                                                        }

                                                        else {
                                                            if (x[8] <= 2104.4129638671875) {
                                                                votes[3] += 1;
                                                            }

                                                            else {
                                                                if (x[9] <= -0.27150000631809235) {
                                                                    votes[2] += 1;
                                                                }

                                                                else {
                                                                    votes[3] += 1;
                                                                }
                                                            }
                                                        }
                                                    }

                                                    else {
                                                        if (x[3] <= 0.9380000084638596) {
                                                            if (x[0] <= 12.676499843597412) {
                                                                votes[3] += 1;
                                                            }

                                                            else {
                                                                if (x[9] <= -0.2200000062584877) {
                                                                    if (x[0] <= 12.97100019454956) {
                                                                        votes[3] += 1;
                                                                    }

                                                                    else {
                                                                        votes[2] += 1;
                                                                    }
                                                                }

                                                                else {
                                                                    votes[2] += 1;
                                                                }
                                                            }
                                                        }

                                                        else {
                                                            if (x[5] <= 9.289999961853027) {
                                                                votes[8] += 1;
                                                            }

                                                            else {
                                                                votes[5] += 1;
                                                            }
                                                        }
                                                    }
                                                }
                                            }
                                        }

                                        else {
                                            if (x[9] <= -0.18150000274181366) {
                                                if (x[1] <= 7.9084999561309814) {
                                                    votes[4] += 1;
                                                }

                                                else {
                                                    if (x[4] <= 1.7239999771118164) {
                                                        if (x[4] <= 0.6299999952316284) {
                                                            if (x[0] <= 10.82800006866455) {
                                                                votes[5] += 1;
                                                            }

                                                            else {
                                                                votes[8] += 1;
                                                            }
                                                        }

                                                        else {
                                                            votes[5] += 1;
                                                        }
                                                    }

                                                    else {
                                                        votes[8] += 1;
                                                    }
                                                }
                                            }

                                            else {
                                                votes[5] += 1;
                                            }
                                        }
                                    }
                                }
                            }
                        }

                        else {
                            if (x[3] <= 0.3930000066757202) {
                                votes[0] += 1;
                            }

                            else {
                                if (x[8] <= 2807.386962890625) {
                                    votes[5] += 1;
                                }

                                else {
                                    if (x[5] <= 9.416500091552734) {
                                        votes[8] += 1;
                                    }

                                    else {
                                        votes[5] += 1;
                                    }
                                }
                            }
                        }

                        // return argmax of votes
                        uint8_t classIdx = 0;
                        float maxVotes = votes[0];

                        for (uint8_t i = 1; i < 13; i++) {
                            if (votes[i] > maxVotes) {
                                classIdx = i;
                                maxVotes = votes[i];
                            }
                        }

                        return classIdx;
                    }

                protected:
                };
            }
        }
    }