#pragma once
#include <cstdarg>
namespace Eloquent {
    namespace ML {
        namespace Port {
            class RandomForest {
                public:
                    /**
                    * Predict class for features vector
                    */
                    int predict(float *x) {
                        uint8_t votes[15] = { 0 };
                        // tree #1
                        if (x[6] <= 0.0005000000237487257) {
                            if (x[2] <= 0.25049999356269836) {
                                if (x[1] <= 0.03349999990314245) {
                                    if (x[0] <= 1.0069999694824219) {
                                        if (x[1] <= 0.027499999850988388) {
                                            if (x[2] <= 0.04800000041723251) {
                                                votes[3] += 1;
                                            }

                                            else {
                                                if (x[0] <= 0.9814999997615814) {
                                                    if (x[0] <= 0.9805000126361847) {
                                                        votes[6] += 1;
                                                    }

                                                    else {
                                                        if (x[2] <= 0.06499999947845936) {
                                                            votes[6] += 1;
                                                        }

                                                        else {
                                                            if (x[8] <= 0.001500000071246177) {
                                                                votes[9] += 1;
                                                            }

                                                            else {
                                                                votes[9] += 1;
                                                            }
                                                        }
                                                    }
                                                }

                                                else {
                                                    if (x[4] <= 0.0005000000237487257) {
                                                        if (x[3] <= 0.01000000024214387) {
                                                            votes[14] += 1;
                                                        }

                                                        else {
                                                            if (x[2] <= 0.06649999879300594) {
                                                                votes[12] += 1;
                                                            }

                                                            else {
                                                                if (x[8] <= 0.0010000000474974513) {
                                                                    votes[0] += 1;
                                                                }

                                                                else {
                                                                    votes[9] += 1;
                                                                }
                                                            }
                                                        }
                                                    }

                                                    else {
                                                        votes[12] += 1;
                                                    }
                                                }
                                            }
                                        }

                                        else {
                                            if (x[5] <= 0.0005000000237487257) {
                                                if (x[7] <= 0.001500000013038516) {
                                                    votes[1] += 1;
                                                }

                                                else {
                                                    votes[4] += 1;
                                                }
                                            }

                                            else {
                                                votes[4] += 1;
                                            }
                                        }
                                    }

                                    else {
                                        if (x[1] <= 0.02650000061839819) {
                                            if (x[2] <= 0.19099999964237213) {
                                                if (x[8] <= 0.0005000000237487257) {
                                                    votes[8] += 1;
                                                }

                                                else {
                                                    if (x[3] <= 0.014500000048428774) {
                                                        if (x[1] <= 0.025500000454485416) {
                                                            votes[8] += 1;
                                                        }

                                                        else {
                                                            votes[8] += 1;
                                                        }
                                                    }

                                                    else {
                                                        if (x[0] <= 1.0254999995231628) {
                                                            votes[8] += 1;
                                                        }

                                                        else {
                                                            votes[11] += 1;
                                                        }
                                                    }
                                                }
                                            }

                                            else {
                                                votes[11] += 1;
                                            }
                                        }

                                        else {
                                            votes[11] += 1;
                                        }
                                    }
                                }

                                else {
                                    votes[2] += 1;
                                }
                            }

                            else {
                                if (x[3] <= 0.014500000048428774) {
                                    if (x[9] <= 0.0005000000237487257) {
                                        if (x[1] <= 0.027000000700354576) {
                                            votes[9] += 1;
                                        }

                                        else {
                                            if (x[3] <= 0.013500000350177288) {
                                                votes[13] += 1;
                                            }

                                            else {
                                                if (x[7] <= 0.0025000000605359674) {
                                                    votes[10] += 1;
                                                }

                                                else {
                                                    votes[13] += 1;
                                                }
                                            }
                                        }
                                    }

                                    else {
                                        if (x[0] <= 0.9704999923706055) {
                                            votes[13] += 1;
                                        }

                                        else {
                                            votes[10] += 1;
                                        }
                                    }
                                }

                                else {
                                    votes[7] += 1;
                                }
                            }
                        }

                        else {
                            if (x[2] <= 0.10449999943375587) {
                                votes[5] += 1;
                            }

                            else {
                                if (x[9] <= 0.0005000000237487257) {
                                    votes[11] += 1;
                                }

                                else {
                                    if (x[3] <= 0.009500000160187483) {
                                        votes[14] += 1;
                                    }

                                    else {
                                        votes[8] += 1;
                                    }
                                }
                            }
                        }

                        // tree #2
                        if (x[8] <= 0.0025000000605359674) {
                            if (x[5] <= 0.0005000000237487257) {
                                if (x[7] <= 0.0005000000237487257) {
                                    if (x[0] <= 1.0009999871253967) {
                                        if (x[3] <= 0.014500000048428774) {
                                            if (x[8] <= 0.0005000000237487257) {
                                                votes[0] += 1;
                                            }

                                            else {
                                                if (x[3] <= 0.013500000350177288) {
                                                    votes[6] += 1;
                                                }

                                                else {
                                                    if (x[2] <= 0.07599999941885471) {
                                                        votes[6] += 1;
                                                    }

                                                    else {
                                                        if (x[1] <= 0.024500000290572643) {
                                                            votes[9] += 1;
                                                        }

                                                        else {
                                                            if (x[0] <= 0.9805000126361847) {
                                                                votes[6] += 1;
                                                            }

                                                            else {
                                                                if (x[1] <= 0.025500000454485416) {
                                                                    votes[9] += 1;
                                                                }

                                                                else {
                                                                    votes[9] += 1;
                                                                }
                                                            }
                                                        }
                                                    }
                                                }
                                            }
                                        }

                                        else {
                                            votes[1] += 1;
                                        }
                                    }

                                    else {
                                        if (x[2] <= 0.14650000631809235) {
                                            if (x[8] <= 0.0005000000237487257) {
                                                if (x[3] <= 0.015500000212341547) {
                                                    votes[8] += 1;
                                                }

                                                else {
                                                    votes[2] += 1;
                                                }
                                            }

                                            else {
                                                if (x[1] <= 0.02650000061839819) {
                                                    if (x[2] <= 0.12150000035762787) {
                                                        votes[8] += 1;
                                                    }

                                                    else {
                                                        votes[8] += 1;
                                                    }
                                                }

                                                else {
                                                    votes[11] += 1;
                                                }
                                            }
                                        }

                                        else {
                                            if (x[8] <= 0.001500000071246177) {
                                                if (x[3] <= 0.013500000350177288) {
                                                    votes[8] += 1;
                                                }

                                                else {
                                                    votes[11] += 1;
                                                }
                                            }

                                            else {
                                                votes[8] += 1;
                                            }
                                        }
                                    }
                                }

                                else {
                                    if (x[0] <= 0.9805000126361847) {
                                        if (x[9] <= 0.0005000000237487257) {
                                            if (x[2] <= 0.27000001072883606) {
                                                votes[10] += 1;
                                            }

                                            else {
                                                votes[10] += 1;
                                            }
                                        }

                                        else {
                                            votes[13] += 1;
                                        }
                                    }

                                    else {
                                        votes[7] += 1;
                                    }
                                }
                            }

                            else {
                                if (x[3] <= 0.014500000048428774) {
                                    votes[13] += 1;
                                }

                                else {
                                    votes[4] += 1;
                                }
                            }
                        }

                        else {
                            if (x[0] <= 1.018999993801117) {
                                if (x[3] <= 0.009500000160187483) {
                                    votes[14] += 1;
                                }

                                else {
                                    if (x[8] <= 0.011500000022351742) {
                                        if (x[2] <= 0.04900000058114529) {
                                            votes[3] += 1;
                                        }

                                        else {
                                            if (x[1] <= 0.02500000037252903) {
                                                if (x[3] <= 0.013500000350177288) {
                                                    votes[12] += 1;
                                                }

                                                else {
                                                    if (x[8] <= 0.0035000001080334187) {
                                                        votes[9] += 1;
                                                    }

                                                    else {
                                                        votes[12] += 1;
                                                    }
                                                }
                                            }

                                            else {
                                                votes[8] += 1;
                                            }
                                        }
                                    }

                                    else {
                                        if (x[4] <= 0.0010000000474974513) {
                                            votes[9] += 1;
                                        }

                                        else {
                                            if (x[0] <= 0.9814999997615814) {
                                                votes[3] += 1;
                                            }

                                            else {
                                                votes[12] += 1;
                                            }
                                        }
                                    }
                                }
                            }

                            else {
                                if (x[3] <= 0.012000000104308128) {
                                    votes[5] += 1;
                                }

                                else {
                                    votes[11] += 1;
                                }
                            }
                        }

                        // tree #3
                        if (x[8] <= 0.0005000000237487257) {
                            if (x[3] <= 0.014500000048428774) {
                                if (x[9] <= 0.0005000000237487257) {
                                    if (x[0] <= 0.9810000061988831) {
                                        if (x[7] <= 0.0020000000367872417) {
                                            votes[10] += 1;
                                        }

                                        else {
                                            votes[13] += 1;
                                        }
                                    }

                                    else {
                                        if (x[1] <= 0.02500000037252903) {
                                            votes[0] += 1;
                                        }

                                        else {
                                            votes[8] += 1;
                                        }
                                    }
                                }

                                else {
                                    votes[13] += 1;
                                }
                            }

                            else {
                                if (x[0] <= 1.003499984741211) {
                                    if (x[2] <= 0.17499999701976776) {
                                        votes[1] += 1;
                                    }

                                    else {
                                        if (x[7] <= 0.0025000000605359674) {
                                            votes[7] += 1;
                                        }

                                        else {
                                            votes[4] += 1;
                                        }
                                    }
                                }

                                else {
                                    if (x[0] <= 1.0239999890327454) {
                                        votes[2] += 1;
                                    }

                                    else {
                                        votes[8] += 1;
                                    }
                                }
                            }
                        }

                        else {
                            if (x[5] <= 0.0005000000237487257) {
                                if (x[3] <= 0.012000000104308128) {
                                    if (x[0] <= 1.0084999799728394) {
                                        votes[14] += 1;
                                    }

                                    else {
                                        votes[5] += 1;
                                    }
                                }

                                else {
                                    if (x[2] <= 0.04800000041723251) {
                                        votes[3] += 1;
                                    }

                                    else {
                                        if (x[4] <= 0.0005000000237487257) {
                                            if (x[0] <= 0.9999999701976776) {
                                                if (x[1] <= 0.027000000700354576) {
                                                    if (x[1] <= 0.024500000290572643) {
                                                        if (x[8] <= 0.010999999707564712) {
                                                            if (x[0] <= 0.9805000126361847) {
                                                                votes[6] += 1;
                                                            }

                                                            else {
                                                                votes[9] += 1;
                                                            }
                                                        }

                                                        else {
                                                            votes[9] += 1;
                                                        }
                                                    }

                                                    else {
                                                        if (x[0] <= 0.9805000126361847) {
                                                            votes[6] += 1;
                                                        }

                                                        else {
                                                            if (x[8] <= 0.001500000071246177) {
                                                                if (x[2] <= 0.12450000271201134) {
                                                                    votes[6] += 1;
                                                                }

                                                                else {
                                                                    votes[9] += 1;
                                                                }
                                                            }

                                                            else {
                                                                votes[9] += 1;
                                                            }
                                                        }
                                                    }
                                                }

                                                else {
                                                    votes[10] += 1;
                                                }
                                            }

                                            else {
                                                if (x[8] <= 0.001500000071246177) {
                                                    if (x[0] <= 1.0394999980926514) {
                                                        if (x[3] <= 0.014500000048428774) {
                                                            votes[11] += 1;
                                                        }

                                                        else {
                                                            if (x[0] <= 1.031000018119812) {
                                                                if (x[1] <= 0.02650000061839819) {
                                                                    votes[8] += 1;
                                                                }

                                                                else {
                                                                    votes[11] += 1;
                                                                }
                                                            }

                                                            else {
                                                                votes[11] += 1;
                                                            }
                                                        }
                                                    }

                                                    else {
                                                        votes[8] += 1;
                                                    }
                                                }

                                                else {
                                                    votes[8] += 1;
                                                }
                                            }
                                        }

                                        else {
                                            votes[12] += 1;
                                        }
                                    }
                                }
                            }

                            else {
                                if (x[7] <= 0.010499999858438969) {
                                    if (x[7] <= 0.007500000298023224) {
                                        votes[4] += 1;
                                    }

                                    else {
                                        if (x[2] <= 0.24800000339746475) {
                                            votes[4] += 1;
                                        }

                                        else {
                                            votes[13] += 1;
                                        }
                                    }
                                }

                                else {
                                    if (x[1] <= 0.02850000001490116) {
                                        votes[13] += 1;
                                    }

                                    else {
                                        if (x[2] <= 0.24849999696016312) {
                                            votes[4] += 1;
                                        }

                                        else {
                                            votes[13] += 1;
                                        }
                                    }
                                }
                            }
                        }

                        // tree #4
                        if (x[2] <= 0.2499999925494194) {
                            if (x[1] <= 0.03349999990314245) {
                                if (x[2] <= 0.04800000041723251) {
                                    votes[3] += 1;
                                }

                                else {
                                    if (x[3] <= 0.00849999999627471) {
                                        votes[14] += 1;
                                    }

                                    else {
                                        if (x[8] <= 0.0005000000237487257) {
                                            if (x[1] <= 0.02500000037252903) {
                                                votes[0] += 1;
                                            }

                                            else {
                                                if (x[1] <= 0.027499999850988388) {
                                                    votes[8] += 1;
                                                }

                                                else {
                                                    if (x[3] <= 0.015500000212341547) {
                                                        if (x[5] <= 0.0005000000237487257) {
                                                            if (x[0] <= 0.9814999997615814) {
                                                                votes[1] += 1;
                                                            }

                                                            else {
                                                                votes[1] += 1;
                                                            }
                                                        }

                                                        else {
                                                            votes[4] += 1;
                                                        }
                                                    }

                                                    else {
                                                        votes[1] += 1;
                                                    }
                                                }
                                            }
                                        }

                                        else {
                                            if (x[4] <= 0.0005000000237487257) {
                                                if (x[5] <= 0.0005000000237487257) {
                                                    if (x[1] <= 0.02650000061839819) {
                                                        if (x[3] <= 0.012000000104308128) {
                                                            votes[5] += 1;
                                                        }

                                                        else {
                                                            if (x[2] <= 0.06649999879300594) {
                                                                votes[12] += 1;
                                                            }

                                                            else {
                                                                if (x[0] <= 0.9994999766349792) {
                                                                    if (x[0] <= 0.9805000126361847) {
                                                                        votes[6] += 1;
                                                                    }

                                                                    else {
                                                                        if (x[1] <= 0.024500000290572643) {
                                                                            votes[9] += 1;
                                                                        }

                                                                        else {
                                                                            votes[9] += 1;
                                                                        }
                                                                    }
                                                                }

                                                                else {
                                                                    if (x[0] <= 1.0264999866485596) {
                                                                        votes[8] += 1;
                                                                    }

                                                                    else {
                                                                        if (x[1] <= 0.024500000290572643) {
                                                                            votes[11] += 1;
                                                                        }

                                                                        else {
                                                                            votes[8] += 1;
                                                                        }
                                                                    }
                                                                }
                                                            }
                                                        }
                                                    }

                                                    else {
                                                        votes[11] += 1;
                                                    }
                                                }

                                                else {
                                                    votes[4] += 1;
                                                }
                                            }

                                            else {
                                                votes[12] += 1;
                                            }
                                        }
                                    }
                                }
                            }

                            else {
                                votes[2] += 1;
                            }
                        }

                        else {
                            if (x[2] <= 0.271000012755394) {
                                if (x[3] <= 0.014500000048428774) {
                                    if (x[1] <= 0.027000000700354576) {
                                        votes[9] += 1;
                                    }

                                    else {
                                        if (x[2] <= 0.2565000057220459) {
                                            if (x[5] <= 0.0005000000237487257) {
                                                votes[10] += 1;
                                            }

                                            else {
                                                votes[13] += 1;
                                            }
                                        }

                                        else {
                                            votes[13] += 1;
                                        }
                                    }
                                }

                                else {
                                    votes[7] += 1;
                                }
                            }

                            else {
                                if (x[0] <= 0.9805000126361847) {
                                    votes[10] += 1;
                                }

                                else {
                                    votes[7] += 1;
                                }
                            }
                        }

                        // tree #5
                        if (x[8] <= 0.0005000000237487257) {
                            if (x[0] <= 1.003499984741211) {
                                if (x[0] <= 0.9794999957084656) {
                                    if (x[0] <= 0.9715000092983246) {
                                        votes[13] += 1;
                                    }

                                    else {
                                        votes[10] += 1;
                                    }
                                }

                                else {
                                    if (x[1] <= 0.026499999687075615) {
                                        votes[0] += 1;
                                    }

                                    else {
                                        if (x[7] <= 0.0005000000237487257) {
                                            votes[1] += 1;
                                        }

                                        else {
                                            if (x[2] <= 0.24849999696016312) {
                                                votes[4] += 1;
                                            }

                                            else {
                                                votes[7] += 1;
                                            }
                                        }
                                    }
                                }
                            }

                            else {
                                if (x[1] <= 0.03150000050663948) {
                                    votes[8] += 1;
                                }

                                else {
                                    votes[2] += 1;
                                }
                            }
                        }

                        else {
                            if (x[6] <= 0.0005000000237487257) {
                                if (x[2] <= 0.04800000041723251) {
                                    votes[3] += 1;
                                }

                                else {
                                    if (x[4] <= 0.0005000000237487257) {
                                        if (x[9] <= 0.0005000000237487257) {
                                            if (x[2] <= 0.0669999998062849) {
                                                if (x[0] <= 0.9814999997615814) {
                                                    votes[6] += 1;
                                                }

                                                else {
                                                    votes[12] += 1;
                                                }
                                            }

                                            else {
                                                if (x[0] <= 0.9805000126361847) {
                                                    votes[6] += 1;
                                                }

                                                else {
                                                    if (x[0] <= 0.9894999861717224) {
                                                        if (x[2] <= 0.09050000086426735) {
                                                            votes[9] += 1;
                                                        }

                                                        else {
                                                            votes[9] += 1;
                                                        }
                                                    }

                                                    else {
                                                        if (x[1] <= 0.016499999910593033) {
                                                            votes[14] += 1;
                                                        }

                                                        else {
                                                            if (x[0] <= 1.0254999995231628) {
                                                                votes[8] += 1;
                                                            }

                                                            else {
                                                                if (x[0] <= 1.0335000157356262) {
                                                                    votes[11] += 1;
                                                                }

                                                                else {
                                                                    votes[11] += 1;
                                                                }
                                                            }
                                                        }
                                                    }
                                                }
                                            }
                                        }

                                        else {
                                            if (x[2] <= 0.255500003695488) {
                                                if (x[8] <= 0.004000000131782144) {
                                                    if (x[0] <= 0.9814999997615814) {
                                                        votes[4] += 1;
                                                    }

                                                    else {
                                                        votes[4] += 1;
                                                    }
                                                }

                                                else {
                                                    votes[11] += 1;
                                                }
                                            }

                                            else {
                                                if (x[0] <= 0.9709999859333038) {
                                                    votes[13] += 1;
                                                }

                                                else {
                                                    votes[13] += 1;
                                                }
                                            }
                                        }
                                    }

                                    else {
                                        votes[12] += 1;
                                    }
                                }
                            }

                            else {
                                if (x[1] <= 0.016499999910593033) {
                                    votes[14] += 1;
                                }

                                else {
                                    if (x[0] <= 1.0334999561309814) {
                                        votes[5] += 1;
                                    }

                                    else {
                                        votes[8] += 1;
                                    }
                                }
                            }
                        }

                        // tree #6
                        if (x[2] <= 0.04800000041723251) {
                            votes[3] += 1;
                        }

                        else {
                            if (x[3] <= 0.012000000104308128) {
                                if (x[0] <= 1.0084999799728394) {
                                    votes[14] += 1;
                                }

                                else {
                                    votes[5] += 1;
                                }
                            }

                            else {
                                if (x[0] <= 0.9794999957084656) {
                                    if (x[2] <= 0.271000012755394) {
                                        if (x[9] <= 0.001500000071246177) {
                                            if (x[7] <= 0.0035000001080334187) {
                                                votes[10] += 1;
                                            }

                                            else {
                                                votes[13] += 1;
                                            }
                                        }

                                        else {
                                            votes[10] += 1;
                                        }
                                    }

                                    else {
                                        votes[10] += 1;
                                    }
                                }

                                else {
                                    if (x[4] <= 0.0005000000237487257) {
                                        if (x[9] <= 0.0005000000237487257) {
                                            if (x[2] <= 0.07450000196695328) {
                                                if (x[8] <= 0.0005000000237487257) {
                                                    votes[0] += 1;
                                                }

                                                else {
                                                    if (x[8] <= 0.0020000000367872417) {
                                                        votes[6] += 1;
                                                    }

                                                    else {
                                                        votes[12] += 1;
                                                    }
                                                }
                                            }

                                            else {
                                                if (x[0] <= 1.0024999678134918) {
                                                    if (x[8] <= 0.0005000000237487257) {
                                                        if (x[0] <= 0.9814999997615814) {
                                                            if (x[3] <= 0.014500000048428774) {
                                                                votes[10] += 1;
                                                            }

                                                            else {
                                                                if (x[5] <= 0.0005000000237487257) {
                                                                    votes[7] += 1;
                                                                }

                                                                else {
                                                                    votes[4] += 1;
                                                                }
                                                            }
                                                        }

                                                        else {
                                                            if (x[5] <= 0.0005000000237487257) {
                                                                if (x[7] <= 0.0005000000237487257) {
                                                                    votes[1] += 1;
                                                                }

                                                                else {
                                                                    votes[7] += 1;
                                                                }
                                                            }

                                                            else {
                                                                votes[4] += 1;
                                                            }
                                                        }
                                                    }

                                                    else {
                                                        if (x[0] <= 0.9805000126361847) {
                                                            votes[6] += 1;
                                                        }

                                                        else {
                                                            if (x[2] <= 0.09050000086426735) {
                                                                votes[6] += 1;
                                                            }

                                                            else {
                                                                votes[9] += 1;
                                                            }
                                                        }
                                                    }
                                                }

                                                else {
                                                    if (x[8] <= 0.0005000000237487257) {
                                                        if (x[1] <= 0.03150000050663948) {
                                                            votes[8] += 1;
                                                        }

                                                        else {
                                                            votes[2] += 1;
                                                        }
                                                    }

                                                    else {
                                                        if (x[0] <= 1.018500030040741) {
                                                            votes[11] += 1;
                                                        }

                                                        else {
                                                            if (x[8] <= 0.001500000071246177) {
                                                                if (x[0] <= 1.0365000367164612) {
                                                                    if (x[2] <= 0.11549999937415123) {
                                                                        votes[8] += 1;
                                                                    }

                                                                    else {
                                                                        votes[8] += 1;
                                                                    }
                                                                }

                                                                else {
                                                                    votes[11] += 1;
                                                                }
                                                            }

                                                            else {
                                                                votes[8] += 1;
                                                            }
                                                        }
                                                    }
                                                }
                                            }
                                        }

                                        else {
                                            if (x[7] <= 0.0035000001080334187) {
                                                votes[11] += 1;
                                            }

                                            else {
                                                votes[4] += 1;
                                            }
                                        }
                                    }

                                    else {
                                        votes[12] += 1;
                                    }
                                }
                            }
                        }

                        // tree #7
                        if (x[2] <= 0.04800000041723251) {
                            votes[3] += 1;
                        }

                        else {
                            if (x[8] <= 0.0025000000605359674) {
                                if (x[7] <= 0.0005000000237487257) {
                                    if (x[1] <= 0.03349999990314245) {
                                        if (x[1] <= 0.02850000001490116) {
                                            if (x[1] <= 0.02650000061839819) {
                                                if (x[0] <= 0.9805000126361847) {
                                                    votes[6] += 1;
                                                }

                                                else {
                                                    if (x[0] <= 0.9814999997615814) {
                                                        if (x[2] <= 0.09000000171363354) {
                                                            votes[6] += 1;
                                                        }

                                                        else {
                                                            votes[9] += 1;
                                                        }
                                                    }

                                                    else {
                                                        if (x[0] <= 1.0004999935626984) {
                                                            votes[0] += 1;
                                                        }

                                                        else {
                                                            if (x[0] <= 1.0339999794960022) {
                                                                if (x[0] <= 1.0239999890327454) {
                                                                    votes[8] += 1;
                                                                }

                                                                else {
                                                                    if (x[2] <= 0.07449999824166298) {
                                                                        votes[11] += 1;
                                                                    }

                                                                    else {
                                                                        votes[8] += 1;
                                                                    }
                                                                }
                                                            }

                                                            else {
                                                                if (x[1] <= 0.025500000454485416) {
                                                                    votes[11] += 1;
                                                                }

                                                                else {
                                                                    votes[8] += 1;
                                                                }
                                                            }
                                                        }
                                                    }
                                                }
                                            }

                                            else {
                                                votes[11] += 1;
                                            }
                                        }

                                        else {
                                            votes[1] += 1;
                                        }
                                    }

                                    else {
                                        votes[2] += 1;
                                    }
                                }

                                else {
                                    if (x[2] <= 0.24800000339746475) {
                                        votes[4] += 1;
                                    }

                                    else {
                                        if (x[0] <= 0.9794999957084656) {
                                            if (x[2] <= 0.2875000089406967) {
                                                if (x[7] <= 0.015000000596046448) {
                                                    if (x[5] <= 0.0005000000237487257) {
                                                        votes[13] += 1;
                                                    }

                                                    else {
                                                        votes[13] += 1;
                                                    }
                                                }

                                                else {
                                                    votes[10] += 1;
                                                }
                                            }

                                            else {
                                                votes[10] += 1;
                                            }
                                        }

                                        else {
                                            votes[7] += 1;
                                        }
                                    }
                                }
                            }

                            else {
                                if (x[0] <= 0.9894999861717224) {
                                    if (x[0] <= 0.9814999997615814) {
                                        votes[6] += 1;
                                    }

                                    else {
                                        votes[12] += 1;
                                    }
                                }

                                else {
                                    if (x[0] <= 1.0074999928474426) {
                                        votes[14] += 1;
                                    }

                                    else {
                                        if (x[2] <= 0.1055000014603138) {
                                            votes[5] += 1;
                                        }

                                        else {
                                            votes[11] += 1;
                                        }
                                    }
                                }
                            }
                        }

                        // tree #8
                        if (x[2] <= 0.06299999915063381) {
                            if (x[8] <= 0.011500000022351742) {
                                if (x[0] <= 0.9814999997615814) {
                                    votes[3] += 1;
                                }

                                else {
                                    votes[12] += 1;
                                }
                            }

                            else {
                                if (x[0] <= 0.9814999997615814) {
                                    if (x[4] <= 0.0010000000474974513) {
                                        votes[6] += 1;
                                    }

                                    else {
                                        votes[3] += 1;
                                    }
                                }

                                else {
                                    votes[12] += 1;
                                }
                            }
                        }

                        else {
                            if (x[8] <= 0.0005000000237487257) {
                                if (x[2] <= 0.09200000017881393) {
                                    if (x[0] <= 1.0054999887943268) {
                                        votes[0] += 1;
                                    }

                                    else {
                                        votes[8] += 1;
                                    }
                                }

                                else {
                                    if (x[2] <= 0.12099999934434891) {
                                        votes[1] += 1;
                                    }

                                    else {
                                        if (x[9] <= 0.0005000000237487257) {
                                            if (x[7] <= 0.0005000000237487257) {
                                                if (x[3] <= 0.014500000048428774) {
                                                    votes[8] += 1;
                                                }

                                                else {
                                                    votes[2] += 1;
                                                }
                                            }

                                            else {
                                                if (x[1] <= 0.02850000001490116) {
                                                    if (x[0] <= 0.9710000157356262) {
                                                        votes[13] += 1;
                                                    }

                                                    else {
                                                        votes[10] += 1;
                                                    }
                                                }

                                                else {
                                                    if (x[2] <= 0.2474999949336052) {
                                                        votes[4] += 1;
                                                    }

                                                    else {
                                                        votes[7] += 1;
                                                    }
                                                }
                                            }
                                        }

                                        else {
                                            votes[13] += 1;
                                        }
                                    }
                                }
                            }

                            else {
                                if (x[7] <= 0.004000000131782144) {
                                    if (x[1] <= 0.016499999910593033) {
                                        votes[14] += 1;
                                    }

                                    else {
                                        if (x[3] <= 0.012000000104308128) {
                                            votes[5] += 1;
                                        }

                                        else {
                                            if (x[6] <= 0.0005000000237487257) {
                                                if (x[0] <= 0.9805000126361847) {
                                                    votes[6] += 1;
                                                }

                                                else {
                                                    if (x[3] <= 0.014500000048428774) {
                                                        if (x[0] <= 0.9994999766349792) {
                                                            if (x[2] <= 0.09050000086426735) {
                                                                votes[9] += 1;
                                                            }

                                                            else {
                                                                votes[9] += 1;
                                                            }
                                                        }

                                                        else {
                                                            if (x[3] <= 0.013500000350177288) {
                                                                votes[8] += 1;
                                                            }

                                                            else {
                                                                if (x[2] <= 0.19099999964237213) {
                                                                    votes[8] += 1;
                                                                }

                                                                else {
                                                                    votes[11] += 1;
                                                                }
                                                            }
                                                        }
                                                    }

                                                    else {
                                                        if (x[9] <= 0.0005000000237487257) {
                                                            if (x[8] <= 0.001500000071246177) {
                                                                if (x[1] <= 0.02650000061839819) {
                                                                    if (x[0] <= 1.0324999690055847) {
                                                                        if (x[0] <= 1.0270000100135803) {
                                                                            votes[8] += 1;
                                                                        }

                                                                        else {
                                                                            votes[8] += 1;
                                                                        }
                                                                    }

                                                                    else {
                                                                        votes[11] += 1;
                                                                    }
                                                                }

                                                                else {
                                                                    votes[11] += 1;
                                                                }
                                                            }

                                                            else {
                                                                votes[11] += 1;
                                                            }
                                                        }

                                                        else {
                                                            votes[11] += 1;
                                                        }
                                                    }
                                                }
                                            }

                                            else {
                                                votes[11] += 1;
                                            }
                                        }
                                    }
                                }

                                else {
                                    if (x[3] <= 0.014500000048428774) {
                                        votes[13] += 1;
                                    }

                                    else {
                                        if (x[5] <= 0.0005000000237487257) {
                                            votes[7] += 1;
                                        }

                                        else {
                                            votes[4] += 1;
                                        }
                                    }
                                }
                            }
                        }

                        // tree #9
                        if (x[3] <= 0.00849999999627471) {
                            votes[14] += 1;
                        }

                        else {
                            if (x[1] <= 0.03349999990314245) {
                                if (x[4] <= 0.0005000000237487257) {
                                    if (x[7] <= 0.0005000000237487257) {
                                        if (x[8] <= 0.0005000000237487257) {
                                            if (x[2] <= 0.09200000017881393) {
                                                if (x[0] <= 1.0054999887943268) {
                                                    votes[0] += 1;
                                                }

                                                else {
                                                    votes[8] += 1;
                                                }
                                            }

                                            else {
                                                if (x[3] <= 0.014500000048428774) {
                                                    votes[8] += 1;
                                                }

                                                else {
                                                    if (x[3] <= 0.015500000212341547) {
                                                        if (x[1] <= 0.027499999850988388) {
                                                            votes[8] += 1;
                                                        }

                                                        else {
                                                            votes[1] += 1;
                                                        }
                                                    }

                                                    else {
                                                        votes[1] += 1;
                                                    }
                                                }
                                            }
                                        }

                                        else {
                                            if (x[3] <= 0.012000000104308128) {
                                                votes[5] += 1;
                                            }

                                            else {
                                                if (x[0] <= 0.9999999701976776) {
                                                    if (x[8] <= 0.0025000000605359674) {
                                                        if (x[8] <= 0.001500000071246177) {
                                                            if (x[0] <= 0.9805000126361847) {
                                                                votes[6] += 1;
                                                            }

                                                            else {
                                                                if (x[1] <= 0.025500000454485416) {
                                                                    if (x[1] <= 0.024500000290572643) {
                                                                        votes[6] += 1;
                                                                    }

                                                                    else {
                                                                        votes[6] += 1;
                                                                    }
                                                                }

                                                                else {
                                                                    votes[9] += 1;
                                                                }
                                                            }
                                                        }

                                                        else {
                                                            votes[6] += 1;
                                                        }
                                                    }

                                                    else {
                                                        votes[12] += 1;
                                                    }
                                                }

                                                else {
                                                    if (x[6] <= 0.0005000000237487257) {
                                                        if (x[1] <= 0.02650000061839819) {
                                                            if (x[2] <= 0.13900000602006912) {
                                                                if (x[2] <= 0.09200000017881393) {
                                                                    votes[11] += 1;
                                                                }

                                                                else {
                                                                    votes[8] += 1;
                                                                }
                                                            }

                                                            else {
                                                                if (x[1] <= 0.024500000290572643) {
                                                                    votes[11] += 1;
                                                                }

                                                                else {
                                                                    votes[11] += 1;
                                                                }
                                                            }
                                                        }

                                                        else {
                                                            votes[11] += 1;
                                                        }
                                                    }

                                                    else {
                                                        votes[11] += 1;
                                                    }
                                                }
                                            }
                                        }
                                    }

                                    else {
                                        if (x[0] <= 0.9794999957084656) {
                                            if (x[2] <= 0.271000012755394) {
                                                if (x[9] <= 0.001500000071246177) {
                                                    if (x[1] <= 0.02850000001490116) {
                                                        if (x[0] <= 0.9710000157356262) {
                                                            votes[13] += 1;
                                                        }

                                                        else {
                                                            votes[10] += 1;
                                                        }
                                                    }

                                                    else {
                                                        votes[13] += 1;
                                                    }
                                                }

                                                else {
                                                    votes[10] += 1;
                                                }
                                            }

                                            else {
                                                votes[10] += 1;
                                            }
                                        }

                                        else {
                                            if (x[7] <= 0.003000000142492354) {
                                                if (x[3] <= 0.014500000048428774) {
                                                    votes[9] += 1;
                                                }

                                                else {
                                                    votes[7] += 1;
                                                }
                                            }

                                            else {
                                                votes[4] += 1;
                                            }
                                        }
                                    }
                                }

                                else {
                                    if (x[8] <= 0.011500000022351742) {
                                        if (x[3] <= 0.013500000350177288) {
                                            votes[12] += 1;
                                        }

                                        else {
                                            if (x[2] <= 0.05000000074505806) {
                                                votes[3] += 1;
                                            }

                                            else {
                                                votes[12] += 1;
                                            }
                                        }
                                    }

                                    else {
                                        if (x[0] <= 0.9814999997615814) {
                                            votes[3] += 1;
                                        }

                                        else {
                                            votes[12] += 1;
                                        }
                                    }
                                }
                            }

                            else {
                                votes[2] += 1;
                            }
                        }

                        // tree #10
                        if (x[1] <= 0.03349999990314245) {
                            if (x[2] <= 0.048499999567866325) {
                                votes[3] += 1;
                            }

                            else {
                                if (x[6] <= 0.0005000000237487257) {
                                    if (x[5] <= 0.0005000000237487257) {
                                        if (x[1] <= 0.027500000782310963) {
                                            if (x[8] <= 0.0005000000237487257) {
                                                if (x[0] <= 1.0069999992847443) {
                                                    votes[0] += 1;
                                                }

                                                else {
                                                    votes[8] += 1;
                                                }
                                            }

                                            else {
                                                if (x[8] <= 0.0025000000605359674) {
                                                    if (x[3] <= 0.014500000048428774) {
                                                        if (x[1] <= 0.024500000290572643) {
                                                            if (x[3] <= 0.013500000350177288) {
                                                                votes[8] += 1;
                                                            }

                                                            else {
                                                                votes[9] += 1;
                                                            }
                                                        }

                                                        else {
                                                            if (x[0] <= 0.9805000126361847) {
                                                                votes[6] += 1;
                                                            }

                                                            else {
                                                                if (x[0] <= 1.0085000097751617) {
                                                                    if (x[1] <= 0.025500000454485416) {
                                                                        if (x[2] <= 0.12450000271201134) {
                                                                            votes[6] += 1;
                                                                        }

                                                                        else {
                                                                            votes[9] += 1;
                                                                        }
                                                                    }

                                                                    else {
                                                                        votes[9] += 1;
                                                                    }
                                                                }

                                                                else {
                                                                    votes[8] += 1;
                                                                }
                                                            }
                                                        }
                                                    }

                                                    else {
                                                        if (x[2] <= 0.08150000125169754) {
                                                            votes[11] += 1;
                                                        }

                                                        else {
                                                            if (x[0] <= 1.0264999866485596) {
                                                                votes[8] += 1;
                                                            }

                                                            else {
                                                                votes[11] += 1;
                                                            }
                                                        }
                                                    }
                                                }

                                                else {
                                                    if (x[1] <= 0.016499999910593033) {
                                                        votes[14] += 1;
                                                    }

                                                    else {
                                                        if (x[2] <= 0.0669999998062849) {
                                                            votes[12] += 1;
                                                        }

                                                        else {
                                                            votes[9] += 1;
                                                        }
                                                    }
                                                }
                                            }
                                        }

                                        else {
                                            if (x[3] <= 0.014500000048428774) {
                                                if (x[0] <= 0.9715000092983246) {
                                                    votes[13] += 1;
                                                }

                                                else {
                                                    votes[10] += 1;
                                                }
                                            }

                                            else {
                                                if (x[0] <= 0.9814999997615814) {
                                                    votes[7] += 1;
                                                }

                                                else {
                                                    if (x[3] <= 0.015500000212341547) {
                                                        if (x[0] <= 0.9835000038146973) {
                                                            votes[1] += 1;
                                                        }

                                                        else {
                                                            votes[7] += 1;
                                                        }
                                                    }

                                                    else {
                                                        votes[1] += 1;
                                                    }
                                                }
                                            }
                                        }
                                    }

                                    else {
                                        if (x[3] <= 0.014500000048428774) {
                                            votes[13] += 1;
                                        }

                                        else {
                                            votes[4] += 1;
                                        }
                                    }
                                }

                                else {
                                    if (x[0] <= 1.00900000333786) {
                                        votes[14] += 1;
                                    }

                                    else {
                                        if (x[1] <= 0.02350000012665987) {
                                            votes[8] += 1;
                                        }

                                        else {
                                            if (x[1] <= 0.026000000536441803) {
                                                votes[5] += 1;
                                            }

                                            else {
                                                votes[11] += 1;
                                            }
                                        }
                                    }
                                }
                            }
                        }

                        else {
                            votes[2] += 1;
                        }

                        // tree #11
                        if (x[0] <= 0.9715000092983246) {
                            votes[13] += 1;
                        }

                        else {
                            if (x[1] <= 0.016499999910593033) {
                                votes[14] += 1;
                            }

                            else {
                                if (x[3] <= 0.012000000104308128) {
                                    votes[5] += 1;
                                }

                                else {
                                    if (x[0] <= 0.9790000021457672) {
                                        votes[10] += 1;
                                    }

                                    else {
                                        if (x[2] <= 0.04800000041723251) {
                                            votes[3] += 1;
                                        }

                                        else {
                                            if (x[2] <= 0.07450000196695328) {
                                                if (x[8] <= 0.0005000000237487257) {
                                                    if (x[1] <= 0.02500000037252903) {
                                                        votes[0] += 1;
                                                    }

                                                    else {
                                                        votes[8] += 1;
                                                    }
                                                }

                                                else {
                                                    if (x[3] <= 0.014500000048428774) {
                                                        if (x[4] <= 0.0005000000237487257) {
                                                            votes[12] += 1;
                                                        }

                                                        else {
                                                            votes[12] += 1;
                                                        }
                                                    }

                                                    else {
                                                        votes[11] += 1;
                                                    }
                                                }
                                            }

                                            else {
                                                if (x[3] <= 0.014500000048428774) {
                                                    if (x[7] <= 0.0005000000237487257) {
                                                        if (x[0] <= 0.9805000126361847) {
                                                            votes[6] += 1;
                                                        }

                                                        else {
                                                            if (x[3] <= 0.013500000350177288) {
                                                                votes[8] += 1;
                                                            }

                                                            else {
                                                                if (x[0] <= 0.9994999766349792) {
                                                                    if (x[8] <= 0.001500000071246177) {
                                                                        if (x[1] <= 0.025500000454485416) {
                                                                            votes[9] += 1;
                                                                        }

                                                                        else {
                                                                            votes[9] += 1;
                                                                        }
                                                                    }

                                                                    else {
                                                                        votes[9] += 1;
                                                                    }
                                                                }

                                                                else {
                                                                    votes[8] += 1;
                                                                }
                                                            }
                                                        }
                                                    }

                                                    else {
                                                        votes[9] += 1;
                                                    }
                                                }

                                                else {
                                                    if (x[7] <= 0.0025000000605359674) {
                                                        if (x[6] <= 0.0005000000237487257) {
                                                            if (x[7] <= 0.0005000000237487257) {
                                                                if (x[1] <= 0.02850000001490116) {
                                                                    if (x[2] <= 0.12550000101327896) {
                                                                        if (x[8] <= 0.0005000000237487257) {
                                                                            votes[8] += 1;
                                                                        }

                                                                        else {
                                                                            if (x[1] <= 0.02650000061839819) {
                                                                                votes[8] += 1;
                                                                            }

                                                                            else {
                                                                                votes[11] += 1;
                                                                            }
                                                                        }
                                                                    }

                                                                    else {
                                                                        votes[8] += 1;
                                                                    }
                                                                }

                                                                else {
                                                                    if (x[3] <= 0.015500000212341547) {
                                                                        if (x[2] <= 0.12300000339746475) {
                                                                            votes[1] += 1;
                                                                        }

                                                                        else {
                                                                            votes[2] += 1;
                                                                        }
                                                                    }

                                                                    else {
                                                                        if (x[1] <= 0.03349999990314245) {
                                                                            votes[1] += 1;
                                                                        }

                                                                        else {
                                                                            votes[2] += 1;
                                                                        }
                                                                    }
                                                                }
                                                            }

                                                            else {
                                                                votes[7] += 1;
                                                            }
                                                        }

                                                        else {
                                                            votes[11] += 1;
                                                        }
                                                    }

                                                    else {
                                                        votes[4] += 1;
                                                    }
                                                }
                                            }
                                        }
                                    }
                                }
                            }
                        }

                        // tree #12
                        if (x[1] <= 0.016499999910593033) {
                            votes[14] += 1;
                        }

                        else {
                            if (x[4] <= 0.0005000000237487257) {
                                if (x[1] <= 0.03349999990314245) {
                                    if (x[1] <= 0.02850000001490116) {
                                        if (x[2] <= 0.2539999932050705) {
                                            if (x[8] <= 0.0005000000237487257) {
                                                if (x[3] <= 0.014500000048428774) {
                                                    votes[0] += 1;
                                                }

                                                else {
                                                    votes[8] += 1;
                                                }
                                            }

                                            else {
                                                if (x[3] <= 0.012000000104308128) {
                                                    votes[5] += 1;
                                                }

                                                else {
                                                    if (x[1] <= 0.02650000061839819) {
                                                        if (x[0] <= 0.9999999701976776) {
                                                            if (x[0] <= 0.9805000126361847) {
                                                                votes[6] += 1;
                                                            }

                                                            else {
                                                                if (x[2] <= 0.0669999998062849) {
                                                                    votes[12] += 1;
                                                                }

                                                                else {
                                                                    if (x[2] <= 0.08100000023841858) {
